{"learner":{"attributes":{"scikit_learn":"{\"_estimator_type\": \"classifier\"}"},"feature_names":[],"feature_types":[],"gradient_booster":{"model":{"cats":{"enc":[],"feature_segments":[],"sorted_idx":[]},"gbtree_model_param":{"num_parallel_tree":"1","num_trees":"300"},"iteration_indptr":[0,1,2,3,4,5,6,7,8,9,10,11,12,13,14,15,16,17,18,19,20,21,22,23,24,25,26,27,28,29,30,31,32,33,34,35,36,37,38,39,40,41,42,43,44,45,46,47,48,49,50,51,52,53,54,55,56,57,58,59,60,61,62,63,64,65,66,67,68,69,70,71,72,73,74,75,76,77,78,79,80,81,82,83,84,85,86,87,88,89,90,91,92,93,94,95,96,97,98,99,100,101,102,103,104,105,106,107,108,109,110,111,112,113,114,115,116,117,118,119,120,121,122,123,124,125,126,127,128,129,130,131,132,133,134,135,136,137,138,139,140,141,142,143,144,145,146,147,148,149,150,151,152,153,154,155,156,157,158,159,160,161,162,163,164,165,166,167,168,169,170,171,172,173,174,175,176,177,178,179,180,181,182,183,184,185,186,187,188,189,190,191,192,193,194,195,196,197,198,199,200,201,202,203,204,205,206,207,208,209,210,211,212,213,214,215,216,217,218,219,220,221,222,223,224,225,226,227,228,229,230,231,232,233,234,235,236,237,238,239,240,241,242,243,244,245,246,247,248,249,250,251,252,253,254,255,256,257,258,259,260,261,262,263,264,265,266,267,268,269,270,271,272,273,274,275,276,277,278,279,280,281,282,283,284,285,286,287,288,289,290,291,292,293,294,295,296,297,298,299,300],"tree_info":[0,0,0,0,0,0,0,0,0,0,0,0,0,0,0,0,0,0,0,0,0,0,0,0,0,0,0,0,0,0,0,0,0,0,0,0,0,0,0,0,0,0,0,0,0,0,0,0,0,0,0,0,0,0,0,0,0,0,0,0,0,0,0,0,0,0,0,0,0,0,0,0,0,0,0,0,0,0,0,0,0,0,0,0,0,0,0,0,0,0,0,0,0,0,0,0,0,0,0,0,0,0,0,0,0,0,0,0,0,0,0,0,0,0,0,0,0,0,0,0,0,0,0,0,0,0,0,0,0,0,0,0,0,0,0,0,0,0,0,0,0,0,0,0,0,0,0,0,0,0,0,0,0,0,0,0,0,0,0,0,0,0,0,0,0,0,0,0,0,0,0,0,0,0,0,0,0,0,0,0,0,0,0,0,0,0,0,0,0,0,0,0,0,0,0,0,0,0,0,0,0,0,0,0,0,0,0,0,0,0,0,0,0,0,0,0,0,0,0,0,0,0,0,0,0,0,0,0,0,0,0,0,0,0,0,0,0,0,0,0,0,0,0,0,0,0,0,0,0,0,0,0,0,0,0,0,0,0,0,0,0,0,0,0,0,0,0,0,0,0,0,0,0,0,0,0,0,0,0,0,0,0,0,0,0,0,0,0,0,0,0,0,0,0,0,0,0,0,0,0],"trees":[{"base_weights":[2.3887707E-3,-1.5140893E0,6.300771E-1,-1.6529802E0,-6.587224E-1,6.9844455E-1,-1.3661188E0,-1.335635E0,-1.7932718E0,-3.2622826E-1,-1.4052019E0,4.2908826E-1,1.0092521E0,-1.5409527E0,-9.758961E-1,-4.0734014E-1,-1.4164464E0,-1.8312476E0,-1.3339932E0,-2.6577583E-1,-1.6791242E0,-9.934707E-1,-1.6697111E0,1.4234759E0,3.3581373E-1,7.235857E-1,1.2335091E0,-1.6600277E0,-1.2347687E0,-8.18963E-1,-1.7748411E0,-2.0566103E-3,-4.447503E-2,-6.165074E-2,-8.061126E-2,-8.5458E-2,-9.527097E-2,-4.5882426E-2,-7.9548925E-2,7.0906873E-3,-2.1500962E-2,-8.701436E-2,3.65598E-2,-5.5886816E-2,6.6292696E-3,-4.9249403E-2,-8.765892E-2,-8.645006E-2,7.235503E-2,3.3078496E-3,3.1659186E-2,-3.229273E-2,4.5640122E-2,-2.0131316E-2,6.2500715E-2,2.5986437E-2,-8.345886E-2,-9.836066E-2,-5.4428726E-2,-6.131999E-2,-2.6378313E-2,-9.182173E-2,-1.2185938E-2],"categories":[],"categories_nodes":[],"categories_segments":[],"categories_sizes":[],"default_left":[0,0,0,0,0,0,0,0,0,0,0,0,0,0,0,0,0,0,0,0,0,0,0,0,0,0,0,0,0,0,0,0,0,0,0,0,0,0,0,0,0,0,0,0,0,0,0,0,0,0,0,0,0,0,0,0,0,0,0,0,0,0,0],"id":0,"left_children":[1,3,5,7,9,11,13,15,17,19,21,23,25,27,29,31,33,35,37,39,41,43,45,47,49,51,53,55,57,59,61,-1,-1,-1,-1,-1,-1,-1,-1,-1,-1,-1,-1,-1,-1,-1,-1,-1,-1,-1,-1,-1,-1,-1,-1,-1,-1,-1,-1,-1,-1,-1,-1],"loss_changes":[7.788792E4,2.8446953E3,7.899E3,9.150469E2,8.30478E2,4.6841016E3,1.2926465E2,4.7361523E2,2.4673828E2,1.8909128E2,1.10663574E2,2.7800845E3,1.6633496E3,4.6147705E1,7.3246765E1,8.959336E1,2.0682422E2,1.1621094E2,1.15676025E2,1.4864621E2,1.5857971E1,5.6943542E1,3.4077515E1,1.939497E2,2.1978418E3,2.9616475E3,3.9347852E2,1.9791748E1,3.791266E1,5.8695587E1,8.696228E0,0E0,0E0,0E0,0E0,0E0,0E0,0E0,0E0,0E0,0E0,0E0,0E0,0E0,0E0,0E0,0E0,0E0,0E0,0E0,0E0,0E0,0E0,0E0,0E0,0E0,0E0,0E0,0E0,0E0,0E0,0E0,0E0],"parents":[2147483647,0,0,1,1,2,2,3,3,4,4,5,5,6,6,7,7,8,8,9,9,10,10,11,11,12,12,13,13,14,14,15,15,16,16,17,17,18,18,19,19,20,20,21,21,22,22,23,23,24,24,25,25,26,26,27,27,28,28,29,29,30,30],"right_children":[2,4,6,8,10,12,14,16,18,20,22,24,26,28,30,32,34,36,38,40,42,44,46,48,50,52,54,56,58,60,62,-1,-1,-1,-1,-1,-1,-1,-1,-1,-1,-1,-1,-1,-1,-1,-1,-1,-1,-1,-1,-1,-1,-1,-1,-1,-1,-1,-1,-1,-1,-1,-1],"split_conditions":[2E0,1E0,2E0,4.0816326E-2,5.5045873E-2,5E0,4E0,1E0,1E0,2E0,7.45E0,1E0,4E0,2.25E1,4E0,8.05E0,2.3364396E-1,8.95E0,2.8635643E0,4.217536E-2,4.0816326E-2,8.6E1,4.6632126E-2,5.386687E-1,3E0,1.754386E-2,3.773585E-2,2.177928E-1,1.8102033E-1,4E0,5E-1,-2.0566103E-3,-4.447503E-2,-6.165074E-2,-8.061126E-2,-8.5458E-2,-9.527097E-2,-4.5882426E-2,-7.9548925E-2,7.0906873E-3,-2.1500962E-2,-8.701436E-2,3.65598E-2,-5.5886816E-2,6.6292696E-3,-4.9249403E-2,-8.765892E-2,-8.645006E-2,7.235503E-2,3.3078496E-3,3.1659186E-2,-3.229273E-2,4.5640122E-2,-2.0131316E-2,6.2500715E-2,2.5986437E-2,-8.345886E-2,-9.836066E-2,-5.4428726E-2,-6.131999E-2,-2.6378313E-2,-9.182173E-2,-1.2185938E-2],"split_indices":[85,101,98,119,119,151,152,151,153,98,82,151,152,54,98,82,33,82,30,111,112,122,111,23,151,21,106,13,23,4,63,0,0,0,0,0,0,0,0,0,0,0,0,0,0,0,0,0,0,0,0,0,0,0,0,0,0,0,0,0,0,0,0],"split_type":[0,0,0,0,0,0,0,0,0,0,0,0,0,0,0,0,0,0,0,0,0,0,0,0,0,0,0,0,0,0,0,0,0,0,0,0,0,0,0,0,0,0,0,0,0,0,0,0,0,0,0,0,0,0,0,0,0,0,0,0,0,0,0],"sum_hessian":[8.182373E4,2.395286E4,5.787087E4,2.060601E4,3.3468486E3,5.5955125E4,1.9157476E3,6.3201353E3,1.4285875E4,2.3164854E3,1.0303632E3,2.997777E4,2.5977355E4,1.3209607E3,5.947869E2,5.0661417E2,5.813521E3,1.3192092E4,1.0937833E3,2.2185488E3,9.793659E1,4.048834E2,6.2547986E2,2.5695776E3,2.7408191E4,1.1426324E4,1.455103E4,9.478999E2,3.7306073E2,4.988292E2,9.5957726E1,2.885452E2,2.18069E2,3.0051724E3,2.8083486E3,4.99474E3,8.197352E3,4.1920142E2,6.7458185E2,6.372568E2,1.581292E3,9.578401E1,2.1525753E0,3.646499E2,4.023348E1,6.935204E1,5.561278E2,1.8576288E1,2.5510015E3,1.43745205E4,1.3033671E4,1.3868314E3,1.0039493E4,1.4509013E2,1.440594E4,3.7288628E0,9.44171E2,6E1,3.1306073E2,2.066618E2,2.921674E2,9.205515E1,3.9025753E0],"tree_param":{"num_deleted":"0","num_feature":"203","num_nodes":"63","size_leaf_vector":"1"}},{"base_weights":[1.8682358E-3,-1.4500501E0,5.979623E-1,-1.5793899E0,-6.463737E-1,6.6267735E-1,-1.2956935E0,3.364878E-1,-1.6007856E0,-2.1423341E-1,-1.1873678E0,4.0363327E-1,9.603577E-1,-8.542525E-1,-1.4238933E0,4.8087013E-1,-1.2965119E0,-1.3573558E0,-1.7174789E0,-1.0352379E-1,-1.1056334E0,-8.836078E-1,-1.6237177E0,1.3411145E0,3.1629035E-1,9.8240155E-1,-1.0763113E-1,-4.3807212E-1,-1.2804637E0,-1.5716312E0,-1.1370428E0,2.9150505E-2,-8.653364E-2,5.261026E-2,-9.037716E-2,-7.1300805E-2,-2.6383663E-2,-8.7793164E-2,-6.270666E-2,-2.4803453E-3,-8.487208E-2,-7.389952E-2,-3.2922115E-2,-3.2332297E-2,-6.817561E-2,-5.895524E-2,-8.6153045E-2,-7.566609E-2,6.821998E-2,2.7929964E-3,3.015223E-2,5.134284E-2,2.5994826E-2,1.8301912E-2,-2.2460546E-2,-4.4499964E-2,5.8523705E-3,-6.761082E-2,2.8215809E-2,-5.746284E-2,-8.21837E-2,-4.54618E-2,-8.5141934E-2],"categories":[],"categories_nodes":[],"categories_segments":[],"categories_sizes":[],"default_left":[0,0,0,0,0,0,0,0,0,0,0,0,0,0,0,0,0,0,0,0,0,0,0,0,0,0,0,0,0,0,0,0,0,0,0,0,0,0,0,0,0,0,0,0,0,0,0,0,0,0,0,0,0,0,0,0,0,0,0,0,0,0,0],"id":1,"left_children":[1,3,5,7,9,11,13,15,17,19,21,23,25,27,29,31,33,35,37,39,41,43,45,47,49,51,53,55,57,59,61,-1,-1,-1,-1,-1,-1,-1,-1,-1,-1,-1,-1,-1,-1,-1,-1,-1,-1,-1,-1,-1,-1,-1,-1,-1,-1,-1,-1,-1,-1,-1,-1],"loss_changes":[7.067599E4,2.469625E3,7.095504E3,8.397461E2,7.7043726E2,4.3163926E3,1.07069824E2,5.412841E1,5.728125E2,1.8086531E2,1.9257129E2,2.4506753E3,6.133164E2,7.6266815E1,6.098877E1,4.827042E1,2.4352757E1,3.732578E2,2.4114453E2,1.4020163E2,3.2745712E1,9.750232E1,2.4449707E1,1.7161523E2,2.0450264E3,5.241836E2,8.5536064E1,5.5462063E1,2.9018738E1,2.7782715E1,6.382361E1,0E0,0E0,0E0,0E0,0E0,0E0,0E0,0E0,0E0,0E0,0E0,0E0,0E0,0E0,0E0,0E0,0E0,0E0,0E0,0E0,0E0,0E0,0E0,0E0,0E0,0E0,0E0,0E0,0E0,0E0,0E0,0E0],"parents":[2147483647,0,0,1,1,2,2,3,3,4,4,5,5,6,6,7,7,8,8,9,9,10,10,11,11,12,12,13,13,14,14,15,15,16,16,17,17,18,18,19,19,20,20,21,21,22,22,23,23,24,24,25,25,26,26,27,27,28,28,29,29,30,30],"right_children":[2,4,6,8,10,12,14,16,18,20,22,24,26,28,30,32,34,36,38,40,42,44,46,48,50,52,54,56,58,60,62,-1,-1,-1,-1,-1,-1,-1,-1,-1,-1,-1,-1,-1,-1,-1,-1,-1,-1,-1,-1,-1,-1,-1,-1,-1,-1,-1,-1,-1,-1,-1,-1],"split_conditions":[2E0,1E0,2E0,7.518797E-3,2.7522936E-2,5E0,7.364076E-1,4.01E2,4.511278E-2,2.462908E-1,8.55E0,1E0,2.166065E-1,9.917355E-2,9.74E1,3E0,5.4E1,1E0,1E0,3E0,4.85E1,2.3966943E-1,4.8780486E-2,5.386687E-1,3E0,1.07E2,1.813E1,1.7043478E2,7.1480143E-1,3E0,4E0,2.9150505E-2,-8.653364E-2,5.261026E-2,-9.037716E-2,-7.1300805E-2,-2.6383663E-2,-8.7793164E-2,-6.270666E-2,-2.4803453E-3,-8.487208E-2,-7.389952E-2,-3.2922115E-2,-3.2332297E-2,-6.817561E-2,-5.895524E-2,-8.6153045E-2,-7.566609E-2,6.821998E-2,2.7929964E-3,3.015223E-2,5.134284E-2,2.5994826E-2,1.8301912E-2,-2.2460546E-2,-4.4499964E-2,5.8523705E-3,-6.761082E-2,2.8215809E-2,-5.746284E-2,-8.21837E-2,-4.54618E-2,-8.5141934E-2],"split_indices":[85,101,98,103,119,151,33,65,119,103,82,151,103,108,45,98,192,153,153,98,135,103,111,23,151,81,2,12,121,98,98,0,0,0,0,0,0,0,0,0,0,0,0,0,0,0,0,0,0,0,0,0,0,0,0,0,0,0,0,0,0,0,0],"split_type":[0,0,0,0,0,0,0,0,0,0,0,0,0,0,0,0,0,0,0,0,0,0,0,0,0,0,0,0,0,0,0,0,0,0,0,0,0,0,0,0,0,0,0,0,0,0,0,0,0,0,0,0,0,0,0,0,0,0,0,0,0,0,0],"sum_hessian":[8.165903E4,2.3767246E4,5.7891785E4,2.0471668E4,3.2955774E3,5.5979363E4,1.9124253E3,2.25931E2,2.0245736E4,1.8328846E3,1.4626927E3,2.9933404E4,2.6045957E4,4.3212354E2,1.4803018E3,2.0822614E2,1.7704866E1,6.5644673E3,1.368127E4,1.6313867E3,2.0149797E2,8.6414984E2,5.9854297E2,2.5499177E3,2.7383488E4,2.5519307E4,5.2665027E2,2.1966049E2,2.1246303E2,9.741188E2,5.0618298E2,1.9973766E2,8.488487E0,2.974585E0,1.4730282E1,6.062081E3,5.0238593E2,1.2632024E4,1.049245E3,1.5790054E3,5.2381325E1,1.0869075E2,9.280723E1,5.800745E2,2.840753E2,1.1166268E2,4.8688028E2,2.011497E1,2.5298027E3,1.4351048E4,1.3032439E4,2.3280408E4,2.2388977E3,2.2063026E2,3.0602002E2,1.2075205E2,9.890845E1,2.0476566E2,7.69736E0,1.4441158E2,8.297072E2,3.6273984E2,1.4344315E2],"tree_param":{"num_deleted":"0","num_feature":"203","num_nodes":"63","size_leaf_vector":"1"}},{"base_weights":[-1.1140172E-3,-1.3787981E0,5.635919E-1,-1.5054054E0,-6.003491E-1,3.316028E-1,9.0235287E-1,-1.0113825E0,-1.5789485E0,-1.9464852E-1,-1.1068586E0,-9.7139513E-1,4.125298E-1,5.8872926E-1,1.0857472E0,-7.284209E-1,-1.4094822E0,-1.6151352E0,-1.128071E0,-9.149749E-2,-8.7877786E-1,-8.383483E-1,-1.5277258E0,-1.8339065E0,-8.0666023E-1,-2.976102E-2,5.98455E-1,7.797278E-1,2.2010171E-1,1.111317E0,-4.4127572E-2,7.7717616E-3,-4.3158572E-2,-1.826138E-2,-7.3195875E-2,-7.223036E-2,-8.522785E-2,-3.6249876E-2,-7.160484E-2,1.7891428E-2,-1.1958659E-2,2.1597387E-3,-5.4844912E-2,-9.867391E-3,-4.6796486E-2,8.921733E-3,-7.810733E-2,-9.405339E-2,-2.9261438E-2,2.2635942E-2,-4.6835486E-2,9.989019E-3,-1.690764E-2,3.9052486E-2,1.16927195E-2,1.2771018E-2,4.3197557E-2,1.7142152E-2,-2.4127511E-2,-4.33259E-2,5.6111652E-2,-5.0746657E-2,9.96154E-3],"categories":[],"categories_nodes":[],"categories_segments":[],"categories_sizes":[],"default_left":[0,0,0,0,0,0,0,0,0,0,0,0,0,0,0,0,0,0,0,0,0,0,0,0,0,0,0,0,0,0,0,0,0,0,0,0,0,0,0,0,0,0,0,0,0,0,0,0,0,0,0,0,0,0,0,0,0,0,0,0,0,0,0],"id":2,"left_children":[1,3,5,7,9,11,13,15,17,19,21,23,25,27,29,31,33,35,37,39,41,43,45,47,49,51,53,55,57,59,61,-1,-1,-1,-1,-1,-1,-1,-1,-1,-1,-1,-1,-1,-1,-1,-1,-1,-1,-1,-1,-1,-1,-1,-1,-1,-1,-1,-1,-1,-1,-1,-1],"loss_changes":[6.335804E4,2.3325742E3,4.5391562E3,7.382539E2,6.8072656E2,3.615726E3,1.3497188E3,2.9652222E2,2.8734766E2,1.2984908E2,1.6524109E2,2.834297E2,2.6546064E3,6.099197E2,4.2801953E2,1.8427008E2,6.178784E1,2.476836E2,1.6072986E2,1.0632316E2,4.8536575E1,5.6224182E1,3.391333E1,1.778955E1,2.7646375E2,6.764423E2,1.5128774E3,2.5181152E2,2.5534435E2,3.137168E2,7.787802E1,0E0,0E0,0E0,0E0,0E0,0E0,0E0,0E0,0E0,0E0,0E0,0E0,0E0,0E0,0E0,0E0,0E0,0E0,0E0,0E0,0E0,0E0,0E0,0E0,0E0,0E0,0E0,0E0,0E0,0E0,0E0,0E0],"parents":[2147483647,0,0,1,1,2,2,3,3,4,4,5,5,6,6,7,7,8,8,9,9,10,10,11,11,12,12,13,13,14,14,15,15,16,16,17,17,18,18,19,19,20,20,21,21,22,22,23,23,24,24,25,25,26,26,27,27,28,28,29,29,30,30],"right_children":[2,4,6,8,10,12,14,16,18,20,22,24,26,28,30,32,34,36,38,40,42,44,46,48,50,52,54,56,58,60,62,-1,-1,-1,-1,-1,-1,-1,-1,-1,-1,-1,-1,-1,-1,-1,-1,-1,-1,-1,-1,-1,-1,-1,-1,-1,-1,-1,-1,-1,-1,-1,-1],"split_conditions":[2E0,1E0,4E0,1.0362694E-2,2.7522936E-2,1.3483997E-1,5E0,1.9359225E-1,1E0,7.905139E-3,1.0138249E-1,2E0,1E1,6.6249764E-1,2.46875E0,1E0,1.4913794E1,4.8034936E-2,2E0,4.109589E-2,2.2597402E-1,4.347826E-2,7.837838E-1,5.388159E-1,3.5E0,1E0,1E0,3.2786883E-2,2.289256E0,2.8E-1,4.990109E-1,7.7717616E-3,-4.3158572E-2,-1.826138E-2,-7.3195875E-2,-7.223036E-2,-8.522785E-2,-3.6249876E-2,-7.160484E-2,1.7891428E-2,-1.1958659E-2,2.1597387E-3,-5.4844912E-2,-9.867391E-3,-4.6796486E-2,8.921733E-3,-7.810733E-2,-9.405339E-2,-2.9261438E-2,2.2635942E-2,-4.6835486E-2,9.989019E-3,-1.690764E-2,3.9052486E-2,1.16927195E-2,1.2771018E-2,4.3197557E-2,1.7142152E-2,-2.4127511E-2,-4.33259E-2,5.6111652E-2,-5.0746657E-2,9.96154E-3],"split_indices":[85,101,152,119,119,23,151,33,153,117,119,151,54,33,17,151,143,108,77,111,107,111,120,41,64,101,101,21,17,102,37,0,0,0,0,0,0,0,0,0,0,0,0,0,0,0,0,0,0,0,0,0,0,0,0,0,0,0,0,0,0,0,0],"split_type":[0,0,0,0,0,0,0,0,0,0,0,0,0,0,0,0,0,0,0,0,0,0,0,0,0,0,0,0,0,0,0,0,0,0,0,0,0,0,0,0,0,0,0,0,0,0,0,0,0,0,0,0,0,0,0,0,0,0,0,0,0,0,0],"sum_hessian":[8.143649E4,2.3675398E4,5.7761098E4,2.036267E4,3.3127285E3,3.4284492E4,2.3476605E4,2.6404297E3,1.772224E4,1.8401786E3,1.4725499E3,2.0041912E3,3.2280303E4,8.66417E3,1.4812435E4,1.5450605E3,1.0953691E3,1.6403166E4,1.3190728E3,1.6000599E3,2.4011864E2,9.008233E2,5.717266E2,3.1977826E2,1.6844128E3,9.553844E3,2.2726457E4,5.7063823E3,2.9577874E3,1.4484653E4,3.2778146E2,2.0437431E2,1.3406863E3,5.4652664E1,1.0407166E3,5.64853E3,1.0754637E4,5.6860645E2,7.5046625E2,3.954424E2,1.2046176E3,4.609246E1,1.9402618E2,1.19416E2,7.814073E2,1.1223378E1,5.6050323E2,3.076521E2,1.2126143E1,1.574275E2,1.5269854E3,5.477326E3,4.0765178E3,1.514206E4,7.5843984E3,7.903468E2,4.9160356E3,2.518381E3,4.3940616E2,7.907375E1,1.440558E4,6.5062706E1,2.6271875E2],"tree_param":{"num_deleted":"0","num_feature":"203","num_nodes":"63","size_leaf_vector":"1"}},{"base_weights":[3.8360923E-3,-6.1558974E-1,5.437626E-1,-1.1347413E0,-1.8189442E-1,6.335513E-1,-1.3048494E0,-1.3012042E0,-3.4121168E-1,1.0738972E0,-3.7834746E-1,-1.48328E0,6.915229E-1,-1.54323E0,-9.657004E-1,-1.0697724E0,-1.5481485E0,-8.273271E-1,6.01135E-2,1.1530215E0,-1.0499731E0,-7.750151E-2,-1.0472413E0,6.737854E-1,-1.4989125E0,4.459122E-1,9.2685497E-1,-1.5723591E0,-8.2917964E-1,-8.073352E-1,-1.570603E0,-4.5228366E-2,-6.8442136E-2,-5.9949156E-2,-8.051337E-2,-5.6411978E-2,-2.1589527E-2,9.079652E-3,-7.557104E-2,6.452848E-2,3.7104227E-2,3.3550642E-2,-6.384871E-2,2.6232653E-4,-8.156529E-2,-4.088816E-2,-7.415903E-2,9.0073295E-2,-6.536614E-2,-5.030643E-2,-7.808655E-2,-4.26175E-2,2.8795732E-2,3.0249566E-2,5.2815683E-2,-7.093465E-2,-8.479442E-2,4.852134E-2,-5.431924E-2,-6.5261394E-2,-3.054334E-2,2.5243057E-2,-8.113109E-2],"categories":[],"categories_nodes":[],"categories_segments":[],"categories_sizes":[],"default_left":[0,0,0,0,0,0,0,0,0,0,0,0,0,0,0,0,0,0,0,0,0,0,0,0,0,0,0,0,0,0,0,0,0,0,0,0,0,0,0,0,0,0,0,0,0,0,0,0,0,0,0,0,0,0,0,0,0,0,0,0,0,0,0],"id":3,"left_children":[1,3,5,7,9,11,13,15,17,19,21,23,25,27,29,31,33,35,37,39,41,43,45,47,49,51,53,55,57,59,61,-1,-1,-1,-1,-1,-1,-1,-1,-1,-1,-1,-1,-1,-1,-1,-1,-1,-1,-1,-1,-1,-1,-1,-1,-1,-1,-1,-1,-1,-1,-1,-1],"loss_changes":[2.7154816E4,8.513545E3,7.2013525E3,2.2729766E3,5.083342E3,5.0780312E3,1.6099243E2,8.1137305E2,5.8253064E2,4.6963013E2,3.5853018E3,3.8208008E1,2.3271855E3,2.3209229E1,7.845514E1,3.617578E2,1.4729688E2,1.6022626E2,3.1268134E2,1.5096436E2,4.0172333E1,1.5802678E3,5.5173535E2,2.1628082E1,3.234082E1,3.3265022E3,8.562344E2,1.9067383E1,2.3414879E1,6.3921234E1,1.9347229E1,0E0,0E0,0E0,0E0,0E0,0E0,0E0,0E0,0E0,0E0,0E0,0E0,0E0,0E0,0E0,0E0,0E0,0E0,0E0,0E0,0E0,0E0,0E0,0E0,0E0,0E0,0E0,0E0,0E0,0E0,0E0,0E0],"parents":[2147483647,0,0,1,1,2,2,3,3,4,4,5,5,6,6,7,7,8,8,9,9,10,10,11,11,12,12,13,13,14,14,15,15,16,16,17,17,18,18,19,19,20,20,21,21,22,22,23,23,24,24,25,25,26,26,27,27,28,28,29,29,30,30],"right_children":[2,4,6,8,10,12,14,16,18,20,22,24,26,28,30,32,34,36,38,40,42,44,46,48,50,52,54,56,58,60,62,-1,-1,-1,-1,-1,-1,-1,-1,-1,-1,-1,-1,-1,-1,-1,-1,-1,-1,-1,-1,-1,-1,-1,-1,-1,-1,-1,-1,-1,-1,-1,-1],"split_conditions":[3E0,6.9392973E-1,2E0,7.777778E-1,1E0,3E0,1.5E0,8.233334E0,2E0,2E0,8.05E0,5.6565216E1,4E0,1.6035675E0,4E0,8.2474224E-2,4.733728E-2,3E0,3E0,3E1,2.4223546E-2,3E0,1.2333333E1,1.8629269E1,4.472136E-2,1.754386E-2,5E0,9.633333E0,6.74E1,9.75E1,1.18E2,-4.5228366E-2,-6.8442136E-2,-5.9949156E-2,-8.051337E-2,-5.6411978E-2,-2.1589527E-2,9.079652E-3,-7.557104E-2,6.452848E-2,3.7104227E-2,3.3550642E-2,-6.384871E-2,2.6232653E-4,-8.156529E-2,-4.088816E-2,-7.415903E-2,9.0073295E-2,-6.536614E-2,-5.030643E-2,-7.808655E-2,-4.26175E-2,2.8795732E-2,3.0249566E-2,5.2815683E-2,-7.093465E-2,-8.479442E-2,4.852134E-2,-5.431924E-2,-6.5261394E-2,-3.054334E-2,2.5243057E-2,-8.113109E-2],"split_indices":[151,23,98,21,151,64,46,82,152,98,82,140,152,23,98,109,111,150,46,71,55,98,82,2,25,21,151,1,131,84,185,0,0,0,0,0,0,0,0,0,0,0,0,0,0,0,0,0,0,0,0,0,0,0,0,0,0,0,0,0,0,0,0],"split_type":[0,0,0,0,0,0,0,0,0,0,0,0,0,0,0,0,0,0,0,0,0,0,0,0,0,0,0,0,0,0,0,0,0,0,0,0,0,0,0,0,0,0,0,0,0,0,0,0,0,0,0,0,0,0,0,0,0,0,0,0,0,0,0],"sum_hessian":[8.1191805E4,3.781209E4,4.337972E4,1.7209717E4,2.0602373E4,4.137095E4,2.008766E3,1.4225019E4,2.9846987E3,2.7863906E3,1.7815982E4,1.1021298E3,4.026882E4,1.1775444E3,8.312216E2,7.3459004E3,6.879118E3,1.3492833E3,1.6354154E3,2.6867534E3,9.963709E1,1.2289635E4,5.526347E3,7.626899E0,1.0945028E3,1.9705518E4,2.0563303E4,1.1302356E3,4.730885E1,6.606074E2,1.7061417E2,4.7345713E3,2.6113289E3,1.0420632E3,5.837055E3,7.6525073E2,5.840326E2,1.5188898E3,1.16525665E2,2.0113702E3,6.7538324E2,1.1382889E1,8.82542E1,1.16691875E4,6.2044745E2,3.6223965E3,1.903951E3,4.9181066E0,2.7087922E0,1.2567231E2,9.688305E2,1.7931145E3,1.7912402E4,5.900066E3,1.4663238E4,5.0924167E2,6.209939E2,5.5692306E0,4.173962E1,1.8532108E2,4.7528638E2,3.9588156E0,1.6665535E2],"tree_param":{"num_deleted":"0","num_feature":"203","num_nodes":"63","size_leaf_vector":"1"}},{"base_weights":[-5.7085033E-4,-1.2824093E0,5.1922613E-1,-1.4039096E0,-5.4238594E-1,5.7839096E-1,-1.2115132E0,-1.1274005E0,-1.526055E0,-2.4764442E-1,-1.2148374E0,3.543428E-1,8.381901E-1,-7.9701275E-1,-1.334611E0,3.8514268E-1,-1.1790373E0,-1.560574E0,-1.1107668E0,-1.418279E-1,-1.0429285E0,-8.4858763E-1,-1.4547457E0,1.2114617E0,2.742014E-1,8.5584515E-1,-2.1429095E-1,-4.6063593E-1,-1.2537135E0,-8.213226E-1,-1.3967963E0,2.467594E-2,-6.9976926E-2,-6.2327307E-2,-1.9564152E-2,-2.3537314E-2,-7.846808E-2,-2.6220456E-2,-6.6063605E-2,-4.5171715E-3,-7.463055E-2,-5.680556E-2,5.5112783E-3,-2.4322478E-2,-5.9290368E-2,-4.3950085E-2,-7.766339E-2,-7.5567365E-2,6.1555754E-2,-2.1261103E-3,2.2863252E-2,4.4790905E-2,2.224358E-2,-2.87751E-3,-6.245048E-2,-5.2609842E-2,-9.475111E-3,-6.7748554E-2,5.04614E-2,4.876869E-2,-4.741475E-2,-7.921433E-2,-6.239381E-2],"categories":[],"categories_nodes":[],"categories_segments":[],"categories_sizes":[],"default_left":[0,0,0,0,0,0,0,0,0,0,0,0,0,0,0,0,0,0,0,0,0,0,0,0,0,0,0,0,0,0,0,0,0,0,0,0,0,0,0,0,0,0,0,0,0,0,0,0,0,0,0,0,0,0,0,0,0,0,0,0,0,0,0],"id":4,"left_children":[1,3,5,7,9,11,13,15,17,19,21,23,25,27,29,31,33,35,37,39,41,43,45,47,49,51,53,55,57,59,61,-1,-1,-1,-1,-1,-1,-1,-1,-1,-1,-1,-1,-1,-1,-1,-1,-1,-1,-1,-1,-1,-1,-1,-1,-1,-1,-1,-1,-1,-1,-1,-1],"loss_changes":[5.398417E4,2.1010234E3,5.903545E3,6.7641797E2,6.5342114E2,3.2442344E3,9.6177246E1,4.812378E2,1.9786719E2,1.9293869E2,8.705945E1,2.055679E3,4.7978125E2,6.6842316E1,4.5707275E1,4.0141594E1,3.1608398E2,1.2234961E2,1.3162598E2,1.407731E2,2.9060364E1,4.828476E1,3.2995117E1,1.3880103E2,1.5871455E3,4.166172E2,6.91181E1,4.058904E1,4.3886536E1,3.766532E1,3.454004E1,0E0,0E0,0E0,0E0,0E0,0E0,0E0,0E0,0E0,0E0,0E0,0E0,0E0,0E0,0E0,0E0,0E0,0E0,0E0,0E0,0E0,0E0,0E0,0E0,0E0,0E0,0E0,0E0,0E0,0E0,0E0,0E0],"parents":[2147483647,0,0,1,1,2,2,3,3,4,4,5,5,6,6,7,7,8,8,9,9,10,10,11,11,12,12,13,13,14,14,15,15,16,16,17,17,18,18,19,19,20,20,21,21,22,22,23,23,24,24,25,25,26,26,27,27,28,28,29,29,30,30],"right_children":[2,4,6,8,10,12,14,16,18,20,22,24,26,28,30,32,34,36,38,40,42,44,46,48,50,52,54,56,58,60,62,-1,-1,-1,-1,-1,-1,-1,-1,-1,-1,-1,-1,-1,-1,-1,-1,-1,-1,-1,-1,-1,-1,-1,-1,-1,-1,-1,-1,-1,-1,-1,-1],"split_conditions":[2E0,1E0,2E0,4.0816326E-2,5.5045873E-2,5E0,7.364076E-1,7.518797E-3,1E0,2.4742268E-1,7.45E0,1E0,2.304E-1,1.0828026E-1,1.36626E0,1.0309278E-1,1E0,1E-1,7.7095237E0,3E0,3.73E1,6.077348E-2,4.8780486E-2,5.386687E-1,1E0,1.07E2,1.63E1,8.624643E1,7.1480143E-1,5.5E1,4E0,2.467594E-2,-6.9976926E-2,-6.2327307E-2,-1.9564152E-2,-2.3537314E-2,-7.846808E-2,-2.6220456E-2,-6.6063605E-2,-4.5171715E-3,-7.463055E-2,-5.680556E-2,5.5112783E-3,-2.4322478E-2,-5.9290368E-2,-4.3950085E-2,-7.766339E-2,-7.5567365E-2,6.1555754E-2,-2.1261103E-3,2.2863252E-2,4.4790905E-2,2.224358E-2,-2.87751E-3,-6.245048E-2,-5.2609842E-2,-9.475111E-3,-6.7748554E-2,5.04614E-2,4.876869E-2,-4.741475E-2,-7.921433E-2,-6.239381E-2],"split_indices":[85,101,98,119,119,151,33,103,153,103,82,151,103,108,30,111,153,82,82,98,144,108,111,23,128,81,188,32,121,81,151,0,0,0,0,0,0,0,0,0,0,0,0,0,0,0,0,0,0,0,0,0,0,0,0,0,0,0,0,0,0,0,0],"split_type":[0,0,0,0,0,0,0,0,0,0,0,0,0,0,0,0,0,0,0,0,0,0,0,0,0,0,0,0,0,0,0,0,0,0,0,0,0,0,0,0,0,0,0,0,0,0,0,0,0,0,0,0,0,0,0,0,0,0,0,0,0,0,0],"sum_hessian":[8.1019336E4,2.3374787E4,5.764455E4,2.0077482E4,3.2973052E3,5.573977E4,1.9047832E3,6.154759E3,1.3922723E4,2.2934387E3,1.0038664E3,2.9930428E4,2.5809342E4,4.3786398E2,1.4669192E3,2.0296834E2,5.9517905E3,1.2851719E4,1.0710039E3,2.0251594E3,2.682793E2,3.991109E2,6.047555E2,2.5580247E3,2.7372402E4,2.5383725E4,4.2561783E2,2.5330453E2,1.8455943E2,1.6004962E2,1.3068696E3,1.9203061E2,1.093773E1,5.4814595E3,4.70331E2,1.032332E2,1.2748485E4,2.8384653E2,7.871574E2,1.9518331E3,7.332634E1,2.4823499E2,2.0044306E1,1.9362299E2,2.0548792E2,8.9815254E1,5.1494025E2,1.7787844E1,2.5402368E3,1.0026332E4,1.734607E4,2.3132574E4,2.251149E3,3.7054303E2,5.50748E1,7.8704956E1,1.7459958E2,1.770389E2,7.520544E0,1.0123095E1,1.4992653E2,5.7425055E2,7.32619E2],"tree_param":{"num_deleted":"0","num_feature":"203","num_nodes":"63","size_leaf_vector":"1"}},{"base_weights":[-1.6866834E-4,-1.225974E0,4.954432E-1,-1.344895E0,-5.117806E-1,5.5111635E-1,-1.1408362E0,-9.7615504E-1,-1.4332163E0,-1.1557137E-1,-1.008434E0,3.5149148E-1,8.405666E-1,-1.2990006E0,-7.842709E-1,-1.6793482E-1,-1.051931E0,-1.4715025E0,-9.688036E-1,-5.2001625E-2,-1.6277722E0,-7.489909E-1,-1.3709219E0,-8.395048E-1,4.211035E-1,5.8711135E-1,9.8976344E-1,-9.9783087E-1,-1.4178139E0,-1.3938512E0,-6.241702E-1,4.9231153E-2,-1.9125052E-2,-4.2851668E-2,-6.441593E-2,-6.7802064E-2,-7.750599E-2,-2.8635759E-2,-6.28882E-2,1.478096E-2,-9.690547E-3,1.3476246E-4,-8.578913E-2,-6.6856645E-2,-3.0428214E-2,-4.5949083E-2,-7.488432E-2,-8.515514E-2,-3.440666E-2,3.0758772E-2,3.6400773E-3,3.3005204E-2,-5.430858E-3,-2.5289098E-2,5.02592E-2,-4.295265E-2,-8.343678E-2,9.509584E-3,-7.190951E-2,-7.33197E-2,4.836597E-2,-2.3143036E-2,-7.232502E-2],"categories":[],"categories_nodes":[],"categories_segments":[],"categories_sizes":[],"default_left":[0,0,0,0,0,0,0,0,0,0,0,0,0,0,0,0,0,0,0,0,0,0,0,0,0,0,0,0,0,0,0,0,0,0,0,0,0,0,0,0,0,0,0,0,0,0,0,0,0,0,0,0,0,0,0,0,0,0,0,0,0,0,0],"id":5,"left_children":[1,3,5,7,9,11,13,15,17,19,21,23,25,27,29,31,33,35,37,39,41,43,45,47,49,51,53,55,57,59,61,-1,-1,-1,-1,-1,-1,-1,-1,-1,-1,-1,-1,-1,-1,-1,-1,-1,-1,-1,-1,-1,-1,-1,-1,-1,-1,-1,-1,-1,-1,-1,-1],"loss_changes":[4.8977816E4,1.9706719E3,5.2303047E3,6.4660156E2,6.521655E2,3.207709E3,1.0553125E2,2.3548853E2,2.8395312E2,1.7727386E2,1.3729626E2,2.7246982E3,8.5632324E2,4.536255E1,5.6033844E1,8.224268E1,1.6097339E2,1.3247461E2,1.3952246E2,8.73891E1,1.0680496E1,7.016974E1,3.370569E1,2.3607886E2,2.0985347E3,4.266006E2,3.294336E2,3.3313538E1,3.0910645E1,2.205365E1,6.0825974E1,0E0,0E0,0E0,0E0,0E0,0E0,0E0,0E0,0E0,0E0,0E0,0E0,0E0,0E0,0E0,0E0,0E0,0E0,0E0,0E0,0E0,0E0,0E0,0E0,0E0,0E0,0E0,0E0,0E0,0E0,0E0,0E0],"parents":[2147483647,0,0,1,1,2,2,3,3,4,4,5,5,6,6,7,7,8,8,9,9,10,10,11,11,12,12,13,13,14,14,15,15,16,16,17,17,18,18,19,19,20,20,21,21,22,22,23,23,24,24,25,25,26,26,27,27,28,28,29,29,30,30],"right_children":[2,4,6,8,10,12,14,16,18,20,22,24,26,28,30,32,34,36,38,40,42,44,46,48,50,52,54,56,58,60,62,-1,-1,-1,-1,-1,-1,-1,-1,-1,-1,-1,-1,-1,-1,-1,-1,-1,-1,-1,-1,-1,-1,-1,-1,-1,-1,-1,-1,-1,-1,-1,-1],"split_conditions":[2E0,1E0,2E0,2.0618556E-2,2.7522936E-2,4E0,4E0,1E0,1E0,2E0,8.45E0,1.0846523E-1,5E0,1.1429869E0,9.73E1,8.235294E-1,2.5648144E-1,8.85E0,9.714286E0,4.137931E-2,2.9E1,9.2077E1,9.633333E0,2E0,1E0,7.905694E1,3.773585E-2,4E0,6.3E1,4.27E2,4E0,4.9231153E-2,-1.9125052E-2,-4.2851668E-2,-6.441593E-2,-6.7802064E-2,-7.750599E-2,-2.8635759E-2,-6.28882E-2,1.478096E-2,-9.690547E-3,1.3476246E-4,-8.578913E-2,-6.6856645E-2,-3.0428214E-2,-4.5949083E-2,-7.488432E-2,-8.515514E-2,-3.440666E-2,3.0758772E-2,3.6400773E-3,3.3005204E-2,-5.430858E-3,-2.5289098E-2,5.02592E-2,-4.295265E-2,-8.343678E-2,9.509584E-3,-7.190951E-2,-7.33197E-2,4.836597E-2,-2.3143036E-2,-7.232502E-2],"split_indices":[85,101,98,119,119,152,152,151,153,98,82,23,151,33,84,120,33,82,1,111,42,3,1,151,101,34,106,4,130,148,98,0,0,0,0,0,0,0,0,0,0,0,0,0,0,0,0,0,0,0,0,0,0,0,0,0,0,0,0,0,0,0,0],"split_type":[0,0,0,0,0,0,0,0,0,0,0,0,0,0,0,0,0,0,0,0,0,0,0,0,0,0,0,0,0,0,0,0,0,0,0,0,0,0,0,0,0,0,0,0,0,0,0,0,0,0,0,0,0,0,0,0,0,0,0,0,0,0,0],"sum_hessian":[8.061678E4,2.320989E4,5.7406895E4,1.989609E4,3.3138005E3,5.5518582E4,1.8883137E3,3.8469958E3,1.6049094E4,1.8439818E3,1.4698186E3,3.2858977E4,2.2659604E4,1.3062482E3,5.8206555E2,3.300395E2,3.5169565E3,1.4824771E4,1.2243225E3,1.7705846E3,7.339726E1,8.584599E2,6.1135876E2,1.8138945E3,3.1045082E4,8.398013E3,1.4261591E4,3.7219644E2,9.340517E2,1.1947203E2,4.6259354E2,5.123549E1,2.78804E2,1.9301803E3,1.5867761E3,6.0126064E3,8.812165E3,5.176891E2,7.066335E2,5.1270154E2,1.257883E3,3.808622E0,6.958864E1,1.6381973E2,6.9464014E2,1.3572443E2,4.756343E2,2.689937E2,1.5449008E3,1.9936057E4,1.1109026E4,7.600638E3,7.9737463E2,1.4522542E2,1.4116365E4,3.1029233E2,6.1904118E1,1.1583676E1,9.22468E2,1.16278534E2,3.193502E0,3.880383E2,7.455526E1],"tree_param":{"num_deleted":"0","num_feature":"203","num_nodes":"63","size_leaf_vector":"1"}},{"base_weights":[6.71153E-4,-1.1760265E0,4.7208518E-1,-1.2916646E0,-4.8639044E-1,5.249561E-1,-1.0958631E0,4.9038142E-1,-1.312153E0,-1.3264702E-1,-9.33288E-1,3.3769968E-1,7.982317E-1,-1.2600806E0,-7.304143E-1,6.583352E-1,-1.0792099E0,-1.0885875E0,-1.4197172E0,-2.8733464E-2,-8.6948794E-1,-7.040723E-1,-1.3634801E0,4.0038472E-1,-8.77038E-1,8.528452E-1,7.832875E-3,2.526213E-1,-1.2755857E0,-1.3574755E0,-5.725066E-1,3.7912562E-2,-7.598334E-2,4.228127E-2,-8.124509E-2,-5.756879E-2,-1.7280621E-2,-7.2657816E-2,-5.0950732E-2,9.695984E-3,-1.7253198E-2,-5.714425E-2,-1.7225452E-2,-2.45879E-2,-5.9878595E-2,1.7041514E-2,-7.010777E-2,2.9358936E-2,3.5248667E-3,-8.238667E-2,-3.8167413E-2,4.9797777E-2,3.3567563E-2,1.31664025E-2,-2.7857501E-2,5.121547E-2,-6.864476E-2,-6.566909E-2,-3.2274164E-2,6.764473E-2,-7.03951E-2,-2.058002E-2,-6.8184465E-2],"categories":[],"categories_nodes":[],"categories_segments":[],"categories_sizes":[],"default_left":[0,0,0,0,0,0,0,0,0,0,0,0,0,0,0,0,0,0,0,0,0,0,0,0,0,0,0,0,0,0,0,0,0,0,0,0,0,0,0,0,0,0,0,0,0,0,0,0,0,0,0,0,0,0,0,0,0,0,0,0,0,0,0],"id":6,"left_children":[1,3,5,7,9,11,13,15,17,19,21,23,25,27,29,31,33,35,37,39,41,43,45,47,49,51,53,55,57,59,61,-1,-1,-1,-1,-1,-1,-1,-1,-1,-1,-1,-1,-1,-1,-1,-1,-1,-1,-1,-1,-1,-1,-1,-1,-1,-1,-1,-1,-1,-1,-1,-1],"loss_changes":[4.444884E4,1.8271758E3,4.743215E3,7.1727734E2,5.2043994E2,2.8318506E3,1.1109424E2,5.971525E1,4.6509766E2,1.4079651E2,1.4248499E2,2.5011816E3,9.713584E2,3.0495117E1,5.6758972E1,4.528765E1,2.449711E1,2.9386133E2,1.7402148E2,1.136663E2,3.222719E1,9.906586E1,3.373871E1,1.9244849E3,1.3998157E2,5.4603613E2,2.1023035E2,1.882571E1,2.9482178E1,1.778093E1,5.875171E1,0E0,0E0,0E0,0E0,0E0,0E0,0E0,0E0,0E0,0E0,0E0,0E0,0E0,0E0,0E0,0E0,0E0,0E0,0E0,0E0,0E0,0E0,0E0,0E0,0E0,0E0,0E0,0E0,0E0,0E0,0E0,0E0],"parents":[2147483647,0,0,1,1,2,2,3,3,4,4,5,5,6,6,7,7,8,8,9,9,10,10,11,11,12,12,13,13,14,14,15,15,16,16,17,17,18,18,19,19,20,20,21,21,22,22,23,23,24,24,25,25,26,26,27,27,28,28,29,29,30,30],"right_children":[2,4,6,8,10,12,14,16,18,20,22,24,26,28,30,32,34,36,38,40,42,44,46,48,50,52,54,56,58,60,62,-1,-1,-1,-1,-1,-1,-1,-1,-1,-1,-1,-1,-1,-1,-1,-1,-1,-1,-1,-1,-1,-1,-1,-1,-1,-1,-1,-1,-1,-1,-1,-1],"split_conditions":[2E0,1E0,2E0,7.518797E-3,2.7522936E-2,4E0,4E0,3.33E2,4.4155844E-2,2.4324325E-1,2.4770643E-1,4E0,2.0661157E-1,6.3E1,9.73E1,2E0,9.118965E1,1E0,1E0,3.5E0,5.05E1,9.836066E-2,1.1E0,1E0,2E0,1.2583058E-1,2.4896266E-1,7.5642965E-3,2.2924344E-1,3.2E1,4E0,3.7912562E-2,-7.598334E-2,4.228127E-2,-8.124509E-2,-5.756879E-2,-1.7280621E-2,-7.2657816E-2,-5.0950732E-2,9.695984E-3,-1.7253198E-2,-5.714425E-2,-1.7225452E-2,-2.45879E-2,-5.9878595E-2,1.7041514E-2,-7.010777E-2,2.9358936E-2,3.5248667E-3,-8.238667E-2,-3.8167413E-2,4.9797777E-2,3.3567563E-2,1.31664025E-2,-2.7857501E-2,5.121547E-2,-6.864476E-2,-6.566909E-2,-3.2274164E-2,6.764473E-2,-7.03951E-2,-2.058002E-2,-6.8184465E-2],"split_indices":[85,101,98,103,119,152,152,65,119,103,103,46,103,130,84,98,134,153,153,64,135,119,82,101,151,24,103,117,35,147,98,0,0,0,0,0,0,0,0,0,0,0,0,0,0,0,0,0,0,0,0,0,0,0,0,0,0,0,0,0,0,0,0],"split_type":[0,0,0,0,0,0,0,0,0,0,0,0,0,0,0,0,0,0,0,0,0,0,0,0,0,0,0,0,0,0,0,0,0,0,0,0,0,0,0,0,0,0,0,0,0,0,0,0,0,0,0,0,0,0,0,0,0,0,0,0,0,0,0],"sum_hessian":[8.012761E4,2.29187E4,5.7208914E4,1.9626807E4,3.291892E3,5.534341E4,1.8655045E3,2.2282603E2,1.9403982E4,1.8381748E3,1.4537172E3,3.2841613E4,2.2501797E4,1.2854354E3,5.8006915E2,2.0181178E2,2.1014261E1,6.3068076E3,1.3097174E4,1.611895E3,2.2627975E2,9.5011304E2,5.0360422E2,3.1230662E4,1.6109497E3,2.1047424E4,1.4543728E3,1.2886763E1,1.2725486E3,1.15160965E2,4.649082E2,1.93583E2,8.228778E0,4.5202403E0,1.649402E1,5.8148496E3,4.919578E2,1.2085958E4,1.0112162E3,9.462513E2,6.6564374E2,1.4801823E2,7.826152E1,6.657076E2,2.8440543E2,1.1001178E1,4.9260303E2,1.9939453E4,1.1291209E4,2.0535674E2,1.4055929E3,1.1765604E4,9.28182E3,1.0018518E3,4.5252103E2,8.989159E0,3.897604E0,1.1995125E3,7.3036224E1,1.6316586E0,1.13529305E2,3.8760046E2,7.730774E1],"tree_param":{"num_deleted":"0","num_feature":"203","num_nodes":"63","size_leaf_vector":"1"}},{"base_weights":[-1.104044E-3,3.880742E-1,-1.0337735E0,4.607544E-1,-1.164102E0,-5.6150365E-1,-1.2503531E0,7.653616E-2,6.62049E-1,-1.3821398E0,-9.438861E-1,-2.424595E-1,-1.0938988E0,-1.3460232E0,-8.9653784E-1,1.1323068E0,-6.1221696E-2,4.6108028E-1,8.521748E-1,5.915724E-1,-1.4087884E0,-7.8405607E-1,-1.4243704E0,3.1513907E-2,-5.307809E-1,-6.947651E-1,-1.2279859E0,-9.838941E-1,-1.3810172E0,-3.8206956E-1,-1.2097815E0,5.7431996E-2,-7.8072354E-2,-5.5448085E-2,3.879575E-3,-3.7189152E-2,2.8458336E-2,4.859037E-2,3.4632757E-2,-2.9789815E-2,9.510138E-2,-3.0589757E-2,-7.2302975E-2,-5.0570495E-2,-2.5080547E-2,2.7597709E-2,-7.2635E-2,-1.5596489E-2,1.7443307E-2,-2.2070942E-2,-7.154878E-2,-2.4651373E-2,-5.33307E-2,-4.878595E-2,-6.8934895E-2,-2.9321656E-2,-6.29803E-2,-6.308657E-2,-7.352844E-2,-9.687478E-3,-5.2201666E-2,-1.4540128E-2,-6.338512E-2],"categories":[],"categories_nodes":[],"categories_segments":[],"categories_sizes":[],"default_left":[0,0,0,0,0,0,0,0,0,0,0,0,0,0,0,0,0,0,0,0,0,0,0,0,0,0,0,0,0,0,0,0,0,0,0,0,0,0,0,0,0,0,0,0,0,0,0,0,0,0,0,0,0,0,0,0,0,0,0,0,0,0,0],"id":7,"left_children":[1,3,5,7,9,11,13,15,17,19,21,23,25,27,29,31,33,35,37,39,41,43,45,47,49,51,53,55,57,59,61,-1,-1,-1,-1,-1,-1,-1,-1,-1,-1,-1,-1,-1,-1,-1,-1,-1,-1,-1,-1,-1,-1,-1,-1,-1,-1,-1,-1,-1,-1,-1,-1],"loss_changes":[3.2016277E4,6.5277275E3,2.2296035E3,4.2747E3,1.22974365E2,1.1645293E3,5.0479492E2,2.7638813E3,1.3854385E3,6.912671E1,9.80177E1,3.3882977E2,1.366521E2,1.4772852E2,5.127639E2,9.829639E1,2.4450251E3,2.2969048E3,3.5497754E2,2.914414E1,3.7179688E1,6.1838135E1,1.8773926E1,2.3992094E2,1.6748883E2,4.8113953E1,7.172485E1,1.13249084E2,1.127207E2,1.502256E2,1.04970215E2,0E0,0E0,0E0,0E0,0E0,0E0,0E0,0E0,0E0,0E0,0E0,0E0,0E0,0E0,0E0,0E0,0E0,0E0,0E0,0E0,0E0,0E0,0E0,0E0,0E0,0E0,0E0,0E0,0E0,0E0,0E0,0E0],"parents":[2147483647,0,0,1,1,2,2,3,3,4,4,5,5,6,6,7,7,8,8,9,9,10,10,11,11,12,12,13,13,14,14,15,15,16,16,17,17,18,18,19,19,20,20,21,21,22,22,23,23,24,24,25,25,26,26,27,27,28,28,29,29,30,30],"right_children":[2,4,6,8,10,12,14,16,18,20,22,24,26,28,30,32,34,36,38,40,42,44,46,48,50,52,54,56,58,60,62,-1,-1,-1,-1,-1,-1,-1,-1,-1,-1,-1,-1,-1,-1,-1,-1,-1,-1,-1,-1,-1,-1,-1,-1,-1,-1,-1,-1,-1,-1,-1,-1],"split_conditions":[2.0158103E-1,2E0,2.4221453E-1,4E0,4E0,8.05E0,7.785843E-1,1E0,4E0,5.857988E-1,4E0,1.5204406E0,3.3195022E-2,1E0,7.7095237E0,3.9E0,1.5E0,5E-1,7.071068E-2,2.9508197E-1,1E0,4E0,2.38E1,9.3419874E-1,3E0,3.2E1,1.015E1,5.857828E-1,5.7761732E-2,2.2636104E-1,1E0,5.7431996E-2,-7.8072354E-2,-5.5448085E-2,3.879575E-3,-3.7189152E-2,2.8458336E-2,4.859037E-2,3.4632757E-2,-2.9789815E-2,9.510138E-2,-3.0589757E-2,-7.2302975E-2,-5.0570495E-2,-2.5080547E-2,2.7597709E-2,-7.2635E-2,-1.5596489E-2,1.7443307E-2,-2.2070942E-2,-7.154878E-2,-2.4651373E-2,-5.33307E-2,-4.878595E-2,-6.8934895E-2,-2.9321656E-2,-6.29803E-2,-6.308657E-2,-7.352844E-2,-9.687478E-3,-5.2201666E-2,-1.4540128E-2,-6.338512E-2],"split_indices":[103,98,103,151,151,82,23,151,152,120,98,33,108,151,82,4,80,80,24,115,151,152,187,23,98,142,82,33,108,116,151,0,0,0,0,0,0,0,0,0,0,0,0,0,0,0,0,0,0,0,0,0,0,0,0,0,0,0,0,0,0,0,0],"split_type":[0,0,0,0,0,0,0,0,0,0,0,0,0,0,0,0,0,0,0,0,0,0,0,0,0,0,0,0,0,0,0,0,0,0,0,0,0,0,0,0,0,0,0,0,0,0,0,0,0,0,0,0,0,0,0,0,0,0,0,0,0,0,0],"sum_hessian":[7.966179E4,5.7857773E4,2.1804014E4,5.5270453E4,2.5873198E3,6.8564775E3,1.4947537E4,1.9002012E4,3.626844E4,1.2974377E3,1.2898822E3,4.288186E3,2.568291E3,1.1763839E4,3.1836978E3,2.1923916E3,1.6809621E4,1.7633123E4,1.8635316E4,1.7001953E1,1.2804358E3,9.698871E2,3.1999506E2,2.1992603E3,2.088926E3,6.473932E2,1.920898E3,1.0391797E3,1.0724659E4,1.2056954E3,1.9780023E3,2.1797488E3,1.2642869E1,1.9657163E3,1.4843904E4,1.4511339E3,1.6181989E4,1.0646118E4,7.989199E3,9.205996E0,7.795957E0,5.798184E1,1.222454E3,5.35919E2,4.339681E2,4.260939E0,3.157341E2,1.0562195E3,1.1430406E3,1.901641E3,1.87285E2,4.212047E2,2.2618849E2,7.21201E2,1.1996969E3,4.2689822E2,6.1228156E2,4.605312E3,6.119347E3,9.396655E2,2.6602985E2,1.17633736E2,1.8603685E3],"tree_param":{"num_deleted":"0","num_feature":"203","num_nodes":"63","size_leaf_vector":"1"}},{"base_weights":[1.5874334E-3,3.6276433E-1,-1.0170331E0,-2.1824744E-2,5.762385E-1,-5.6502694E-1,-1.2035656E0,1.0298765E0,-1.5092194E-1,3.7883493E-1,7.6638144E-1,-2.7551234E-1,-1.04888E0,-9.3155164E-1,-1.3179923E0,1.0762852E0,-1.23591475E-1,-1.1055986E0,-1.2521631E-2,-7.3870295E-1,4.8651212E-1,7.9736936E-1,-2.5321177E-1,-8.475428E-2,-6.632528E-1,-4.7621155E-1,-1.1744474E0,-1.1410073E0,-3.7472063E-1,-1.1747969E0,-1.4047518E0,5.4620862E-2,-7.597899E-2,2.1213051E-2,-4.4313274E-2,-7.743896E-2,-2.1454846E-2,-1.705151E-2,1.1589509E-2,-2.3560073E-2,-4.6979215E-2,2.7982194E-2,-1.5507205E-3,-2.3432551E-2,4.086669E-2,5.487329E-3,-4.8902053E-2,4.2679426E-3,-2.2329286E-2,1.6215399E-2,-3.7083276E-2,-4.3095205E-2,-1.2877256E-2,-4.6394557E-2,-6.624173E-2,-2.5798876E-2,-5.9913643E-2,5.988825E-3,-2.9227708E-2,-2.6850624E-2,-6.140807E-2,-7.1272425E-2,-5.9598483E-2],"categories":[],"categories_nodes":[],"categories_segments":[],"categories_sizes":[],"default_left":[0,0,0,0,0,0,0,0,0,0,0,0,0,0,0,0,0,0,0,0,0,0,0,0,0,0,0,0,0,0,0,0,0,0,0,0,0,0,0,0,0,0,0,0,0,0,0,0,0,0,0,0,0,0,0,0,0,0,0,0,0,0,0],"id":8,"left_children":[1,3,5,7,9,11,13,15,17,19,21,23,25,27,29,31,33,35,37,39,41,43,45,47,49,51,53,55,57,59,61,-1,-1,-1,-1,-1,-1,-1,-1,-1,-1,-1,-1,-1,-1,-1,-1,-1,-1,-1,-1,-1,-1,-1,-1,-1,-1,-1,-1,-1,-1,-1,-1],"loss_changes":[2.908361E4,4.7913335E3,1.7440156E3,2.8285532E3,1.4083447E3,8.4675745E2,4.5467383E2,1.2206055E2,2.451654E3,2.2162705E3,6.041387E2,2.798614E2,1.6219043E2,5.0580835E2,1.264082E2,9.335669E1,3.756051E1,7.037075E2,1.3008241E3,8.654346E1,6.357446E2,4.692754E2,1.4863657E2,1.5623972E2,9.686481E1,3.4247025E1,6.757373E1,1.1225635E2,1.23329926E2,1.3190918E2,2.6544922E1,0E0,0E0,0E0,0E0,0E0,0E0,0E0,0E0,0E0,0E0,0E0,0E0,0E0,0E0,0E0,0E0,0E0,0E0,0E0,0E0,0E0,0E0,0E0,0E0,0E0,0E0,0E0,0E0,0E0,0E0,0E0,0E0],"parents":[2147483647,0,0,1,1,2,2,3,3,4,4,5,5,6,6,7,7,8,8,9,9,10,10,11,11,12,12,13,13,14,14,15,15,16,16,17,17,18,18,19,19,20,20,21,21,22,22,23,23,24,24,25,25,26,26,27,27,28,28,29,29,30,30],"right_children":[2,4,6,8,10,12,14,16,18,20,22,24,26,28,30,32,34,36,38,40,42,44,46,48,50,52,54,56,58,60,62,-1,-1,-1,-1,-1,-1,-1,-1,-1,-1,-1,-1,-1,-1,-1,-1,-1,-1,-1,-1,-1,-1,-1,-1,-1,-1,-1,-1,-1,-1,-1,-1],"split_conditions":[2.0661157E-1,4E0,2.4221453E-1,1E0,4E0,8.333333E0,7.15E0,2.375E0,1.5E0,5E-1,2.46875E0,7.518797E-3,4.743083E-2,7.3780406E-1,5.0955415E-2,3.9230769E0,1.091703E-1,2E0,9E0,1E0,2.0578108E1,3.82E1,1.4120001E0,9.89E1,1E0,4.35E1,1.015E1,1E0,2.6666668E-1,1E0,1E0,5.4620862E-2,-7.597899E-2,2.1213051E-2,-4.4313274E-2,-7.743896E-2,-2.1454846E-2,-1.705151E-2,1.1589509E-2,-2.3560073E-2,-4.6979215E-2,2.7982194E-2,-1.5507205E-3,-2.3432551E-2,4.086669E-2,5.487329E-3,-4.8902053E-2,4.2679426E-3,-2.2329286E-2,1.6215399E-2,-3.7083276E-2,-4.3095205E-2,-1.2877256E-2,-4.6394557E-2,-6.624173E-2,-2.5798876E-2,-5.9913643E-2,5.988825E-3,-2.9227708E-2,-2.6850624E-2,-6.140807E-2,-7.1272425E-2,-5.9598483E-2],"split_indices":[103,151,103,151,152,82,82,17,80,80,17,117,111,23,116,4,111,151,54,75,73,84,94,84,151,135,82,151,17,151,153,0,0,0,0,0,0,0,0,0,0,0,0,0,0,0,0,0,0,0,0,0,0,0,0,0,0,0,0,0,0,0,0],"split_type":[0,0,0,0,0,0,0,0,0,0,0,0,0,0,0,0,0,0,0,0,0,0,0,0,0,0,0,0,0,0,0,0,0,0,0,0,0,0,0,0,0,0,0,0,0,0,0,0,0,0,0,0,0,0,0,0,0,0,0,0,0,0,0],"sum_hessian":[7.9050555E4,5.835869E4,2.0691861E4,2.0831016E4,3.7527676E4,6.045765E3,1.4646096E4,2.276701E3,1.8554314E4,1.841377E4,1.9113906E4,3.7834802E3,2.262285E3,4.339478E3,1.0306617E4,2.188707E3,8.799373E1,2.348376E3,1.6205938E4,1.6177665E3,1.6796002E4,1.8550336E4,5.635721E2,2.5367063E3,1.2467738E3,4.077006E2,1.8545844E3,3.152569E3,1.1869089E3,3.8940613E3,6.412556E3,2.1757651E3,1.29420595E1,5.146706E1,3.6526672E1,1.418088E3,9.30288E2,6.9117744E3,9.294163E3,6.9526715E2,9.224993E2,1.4716352E4,2.0796514E3,2.8763846E2,1.8262697E4,3.7609238E2,1.874797E2,1.7260005E3,8.107058E2,9.1481674E1,1.1552921E3,1.4644807E2,2.6125253E2,7.05349E2,1.1492354E3,2.654373E2,2.8871318E3,3.5373065E2,8.331782E2,3.01519E2,3.5925425E3,5.8389204E3,5.736361E2],"tree_param":{"num_deleted":"0","num_feature":"203","num_nodes":"63","size_leaf_vector":"1"}},{"base_weights":[-4.2825914E-4,-1.0791962E0,4.1938385E-1,-1.192751E0,-4.2301372E-1,1.5009671E-1,6.1155367E-1,-8.176714E-1,-1.275324E0,-1.7951238E-1,-9.943906E-1,2.658537E-1,-3.032767E-1,6.67117E-1,1.4073373E-1,4.613167E-1,-8.959891E-1,-1.3106661E0,-8.5539645E-1,1.9184427E-1,-3.2321423E-1,-7.432936E-1,-1.2622013E0,-1.9533E-1,3.5543802E-1,-1.1460738E-1,-6.168748E-1,7.499325E-1,3.620196E-1,2.519224E-1,-3.954623E-1,3.3325978E-2,-2.3573909E-2,-3.506602E-2,-5.7495385E-2,-5.9312593E-2,-6.9884844E-2,-2.4236953E-2,-5.7242274E-2,1.7475044E-2,-1.0577824E-2,-1.032783E-2,-4.0222302E-2,-4.1738894E-2,1.1058817E-2,-3.1358518E-2,-6.70545E-2,-2.1975603E-2,9.053905E-3,1.9352254E-2,-2.9881591E-2,-1.2788661E-3,-4.4531126E-2,-2.6330058E-2,-5.633192E-2,3.871309E-2,-7.3803863E-3,-1.8163726E-3,2.440465E-2,2.0390991E-2,-2.9083616E-3,-7.966747E-3,-4.8947096E-2],"categories":[],"categories_nodes":[],"categories_segments":[],"categories_sizes":[],"default_left":[0,0,0,0,0,0,0,0,0,0,0,0,0,0,0,0,0,0,0,0,0,0,0,0,0,0,0,0,0,0,0,0,0,0,0,0,0,0,0,0,0,0,0,0,0,0,0,0,0,0,0,0,0,0,0,0,0,0,0,0,0,0,0],"id":9,"left_children":[1,3,5,7,9,11,13,15,17,19,21,23,25,27,29,31,33,35,37,39,41,43,45,47,49,51,53,55,57,59,61,-1,-1,-1,-1,-1,-1,-1,-1,-1,-1,-1,-1,-1,-1,-1,-1,-1,-1,-1,-1,-1,-1,-1,-1,-1,-1,-1,-1,-1,-1,-1,-1],"loss_changes":[3.5578285E4,1.6393555E3,2.9264238E3,5.8E2,4.5175165E2,1.2361188E3,8.632295E2,3.3975073E2,2.2704688E2,1.2167039E2,6.431879E1,7.752289E2,2.8338235E2,7.4553906E2,2.0785788E2,3.785659E1,1.5700244E2,1.5186719E2,1.27795715E2,4.0549526E1,9.209325E1,4.4589935E1,2.2611633E1,2.806313E2,4.7350098E2,2.0671977E2,8.221002E1,5.070459E2,3.165915E2,1.3958131E2,8.235783E1,0E0,0E0,0E0,0E0,0E0,0E0,0E0,0E0,0E0,0E0,0E0,0E0,0E0,0E0,0E0,0E0,0E0,0E0,0E0,0E0,0E0,0E0,0E0,0E0,0E0,0E0,0E0,0E0,0E0,0E0,0E0,0E0],"parents":[2147483647,0,0,1,1,2,2,3,3,4,4,5,5,6,6,7,7,8,8,9,9,10,10,11,11,12,12,13,13,14,14,15,15,16,16,17,17,18,18,19,19,20,20,21,21,22,22,23,23,24,24,25,25,26,26,27,27,28,28,29,29,30,30],"right_children":[2,4,6,8,10,12,14,16,18,20,22,24,26,28,30,32,34,36,38,40,42,44,46,48,50,52,54,56,58,60,62,-1,-1,-1,-1,-1,-1,-1,-1,-1,-1,-1,-1,-1,-1,-1,-1,-1,-1,-1,-1,-1,-1,-1,-1,-1,-1,-1,-1,-1,-1,-1,-1],"split_conditions":[2E0,1E0,1.6E1,1.8348623E-2,5.479452E-2,2.8481152E1,1.06E2,7.518797E-3,1E0,4.217536E-2,8.333333E0,3.5E0,4.7376127E0,1E0,1.23E2,8.4E1,2.5648144E-1,8.85E0,9.714286E0,4.7945204E-1,8.45E0,8.6E1,9.072165E-1,3E0,2.4896266E-1,2.6578948E0,2.31454E-1,2.4202898E0,2E0,3.2E1,4.262295E-1,3.3325978E-2,-2.3573909E-2,-3.506602E-2,-5.7495385E-2,-5.9312593E-2,-6.9884844E-2,-2.4236953E-2,-5.7242274E-2,1.7475044E-2,-1.0577824E-2,-1.032783E-2,-4.0222302E-2,-4.1738894E-2,1.1058817E-2,-3.1358518E-2,-6.70545E-2,-2.1975603E-2,9.053905E-3,1.9352254E-2,-2.9881591E-2,-1.2788661E-3,-4.4531126E-2,-2.6330058E-2,-5.633192E-2,3.871309E-2,-7.3803863E-3,-1.8163726E-3,2.440465E-2,2.0390991E-2,-2.9083616E-3,-7.966747E-3,-4.8947096E-2],"split_indices":[85,101,54,119,119,73,81,103,153,111,82,85,34,101,81,42,33,82,1,107,82,122,120,151,103,17,103,17,151,71,121,0,0,0,0,0,0,0,0,0,0,0,0,0,0,0,0,0,0,0,0,0,0,0,0,0,0,0,0,0,0,0,0],"split_type":[0,0,0,0,0,0,0,0,0,0,0,0,0,0,0,0,0,0,0,0,0,0,0,0,0,0,0,0,0,0,0,0,0,0,0,0,0,0,0,0,0,0,0,0,0,0,0,0,0,0,0,0,0,0,0,0,0,0,0,0,0,0,0],"sum_hessian":[7.85581E4,2.200682E4,5.6551277E4,1.8759586E4,3.2472344E3,2.3551041E4,3.300024E4,3.386704E3,1.5372881E4,2.2778196E3,9.694148E2,1.876126E4,4.7897817E3,2.9516467E4,3.4837705E3,1.9513359E2,3.1915706E3,1.4177545E4,1.1953364E3,6.3542053E2,1.6423989E3,5.0226813E2,4.671467E2,3.051391E3,1.5709869E4,2.9914236E3,1.798358E3,2.3213852E4,6.302616E3,2.8858704E3,5.979003E2,1.6018126E2,3.495234E1,1.8086875E3,1.382883E3,5.841501E3,8.336043E3,5.253141E2,6.7002234E2,4.5696402E2,1.7845654E2,1.3230914E3,3.1930756E2,4.5887613E2,4.3391983E1,5.260912E1,4.1453757E2,1.8506661E3,1.200725E3,1.5206174E4,5.0369452E2,2.684474E3,3.069493E2,1.5295281E3,2.6882993E2,2.2601342E4,6.12508E2,1.515353E3,4.787263E3,1.9201837E3,9.656866E2,4.2655255E2,1.7134776E2],"tree_param":{"num_deleted":"0","num_feature":"203","num_nodes":"63","size_leaf_vector":"1"}},{"base_weights":[-1.9026312E-4,3.3064538E-1,-9.460309E-1,3.9794225E-1,-1.1065824E0,-5.1690745E-1,-1.1271995E0,1.9669116E-2,5.6189746E-1,-8.85335E-1,-1.285179E0,-2.3362263E-1,-9.809134E-1,-1.2176621E0,-7.990735E-1,-6.619638E-2,1.0281473E0,3.4213132E-1,6.8353075E-1,-1.0508529E0,-5.920978E-1,8.065328E-1,-1.2969532E0,-1.6672468E-1,-1.3133478E0,-4.07924E-1,-1.1106665E0,-1.2575239E0,-8.181342E-1,-3.3928898E-1,-1.0506431E0,-1.8452926E-2,1.2171681E-2,5.2412003E-2,-4.9835492E-2,2.598213E-2,5.9815035E-3,3.5776164E-2,1.820879E-2,3.4949034E-2,-5.4015018E-2,-2.0745797E-2,-5.564299E-2,8.525457E-2,-5.6275137E-2,-6.54519E-2,2.8997604E-2,-1.2098696E-2,3.573711E-2,-6.94792E-2,-1.6424643E-2,-3.0451229E-2,1.0335555E-2,-4.87536E-2,-6.719859E-2,-5.622844E-2,-6.787463E-2,5.4180407E-4,-4.7874406E-2,-8.836256E-3,-4.6389755E-2,-4.0316474E-2,-6.1214693E-2],"categories":[],"categories_nodes":[],"categories_segments":[],"categories_sizes":[],"default_left":[0,0,0,0,0,0,0,0,0,0,0,0,0,0,0,0,0,0,0,0,0,0,0,0,0,0,0,0,0,0,0,0,0,0,0,0,0,0,0,0,0,0,0,0,0,0,0,0,0,0,0,0,0,0,0,0,0,0,0,0,0,0,0],"id":10,"left_children":[1,3,5,7,9,11,13,15,17,19,21,23,25,27,29,31,33,35,37,39,41,43,45,47,49,51,53,55,57,59,61,-1,-1,-1,-1,-1,-1,-1,-1,-1,-1,-1,-1,-1,-1,-1,-1,-1,-1,-1,-1,-1,-1,-1,-1,-1,-1,-1,-1,-1,-1,-1,-1],"loss_changes":[2.4424658E4,5.593584E3,1.5719316E3,3.4260742E3,1.01079834E2,7.8927686E2,4.2116797E2,1.4465822E3,1.0299229E3,5.56156E1,3.6244385E1,2.6925775E2,1.6880396E2,1.7648438E2,3.5548254E2,1.4437491E3,5.437268E1,5.423158E2,2.5318945E2,3.885193E1,3.8322952E1,1.6877636E1,3.3003174E1,2.3327042E2,1.5875183E1,5.2277145E1,5.7393066E1,1.3315527E2,1.1715448E2,1.0406242E2,8.3352295E1,0E0,0E0,0E0,0E0,0E0,0E0,0E0,0E0,0E0,0E0,0E0,0E0,0E0,0E0,0E0,0E0,0E0,0E0,0E0,0E0,0E0,0E0,0E0,0E0,0E0,0E0,0E0,0E0,0E0,0E0,0E0,0E0],"parents":[2147483647,0,0,1,1,2,2,3,3,4,4,5,5,6,6,7,7,8,8,9,9,10,10,11,11,12,12,13,13,14,14,15,15,16,16,17,17,18,18,19,19,20,20,21,21,22,22,23,23,24,24,25,25,26,26,27,27,28,28,29,29,30,30],"right_children":[2,4,6,8,10,12,14,16,18,20,22,24,26,28,30,32,34,36,38,40,42,44,46,48,50,52,54,56,58,60,62,-1,-1,-1,-1,-1,-1,-1,-1,-1,-1,-1,-1,-1,-1,-1,-1,-1,-1,-1,-1,-1,-1,-1,-1,-1,-1,-1,-1,-1,-1,-1,-1],"split_conditions":[2.0661157E-1,2E0,2.4221453E-1,6E0,3.4602077E-3,8.05E0,7.867958E-1,1E0,1.8E1,2.8E1,2.177928E-1,2E0,4.743083E-2,1E0,7.15E0,2E0,2.7307692E1,2.5819888E0,2.4468254E1,6.486486E-1,2.4253562E-1,1.361E2,7.7E0,1E0,9.956E1,1.22E3,1.2333333E1,5.6710776E-2,7.3257537E0,2.2183709E-1,4.137931E-2,-1.8452926E-2,1.2171681E-2,5.2412003E-2,-4.9835492E-2,2.598213E-2,5.9815035E-3,3.5776164E-2,1.820879E-2,3.4949034E-2,-5.4015018E-2,-2.0745797E-2,-5.564299E-2,8.525457E-2,-5.6275137E-2,-6.54519E-2,2.8997604E-2,-1.2098696E-2,3.573711E-2,-6.94792E-2,-1.6424643E-2,-3.0451229E-2,1.0335555E-2,-4.87536E-2,-6.719859E-2,-5.622844E-2,-6.787463E-2,5.4180407E-4,-4.7874406E-2,-8.836256E-3,-4.6389755E-2,-4.0316474E-2,-6.1214693E-2],"split_indices":[103,98,103,150,119,82,23,153,54,54,13,98,111,153,82,128,143,29,143,120,40,10,48,153,3,72,82,108,27,116,116,0,0,0,0,0,0,0,0,0,0,0,0,0,0,0,0,0,0,0,0,0,0,0,0,0,0,0,0,0,0,0,0],"split_type":[0,0,0,0,0,0,0,0,0,0,0,0,0,0,0,0,0,0,0,0,0,0,0,0,0,0,0,0,0,0,0,0,0,0,0,0,0,0,0,0,0,0,0,0,0,0,0,0,0,0,0,0,0,0,0,0,0,0,0,0,0,0,0],"sum_hessian":[7.8052555E4,5.7826633E4,2.0225918E4,5.5240758E4,2.585875E3,6.00532E3,1.4220599E4,1.6703652E4,3.8537105E4,1.1576827E3,1.4281924E3,3.729742E3,2.275578E3,1.1145211E4,3.0753882E3,1.53938955E4,1.3097577E3,1.3731301E4,2.4805805E4,7.383418E2,4.1934088E2,7.6164417E0,1.4205759E3,3.5132231E3,2.1651895E2,4.2092374E2,1.8546543E3,1.0132154E4,1.0130564E3,1.0884382E3,1.9869498E3,7.7819E3,7.611995E3,1.2973662E3,1.239145E1,7.637097E3,6.094203E3,2.2545947E4,2.2598572E3,1.1843389E1,7.264984E2,3.142265E2,1.0511439E2,5.278814E0,2.337628E0,1.4117886E3,8.787397E0,3.2375635E3,2.7565952E2,2.0058131E2,1.593763E1,3.1716168E2,1.0376205E2,1.1762244E3,6.784298E2,4.353883E3,5.7782715E3,1.4592415E2,8.6713226E2,8.538722E2,2.3456606E2,8.278583E2,1.1590916E3],"tree_param":{"num_deleted":"0","num_feature":"203","num_nodes":"63","size_leaf_vector":"1"}},{"base_weights":[9.809304E-4,-1.0115625E0,3.8763654E-1,-3.8495097E-1,-1.1241721E0,4.3208262E-1,-9.4609034E-1,-6.299666E-1,1.713976E-2,-1.1843774E0,-6.354453E-1,1.4906476E-1,5.7083744E-1,-1.1132975E0,-5.781013E-1,-3.8632727E-1,-1.0151876E0,6.5148704E-2,-1.1483762E0,-1.0413516E0,-1.294649E0,-3.898272E-1,-1.0940713E0,2.5193685E-1,-2.722379E-1,4.1903362E-1,7.556628E-1,3.6251366E-1,-1.1322294E0,-1.2261906E0,-4.2122388E-1,-8.114252E-3,-3.6252525E-2,-3.3840727E-2,-5.7908323E-2,-9.160547E-3,1.4206208E-2,6.918869E-2,-6.325003E-2,8.9167006E-4,-5.3402524E-2,-4.8666798E-2,-6.6152595E-2,-1.2330756E-2,-4.2761747E-2,-4.2097572E-2,-6.566265E-2,1.6219968E-2,-1.6073745E-2,-2.3815852E-2,3.0647328E-3,-3.441469E-2,2.5259314E-2,-5.8270752E-2,3.835049E-2,5.7620477E-2,-4.6970256E-2,-6.444865E-3,-5.8059413E-2,-6.642426E-2,1.8080577E-2,-1.3243911E-2,-6.1016906E-2],"categories":[],"categories_nodes":[],"categories_segments":[],"categories_sizes":[],"default_left":[0,0,0,0,0,0,0,0,0,0,0,0,0,0,0,0,0,0,0,0,0,0,0,0,0,0,0,0,0,0,0,0,0,0,0,0,0,0,0,0,0,0,0,0,0,0,0,0,0,0,0,0,0,0,0,0,0,0,0,0,0,0,0],"id":11,"left_children":[1,3,5,7,9,11,13,15,17,19,21,23,25,27,29,31,33,35,37,39,41,43,45,47,49,51,53,55,57,59,61,-1,-1,-1,-1,-1,-1,-1,-1,-1,-1,-1,-1,-1,-1,-1,-1,-1,-1,-1,-1,-1,-1,-1,-1,-1,-1,-1,-1,-1,-1,-1,-1],"loss_changes":[3.0348422E4,1.5110977E3,3.3257236E3,3.2164667E2,5.335117E2,2.131796E3,1.10690186E2,1.900039E2,6.92973E1,2.5359961E2,2.2414789E2,7.7416565E2,1.02174414E3,3.5140747E1,5.7169373E1,9.43091E1,3.7210693E1,6.47214E1,1.6219353E1,1.991709E2,8.197461E1,8.642723E1,3.72865E1,5.966135E2,2.386572E2,1.9085981E3,3.589541E2,1.8052242E1,3.551648E1,1.8355392E1,5.693946E1,0E0,0E0,0E0,0E0,0E0,0E0,0E0,0E0,0E0,0E0,0E0,0E0,0E0,0E0,0E0,0E0,0E0,0E0,0E0,0E0,0E0,0E0,0E0,0E0,0E0,0E0,0E0,0E0,0E0,0E0,0E0,0E0],"parents":[2147483647,0,0,1,1,2,2,3,3,4,4,5,5,6,6,7,7,8,8,9,9,10,10,11,11,12,12,13,13,14,14,15,15,16,16,17,17,18,18,19,19,20,20,21,21,22,22,23,23,24,24,25,25,26,26,27,27,28,28,29,29,30,30],"right_children":[2,4,6,8,10,12,14,16,18,20,22,24,26,28,30,32,34,36,38,40,42,44,46,48,50,52,54,56,58,60,62,-1,-1,-1,-1,-1,-1,-1,-1,-1,-1,-1,-1,-1,-1,-1,-1,-1,-1,-1,-1,-1,-1,-1,-1,-1,-1,-1,-1,-1,-1,-1,-1],"split_conditions":[2E0,6.8965517E-3,2E0,1E0,1E0,1.4E1,4E0,1.9359225E-1,3E0,8.95E0,8.55E0,4.7376127E0,4E0,6.3E1,9.73E1,9.89E1,9.2783505E-1,2E0,3.9449543E-1,1E-1,1E0,8.219178E-2,7.883818E-2,4.6991405E-1,4E0,1.0846523E-1,2.8E-1,3.8823528E0,1E0,4.16E2,4E0,-8.114252E-3,-3.6252525E-2,-3.3840727E-2,-5.7908323E-2,-9.160547E-3,1.4206208E-2,6.918869E-2,-6.325003E-2,8.9167006E-4,-5.3402524E-2,-4.8666798E-2,-6.6152595E-2,-1.2330756E-2,-4.2761747E-2,-4.2097572E-2,-6.566265E-2,1.6219968E-2,-1.6073745E-2,-2.3815852E-2,3.0647328E-3,-3.441469E-2,2.5259314E-2,-5.8270752E-2,3.835049E-2,5.7620477E-2,-4.6970256E-2,-6.444865E-3,-5.8059413E-2,-6.642426E-2,1.8080577E-2,-1.3243911E-2,-6.1016906E-2],"split_indices":[85,119,98,101,101,54,152,33,98,82,82,34,152,130,84,84,120,152,120,82,151,119,119,107,151,23,102,4,151,68,98,0,0,0,0,0,0,0,0,0,0,0,0,0,0,0,0,0,0,0,0,0,0,0,0,0,0,0,0,0,0,0,0],"split_type":[0,0,0,0,0,0,0,0,0,0,0,0,0,0,0,0,0,0,0,0,0,0,0,0,0,0,0,0,0,0,0,0,0,0,0,0,0,0,0,0,0,0,0,0,0,0,0,0,0,0,0,0,0,0,0,0,0,0,0,0,0,0,0],"sum_hessian":[7.751522E4,2.1420162E4,5.6095055E4,3.2637258E3,1.8156436E4,5.428664E4,1.808412E3,2.0276204E3,1.2361055E3,1.6163821E4,1.992614E3,1.7859908E4,3.6426734E4,1.2420315E3,5.663805E2,1.2432863E3,7.8433405E2,1.18811E3,4.799551E1,7.041373E3,9.122448E3,1.2988578E3,6.9375616E2,1.4355129E4,3.5047795E3,2.0001793E4,1.6424941E4,1.5501349E1,1.2265302E3,1.0905173E2,4.5732877E2,7.4921265E2,4.9407367E2,2.3467853E2,5.496555E2,5.5677966E2,6.3133026E2,1.6348288E0,4.6360683E1,1.7313611E2,6.8682373E3,7.43765E2,8.378684E3,9.9439825E2,3.0445956E2,3.2488715E2,3.68869E2,1.2744971E4,1.6101576E3,2.1740884E3,1.330691E3,1.4433468E3,1.8558445E4,9.5848335E1,1.6329093E4,9.719316E0,5.7820344E0,3.4560627E1,1.1919695E3,1.02604706E2,6.4470215E0,3.8360788E2,7.372091E1],"tree_param":{"num_deleted":"0","num_feature":"203","num_nodes":"63","size_leaf_vector":"1"}},{"base_weights":[-5.9039786E-4,-9.83912E-1,3.6813253E-1,-1.0903636E0,-3.8671154E-1,4.1067177E-1,-9.125583E-1,-8.527276E-1,-1.2239298E0,-1.9485028E-1,-9.307916E-1,2.5403067E-1,6.4289874E-1,-8.022926E-1,-1.2837065E0,4.5568985E-1,-8.902563E-1,-1.2622234E0,-8.051505E-1,-2.6135508E-2,-6.883189E-1,-6.261509E-1,-1.1943399E0,3.0814198E-1,-8.0535114E-1,6.866005E-1,2.039514E-2,-9.96231E-1,-5.0731343E-1,-4.1310294E-3,-1.3314278E0,6.4001285E-2,1.2481007E-2,-1.19667705E-2,-4.7349006E-2,3.84801E-3,-6.346904E-2,-1.1626383E-2,-4.9935568E-2,1.4345794E-3,-6.439107E-2,-9.168708E-4,-3.999746E-2,-4.7667176E-2,-1.757708E-2,1.690232E-2,-6.31709E-2,2.3391176E-2,1.6200213E-3,-5.8749672E-2,-3.0908033E-2,4.0349428E-2,2.6159162E-2,1.2492394E-2,-2.3819296E-2,-3.4514464E-2,-5.6069326E-2,-3.6564197E-2,-1.027483E-2,7.813177E-2,-4.1168954E-2,4.167732E-2,-6.770662E-2],"categories":[],"categories_nodes":[],"categories_segments":[],"categories_sizes":[],"default_left":[0,0,0,0,0,0,0,0,0,0,0,0,0,0,0,0,0,0,0,0,0,0,0,0,0,0,0,0,0,0,0,0,0,0,0,0,0,0,0,0,0,0,0,0,0,0,0,0,0,0,0,0,0,0,0,0,0,0,0,0,0,0,0],"id":12,"left_children":[1,3,5,7,9,11,13,15,17,19,21,23,25,27,29,31,33,35,37,39,41,43,45,47,49,51,53,55,57,59,61,-1,-1,-1,-1,-1,-1,-1,-1,-1,-1,-1,-1,-1,-1,-1,-1,-1,-1,-1,-1,-1,-1,-1,-1,-1,-1,-1,-1,-1,-1,-1,-1],"loss_changes":[2.7907293E4,1.3340352E3,3.0501006E3,5.6439844E2,3.3147427E2,1.9707129E3,7.263208E1,3.1532422E2,1.8183984E2,1.9564262E2,6.573212E1,1.8551204E3,5.936924E2,7.903241E1,2.5066895E1,3.016972E1,2.2998438E2,1.0021289E2,1.0595593E2,1.2125748E2,4.4765106E1,3.4362427E1,4.730481E1,1.3555039E3,1.0809546E2,4.0076465E2,1.6342172E2,3.1305237E1,3.7267883E1,2.1523043E1,2.0585999E1,0E0,0E0,0E0,0E0,0E0,0E0,0E0,0E0,0E0,0E0,0E0,0E0,0E0,0E0,0E0,0E0,0E0,0E0,0E0,0E0,0E0,0E0,0E0,0E0,0E0,0E0,0E0,0E0,0E0,0E0,0E0,0E0],"parents":[2147483647,0,0,1,1,2,2,3,3,4,4,5,5,6,6,7,7,8,8,9,9,10,10,11,11,12,12,13,13,14,14,15,15,16,16,17,17,18,18,19,19,20,20,21,21,22,22,23,23,24,24,25,25,26,26,27,27,28,28,29,29,30,30],"right_children":[2,4,6,8,10,12,14,16,18,20,22,24,26,28,30,32,34,36,38,40,42,44,46,48,50,52,54,56,58,60,62,-1,-1,-1,-1,-1,-1,-1,-1,-1,-1,-1,-1,-1,-1,-1,-1,-1,-1,-1,-1,-1,-1,-1,-1,-1,-1,-1,-1,-1,-1,-1,-1],"split_conditions":[2E0,1E0,2E0,4.137931E-2,2.3853211E-1,4E0,4E0,1.0309278E-2,1E0,2.770083E-3,4.4728436E-2,4E0,2.0661157E-1,9.73E1,8.125E0,9.62E1,1E0,7.518797E-3,7.7095237E0,3E0,7.1875E0,7.5E0,3.05E0,1E0,5E0,6.482037E-2,2.4896266E-1,7.364076E-1,4E0,8.1E1,1.18E2,6.4001285E-2,1.2481007E-2,-1.19667705E-2,-4.7349006E-2,3.84801E-3,-6.346904E-2,-1.1626383E-2,-4.9935568E-2,1.4345794E-3,-6.439107E-2,-9.168708E-4,-3.999746E-2,-4.7667176E-2,-1.757708E-2,1.690232E-2,-6.31709E-2,2.3391176E-2,1.6200213E-3,-5.8749672E-2,-3.0908033E-2,4.0349428E-2,2.6159162E-2,1.2492394E-2,-2.3819296E-2,-3.4514464E-2,-5.6069326E-2,-3.6564197E-2,-1.027483E-2,7.813177E-2,-4.1168954E-2,4.167732E-2,-6.770662E-2],"split_indices":[85,101,98,108,103,152,98,103,153,117,108,46,103,45,11,45,151,103,82,98,1,44,82,101,151,38,103,33,152,50,185,0,0,0,0,0,0,0,0,0,0,0,0,0,0,0,0,0,0,0,0,0,0,0,0,0,0,0,0,0,0,0,0],"split_type":[0,0,0,0,0,0,0,0,0,0,0,0,0,0,0,0,0,0,0,0,0,0,0,0,0,0,0,0,0,0,0,0,0,0,0,0,0,0,0,0,0,0,0,0,0,0,0,0,0,0,0,0,0,0,0,0,0,0,0,0,0,0,0],"sum_hessian":[7.696809E4,2.0989904E4,5.597819E4,1.7813756E4,3.1761475E3,5.4179258E4,1.7989319E3,6.412408E3,1.1401349E4,2.349124E3,8.2702344E2,3.23564E4,2.1822857E4,1.3893319E3,4.0959998E2,1.7848503E2,6.233923E3,1.0444295E4,9.570534E2,1.7513859E3,5.977383E2,3.8517166E2,4.4185178E2,3.0784684E4,1.571716E3,2.0391225E4,1.4316334E3,8.367928E2,5.525392E2,1.4765713E1,3.9483426E2,3.4652775E1,1.4383226E2,5.001211E2,5.733802E3,5.5470688E1,1.0388824E4,2.4233635E2,7.1471704E2,1.6793848E3,7.200112E1,8.553563E1,5.1220264E2,1.7463055E2,2.1054109E2,1.8891024E1,4.2296075E2,1.9494658E4,1.1290025E4,5.2658984E2,1.0451261E3,1.1739156E4,8.652068E3,9.796505E2,4.5198294E2,2.44828E2,5.919648E2,3.1635638E2,2.3618279E2,4.758309E0,1.0007404E1,3.7271206E0,3.9110712E2],"tree_param":{"num_deleted":"0","num_feature":"203","num_nodes":"63","size_leaf_vector":"1"}},{"base_weights":[-3.911585E-4,-9.555394E-1,3.526586E-1,-1.0635692E0,-3.619194E-1,3.9345613E-1,-8.9470255E-1,-8.3097965E-1,-1.1893591E0,-6.970166E-2,-7.5691533E-1,2.407782E-1,6.208605E-1,-1.0503885E0,-5.6065524E-1,-4.219233E-1,-9.232289E-1,-1.2301031E0,-7.4849045E-1,-2.4296915E-2,-1.2194833E0,-5.2192473E-1,-1.1212804E0,-6.970722E-1,2.9806846E-1,4.190989E-1,7.4421316E-1,-1.0694642E-1,-1.0751555E0,-1.1810253E0,-4.127598E-1,-3.1642877E-2,5.525622E-4,1.1899526E-2,-4.7644105E-2,-5.647398E-2,-6.479325E-2,-2.1112323E-2,-5.66235E-2,3.156333E-3,-3.014799E-2,6.901886E-2,-6.513845E-2,1.0451678E-2,-3.0594295E-2,9.331943E-3,-5.8193337E-2,1.3014738E-2,-4.0118974E-2,2.2640416E-2,1.3740622E-3,-1.9026686E-3,2.4932208E-2,-4.001157E-2,3.7944745E-2,4.2204905E-2,-5.351281E-2,-5.8448464E-2,-4.1963905E-2,-6.1826795E-2,6.835223E-2,-9.460249E-3,-4.8991974E-2],"categories":[],"categories_nodes":[],"categories_segments":[],"categories_sizes":[],"default_left":[0,0,0,0,0,0,0,0,0,0,0,0,0,0,0,0,0,0,0,0,0,0,0,0,0,0,0,0,0,0,0,0,0,0,0,0,0,0,0,0,0,0,0,0,0,0,0,0,0,0,0,0,0,0,0,0,0,0,0,0,0,0,0],"id":13,"left_children":[1,3,5,7,9,11,13,15,17,19,21,23,25,27,29,31,33,35,37,39,41,43,45,47,49,51,53,55,57,59,61,-1,-1,-1,-1,-1,-1,-1,-1,-1,-1,-1,-1,-1,-1,-1,-1,-1,-1,-1,-1,-1,-1,-1,-1,-1,-1,-1,-1,-1,-1,-1,-1],"loss_changes":[2.5724264E4,1.3198477E3,2.8347417E3,5.0858984E2,3.6598724E2,1.872416E3,9.116626E1,2.3042285E2,2.0208398E2,9.518619E1,1.1486609E2,1.7340898E3,5.3886914E2,2.7978027E1,5.1169174E1,1.0297255E2,1.720586E2,6.698242E1,1.1961182E2,8.885158E1,1.6796928E1,5.4153732E1,2.9614807E1,1.8753925E2,1.2734138E3,2.9900867E2,3.0543652E2,3.0096779E1,2.4940918E1,1.6944733E1,5.764476E1,0E0,0E0,0E0,0E0,0E0,0E0,0E0,0E0,0E0,0E0,0E0,0E0,0E0,0E0,0E0,0E0,0E0,0E0,0E0,0E0,0E0,0E0,0E0,0E0,0E0,0E0,0E0,0E0,0E0,0E0,0E0,0E0],"parents":[2147483647,0,0,1,1,2,2,3,3,4,4,5,5,6,6,7,7,8,8,9,9,10,10,11,11,12,12,13,13,14,14,15,15,16,16,17,17,18,18,19,19,20,20,21,21,22,22,23,23,24,24,25,25,26,26,27,27,28,28,29,29,30,30],"right_children":[2,4,6,8,10,12,14,16,18,20,22,24,26,28,30,32,34,36,38,40,42,44,46,48,50,52,54,56,58,60,62,-1,-1,-1,-1,-1,-1,-1,-1,-1,-1,-1,-1,-1,-1,-1,-1,-1,-1,-1,-1,-1,-1,-1,-1,-1,-1,-1,-1,-1,-1,-1,-1],"split_conditions":[2E0,1E0,2E0,4.109589E-2,2.7522936E-2,4E0,4E0,3.4602077E-3,1E0,2E0,8.55E0,1.3483997E-1,5E0,4E-2,9.73E1,4E0,1E-1,8.95E0,1.015E1,7.905139E-3,3.9449543E-1,4.307692E-2,7.518797E-3,3.5E0,1E0,3.2786883E-2,2.0408163E-2,9.851632E-1,2.25E1,5.68E1,1.18E2,-3.1642877E-2,5.525622E-4,1.1899526E-2,-4.7644105E-2,-5.647398E-2,-6.479325E-2,-2.1112323E-2,-5.66235E-2,3.156333E-3,-3.014799E-2,6.901886E-2,-6.513845E-2,1.0451678E-2,-3.0594295E-2,9.331943E-3,-5.8193337E-2,1.3014738E-2,-4.0118974E-2,2.2640416E-2,1.3740622E-3,-1.9026686E-3,2.4932208E-2,-4.001157E-2,3.7944745E-2,4.2204905E-2,-5.351281E-2,-5.8448464E-2,-4.1963905E-2,-6.1826795E-2,6.835223E-2,-9.460249E-3,-4.8991974E-2],"split_indices":[85,101,98,108,119,152,152,119,153,98,82,23,151,111,84,152,82,82,82,117,120,111,108,64,101,21,106,104,54,188,130,0,0,0,0,0,0,0,0,0,0,0,0,0,0,0,0,0,0,0,0,0,0,0,0,0,0,0,0,0,0,0,0],"split_type":[0,0,0,0,0,0,0,0,0,0,0,0,0,0,0,0,0,0,0,0,0,0,0,0,0,0,0,0,0,0,0,0,0,0,0,0,0,0,0,0,0,0,0,0,0,0,0,0,0,0,0,0,0,0,0,0,0,0,0,0,0,0,0],"sum_hessian":[7.628249E4,2.0586266E4,5.5696227E4,1.7416023E4,3.1702424E3,5.393292E4,1.7633036E3,6.1156304E3,1.1300394E4,1.8228646E3,1.3473778E3,3.2269459E4,2.1663463E4,1.2012876E3,5.620159E2,1.126412E3,4.9892183E3,1.0342752E4,9.5764136E2,1.7545969E3,6.82677E1,8.2058746E2,5.2679034E2,1.8571106E3,3.041235E4,8.221071E3,1.3442391E4,3.0865265E1,1.1704224E3,1.06846466E2,4.5516946E2,7.57107E2,3.69305E2,1.2405833E2,4.86516E3,4.0950413E3,6.2477104E3,5.188802E2,4.3876114E2,1.5250808E3,2.2951616E2,1.6356285E0,6.663207E1,8.977975E1,7.308077E2,1.6504938E1,5.102854E2,1.8388725E2,1.6732234E3,1.9347488E4,1.1064861E4,1.2185421E3,7.0025293E3,1.2607791E2,1.33163125E4,1.5593782E1,1.52714815E1,8.345479E2,3.3587442E2,1.0507214E2,1.7743208E0,3.2742517E2,1.277443E2],"tree_param":{"num_deleted":"0","num_feature":"203","num_nodes":"63","size_leaf_vector":"1"}},{"base_weights":[1.1350113E-3,-9.1861576E-1,3.3675805E-1,-4.9030083E-1,-1.0748886E0,4.125772E-1,-1.8791568E-1,-6.830007E-1,-6.8074234E-2,-8.9571124E-1,-1.1990273E0,2.7522185E-1,6.0690063E-1,-5.0261658E-2,-6.022469E-1,-4.8495352E-1,-9.562238E-1,5.007336E-2,-4.436921E-1,-9.7346085E-1,-4.4582412E-1,-9.58341E-1,-1.2277709E0,-6.985856E-1,3.4127977E-1,7.448029E-1,4.355281E-1,-1.2704039E0,-1.3267596E-2,-4.320229E-1,-1.0761532E0,-1.2258471E-2,-3.9141607E-2,-3.303579E-2,-5.418724E-2,-4.6618883E-3,1.8611701E-2,-2.526669E-2,5.315718E-2,-5.115489E-2,-1.81999E-2,-5.92972E-2,-1.702051E-2,-3.0441717E-3,-5.2772798E-2,-6.2340032E-2,-4.963566E-2,1.2020595E-2,-3.9644267E-2,2.4381023E-2,4.2957338E-3,-6.656139E-2,3.7952457E-2,-4.7413554E-2,2.3114098E-2,-1.5551892E-4,-8.176785E-2,-1.6637342E-2,6.5728696E-3,-3.33866E-2,-3.2345243E-3,-3.953375E-2,-8.018507E-2],"categories":[],"categories_nodes":[],"categories_segments":[],"categories_sizes":[],"default_left":[0,0,0,0,0,0,0,0,0,0,0,0,0,0,0,0,0,0,0,0,0,0,0,0,0,0,0,0,0,0,0,0,0,0,0,0,0,0,0,0,0,0,0,0,0,0,0,0,0,0,0,0,0,0,0,0,0,0,0,0,0,0,0],"id":14,"left_children":[1,3,5,7,9,11,13,15,17,19,21,23,25,27,29,31,33,35,37,39,41,43,45,47,49,51,53,55,57,59,61,-1,-1,-1,-1,-1,-1,-1,-1,-1,-1,-1,-1,-1,-1,-1,-1,-1,-1,-1,-1,-1,-1,-1,-1,-1,-1,-1,-1,-1,-1,-1,-1],"loss_changes":[2.3345363E4,1.3528066E3,2.2042432E3,4.398656E2,3.284121E2,1.2920361E3,3.9901855E2,2.0041504E2,7.5262924E1,2.1176465E2,5.934082E1,1.8249478E3,4.7346143E2,2.3708907E2,1.4028284E2,1.5368185E2,5.8034546E1,5.962317E1,3.8227997E1,1.5608301E2,6.948384E1,8.1668945E1,3.3700195E1,1.5977747E2,9.926831E2,3.2951855E2,3.3147266E2,7.148303E1,2.358201E2,1.1124458E2,6.8071106E1,0E0,0E0,0E0,0E0,0E0,0E0,0E0,0E0,0E0,0E0,0E0,0E0,0E0,0E0,0E0,0E0,0E0,0E0,0E0,0E0,0E0,0E0,0E0,0E0,0E0,0E0,0E0,0E0,0E0,0E0,0E0,0E0],"parents":[2147483647,0,0,1,1,2,2,3,3,4,4,5,5,6,6,7,7,8,8,9,9,10,10,11,11,12,12,13,13,14,14,15,15,16,16,17,17,18,18,19,19,20,20,21,21,22,22,23,23,24,24,25,25,26,26,27,27,28,28,29,29,30,30],"right_children":[2,4,6,8,10,12,14,16,18,20,22,24,26,28,30,32,34,36,38,40,42,44,46,48,50,52,54,56,58,60,62,-1,-1,-1,-1,-1,-1,-1,-1,-1,-1,-1,-1,-1,-1,-1,-1,-1,-1,-1,-1,-1,-1,-1,-1,-1,-1,-1,-1,-1,-1,-1,-1],"split_conditions":[2E0,2.3529412E-2,2.7188334E1,1E0,8.05E0,4E0,7.4418604E-1,2.7502483E-1,8.012282E-1,1E0,8.979592E-1,1.0846523E-1,1.2583058E-1,3.78E1,3.0578512E-1,9.89E1,7.05E0,3.1428573E-1,4.11E2,1E0,8.115357E1,4.307692E-2,1E0,3.5E0,1E0,2.8E-1,3.73E1,2E1,2E0,3.5E0,5.2769513E0,-1.2258471E-2,-3.9141607E-2,-3.303579E-2,-5.418724E-2,-4.6618883E-3,1.8611701E-2,-2.526669E-2,5.315718E-2,-5.115489E-2,-1.81999E-2,-5.92972E-2,-1.702051E-2,-3.0441717E-3,-5.2772798E-2,-6.2340032E-2,-4.963566E-2,1.2020595E-2,-3.9644267E-2,2.4381023E-2,4.2957338E-3,-6.656139E-2,3.7952457E-2,-4.7413554E-2,2.3114098E-2,-1.5551892E-4,-8.176785E-2,-1.6637342E-2,6.5728696E-3,-3.33866E-2,-3.2345243E-3,-3.953375E-2,-8.018507E-2],"split_indices":[85,119,73,101,82,152,18,33,33,101,120,23,24,84,116,84,82,17,148,153,3,111,153,64,101,102,84,71,4,87,94,0,0,0,0,0,0,0,0,0,0,0,0,0,0,0,0,0,0,0,0,0,0,0,0,0,0,0,0,0,0,0,0],"split_type":[0,0,0,0,0,0,0,0,0,0,0,0,0,0,0,0,0,0,0,0,0,0,0,0,0,0,0,0,0,0,0,0,0,0,0,0,0,0,0,0,0,0,0,0,0,0,0,0,0,0,0,0,0,0,0,0,0,0,0,0,0,0,0],"sum_hessian":[7.562531E4,2.0217895E4,5.540742E4,5.4057827E3,1.4812112E4,4.841178E4,6.9956396E3,3.7113452E3,1.6944374E3,6.0655435E3,8.746569E3,2.836483E4,2.004695E4,5.251909E3,1.7437301E3,2.153294E3,1.5580514E3,1.2896538E3,4.047836E2,5.1707666E3,8.947768E2,9.367744E2,7.8097944E3,1.8012808E3,2.6563549E4,1.110638E4,8.94057E3,1.5356812E2,5.0983413E3,1.2843218E3,4.594083E2,1.1939889E3,9.5930505E2,4.7153384E2,1.0865175E3,8.9308234E2,3.9657144E2,3.8951398E2,1.5269611E1,4.780728E3,3.9003864E2,1.1027517E2,7.8450165E2,9.163007E1,8.451443E2,7.2209023E3,5.888925E2,1.6424521E2,1.6370356E3,1.688592E4,9.67763E3,7.506526E1,1.1031314E4,1.6892175E2,8.771648E3,3.45617E1,1.1900642E2,1.5891051E3,3.509236E3,7.818245E2,5.0249728E2,2.997175E2,1.5969083E2],"tree_param":{"num_deleted":"0","num_feature":"203","num_nodes":"63","size_leaf_vector":"1"}},{"base_weights":[-7.298669E-4,-8.907177E-1,3.1943935E-1,-4.7693777E-1,-1.043847E0,3.5768434E-1,-8.631082E-1,-6.692718E-1,-5.936235E-2,-8.572721E-1,-1.1739384E0,3.1152958E-2,4.6071887E-1,-7.5180256E-1,-1.2399527E0,-4.683892E-1,-9.4594455E-1,-1.9199919E-2,-1.131198E0,-9.364682E-1,-4.0547866E-1,-1.1984898E0,-8.894122E-1,1.4284998E-1,-3.7640518E-1,5.1482916E-1,1.3126642E-2,-9.05822E-1,-4.5989898E-1,-1.5222517E-1,-1.2806367E0,1.0441097E-2,-2.7959535E-2,-3.2871723E-2,-5.3611767E-2,-1.1703701E-2,9.30681E-3,6.674023E-2,-6.109876E-2,-1.004191E-2,-5.0066527E-2,-5.056941E-2,-1.4515683E-2,-4.8522383E-2,-6.1184376E-2,-4.7050413E-2,5.106758E-3,1.1470516E-2,-2.159127E-2,-1.31072225E-2,-3.7975546E-2,1.9710165E-2,3.359448E-2,7.281015E-3,-1.7879015E-2,-3.3241253E-2,-5.329268E-2,5.0183095E-4,-3.869885E-2,6.908987E-2,-5.228371E-2,2.7822992E-2,-6.518291E-2],"categories":[],"categories_nodes":[],"categories_segments":[],"categories_sizes":[],"default_left":[0,0,0,0,0,0,0,0,0,0,0,0,0,0,0,0,0,0,0,0,0,0,0,0,0,0,0,0,0,0,0,0,0,0,0,0,0,0,0,0,0,0,0,0,0,0,0,0,0,0,0,0,0,0,0,0,0,0,0,0,0,0,0],"id":15,"left_children":[1,3,5,7,9,11,13,15,17,19,21,23,25,27,29,31,33,35,37,39,41,43,45,47,49,51,53,55,57,59,61,-1,-1,-1,-1,-1,-1,-1,-1,-1,-1,-1,-1,-1,-1,-1,-1,-1,-1,-1,-1,-1,-1,-1,-1,-1,-1,-1,-1,-1,-1,-1,-1],"loss_changes":[2.1351762E4,1.2556357E3,2.4926392E3,4.301825E2,3.5018262E2,1.7959707E3,7.149426E1,2.0338733E2,7.274333E1,2.1243408E2,5.8466797E1,5.829824E2,9.827627E2,5.962738E1,1.7159973E1,1.3089172E2,5.5468872E1,7.197511E1,1.5293846E1,2.4123193E2,6.173111E1,4.3875977E1,3.492743E1,5.000944E2,1.20388855E2,6.8558984E2,2.150581E2,3.2968872E1,6.839171E1,2.2379671E1,1.6707825E1,0E0,0E0,0E0,0E0,0E0,0E0,0E0,0E0,0E0,0E0,0E0,0E0,0E0,0E0,0E0,0E0,0E0,0E0,0E0,0E0,0E0,0E0,0E0,0E0,0E0,0E0,0E0,0E0,0E0,0E0,0E0,0E0],"parents":[2147483647,0,0,1,1,2,2,3,3,4,4,5,5,6,6,7,7,8,8,9,9,10,10,11,11,12,12,13,13,14,14,15,15,16,16,17,17,18,18,19,19,20,20,21,21,22,22,23,23,24,24,25,25,26,26,27,27,28,28,29,29,30,30],"right_children":[2,4,6,8,10,12,14,16,18,20,22,24,26,28,30,32,34,36,38,40,42,44,46,48,50,52,54,56,58,60,62,-1,-1,-1,-1,-1,-1,-1,-1,-1,-1,-1,-1,-1,-1,-1,-1,-1,-1,-1,-1,-1,-1,-1,-1,-1,-1,-1,-1,-1,-1,-1,-1],"split_conditions":[2E0,2.3529412E-2,2E0,1E0,8.05E0,9E0,4E0,2.7502483E-1,3E0,1E0,1E0,4.7376127E0,1.06E2,4E0,8.125E0,1E0,7.05E0,2E0,3.9449543E-1,1E0,8.969E1,2.3529412E-2,6.7E0,4.598338E-1,5.5391865E1,4E0,1.19E2,1.57E2,8.2474224E-2,1.1E2,1.18E2,1.0441097E-2,-2.7959535E-2,-3.2871723E-2,-5.3611767E-2,-1.1703701E-2,9.30681E-3,6.674023E-2,-6.109876E-2,-1.004191E-2,-5.0066527E-2,-5.056941E-2,-1.4515683E-2,-4.8522383E-2,-6.1184376E-2,-4.7050413E-2,5.106758E-3,1.1470516E-2,-2.159127E-2,-1.31072225E-2,-3.7975546E-2,1.9710165E-2,3.359448E-2,7.281015E-3,-1.7879015E-2,-3.3241253E-2,-5.329268E-2,5.0183095E-4,-3.869885E-2,6.908987E-2,-5.228371E-2,2.7822992E-2,-6.518291E-2],"split_indices":[85,119,98,101,82,54,98,33,98,101,153,34,81,152,11,151,82,152,120,151,3,108,87,107,73,152,81,65,113,8,185,0,0,0,0,0,0,0,0,0,0,0,0,0,0,0,0,0,0,0,0,0,0,0,0,0,0,0,0,0,0,0,0],"split_type":[0,0,0,0,0,0,0,0,0,0,0,0,0,0,0,0,0,0,0,0,0,0,0,0,0,0,0,0,0,0,0,0,0,0,0,0,0,0,0,0,0,0,0,0,0,0,0,0,0,0,0,0,0,0,0,0,0,0,0,0,0,0,0],"sum_hessian":[7.493048E4,1.982376E4,5.510672E4,5.355756E3,1.4468003E4,5.338101E4,1.725708E3,3.6664136E3,1.6893424E3,5.946798E3,8.521205E3,1.2804138E4,4.057687E4,1.3345325E3,3.9117557E2,2.1257048E3,1.5407087E3,1.629309E3,6.003343E1,5.058931E3,8.878666E2,7.8413706E3,6.798345E2,1.0050349E4,2.7537893E3,3.6200387E4,4.376487E3,8.722154E2,4.6231702E2,1.4274483E1,3.769011E2,2.5116663E2,1.8745382E3,4.7097537E2,1.0697334E3,7.96095E2,8.33214E2,1.6448975E0,5.838853E1,4.1024713E2,4.648684E3,1.4056097E2,7.473056E2,7.841591E2,7.0572114E3,6.4625696E2,3.3577534E1,8.73521E3,1.3151383E3,2.1224546E3,6.313347E2,2.0477057E4,1.5723329E4,3.224597E3,1.1518899E3,3.50117E2,5.220984E2,1.8559326E2,2.7672375E2,5.0526547E0,9.2218275E0,4.3778915E0,3.725232E2],"tree_param":{"num_deleted":"0","num_feature":"203","num_nodes":"63","size_leaf_vector":"1"}},{"base_weights":[-2.0450167E-3,2.4401553E-1,-8.617176E-1,2.984124E-1,-9.480106E-1,-5.509119E-1,-1.0305159E0,-1.9376667E-2,4.430635E-1,-1.0866435E0,-6.0976666E-1,-7.8208643E-1,-1.7717771E-1,-8.8628584E-1,-1.15896E0,9.2698616E-1,-9.761925E-2,2.917712E-1,6.01415E-1,6.0550815E-1,-1.1040696E0,-4.7561613E-1,-1.0651041E0,-9.924012E-2,-8.49754E-1,-4.2445846E-2,-7.309867E-1,-5.7551134E-1,-9.990506E-1,-1.1970404E0,-8.2782084E-1,4.869857E-2,7.84685E-3,-1.7947376E-2,9.01562E-3,-2.5659991E-2,1.8088898E-2,1.9965637E-2,3.4955896E-2,5.5732198E-2,-6.0711175E-2,-3.684328E-2,-5.8269955E-2,-4.0323667E-2,-1.2923554E-2,-5.9765656E-2,4.8208907E-3,4.1978326E-2,-1.8747704E-2,-1.7595192E-2,-4.7166176E-2,6.3292086E-3,-2.0976784E-2,-4.084883E-2,2.670442E-2,-1.507985E-2,-3.6160987E-2,-2.084237E-2,-5.23353E-2,-6.020812E-2,-3.0239357E-2,-1.630803E-2,-5.0139602E-2],"categories":[],"categories_nodes":[],"categories_segments":[],"categories_sizes":[],"default_left":[0,0,0,0,0,0,0,0,0,0,0,0,0,0,0,0,0,0,0,0,0,0,0,0,0,0,0,0,0,0,0,0,0,0,0,0,0,0,0,0,0,0,0,0,0,0,0,0,0,0,0,0,0,0,0,0,0,0,0,0,0,0,0],"id":16,"left_children":[1,3,5,7,9,11,13,15,17,19,21,23,25,27,29,31,33,35,37,39,41,43,45,47,49,51,53,55,57,59,61,-1,-1,-1,-1,-1,-1,-1,-1,-1,-1,-1,-1,-1,-1,-1,-1,-1,-1,-1,-1,-1,-1,-1,-1,-1,-1,-1,-1,-1,-1,-1,-1],"loss_changes":[1.57231E4,3.7474724E3,8.672168E2,2.5405894E3,1.1761206E2,5.0301807E2,1.975293E2,1.280248E3,9.0972754E2,5.338501E1,4.4422638E1,1.6615796E2,1.6613153E2,1.7650464E2,7.045703E1,4.7617676E1,1.1599432E3,1.0948457E3,3.6613086E2,1.8835226E1,3.9E1,4.0739365E1,2.5308868E1,8.457218E1,1.5214966E2,1.1428808E2,4.7832703E1,5.4308777E1,1.0239575E2,2.069629E1,5.1252045E1,0E0,0E0,0E0,0E0,0E0,0E0,0E0,0E0,0E0,0E0,0E0,0E0,0E0,0E0,0E0,0E0,0E0,0E0,0E0,0E0,0E0,0E0,0E0,0E0,0E0,0E0,0E0,0E0,0E0,0E0,0E0,0E0],"parents":[2147483647,0,0,1,1,2,2,3,3,4,4,5,5,6,6,7,7,8,8,9,9,10,10,11,11,12,12,13,13,14,14,15,15,16,16,17,17,18,18,19,19,20,20,21,21,22,22,23,23,24,24,25,25,26,26,27,27,28,28,29,29,30,30],"right_children":[2,4,6,8,10,12,14,16,18,20,22,24,26,28,30,32,34,36,38,40,42,44,46,48,50,52,54,56,58,60,62,-1,-1,-1,-1,-1,-1,-1,-1,-1,-1,-1,-1,-1,-1,-1,-1,-1,-1,-1,-1,-1,-1,-1,-1,-1,-1,-1,-1,-1,-1,-1,-1],"split_conditions":[2.1939954E-1,2E0,7.25E0,6E0,5E0,7.785843E-1,6.324111E-2,1E0,4E0,5.857988E-1,4E0,1E0,2.3140496E-1,2.4590164E-1,1E0,1.0625E2,2E0,1.0846523E-1,5E0,2.3E0,1E0,9.78E1,4.11E2,9.192389E0,2.4E-1,1.980198E-3,1.525E2,8.45E0,1E0,2.2924344E-1,1.5E0,4.869857E-2,7.84685E-3,-1.7947376E-2,9.01562E-3,-2.5659991E-2,1.8088898E-2,1.9965637E-2,3.4955896E-2,5.5732198E-2,-6.0711175E-2,-3.684328E-2,-5.8269955E-2,-4.0323667E-2,-1.2923554E-2,-5.9765656E-2,4.8208907E-3,4.1978326E-2,-1.8747704E-2,-1.7595192E-2,-4.7166176E-2,6.3292086E-3,-2.0976784E-2,-4.084883E-2,2.670442E-2,-1.507985E-2,-3.6160987E-2,-2.084237E-2,-5.23353E-2,-6.020812E-2,-3.0239357E-2,-1.630803E-2,-5.0139602E-2],"split_indices":[103,98,82,150,151,23,108,151,152,120,98,151,116,103,153,0,128,23,151,88,75,84,68,27,103,117,70,82,151,35,77,0,0,0,0,0,0,0,0,0,0,0,0,0,0,0,0,0,0,0,0,0,0,0,0,0,0,0,0,0,0,0,0],"split_type":[0,0,0,0,0,0,0,0,0,0,0,0,0,0,0,0,0,0,0,0,0,0,0,0,0,0,0,0,0,0,0,0,0,0,0,0,0,0,0,0,0,0,0,0,0,0,0,0,0,0,0,0,0,0,0,0,0,0,0,0,0,0,0],"sum_hessian":[7.4327836E4,5.77881E4,1.6539736E4,5.526681E4,2.5212937E3,5.8227197E3,1.0717016E4,1.7287707E4,3.79791E4,1.786759E3,7.3453455E2,3.5968086E3,2.225911E3,5.05201E3,5.6650063E3,1.3193236E3,1.5968383E4,1.9423924E4,1.855518E4,1.7868837E1,1.7688903E3,5.6895483E2,1.6557974E2,3.2451657E2,3.2722922E3,1.7912164E3,4.346944E2,1.346692E3,3.7053179E3,5.0783853E3,5.866211E2,1.2432036E3,7.611993E1,8.229868E3,7.7385146E3,1.5535961E3,1.7870326E4,6.048569E3,1.250661E4,1.4265122E1,3.603716E0,2.550171E2,1.513873E3,2.2437207E2,3.4458276E2,1.4886282E2,1.6716927E1,7.320576E1,2.513108E2,5.18468E2,2.7538242E3,1.2372742E3,5.5394226E2,4.0735953E2,2.7334875E1,4.728564E2,8.738355E2,2.810829E2,3.4242349E3,5.0170225E3,6.1362537E1,1.524359E2,4.3418518E2],"tree_param":{"num_deleted":"0","num_feature":"203","num_nodes":"63","size_leaf_vector":"1"}},{"base_weights":[-2.6047274E-3,-8.433745E-1,2.9285857E-1,-5.3442264E-1,-1.048169E0,3.271362E-1,-7.809038E-1,-2.8770348E-1,-8.559043E-1,-9.093683E-1,-1.1760798E0,1.2419334E-1,4.7466707E-1,-5.581732E-1,-9.622983E-1,8.655603E-2,-5.469492E-1,-9.1178197E-1,-3.6571863E-1,-3.4247878E-1,-9.545848E-1,-1.1790092E0,4.1245425E-1,1.9357476E-1,-2.9496342E-1,5.1545554E-1,-5.2946273E-2,-7.334307E-1,-2.6077566E-1,2.0805371E-1,-9.9314183E-1,1.8744733E-2,-4.685074E-3,-6.727408E-4,-3.537571E-2,-4.9661543E-2,-3.3794887E-2,-5.714843E-3,-4.5794353E-2,-2.3847014E-2,6.0650527E-2,-3.821079E-2,-5.582731E-2,-5.907294E-2,1.1322402E-2,7.553649E-2,-5.5373114E-2,1.259724E-2,-1.5375539E-2,-5.4162808E-2,-1.2448723E-2,2.9313102E-2,9.528929E-3,4.0554386E-3,-2.115949E-2,-3.8464345E-2,3.418423E-2,-4.5914523E-2,-3.7670608E-3,7.7376224E-2,-1.7973367E-2,-6.666037E-2,-4.5195967E-2],"categories":[],"categories_nodes":[],"categories_segments":[],"categories_sizes":[],"default_left":[0,0,0,0,0,0,0,0,0,0,0,0,0,0,0,0,0,0,0,0,0,0,0,0,0,0,0,0,0,0,0,0,0,0,0,0,0,0,0,0,0,0,0,0,0,0,0,0,0,0,0,0,0,0,0,0,0,0,0,0,0,0,0],"id":17,"left_children":[1,3,5,7,9,11,13,15,17,19,21,23,25,27,29,31,33,35,37,39,41,43,45,47,49,51,53,55,57,59,61,-1,-1,-1,-1,-1,-1,-1,-1,-1,-1,-1,-1,-1,-1,-1,-1,-1,-1,-1,-1,-1,-1,-1,-1,-1,-1,-1,-1,-1,-1,-1,-1],"loss_changes":[1.8309959E4,1.2121367E3,2.0076611E3,6.0591406E2,2.0354883E2,1.582397E3,6.764197E1,4.1972763E2,9.054541E1,1.4146533E2,2.8381836E1,6.471233E2,6.5865625E2,3.941217E1,3.372992E1,9.208082E1,2.1889801E2,5.653833E1,4.7089424E1,8.637053E1,1.5708545E2,2.086914E1,2.1329119E1,5.584479E2,1.14299835E2,6.533828E2,1.0908293E2,2.4790924E1,3.447164E1,1.9312046E1,2.6254211E1,0E0,0E0,0E0,0E0,0E0,0E0,0E0,0E0,0E0,0E0,0E0,0E0,0E0,0E0,0E0,0E0,0E0,0E0,0E0,0E0,0E0,0E0,0E0,0E0,0E0,0E0,0E0,0E0,0E0,0E0,0E0,0E0],"parents":[2147483647,0,0,1,1,2,2,3,3,4,4,5,5,6,6,7,7,8,8,9,9,10,10,11,11,12,12,13,13,14,14,15,15,16,16,17,17,18,18,19,19,20,20,21,21,22,22,23,23,24,24,25,25,26,26,27,27,28,28,29,29,30,30],"right_children":[2,4,6,8,10,12,14,16,18,20,22,24,26,28,30,32,34,36,38,40,42,44,46,48,50,52,54,56,58,60,62,-1,-1,-1,-1,-1,-1,-1,-1,-1,-1,-1,-1,-1,-1,-1,-1,-1,-1,-1,-1,-1,-1,-1,-1,-1,-1,-1,-1,-1,-1,-1,-1],"split_conditions":[2E0,4.2875156E-2,2E0,2.4E-1,9.15E0,1.8E1,1.8606776E0,4.7519097E-1,1E0,1E0,7.7E0,5.7735026E-1,1.095E2,2.8E1,4E-2,4.534005E-2,7.518797E-3,4E0,2.964427E-1,5.4054055E-2,6.557377E-2,1.7320508E0,2E0,4.6991405E-1,1.1851852E0,4.088398E-1,1.23E2,8.789586E1,1.22E2,4.4E1,9.72E1,1.8744733E-2,-4.685074E-3,-6.727408E-4,-3.537571E-2,-4.9661543E-2,-3.3794887E-2,-5.714843E-3,-4.5794353E-2,-2.3847014E-2,6.0650527E-2,-3.821079E-2,-5.582731E-2,-5.907294E-2,1.1322402E-2,7.553649E-2,-5.5373114E-2,1.259724E-2,-1.5375539E-2,-5.4162808E-2,-1.2448723E-2,2.9313102E-2,9.528929E-3,4.0554386E-3,-2.115949E-2,-3.8464345E-2,3.418423E-2,-4.5914523E-2,-3.7670608E-3,7.7376224E-2,-1.7973367E-2,-6.666037E-2,-4.5195967E-2],"split_indices":[85,119,98,103,82,54,33,23,153,151,48,28,81,54,111,111,103,152,106,15,108,23,152,107,4,107,81,73,89,129,84,0,0,0,0,0,0,0,0,0,0,0,0,0,0,0,0,0,0,0,0,0,0,0,0,0,0,0,0,0,0,0,0],"split_type":[0,0,0,0,0,0,0,0,0,0,0,0,0,0,0,0,0,0,0,0,0,0,0,0,0,0,0,0,0,0,0,0,0,0,0,0,0,0,0,0,0,0,0,0,0,0,0,0,0,0,0,0,0,0,0,0,0,0,0,0,0,0,0],"sum_hessian":[7.370467E4,1.9165502E4,5.4539168E4,7.6413765E3,1.1524126E4,5.2852656E4,1.6865149E3,4.3244775E3,3.3168987E3,5.5306797E3,5.993446E3,2.2248945E4,3.0603709E4,7.5883453E2,9.2768036E2,1.7699539E3,2.5545237E3,2.9767144E3,3.4018445E2,4.0918695E2,5.1214927E3,5.982671E3,1.0775111E1,1.9089646E4,3.1592983E3,2.8407611E4,2.1960981E3,4.7654092E2,2.8229358E2,2.3672863E1,9.040075E2,6.8044275E2,1.0895111E3,5.912189E2,1.9633049E3,2.2103035E3,7.6641077E2,2.3431326E2,1.0587119E2,3.7726807E2,3.1918879E1,2.3569084E3,2.7645845E3,5.9724204E3,1.0250415E1,6.2586913E0,4.51642E0,1.70984E4,1.9912465E3,1.7290994E2,2.9863884E3,2.3323484E4,5.0841274E3,1.6128943E3,5.8320386E2,4.652268E2,1.1314133E1,6.1230377E1,2.210632E2,6.531147E0,1.7141716E1,1.8498965E2,7.190178E2],"tree_param":{"num_deleted":"0","num_feature":"203","num_nodes":"63","size_leaf_vector":"1"}},{"base_weights":[-1.930667E-3,-8.1897444E-1,2.8035763E-1,-5.1532257E-1,-1.0264229E0,3.1355238E-1,-7.698172E-1,-3.0177262E-1,-8.652951E-1,-8.752074E-1,-1.1308302E0,7.451353E-2,4.336762E-1,-3.8530707E-1,-8.8086957E-1,-1.2931201E-1,-7.451768E-1,-6.3462996E-1,-9.598814E-1,-6.1601204E-1,-1.0012803E0,-1.1578423E0,-8.344095E-1,1.6541219E-1,-2.595248E-1,4.74824E-1,-4.5232404E-2,5.384955E-2,-8.3330005E-1,-5.225306E-1,-9.8988926E-1,3.4009784E-3,-1.9276505E-2,-1.269069E-2,-4.538395E-2,-2.1605149E-2,-4.7561716E-2,-4.46046E-2,-5.990932E-2,-1.816626E-2,-4.4385467E-2,-5.2211065E-2,-2.384906E-2,-5.8065116E-2,2.523834E-2,-2.4420299E-2,-5.260954E-2,1.2159774E-2,-1.9430673E-2,-1.0616259E-2,-4.951406E-2,-6.656025E-2,2.4298087E-2,3.2822508E-3,-2.051021E-2,-2.4141027E-2,2.217067E-2,-4.857171E-2,1.8614924E-2,-3.8272988E-2,-6.7398236E-3,-2.7591674E-2,-5.2698035E-2],"categories":[],"categories_nodes":[],"categories_segments":[],"categories_sizes":[],"default_left":[0,0,0,0,0,0,0,0,0,0,0,0,0,0,0,0,0,0,0,0,0,0,0,0,0,0,0,0,0,0,0,0,0,0,0,0,0,0,0,0,0,0,0,0,0,0,0,0,0,0,0,0,0,0,0,0,0,0,0,0,0,0,0],"id":18,"left_children":[1,3,5,7,9,11,13,15,17,19,21,23,25,27,29,31,33,35,37,39,41,43,45,47,49,51,53,55,57,59,61,-1,-1,-1,-1,-1,-1,-1,-1,-1,-1,-1,-1,-1,-1,-1,-1,-1,-1,-1,-1,-1,-1,-1,-1,-1,-1,-1,-1,-1,-1,-1,-1],"loss_changes":[1.686531E4,1.1822588E3,1.8947817E3,5.694728E2,1.7511719E2,1.5126963E3,7.0778076E1,3.6205634E2,6.240747E1,1.4840625E2,5.1841797E1,5.350813E2,6.90958E2,7.382254E1,4.9935852E1,1.7248166E2,1.05645996E2,5.363678E1,3.1990112E1,1.0231018E2,6.854077E1,3.5341797E1,4.126062E1,5.970449E2,1.2981276E2,6.501221E2,1.1232696E2,4.0001297E1,3.1286148E1,2.8472725E1,2.7179382E1,0E0,0E0,0E0,0E0,0E0,0E0,0E0,0E0,0E0,0E0,0E0,0E0,0E0,0E0,0E0,0E0,0E0,0E0,0E0,0E0,0E0,0E0,0E0,0E0,0E0,0E0,0E0,0E0,0E0,0E0,0E0,0E0],"parents":[2147483647,0,0,1,1,2,2,3,3,4,4,5,5,6,6,7,7,8,8,9,9,10,10,11,11,12,12,13,13,14,14,15,15,16,16,17,17,18,18,19,19,20,20,21,21,22,22,23,23,24,24,25,25,26,26,27,27,28,28,29,29,30,30],"right_children":[2,4,6,8,10,12,14,16,18,20,22,24,26,28,30,32,34,36,38,40,42,44,46,48,50,52,54,56,58,60,62,-1,-1,-1,-1,-1,-1,-1,-1,-1,-1,-1,-1,-1,-1,-1,-1,-1,-1,-1,-1,-1,-1,-1,-1,-1,-1,-1,-1,-1,-1,-1,-1],"split_conditions":[2E0,4.2875156E-2,2E0,2.4590164E-1,8.85E0,1.4E1,3E0,8.333333E0,3.4602077E-3,4.8034936E-2,1E0,2.8481152E1,1.09E2,1.0958904E-1,5.188388E-1,1.369338E0,5.44E-2,1.716508E-1,9.6428573E-1,2.4657534E-1,1E0,1.7320508E0,1.982E1,4.827586E-1,4.032606E0,2.8E-1,1.23E2,9.64E1,7.176471E-1,1E0,1.264911E0,3.4009784E-3,-1.9276505E-2,-1.269069E-2,-4.538395E-2,-2.1605149E-2,-4.7561716E-2,-4.46046E-2,-5.990932E-2,-1.816626E-2,-4.4385467E-2,-5.2211065E-2,-2.384906E-2,-5.8065116E-2,2.523834E-2,-2.4420299E-2,-5.260954E-2,1.2159774E-2,-1.9430673E-2,-1.0616259E-2,-4.951406E-2,-6.656025E-2,2.4298087E-2,3.2822508E-3,-2.051021E-2,-2.4141027E-2,2.217067E-2,-4.857171E-2,1.8614924E-2,-3.8272988E-2,-6.7398236E-3,-2.7591674E-2,-5.2698035E-2],"split_indices":[85,119,98,103,82,54,98,82,119,108,153,73,81,108,94,4,113,33,17,103,153,23,143,107,26,102,81,45,121,120,30,0,0,0,0,0,0,0,0,0,0,0,0,0,0,0,0,0,0,0,0,0,0,0,0,0,0,0,0,0,0,0,0],"split_type":[0,0,0,0,0,0,0,0,0,0,0,0,0,0,0,0,0,0,0,0,0,0,0,0,0,0,0,0,0,0,0,0,0,0,0,0,0,0,0,0,0,0,0,0,0,0,0,0,0,0,0,0,0,0,0,0,0,0,0,0,0,0,0],"sum_hessian":[7.3121375E4,1.8775738E4,5.4345637E4,7.6222207E3,1.1153517E4,5.2681152E4,1.6644867E3,4.734895E3,2.8873254E3,4.5594087E3,6.5941084E3,1.7620025E4,3.5061125E4,3.7400256E2,1.2904843E3,3.4099124E3,1.3249827E3,8.419048E2,2.0454208E3,1.4939197E3,3.065489E3,6.0407246E3,5.533836E2,1.3851307E4,3.768719E3,3.2287031E4,2.7740928E3,1.8930817E2,1.8469438E2,3.0237967E2,9.8810455E2,1.9267336E3,1.4831787E3,3.2992865E2,9.950541E2,5.1489746E2,3.270073E2,1.596123E3,4.4929776E2,7.7525024E2,7.1866943E2,2.8325103E3,2.329787E2,6.0284805E3,1.2244144E1,2.1501607E2,3.3836752E2,1.2146536E4,1.7047706E3,3.541278E3,2.2744093E2,1.9716626E2,3.2089865E4,2.1283315E3,6.4576117E2,7.952026E1,1.0978791E2,1.658823E2,1.8812094E1,1.8530522E2,1.1707444E2,1.2730869E2,8.6079584E2],"tree_param":{"num_deleted":"0","num_feature":"203","num_nodes":"63","size_leaf_vector":"1"}},{"base_weights":[-2.25065E-3,-7.879037E-1,2.6608047E-1,-4.751885E-1,-9.8740023E-1,2.9720208E-1,-7.2552603E-1,-2.315931E-1,-7.962865E-1,-8.4637046E-1,-1.1220895E0,3.537841E-1,-1.9150645E-1,-6.139603E-1,-1.1290529E0,1.3205038E-1,-4.8524258E-1,-8.4815085E-1,-3.388631E-1,-9.1159886E-1,-3.8668418E-1,-1.1458415E0,-8.6285675E-1,2.3122305E-1,5.303389E-1,-1.2125023E-1,-8.5387474E-1,-9.1408587E-1,-4.6871555E-1,-1.1608894E0,4.4841504E-1,1.1551002E-2,-1.9347949E-2,-6.1797737E-3,-3.5650186E-2,-3.8281467E-2,-5.5682123E-2,-4.440008E-3,-5.1820792E-2,-1.7103039E-2,-4.830218E-2,1.7795159E-2,-2.5656834E-2,-5.74587E-2,2.1475678E-2,2.1944006E-3,-4.6791133E-2,-3.223973E-2,1.45166535E-2,3.2522973E-2,1.8941617E-2,7.238167E-3,-1.9592445E-2,-6.1764378E-2,-2.6078135E-2,-4.776074E-2,7.3930444E-3,-4.761773E-2,-1.8461315E-2,-6.0461935E-2,-5.8921734E-3,8.328407E-2,-5.3211786E-2],"categories":[],"categories_nodes":[],"categories_segments":[],"categories_sizes":[],"default_left":[0,0,0,0,0,0,0,0,0,0,0,0,0,0,0,0,0,0,0,0,0,0,0,0,0,0,0,0,0,0,0,0,0,0,0,0,0,0,0,0,0,0,0,0,0,0,0,0,0,0,0,0,0,0,0,0,0,0,0,0,0,0,0],"id":19,"left_children":[1,3,5,7,9,11,13,15,17,19,21,23,25,27,29,31,33,35,37,39,41,43,45,47,49,51,53,55,57,59,61,-1,-1,-1,-1,-1,-1,-1,-1,-1,-1,-1,-1,-1,-1,-1,-1,-1,-1,-1,-1,-1,-1,-1,-1,-1,-1,-1,-1,-1,-1,-1,-1],"loss_changes":[1.528304E4,1.1509365E3,1.6678701E3,5.622263E2,2.1306934E2,1.4488999E3,7.335022E1,3.7731595E2,7.3288086E1,1.6480298E2,3.447754E1,1.01600195E3,2.5292899E2,5.58331E1,1.8350891E1,8.6455765E1,1.9838849E2,6.0159424E1,5.5289116E1,1.4921826E2,6.461725E1,2.8177734E1,3.2295258E1,1.4355333E3,3.499082E2,3.5400714E2,6.542493E1,1.8479187E1,4.1596375E1,1.7422058E1,1.6033495E1,0E0,0E0,0E0,0E0,0E0,0E0,0E0,0E0,0E0,0E0,0E0,0E0,0E0,0E0,0E0,0E0,0E0,0E0,0E0,0E0,0E0,0E0,0E0,0E0,0E0,0E0,0E0,0E0,0E0,0E0,0E0,0E0],"parents":[2147483647,0,0,1,1,2,2,3,3,4,4,5,5,6,6,7,7,8,8,9,9,10,10,11,11,12,12,13,13,14,14,15,15,16,16,17,17,18,18,19,19,20,20,21,21,22,22,23,23,24,24,25,25,26,26,27,27,28,28,29,29,30,30],"right_children":[2,4,6,8,10,12,14,16,18,20,22,24,26,28,30,32,34,36,38,40,42,44,46,48,50,52,54,56,58,60,62,-1,-1,-1,-1,-1,-1,-1,-1,-1,-1,-1,-1,-1,-1,-1,-1,-1,-1,-1,-1,-1,-1,-1,-1,-1,-1,-1,-1,-1,-1,-1,-1],"split_conditions":[2E0,4.0816326E-2,2E0,2.3853211E-1,9.033334E0,4.7376127E0,4E0,4.7519097E-1,1E0,1E0,1E0,4E0,5.081967E-1,1.04E2,1.145E2,4.508345E0,2.5974025E-3,8.256881E-2,3.7773088E-1,1E0,4.511278E-2,1.7320508E0,1.1722222E1,1.3483997E-1,1.2583058E-1,2E0,3.6363635E-2,1.022E2,9.65E1,3.857143E0,5.1E1,1.1551002E-2,-1.9347949E-2,-6.1797737E-3,-3.5650186E-2,-3.8281467E-2,-5.5682123E-2,-4.440008E-3,-5.1820792E-2,-1.7103039E-2,-4.830218E-2,1.7795159E-2,-2.5656834E-2,-5.74587E-2,2.1475678E-2,2.1944006E-3,-4.6791133E-2,-3.223973E-2,1.45166535E-2,3.2522973E-2,1.8941617E-2,7.238167E-3,-1.9592445E-2,-6.1764378E-2,-2.6078135E-2,-4.776074E-2,7.3930444E-3,-4.761773E-2,-1.8461315E-2,-6.0461935E-2,-5.8921734E-3,8.328407E-2,-5.3211786E-2],"split_indices":[85,119,98,103,82,34,98,23,153,101,153,152,107,50,132,13,119,109,33,151,111,23,11,23,24,78,17,47,84,18,42,0,0,0,0,0,0,0,0,0,0,0,0,0,0,0,0,0,0,0,0,0,0,0,0,0,0,0,0,0,0,0,0],"split_type":[0,0,0,0,0,0,0,0,0,0,0,0,0,0,0,0,0,0,0,0,0,0,0,0,0,0,0,0,0,0,0,0,0,0,0,0,0,0,0,0,0,0,0,0,0,0,0,0,0,0,0,0,0,0,0,0,0,0,0,0,0,0,0],"sum_hessian":[7.249298E4,1.8455309E4,5.403767E4,7.1893E3,1.1266009E4,5.2393984E4,1.6436873E3,4.0889846E3,3.1003152E3,5.5070254E3,5.758983E3,4.6957574E4,5.436409E3,1.2896505E3,3.5403683E2,1.6803859E3,2.4085986E3,2.783821E3,3.1649408E2,4.821836E3,6.8518964E2,5.2724756E3,4.865073E2,2.7718332E4,1.9239244E4,4.9161455E3,5.2026373E2,4.1885623E2,8.7079425E2,3.4729187E2,6.7449765E0,1.4117373E3,2.6864862E2,9.31335E2,1.4772637E3,2.1266787E3,6.5714233E2,2.3380539E2,8.268869E1,4.2135822E2,4.4004775E3,9.943676E1,5.8575287E2,5.261616E3,1.0859619E1,3.626325E1,4.5024405E2,1.7514672E3,2.5966865E4,1.0729316E4,8.509927E3,2.4793103E3,2.4368352E3,2.409709E2,2.7929282E2,4.0333563E2,1.5520573E1,1.4710623E2,7.2368805E2,3.3175436E2,1.5537481E1,3.6813436E0,3.063633E0],"tree_param":{"num_deleted":"0","num_feature":"203","num_nodes":"63","size_leaf_vector":"1"}},{"base_weights":[3.4996454E-4,-7.3094213E-1,2.7641618E-1,-8.7448525E-1,-2.641275E-1,3.0758974E-1,-7.308628E-1,-6.6277575E-1,-1.025515E0,-1.4180127E-1,-6.992754E-1,3.718492E-1,-8.112979E-2,-8.968339E-1,-4.0582877E-1,4.8076075E-1,-6.9750357E-1,-1.072503E0,-5.839632E-1,-3.0272353E-1,1.726874E-1,-4.740645E-1,-9.656356E-1,4.3092224E-1,6.112857E-2,1.3399407E-1,-2.5561616E-1,-7.024194E-1,-1.0272485E0,1.1721807E-1,-5.7747626E-1,-6.6659376E-2,2.9441718E-2,2.364357E-2,-3.6400158E-2,-4.7716644E-2,-5.7563283E-2,-3.3672992E-2,4.2302545E-2,2.6453887E-3,-2.256596E-2,1.5590103E-2,-2.5032312E-2,-5.5572666E-2,-1.8862972E-2,-5.489598E-2,-2.9167159E-2,2.7176932E-2,8.133861E-3,1.020742E-2,-1.7832384E-2,9.06382E-3,-4.959489E-2,-7.7582807E-3,-3.8028326E-2,3.0056346E-2,-3.7331957E-2,-2.5383666E-2,-5.544048E-2,1.5920794E-2,-4.2507138E-2,-4.131352E-2,-1.4017201E-2],"categories":[],"categories_nodes":[],"categories_segments":[],"categories_sizes":[],"default_left":[0,0,0,0,0,0,0,0,0,0,0,0,0,0,0,0,0,0,0,0,0,0,0,0,0,0,0,0,0,0,0,0,0,0,0,0,0,0,0,0,0,0,0,0,0,0,0,0,0,0,0,0,0,0,0,0,0,0,0,0,0,0,0],"id":20,"left_children":[1,3,5,7,9,11,13,15,17,19,21,23,25,27,29,31,33,35,37,39,41,43,45,47,49,51,53,55,57,59,61,-1,-1,-1,-1,-1,-1,-1,-1,-1,-1,-1,-1,-1,-1,-1,-1,-1,-1,-1,-1,-1,-1,-1,-1,-1,-1,-1,-1,-1,-1,-1,-1],"loss_changes":[1.4520795E4,1.320585E3,1.639792E3,4.8134082E2,2.4673438E2,1.2651626E3,8.42099E1,2.497107E2,1.8188477E2,1.83297E2,6.0565063E1,7.9775146E2,2.6975928E2,2.5570679E1,4.7808937E1,3.718424E1,2.1790576E2,7.288965E1,1.09131775E2,1.26619354E2,1.15020645E2,3.371289E1,2.287973E1,1.1031372E3,4.1499338E2,1.7153072E2,2.0114688E2,2.4629715E1,2.5646729E1,2.6004873E1,2.9378174E1,0E0,0E0,0E0,0E0,0E0,0E0,0E0,0E0,0E0,0E0,0E0,0E0,0E0,0E0,0E0,0E0,0E0,0E0,0E0,0E0,0E0,0E0,0E0,0E0,0E0,0E0,0E0,0E0,0E0,0E0,0E0,0E0],"parents":[2147483647,0,0,1,1,2,2,3,3,4,4,5,5,6,6,7,7,8,8,9,9,10,10,11,11,12,12,13,13,14,14,15,15,16,16,17,17,18,18,19,19,20,20,21,21,22,22,23,23,24,24,25,25,26,26,27,27,28,28,29,29,30,30],"right_children":[2,4,6,8,10,12,14,16,18,20,22,24,26,28,30,32,34,36,38,40,42,44,46,48,50,52,54,56,58,60,62,-1,-1,-1,-1,-1,-1,-1,-1,-1,-1,-1,-1,-1,-1,-1,-1,-1,-1,-1,-1,-1,-1,-1,-1,-1,-1,-1,-1,-1,-1,-1,-1],"split_conditions":[3E0,1E0,2E0,4.8034936E-2,9.5E0,2.0578108E1,4E0,1.3539651E-2,1E0,3E0,5.9907835E-2,4.2105263E-1,1.8E0,1.61E2,2.1213204E-1,8E-1,1E-1,8.95E0,2.1803895E-1,4.3902438E-2,2.770083E-3,3.65E1,1.36E2,3.1E1,1.445E2,5.6E-1,3.114754E-1,4E-2,1.036E2,8.075E1,1.6508804E2,-6.6659376E-2,2.9441718E-2,2.364357E-2,-3.6400158E-2,-4.7716644E-2,-5.7563283E-2,-3.3672992E-2,4.2302545E-2,2.6453887E-3,-2.256596E-2,1.5590103E-2,-2.5032312E-2,-5.5572666E-2,-1.8862972E-2,-5.489598E-2,-2.9167159E-2,2.7176932E-2,8.133861E-3,1.020742E-2,-1.7832384E-2,9.06382E-3,-4.959489E-2,-7.7582807E-3,-3.8028326E-2,3.0056346E-2,-3.7331957E-2,-2.5383666E-2,-5.544048E-2,1.5920794E-2,-4.2507138E-2,-4.131352E-2,-1.4017201E-2],"split_indices":[85,101,98,108,1,73,152,103,153,152,108,107,66,65,24,47,82,82,35,111,117,45,52,92,70,107,116,111,149,42,12,0,0,0,0,0,0,0,0,0,0,0,0,0,0,0,0,0,0,0,0,0,0,0,0,0,0,0,0,0,0,0,0],"split_type":[0,0,0,0,0,0,0,0,0,0,0,0,0,0,0,0,0,0,0,0,0,0,0,0,0,0,0,0,0,0,0,0,0,0,0,0,0,0,0,0,0,0,0,0,0,0,0,0,0,0,0,0,0,0,0,0,0,0,0,0,0,0,0],"sum_hessian":[7.1924055E4,1.9710312E4,5.2213746E4,1.5074199E4,4.6361123E3,5.0647004E4,1.5667434E3,6.278521E3,8.795679E3,3.6198477E3,1.0162646E3,4.346227E4,7.184734E3,1.0359833E3,5.3076013E2,1.8467252E2,6.0938486E3,7.9484146E3,8.4726416E2,2.394587E3,1.2252607E3,5.521742E2,4.6409042E2,3.6519023E4,6.943245E3,3.2177764E3,3.9669575E3,4.1849768E2,6.174856E2,1.3122041E2,3.995397E2,9.746561E0,1.7492595E2,1.5440207E2,5.939447E3,3.184192E3,4.764222E3,7.978596E2,4.9404526E1,7.058745E2,1.6887125E3,1.0159056E3,2.0935512E2,7.142338E1,4.8075082E2,3.4339435E2,1.20696075E2,2.5720041E4,1.0798982E4,5.17289E3,1.7703549E3,3.0888958E3,1.2888058E2,3.3098345E3,6.571231E2,1.3317556E1,4.051801E2,8.475954E1,5.327261E2,1.0918274E2,2.2037678E1,2.1648889E2,1.830508E2],"tree_param":{"num_deleted":"0","num_feature":"203","num_nodes":"63","size_leaf_vector":"1"}},{"base_weights":[-5.261673E-3,-7.467595E-1,2.4004672E-1,-4.8573384E-1,-9.7441876E-1,3.834507E-1,4.7533084E-2,-2.765399E-1,-7.6083076E-1,-1.0103673E0,-5.873476E-1,4.9937987E-1,1.3516173E-2,2.3481748E-1,-1.4462319E-1,1.1332421E-2,-5.512943E-1,-8.1695443E-1,-2.9285818E-1,-9.0536284E-1,-1.1109774E0,-3.4671304E-1,-1.0019107E0,5.297245E-1,-4.8830295E-1,8.5806094E-2,-6.549539E-1,2.9212946E-1,-6.9643927E-1,-6.5410614E-2,-6.1485493E-1,6.7542554E-3,-2.077726E-2,-8.478205E-3,-3.7743274E-2,-4.792869E-2,-3.410902E-2,3.418879E-4,-4.0647287E-2,-5.5787124E-2,-4.050618E-2,-5.5746276E-2,2.2205602E-2,1.585237E-2,-2.754311E-2,-5.4898232E-2,-5.8637313E-3,2.9651538E-2,7.916698E-3,-3.0876165E-2,1.9992504E-2,-2.7510559E-3,2.1618765E-2,4.310546E-3,-3.911398E-2,-2.3605818E-2,1.7061291E-2,-2.5314221E-2,-5.043589E-2,-2.318237E-2,2.531032E-4,-2.447802E-2,-5.5782456E-2],"categories":[],"categories_nodes":[],"categories_segments":[],"categories_sizes":[],"default_left":[0,0,0,0,0,0,0,0,0,0,0,0,0,0,0,0,0,0,0,0,0,0,0,0,0,0,0,0,0,0,0,0,0,0,0,0,0,0,0,0,0,0,0,0,0,0,0,0,0,0,0,0,0,0,0,0,0,0,0,0,0,0,0],"id":21,"left_children":[1,3,5,7,9,11,13,15,17,19,21,23,25,27,29,31,33,35,37,39,41,43,45,47,49,51,53,55,57,59,61,-1,-1,-1,-1,-1,-1,-1,-1,-1,-1,-1,-1,-1,-1,-1,-1,-1,-1,-1,-1,-1,-1,-1,-1,-1,-1,-1,-1,-1,-1,-1,-1],"loss_changes":[1.2952118E4,1.0514102E3,1.4771135E3,4.7446338E2,1.309541E2,1.31504E3,8.220928E2,3.7071268E2,9.3323E1,9.036719E1,8.003601E1,6.999917E2,3.5366446E2,6.176316E2,4.1994537E2,1.2101948E2,1.8622723E2,6.004712E1,5.9708694E1,8.400073E1,2.7585938E1,6.946863E1,2.4973053E1,5.3247754E2,8.017488E1,3.2235458E2,6.746808E1,4.090874E2,3.9332214E1,2.7085254E2,1.0144397E2,0E0,0E0,0E0,0E0,0E0,0E0,0E0,0E0,0E0,0E0,0E0,0E0,0E0,0E0,0E0,0E0,0E0,0E0,0E0,0E0,0E0,0E0,0E0,0E0,0E0,0E0,0E0,0E0,0E0,0E0,0E0,0E0],"parents":[2147483647,0,0,1,1,2,2,3,3,4,4,5,5,6,6,7,7,8,8,9,9,10,10,11,11,12,12,13,13,14,14,15,15,16,16,17,17,18,18,19,19,20,20,21,21,22,22,23,23,24,24,25,25,26,26,27,27,28,28,29,29,30,30],"right_children":[2,4,6,8,10,12,14,16,18,20,22,24,26,28,30,32,34,36,38,40,42,44,46,48,50,52,54,56,58,60,62,-1,-1,-1,-1,-1,-1,-1,-1,-1,-1,-1,-1,-1,-1,-1,-1,-1,-1,-1,-1,-1,-1,-1,-1,-1,-1,-1,-1,-1,-1,-1,-1],"split_conditions":[2E0,5.479452E-2,3.1E1,2.4E-1,1E0,3.821656E-1,2.5974025E-3,1.3529412E0,1E0,1.2244898E-1,1.2461538E1,2.4423963E-1,2.967359E-3,2E0,1.05E2,2.8524785E0,2.5974025E-3,8.695652E-2,2.8653296E-3,2E0,1.7320508E0,1.5118579E0,3.14E2,1.04E2,1E0,9.965398E-1,1.1446667E2,2E0,8.00528E-1,3.5E0,1.21E2,6.7542554E-3,-2.077726E-2,-8.478205E-3,-3.7743274E-2,-4.792869E-2,-3.410902E-2,3.418879E-4,-4.0647287E-2,-5.5787124E-2,-4.050618E-2,-5.5746276E-2,2.2205602E-2,1.585237E-2,-2.754311E-2,-5.4898232E-2,-5.8637313E-3,2.9651538E-2,7.916698E-3,-3.0876165E-2,1.9992504E-2,-2.7510559E-3,2.1618765E-2,4.310546E-3,-3.911398E-2,-2.3605818E-2,1.7061291E-2,-2.5314221E-2,-5.043589E-2,-2.318237E-2,2.531032E-4,-2.447802E-2,-5.5782456E-2],"split_indices":[85,119,71,103,153,107,119,4,153,119,1,103,117,98,81,33,119,21,116,80,23,30,8,81,153,104,134,152,37,85,81,0,0,0,0,0,0,0,0,0,0,0,0,0,0,0,0,0,0,0,0,0,0,0,0,0,0,0,0,0,0,0,0],"split_type":[0,0,0,0,0,0,0,0,0,0,0,0,0,0,0,0,0,0,0,0,0,0,0,0,0,0,0,0,0,0,0,0,0,0,0,0,0,0,0,0,0,0,0,0,0,0,0,0,0,0,0,0,0,0,0,0,0,0,0,0,0,0,0],"sum_hessian":[7.120433E4,1.770005E4,5.3504277E4,8.247225E3,9.452825E3,3.0662615E4,2.2841662E4,4.685898E3,3.5613267E3,8.648043E3,8.047818E2,2.3346117E4,7.316499E3,1.1567358E4,1.1274305E4,2.2887905E3,2.3971077E3,3.1792905E3,3.820362E2,4.2365044E3,4.411539E3,5.1037134E2,2.944105E2,2.2650684E4,6.954343E2,6.603277E3,7.1322217E2,1.0897391E4,6.699675E2,9.64988E3,1.6244249E3,1.7749209E3,5.138696E2,8.34365E2,1.5627426E3,1.5472946E3,1.631996E3,2.4299773E2,1.3903847E2,1.3168718E3,2.9196323E3,4.40065E3,1.0889319E1,1.1991917E2,3.9045218E2,2.6535687E2,2.9053623E1,1.9351484E4,3.2991982E3,6.0737067E2,8.806366E1,4.6959395E3,1.9073376E3,1.04609795E2,6.0861237E2,6.572874E2,1.0240104E4,4.1803564E2,2.5193193E2,1.450066E3,8.199813E3,1.3009225E3,3.2350247E2],"tree_param":{"num_deleted":"0","num_feature":"203","num_nodes":"63","size_leaf_vector":"1"}},{"base_weights":[-2.5393048E-3,-6.8363816E-1,2.4779062E-1,-8.396692E-1,-2.0046876E-1,3.1213918E-1,-1.5586601E-1,-5.9981E-1,-9.7830296E-1,-9.9540256E-2,-7.955718E-1,3.5927555E-1,-7.197239E-2,-1.00755654E-1,-9.2466813E-1,4.4205794E-1,-6.443597E-1,-1.0190078E0,-5.737154E-1,-6.422329E-2,-1.118683E0,1.107326E0,-8.295735E-1,4.2017815E-1,5.52946E-2,1.1108311E-1,-3.299056E-1,-3.920672E-2,-6.4825124E-1,1.1500888E0,-9.467284E-1,2.9519482E-2,-3.8317833E-2,-3.5289295E-2,-1.0373984E-3,-4.2990293E-2,-5.369665E-2,3.47085E-2,-3.3220485E-2,1.0448354E-3,-2.2316266E-2,6.515058E-2,-5.824094E-2,1.1624435E-1,-5.4655254E-2,-5.2699197E-2,-2.8614923E-2,2.8810559E-2,1.1730128E-2,9.603701E-3,-1.7239377E-2,1.2752339E-2,-4.761938E-3,-1.0576044E-2,-3.673011E-2,3.4390904E-3,-2.0813446E-2,-1.2248145E-2,-4.2732544E-2,-4.1329097E-2,9.281018E-2,-4.8707917E-2,4.07543E-2],"categories":[],"categories_nodes":[],"categories_segments":[],"categories_sizes":[],"default_left":[0,0,0,0,0,0,0,0,0,0,0,0,0,0,0,0,0,0,0,0,0,0,0,0,0,0,0,0,0,0,0,0,0,0,0,0,0,0,0,0,0,0,0,0,0,0,0,0,0,0,0,0,0,0,0,0,0,0,0,0,0,0,0],"id":22,"left_children":[1,3,5,7,9,11,13,15,17,19,21,23,25,27,29,31,33,35,37,39,41,43,45,47,49,51,53,55,57,59,61,-1,-1,-1,-1,-1,-1,-1,-1,-1,-1,-1,-1,-1,-1,-1,-1,-1,-1,-1,-1,-1,-1,-1,-1,-1,-1,-1,-1,-1,-1,-1,-1],"loss_changes":[1.2066347E4,1.4337568E3,1.3442507E3,4.7748633E2,2.788659E2,8.081753E2,3.0140878E2,2.4482532E2,1.4943652E2,1.4288979E2,4.4481995E1,7.3600195E2,2.3043079E2,2.2376956E2,2.2869019E1,3.9283733E1,1.935437E2,7.143848E1,9.647748E1,1.2490199E2,1.637416E1,3.535515E1,3.762027E1,9.589072E2,3.632588E2,8.481987E1,9.6899185E1,2.4316438E2,5.5651E1,9.152338E0,2.3575409E1,0E0,0E0,0E0,0E0,0E0,0E0,0E0,0E0,0E0,0E0,0E0,0E0,0E0,0E0,0E0,0E0,0E0,0E0,0E0,0E0,0E0,0E0,0E0,0E0,0E0,0E0,0E0,0E0,0E0,0E0,0E0,0E0],"parents":[2147483647,0,0,1,1,2,2,3,3,4,4,5,5,6,6,7,7,8,8,9,9,10,10,11,11,12,12,13,13,14,14,15,15,16,16,17,17,18,18,19,19,20,20,21,21,22,22,23,23,24,24,25,25,26,26,27,27,28,28,29,29,30,30],"right_children":[2,4,6,8,10,12,14,16,18,20,22,24,26,28,30,32,34,36,38,40,42,44,46,48,50,52,54,56,58,60,62,-1,-1,-1,-1,-1,-1,-1,-1,-1,-1,-1,-1,-1,-1,-1,-1,-1,-1,-1,-1,-1,-1,-1,-1,-1,-1,-1,-1,-1,-1,-1,-1],"split_conditions":[3E0,1E0,2.4299734E1,4.4155844E-2,8.306709E-2,1.06E2,3E0,7.518797E-3,1E0,3E0,7.837838E-1,4.2105263E-1,3.1E1,2.3495702E-1,4.9796253E-1,1.05E2,1E0,4.8034936E-2,1.5153846E1,7.0710677E-1,8.5E1,6.9E1,7.837838E-1,2.3E1,1.445E2,1.15E2,1.21E2,7.4418604E-1,1E1,1.28E2,1.45E2,2.9519482E-2,-3.8317833E-2,-3.5289295E-2,-1.0373984E-3,-4.2990293E-2,-5.369665E-2,3.47085E-2,-3.3220485E-2,1.0448354E-3,-2.2316266E-2,6.515058E-2,-5.824094E-2,1.1624435E-1,-5.4655254E-2,-5.2699197E-2,-2.8614923E-2,2.8810559E-2,1.1730128E-2,9.603701E-3,-1.7239377E-2,1.2752339E-2,-4.761938E-3,-1.0576044E-2,-3.673011E-2,3.4390904E-3,-2.0813446E-2,-1.2248145E-2,-4.2732544E-2,-4.1329097E-2,9.281018E-2,-4.8707917E-2,4.07543E-2],"split_indices":[85,101,73,119,119,81,98,103,153,98,120,107,71,103,33,81,153,108,143,28,166,42,115,92,70,81,81,18,1,198,47,0,0,0,0,0,0,0,0,0,0,0,0,0,0,0,0,0,0,0,0,0,0,0,0,0,0,0,0,0,0,0,0],"split_type":[0,0,0,0,0,0,0,0,0,0,0,0,0,0,0,0,0,0,0,0,0,0,0,0,0,0,0,0,0,0,0,0,0,0,0,0,0,0,0,0,0,0,0,0,0,0,0,0,0,0,0,0,0,0,0,0,0,0,0,0,0,0,0],"sum_hessian":[7.07686E4,1.9019238E4,5.1749367E4,1.4376018E4,4.64322E3,4.463426E4,7.115105E3,5.2675728E3,9.108445E3,3.970925E3,6.722951E2,3.9755695E4,4.878568E3,6.6402407E3,4.74864E2,2.1563661E2,5.051936E3,8.274448E3,8.3399634E2,3.8389543E3,1.3197058E2,1.1247799E1,6.610473E2,3.3119766E4,6.635928E3,2.8537952E3,2.0247726E3,5.9701533E3,6.700874E2,4.457997E0,4.70406E2,1.925168E2,2.3119816E1,4.598818E3,4.5311804E2,2.1267275E3,6.147721E3,5.5230675E1,7.787656E2,3.1403345E3,6.986199E2,1.9578731E0,1.3001271E2,7.2046833E0,4.0431156E0,3.5142078E2,3.0962653E2,1.799085E4,1.5128916E4,4.9456406E3,1.6902874E3,1.6807762E3,1.1730189E3,1.5677004E3,4.570721E2,4.641633E3,1.3285205E3,2.2758717E2,4.425002E2,1.1284505E0,3.3295465E0,4.6363467E2,6.771324E0],"tree_param":{"num_deleted":"0","num_feature":"203","num_nodes":"63","size_leaf_vector":"1"}},{"base_weights":[-2.3360231E-3,-6.633683E-1,2.3619123E-1,-3.0681482E-1,-8.6331385E-1,5.2016225E-2,3.704904E-1,-1.1817861E-1,-6.7672706E-1,-6.775967E-1,-1.0083785E0,8.6601E-2,-7.840455E-1,4.205381E-1,-7.613654E-4,1.9806534E-1,-3.157961E-1,-2.0607498E-1,-7.433515E-1,-5.047342E-1,-8.880604E-1,-1.0394222E0,-6.7924356E-1,1.2347113E-1,-5.4369646E-1,1.4757613E0,-8.0426633E-1,4.380181E-1,-3.9241827E-1,8.968606E-2,-4.7937682E-1,1.5029035E-2,-2.5942689E-2,-9.124322E-3,-4.1339416E-2,3.5021372E-2,-1.6737763E-2,-2.559338E-4,-3.929943E-2,-1.3257978E-2,-4.029245E-2,2.8764496E-2,-4.5604046E-2,-1.4919086E-2,-5.259174E-2,-5.835929E-3,-4.2741004E-2,1.3241852E-2,-1.7936196E-3,-1.8747197E-2,-5.0452538E-2,1.06496595E-1,-4.6893116E-2,-2.659515E-2,-4.7716945E-2,1.3954478E-2,2.611861E-2,-1.1329432E-2,-4.5179695E-2,1.1418093E-2,-7.601467E-3,-1.4173724E-2,-4.8326664E-2],"categories":[],"categories_nodes":[],"categories_segments":[],"categories_sizes":[],"default_left":[0,0,0,0,0,0,0,0,0,0,0,0,0,0,0,0,0,0,0,0,0,0,0,0,0,0,0,0,0,0,0,0,0,0,0,0,0,0,0,0,0,0,0,0,0,0,0,0,0,0,0,0,0,0,0,0,0,0,0,0,0,0,0],"id":23,"left_children":[1,3,5,7,9,11,13,15,17,19,21,23,25,27,29,31,33,35,37,39,41,43,45,47,49,51,53,55,57,59,61,-1,-1,-1,-1,-1,-1,-1,-1,-1,-1,-1,-1,-1,-1,-1,-1,-1,-1,-1,-1,-1,-1,-1,-1,-1,-1,-1,-1,-1,-1,-1,-1],"loss_changes":[1.1067602E4,1.3266323E3,1.2758013E3,4.666577E2,3.205752E2,6.2903986E2,5.5423364E2,2.769819E2,7.067493E1,1.8991919E2,6.767871E1,4.855161E2,4.0675293E1,3.7370312E2,1.534829E2,1.254414E2,1.8563779E2,3.3068886E1,6.226477E1,2.072041E2,8.34209E1,5.592627E1,5.715985E1,4.4456998E2,9.02923E1,1.4655481E1,3.4528076E1,3.4483496E2,4.6741287E1,9.9990875E1,5.3506027E1,0E0,0E0,0E0,0E0,0E0,0E0,0E0,0E0,0E0,0E0,0E0,0E0,0E0,0E0,0E0,0E0,0E0,0E0,0E0,0E0,0E0,0E0,0E0,0E0,0E0,0E0,0E0,0E0,0E0,0E0,0E0,0E0],"parents":[2147483647,0,0,1,1,2,2,3,3,4,4,5,5,6,6,7,7,8,8,9,9,10,10,11,11,12,12,13,13,14,14,15,15,16,16,17,17,18,18,19,19,20,20,21,21,22,22,23,23,24,24,25,25,26,26,27,27,28,28,29,29,30,30],"right_children":[2,4,6,8,10,12,14,16,18,20,22,24,26,28,30,32,34,36,38,40,42,44,46,48,50,52,54,56,58,60,62,-1,-1,-1,-1,-1,-1,-1,-1,-1,-1,-1,-1,-1,-1,-1,-1,-1,-1,-1,-1,-1,-1,-1,-1,-1,-1,-1,-1,-1,-1,-1,-1],"split_conditions":[3E0,2.7522936E-2,1.6E1,2.4E-1,8.05E0,2E0,1.05E2,3E0,6.45E0,2.4657534E-1,1E0,2.4221453E-1,6.486486E-1,2E0,1.23E2,2.55E2,8.55E0,1.17E1,4.1290322E-1,1.3809524E0,1E-1,7.6551723E-1,1.7952703E1,2.773501E0,9.65E0,6.492578E1,9.66184E-1,1.04E2,3.2222223E0,2.1790663E1,4.262295E-1,1.5029035E-2,-2.5942689E-2,-9.124322E-3,-4.1339416E-2,3.5021372E-2,-1.6737763E-2,-2.559338E-4,-3.929943E-2,-1.3257978E-2,-4.029245E-2,2.8764496E-2,-4.5604046E-2,-1.4919086E-2,-5.259174E-2,-5.835929E-3,-4.2741004E-2,1.3241852E-2,-1.7936196E-3,-1.8747197E-2,-5.0452538E-2,1.06496595E-1,-4.6893116E-2,-2.659515E-2,-4.7716945E-2,1.3954478E-2,2.611861E-2,-1.1329432E-2,-4.5179695E-2,1.1418093E-2,-7.601467E-3,-1.4173724E-2,-4.8326664E-2],"split_indices":[85,119,54,103,82,98,81,64,82,103,153,103,120,98,81,12,82,189,6,4,82,120,2,29,82,27,94,166,17,2,121,0,0,0,0,0,0,0,0,0,0,0,0,0,0,0,0,0,0,0,0,0,0,0,0,0,0,0,0,0,0,0,0],"split_type":[0,0,0,0,0,0,0,0,0,0,0,0,0,0,0,0,0,0,0,0,0,0,0,0,0,0,0,0,0,0,0,0,0,0,0,0,0,0,0,0,0,0,0,0,0,0,0,0,0,0,0,0,0,0,0,0,0,0,0,0,0,0,0],"sum_hessian":[7.019085E4,1.8611338E4,5.1579516E4,6.687813E3,1.1923524E4,2.1751441E4,2.9828074E4,4.43004E3,2.2577732E3,5.23156E3,6.691965E3,2.0888268E4,8.6317365E2,2.628457E4,3.5435034E3,1.7036752E3,2.7263647E3,2.8048056E2,1.9772925E3,2.8742324E3,2.3573276E3,6.113216E3,5.7874915E2,1.9734664E4,1.1536028E3,7.0167966E0,8.5615686E2,2.5731752E4,5.5281744E2,2.980979E3,5.6252454E2,1.4910449E3,2.1263019E2,2.1633408E3,5.630239E2,3.431333E1,2.4616722E2,1.08025345E2,1.8692672E3,1.601733E3,1.2724994E3,3.7699425E1,2.3196284E3,1.01123795E2,6.012092E3,1.3806645E2,4.4068268E2,1.0456891E4,9.277773E3,8.479238E2,3.05679E2,5.613022E0,1.4037744E0,3.057686E2,5.5038824E2,8.923537E3,1.6808215E4,4.184969E2,1.3432059E2,1.8942653E3,1.0867136E3,4.023198E2,1.6020474E2],"tree_param":{"num_deleted":"0","num_feature":"203","num_nodes":"63","size_leaf_vector":"1"}},{"base_weights":[-4.340791E-4,1.7173187E-1,-7.301201E-1,2.1206036E-1,-7.7272713E-1,-5.427471E-1,-9.361036E-1,6.443035E-2,4.1487637E-1,-9.1272515E-1,-4.426517E-1,-6.1338794E-1,8.216257E-2,-7.426592E-1,-1.0427383E0,8.1229573E-1,9.903352E-3,2.7083737E-1,5.392222E-1,8.4646636E-1,-9.3689615E-1,-1.7272481E-1,-7.2732055E-1,-7.7364254E-1,-3.520263E-1,3.2953644E-1,-3.8502827E-1,-7.893975E-1,-1.7257135E-1,-1.0842677E0,-7.126061E-1,4.1401934E-2,-8.009419E-2,-5.591206E-2,2.6999337E-3,-2.9996255E-2,1.9997954E-2,-4.416584E-2,2.7741438E-2,6.670028E-2,-6.0946997E-2,-1.3863076E-2,-4.8860885E-2,-3.0170141E-3,