{"learner":{"attributes":{"scikit_learn":"{\"_estimator_type\": \"classifier\"}"},"feature_names":[],"feature_types":[],"gradient_booster":{"model":{"cats":{"enc":[],"feature_segments":[],"sorted_idx":[]},"gbtree_model_param":{"num_parallel_tree":"1","num_trees":"300"},"iteration_indptr":[0,1,2,3,4,5,6,7,8,9,10,11,12,13,14,15,16,17,18,19,20,21,22,23,24,25,26,27,28,29,30,31,32,33,34,35,36,37,38,39,40,41,42,43,44,45,46,47,48,49,50,51,52,53,54,55,56,57,58,59,60,61,62,63,64,65,66,67,68,69,70,71,72,73,74,75,76,77,78,79,80,81,82,83,84,85,86,87,88,89,90,91,92,93,94,95,96,97,98,99,100,101,102,103,104,105,106,107,108,109,110,111,112,113,114,115,116,117,118,119,120,121,122,123,124,125,126,127,128,129,130,131,132,133,134,135,136,137,138,139,140,141,142,143,144,145,146,147,148,149,150,151,152,153,154,155,156,157,158,159,160,161,162,163,164,165,166,167,168,169,170,171,172,173,174,175,176,177,178,179,180,181,182,183,184,185,186,187,188,189,190,191,192,193,194,195,196,197,198,199,200,201,202,203,204,205,206,207,208,209,210,211,212,213,214,215,216,217,218,219,220,221,222,223,224,225,226,227,228,229,230,231,232,233,234,235,236,237,238,239,240,241,242,243,244,245,246,247,248,249,250,251,252,253,254,255,256,257,258,259,260,261,262,263,264,265,266,267,268,269,270,271,272,273,274,275,276,277,278,279,280,281,282,283,284,285,286,287,288,289,290,291,292,293,294,295,296,297,298,299,300],"tree_info":[0,0,0,0,0,0,0,0,0,0,0,0,0,0,0,0,0,0,0,0,0,0,0,0,0,0,0,0,0,0,0,0,0,0,0,0,0,0,0,0,0,0,0,0,0,0,0,0,0,0,0,0,0,0,0,0,0,0,0,0,0,0,0,0,0,0,0,0,0,0,0,0,0,0,0,0,0,0,0,0,0,0,0,0,0,0,0,0,0,0,0,0,0,0,0,0,0,0,0,0,0,0,0,0,0,0,0,0,0,0,0,0,0,0,0,0,0,0,0,0,0,0,0,0,0,0,0,0,0,0,0,0,0,0,0,0,0,0,0,0,0,0,0,0,0,0,0,0,0,0,0,0,0,0,0,0,0,0,0,0,0,0,0,0,0,0,0,0,0,0,0,0,0,0,0,0,0,0,0,0,0,0,0,0,0,0,0,0,0,0,0,0,0,0,0,0,0,0,0,0,0,0,0,0,0,0,0,0,0,0,0,0,0,0,0,0,0,0,0,0,0,0,0,0,0,0,0,0,0,0,0,0,0,0,0,0,0,0,0,0,0,0,0,0,0,0,0,0,0,0,0,0,0,0,0,0,0,0,0,0,0,0,0,0,0,0,0,0,0,0,0,0,0,0,0,0,0,0,0,0,0,0,0,0,0,0,0,0,0,0,0,0,0,0,0,0,0,0,0,0],"trees":[{"base_weights":[-2.5313245E-3,3.1011042E-1,-2.3829715E-1,4.4745493E-1,-7.011751E-2,5.391471E-2,-4.6233508E-1,5.669776E-1,4.6604695E-3,6.167519E-2,-5.733886E-1,1.8178003E-1,-4.849205E-1,2.4111396E-1,-5.148606E-1,7.282602E-1,1.7279266E-1,-2.4498257E-1,4.5500812E-1,-4.509579E-2,9.631019E-1,-2.6006985E-2,-9.924142E-1,2.7106312E-1,-3.2676202E-1,-5.708147E-1,6.546761E-2,1.1323185E0,-3.8591823E-1,-3.9189196E-1,-8.136313E-1,4.2457756E-2,1.0366896E-2,5.2084744E-2,-1.2408115E-4,-6.499197E-2,-6.3832216E-3,4.249402E-2,-1.847819E-2,8.49064E-3,-2.071727E-2,7.648661E-2,-2.2934994E-2,7.06796E-2,-2.3670405E-2,-5.540746E-2,1.074439E-2,3.1650692E-2,4.868328E-3,-3.9130677E-2,2.0476239E-2,1.9032236E-2,-3.664962E-2,-2.378259E-2,7.4219964E-2,6.1642658E-2,-3.194378E-2,1.8738054E-3,-2.375908E-2,-4.7219824E-2,-8.909431E-3],"categories":[],"categories_nodes":[],"categories_segments":[],"categories_sizes":[],"default_left":[0,0,0,0,0,0,0,0,0,0,0,0,0,0,0,0,0,0,0,0,0,0,0,0,0,0,0,0,0,0,0,0,0,0,0,0,0,0,0,0,0,0,0,0,0,0,0,0,0,0,0,0,0,0,0,0,0,0,0,0,0],"id":0,"left_children":[1,3,5,7,9,11,13,15,17,19,21,23,25,27,29,31,33,35,37,39,41,43,45,47,49,51,-1,53,55,57,59,-1,-1,-1,-1,-1,-1,-1,-1,-1,-1,-1,-1,-1,-1,-1,-1,-1,-1,-1,-1,-1,-1,-1,-1,-1,-1,-1,-1,-1,-1],"loss_changes":[8.745735E1,2.6669529E1,4.4306953E1,1.9836891E1,9.070765E0,2.0374386E1,1.4274498E1,1.8640305E1,9.182913E0,1.0520494E1,6.4807024E0,1.0926327E1,9.492383E0,1.5687013E1,1.2785362E1,1.2996315E1,1.3255101E1,6.3387637E0,9.797647E0,7.869672E0,1.0025291E1,9.252646E0,2.4794283E0,1.2738196E1,1.2437573E1,8.742109E0,0E0,7.23075E0,7.6525884E0,9.12315E0,8.396164E0,0E0,0E0,0E0,0E0,0E0,0E0,0E0,0E0,0E0,0E0,0E0,0E0,0E0,0E0,0E0,0E0,0E0,0E0,0E0,0E0,0E0,0E0,0E0,0E0,0E0,0E0,0E0,0E0,0E0,0E0],"parents":[2147483647,0,0,1,1,2,2,3,3,4,4,5,5,6,6,7,7,8,8,9,9,10,10,11,11,12,12,13,13,14,14,15,15,16,16,17,17,18,18,19,19,20,20,21,21,22,22,23,23,24,24,25,25,27,27,28,28,29,29,30,30],"right_children":[2,4,6,8,10,12,14,16,18,20,22,24,26,28,30,32,34,36,38,40,42,44,46,48,50,52,-1,54,56,58,60,-1,-1,-1,-1,-1,-1,-1,-1,-1,-1,-1,-1,-1,-1,-1,-1,-1,-1,-1,-1,-1,-1,-1,-1,-1,-1,-1,-1,-1,-1],"split_conditions":[2.4E1,3.22E1,8.389116E1,9.8E1,1.2E0,1.3717871E2,7.9591835E-1,2.59E2,9.77E1,2E0,8.196721E-2,5.79E1,9.221429E1,1.4950166E-2,1.1E0,5.058824E-1,4.6E1,4.8985294E1,3.0136988E-1,9.490446E-1,3.832E1,6.35E1,1.3E2,9.7409326E-1,3.8405442E-1,6.490872E-2,6.546761E-2,8.2E1,7.071068E-2,1.45E1,1.1E2,4.2457756E-2,1.0366896E-2,5.2084744E-2,-1.2408115E-4,-6.499197E-2,-6.3832216E-3,4.249402E-2,-1.847819E-2,8.49064E-3,-2.071727E-2,7.648661E-2,-2.2934994E-2,7.06796E-2,-2.3670405E-2,-5.540746E-2,1.074439E-2,3.1650692E-2,4.868328E-3,-3.9130677E-2,2.0476239E-2,1.9032236E-2,-3.664962E-2,-2.378259E-2,7.4219964E-2,6.1642658E-2,-3.194378E-2,1.8738054E-3,-2.375908E-2,-4.7219824E-2,-8.909431E-3],"split_indices":[71,186,0,81,195,24,120,89,45,128,113,187,140,15,88,107,122,137,106,120,145,42,130,102,23,109,0,68,25,53,166,0,0,0,0,0,0,0,0,0,0,0,0,0,0,0,0,0,0,0,0,0,0,0,0,0,0,0,0,0,0],"split_type":[0,0,0,0,0,0,0,0,0,0,0,0,0,0,0,0,0,0,0,0,0,0,0,0,0,0,0,0,0,0,0,0,0,0,0,0,0,0,0,0,0,0,0,0,0,0,0,0,0,0,0,0,0,0,0,0,0,0,0,0,0],"sum_hessian":[1.1844995E3,5.090925E2,6.7540704E2,3.7386835E2,1.3522415E2,2.9343726E2,3.8196982E2,2.9418033E2,7.968802E1,1.0785689E2,2.7367266E1,2.3769499E2,5.5742256E1,2.629E1,3.556798E2,2.0816228E2,8.6018036E1,5.1561657E1,2.8126368E1,9.7283905E1,1.057298E1,1.2326706E1,1.5040561E1,2.0259332E2,3.5101673E1,5.3846428E1,1.895832E0,1.0524966E1,1.5765034E1,2.5361017E2,1.0206965E2,1.6844072E2,3.972156E1,1.3609126E1,7.240891E1,4.151766E0,4.740989E1,1.8997921E1,9.128447E0,6.1835102E1,3.5448803E1,7.5057893E0,3.0671902E0,2.4105942E0,9.916112E0,1.3799805E1,1.2407556E0,6.4838264E1,1.3775505E2,2.1640585E1,1.3461086E1,7.645416E0,4.620101E1,1.8275383E0,8.697428E0,1.6070628E0,1.4157971E1,4.129248E1,2.1231769E2,8.424667E1,1.7822979E1],"tree_param":{"num_deleted":"0","num_feature":"203","num_nodes":"61","size_leaf_vector":"1"}},{"base_weights":[1.0680909E-2,2.271404E-1,-2.4593666E-1,3.2015717E-1,-2.5815436E-1,7.341678E-2,-4.233736E-1,5.63388E-1,1.5950705E-1,-4.9858354E-2,-8.7268823E-1,3.0090198E-1,-3.8747713E-1,-3.1324703E-2,-5.254662E-1,7.077759E-1,1.83729E-1,3.0209947E-1,-7.394728E-2,4.3119535E-1,-2.5496045E-1,-9.7096103E-1,3.2319378E-2,-4.1598374E-1,3.9281362E-1,-4.8074135E-1,6.1261274E-2,3.8753477E-1,-3.0112946E-1,-3.093676E-1,-7.2904235E-1,3.8060803E-2,-1.2456328E-2,2.322792E-3,6.751404E-2,9.330999E-3,3.986699E-2,3.5519283E-2,-8.913355E-3,2.922655E-3,6.931133E-2,-3.2138906E-3,-4.3289103E-2,-5.5890042E-2,-8.191406E-3,-3.796146E-2,4.478758E-2,-3.167696E-2,2.283311E-2,2.7549556E-2,-2.9207615E-2,-1.7919115E-3,5.4407846E-2,-3.2216344E-2,3.2967515E-3,1.8505872E-3,-2.9543204E-2,4.084329E-2,-3.8064837E-2],"categories":[],"categories_nodes":[],"categories_segments":[],"categories_sizes":[],"default_left":[0,0,0,0,0,0,0,0,0,0,0,0,0,0,0,0,0,0,0,0,0,0,0,0,0,0,0,0,0,0,0,0,0,0,0,0,0,0,0,0,0,0,0,0,0,0,0,0,0,0,0,0,0,0,0,0,0,0,0],"id":1,"left_children":[1,3,5,7,9,11,13,15,17,19,21,23,25,27,29,31,33,35,37,39,41,43,-1,45,47,49,-1,51,53,55,57,-1,-1,-1,-1,-1,-1,-1,-1,-1,-1,-1,-1,-1,-1,-1,-1,-1,-1,-1,-1,-1,-1,-1,-1,-1,-1,-1,-1],"loss_changes":[6.5645294E1,2.901905E1,3.0673073E1,2.0947018E1,1.3225224E1,2.0456005E1,1.3902897E1,1.1587379E1,1.0861852E1,7.8529773E0,4.535866E0,8.758606E0,1.0297027E1,8.356671E0,1.1909805E1,8.090645E0,9.584552E0,1.1423365E1,1.0294973E1,8.401915E0,6.4258623E0,2.7785397E0,0E0,7.5732355E0,7.8999557E0,6.908449E0,0E0,8.642088E0,5.7000713E0,1.3238302E1,7.6676025E0,0E0,0E0,0E0,0E0,0E0,0E0,0E0,0E0,0E0,0E0,0E0,0E0,0E0,0E0,0E0,0E0,0E0,0E0,0E0,0E0,0E0,0E0,0E0,0E0,0E0,0E0,0E0,0E0],"parents":[2147483647,0,0,1,1,2,2,3,3,4,4,5,5,6,6,7,7,8,8,9,9,10,10,11,11,12,12,13,13,14,14,15,15,16,16,17,17,18,18,19,19,20,20,21,21,23,23,24,24,25,25,27,27,28,28,29,29,30,30],"right_children":[2,4,6,8,10,12,14,16,18,20,22,24,26,28,30,32,34,36,38,40,42,44,-1,46,48,50,-1,52,54,56,58,-1,-1,-1,-1,-1,-1,-1,-1,-1,-1,-1,-1,-1,-1,-1,-1,-1,-1,-1,-1,-1,-1,-1,-1,-1,-1,-1,-1],"split_conditions":[2.3E1,1E0,7.9E1,9.699769E-1,2.16E1,2.4E2,4.8034936E-2,9.3E1,2.0134615E1,8.1E1,8.67E2,1.21E2,2.51E1,1.4634146E-2,1.44E1,2.1311475E-1,4.75E2,6.3333335E0,2.75E2,4.7907013E-1,4.082483E-1,3.785939E0,3.2319378E-2,8.6E1,2E0,1.6081324E0,6.1261274E-2,1.2144958E2,1.57E2,2.1E1,1.67E0,3.8060803E-2,-1.2456328E-2,2.322792E-3,6.751404E-2,9.330999E-3,3.986699E-2,3.5519283E-2,-8.913355E-3,2.922655E-3,6.931133E-2,-3.2138906E-3,-4.3289103E-2,-5.5890042E-2,-8.191406E-3,-3.796146E-2,4.478758E-2,-3.167696E-2,2.283311E-2,2.7549556E-2,-2.9207615E-2,-1.7919115E-3,5.4407846E-2,-3.2216344E-2,3.2967515E-3,1.8505872E-3,-2.9543204E-2,4.084329E-2,-3.8064837E-2],"split_indices":[92,88,81,104,189,65,111,81,143,81,65,133,188,15,188,103,93,43,200,37,38,29,0,139,64,13,0,32,202,83,164,0,0,0,0,0,0,0,0,0,0,0,0,0,0,0,0,0,0,0,0,0,0,0,0,0,0,0,0],"split_type":[0,0,0,0,0,0,0,0,0,0,0,0,0,0,0,0,0,0,0,0,0,0,0,0,0,0,0,0,0,0,0,0,0,0,0,0,0,0,0,0,0,0,0,0,0,0,0,0,0,0,0,0,0,0,0,0,0,0,0],"sum_hessian":[1.1797849E3,6.40029E2,5.39756E2,5.3737103E2,1.0265797E2,1.929922E2,3.467638E2,2.1275073E2,3.2462027E2,7.7477974E1,2.5179996E1,1.2944746E2,6.354475E1,7.191349E1,2.7485028E2,1.5350652E2,5.9244213E1,2.0134563E2,1.2327466E2,2.2829802E1,5.464817E1,2.3988914E1,1.1910819E0,1.43097105E1,1.1513775E2,6.0734325E1,2.8104239E0,2.8003302E1,4.391019E1,1.3454681E2,1.4030347E2,1.4558076E2,7.925752E0,5.393703E1,5.3071795E0,1.6439017E2,3.695546E1,1.3789326E1,1.0948533E2,1.718415E1,5.645653E0,4.2489334E1,1.2158836E1,1.9970774E1,4.01814E0,1.16757E1,2.634011E0,6.2205853E0,1.0891716E2,5.138571E0,5.5595757E1,1.8046803E1,9.9565E0,2.230249E1,2.16077E1,6.071096E1,7.383586E1,2.370345E0,1.3793312E2],"tree_param":{"num_deleted":"0","num_feature":"203","num_nodes":"59","size_leaf_vector":"1"}},{"base_weights":[6.574389E-3,1.3683733E-1,-3.7838155E-1,4.2980257E-1,8.907178E-3,-7.8448653E-1,-2.568465E-1,5.2738893E-1,-1.3741241E-1,2.2232768E-1,-1.3790202E-1,-4.769514E-1,-1.0326006E0,-8.7816715E-2,-5.929403E-1,5.7187015E-1,-8.060253E-1,5.194577E-1,-3.960176E-1,4.1105333E-1,-9.717205E-3,6.8682497E-3,-4.169765E-1,-6.813181E-1,4.5803016E-1,-1.1047975E0,3.1817358E-2,9.097897E-3,-8.2507735E-1,5.2376837E-1,-7.015151E-1,2.2856778E-2,5.1283747E-2,-5.5492904E-2,1.6937133E-2,-1.6633242E-2,6.60708E-2,-3.350235E-2,1.9645778E-2,3.5890877E-2,9.406044E-3,1.26408925E-2,-2.4130687E-2,2.9699863E-3,-5.322985E-2,-2.4690144E-2,1.7410826E-2,-4.077062E-2,4.3408006E-2,-3.773069E-2,4.9619723E-2,-5.8907457E-2,1.8953936E-2,5.3522855E-2,-3.958558E-3,3.4973346E-2,-4.9099382E-2,7.1056455E-2,-1.1680075E-2,-2.003718E-2,-5.1903125E-2],"categories":[],"categories_nodes":[],"categories_segments":[],"categories_sizes":[],"default_left":[0,0,0,0,0,0,0,0,0,0,0,0,0,0,0,0,0,0,0,0,0,0,0,0,0,0,0,0,0,0,0,0,0,0,0,0,0,0,0,0,0,0,0,0,0,0,0,0,0,0,0,0,0,0,0,0,0,0,0,0,0],"id":2,"left_children":[1,3,5,7,9,11,13,15,17,19,21,23,25,27,29,31,33,35,37,39,41,43,45,47,49,51,-1,53,55,57,59,-1,-1,-1,-1,-1,-1,-1,-1,-1,-1,-1,-1,-1,-1,-1,-1,-1,-1,-1,-1,-1,-1,-1,-1,-1,-1,-1,-1,-1,-1],"loss_changes":[5.919699E1,3.3052734E1,1.4529884E1,1.491029E1,1.9298004E1,4.716175E0,1.3082912E1,1.4038544E1,7.024637E0,1.0995874E1,1.4747148E1,6.49148E0,5.151966E0,1.1083436E1,9.727156E0,1.1095947E1,3.0906696E0,8.484161E0,6.612806E0,9.332699E0,1.4220109E1,1.3643545E1,7.500778E0,6.305558E0,4.895249E0,4.338604E0,0E0,1.3012667E1,4.997652E0,5.370114E0,6.7489204E0,0E0,0E0,0E0,0E0,0E0,0E0,0E0,0E0,0E0,0E0,0E0,0E0,0E0,0E0,0E0,0E0,0E0,0E0,0E0,0E0,0E0,0E0,0E0,0E0,0E0,0E0,0E0,0E0,0E0,0E0],"parents":[2147483647,0,0,1,1,2,2,3,3,4,4,5,5,6,6,7,7,8,8,9,9,10,10,11,11,12,12,13,13,14,14,15,15,16,16,17,17,18,18,19,19,20,20,21,21,22,22,23,23,24,24,25,25,27,27,28,28,29,29,30,30],"right_children":[2,4,6,8,10,12,14,16,18,20,22,24,26,28,30,32,34,36,38,40,42,44,46,48,50,52,-1,54,56,58,60,-1,-1,-1,-1,-1,-1,-1,-1,-1,-1,-1,-1,-1,-1,-1,-1,-1,-1,-1,-1,-1,-1,-1,-1,-1,-1,-1,-1,-1,-1],"split_conditions":[1E0,9.6330273E-1,9.7197296E1,1.746E2,1.5E1,5.2859414E-1,3.9130434E-1,1.1312245E2,9.756098E-3,2.7169812E-1,2.123913E1,1.07E2,3.1E1,9.4E0,4.511278E-2,6.644518E-3,3.5E1,4.55E1,2.3E2,7.8E0,5.66879E-1,2.27E2,3.67E2,2.5E2,7.339449E-2,3.3865808E2,3.1817358E-2,1.0297639E0,2.33E2,2E-2,2.1189686E1,2.2856778E-2,5.1283747E-2,-5.5492904E-2,1.6937133E-2,-1.6633242E-2,6.60708E-2,-3.350235E-2,1.9645778E-2,3.5890877E-2,9.406044E-3,1.26408925E-2,-2.4130687E-2,2.9699863E-3,-5.322985E-2,-2.4690144E-2,1.7410826E-2,-4.077062E-2,4.3408006E-2,-3.773069E-2,4.9619723E-2,-5.8907457E-2,1.8953936E-2,5.3522855E-2,-3.958558E-3,3.4973346E-2,-4.9099382E-2,7.1056455E-2,-1.1680075E-2,-2.003718E-2,-5.1903125E-2],"split_indices":[67,102,3,149,53,38,21,0,15,106,2,191,51,88,111,117,54,135,93,163,121,192,89,95,113,32,0,13,200,15,2,0,0,0,0,0,0,0,0,0,0,0,0,0,0,0,0,0,0,0,0,0,0,0,0,0,0,0,0,0,0],"split_type":[0,0,0,0,0,0,0,0,0,0,0,0,0,0,0,0,0,0,0,0,0,0,0,0,0,0,0,0,0,0,0,0,0,0,0,0,0,0,0,0,0,0,0,0,0,0,0,0,0,0,0,0,0,0,0,0,0,0,0,0,0],"sum_hessian":[1.1784722E3,8.8100024E2,2.974719E2,2.6706073E2,6.139396E2,6.726236E1,2.3020952E2,2.2791872E2,3.9142002E1,2.499973E2,3.6394223E2,3.1339565E1,3.5922794E1,1.5401361E2,7.6195915E1,2.2111374E2,6.8049874E0,1.077197E1,2.8370031E1,1.3744211E2,1.125552E2,2.4027477E2,1.2366747E2,2.5940777E1,5.3987885E0,3.475726E1,1.1655327E0,1.369932E2,1.702041E1,6.413014E0,6.9782906E1,1.7809393E2,4.3019802E1,5.401794E0,1.4031938E0,5.5063596E0,5.26561E0,2.1168144E1,7.201887E0,5.6910725E1,8.053138E1,7.267439E1,3.988081E1,2.2994563E2,1.0329143E1,1.1270628E2,1.0961188E1,2.4310646E1,1.6301314E0,1.5252762E0,3.8735125E0,3.3316383E1,1.4408774E0,9.664057E0,1.2732914E2,1.2656431E0,1.5754768E1,2.534107E0,3.878907E0,3.8006947E1,3.1775957E1],"tree_param":{"num_deleted":"0","num_feature":"203","num_nodes":"61","size_leaf_vector":"1"}},{"base_weights":[1.9848505E-3,1.3858844E-1,-3.4841585E-1,5.8843964E-1,4.7113713E-2,1.7049776E-1,-4.8116592E-1,7.284438E-1,1.3597204E-1,6.423947E-1,-2.0709462E-2,4.2429873E-1,-5.853112E-1,-8.413772E-1,-3.577158E-1,9.617173E-1,1.2862746E-1,-4.7612607E-1,6.292289E-1,1.1879131E0,3.100576E-1,-1.8336862E-1,1.5679677E-1,7.9148984E-1,-2.2410983E-2,5.956165E-1,-8.199234E-1,-1.36423E-1,-9.49297E-1,1.8837377E-1,-4.431744E-1,5.6017708E-2,1.8613003E-2,6.829696E-2,-5.077088E-3,3.6900252E-2,-3.6171395E-2,-9.893959E-3,5.3456288E-2,6.941362E-2,-2.0055477E-2,4.474443E-2,-3.359925E-3,-4.1879504E-3,-2.6068538E-2,9.250055E-3,-5.594324E-2,4.7989003E-2,-4.485007E-2,-2.0920351E-2,5.907724E-2,5.8249593E-2,-1.7330356E-2,-5.1875163E-2,6.443888E-3,-3.6522012E-2,2.640186E-2,-6.315345E-2,-3.0890817E-2,-1.0425418E-2,5.1386487E-2,4.395186E-2,-2.4513153E-2],"categories":[],"categories_nodes":[],"categories_segments":[],"categories_sizes":[],"default_left":[0,0,0,0,0,0,0,0,0,0,0,0,0,0,0,0,0,0,0,0,0,0,0,0,0,0,0,0,0,0,0,0,0,0,0,0,0,0,0,0,0,0,0,0,0,0,0,0,0,0,0,0,0,0,0,0,0,0,0,0,0,0,0],"id":3,"left_children":[1,3,5,7,9,11,13,15,17,19,21,23,25,27,29,31,33,35,37,39,41,43,45,47,49,51,53,55,57,59,61,-1,-1,-1,-1,-1,-1,-1,-1,-1,-1,-1,-1,-1,-1,-1,-1,-1,-1,-1,-1,-1,-1,-1,-1,-1,-1,-1,-1,-1,-1,-1,-1],"loss_changes":[5.6493816E1,3.4916115E1,2.2887302E1,8.985596E0,2.8548399E1,1.3326635E1,1.1433308E1,1.5168568E1,1.0902484E1,1.2743145E1,1.8376137E1,8.484684E0,5.3533263E0,4.9383507E0,9.3362255E0,6.926689E0,9.182882E0,5.410194E0,7.44387E0,9.161228E0,1.0274227E1,1.1136016E1,1.1158946E1,8.919209E0,1.2060767E1,2.2758415E0,3.24471E0,4.3373084E0,5.2107925E0,9.3853855E0,1.1123493E1,0E0,0E0,0E0,0E0,0E0,0E0,0E0,0E0,0E0,0E0,0E0,0E0,0E0,0E0,0E0,0E0,0E0,0E0,0E0,0E0,0E0,0E0,0E0,0E0,0E0,0E0,0E0,0E0,0E0,0E0,0E0,0E0],"parents":[2147483647,0,0,1,1,2,2,3,3,4,4,5,5,6,6,7,7,8,8,9,9,10,10,11,11,12,12,13,13,14,14,15,15,16,16,17,17,18,18,19,19,20,20,21,21,22,22,23,23,24,24,25,25,26,26,27,27,28,28,29,29,30,30],"right_children":[2,4,6,8,10,12,14,16,18,20,22,24,26,28,30,32,34,36,38,40,42,44,46,48,50,52,54,56,58,60,62,-1,-1,-1,-1,-1,-1,-1,-1,-1,-1,-1,-1,-1,-1,-1,-1,-1,-1,-1,-1,-1,-1,-1,-1,-1,-1,-1,-1,-1,-1,-1,-1],"split_conditions":[7.25E-1,5E-1,2E1,3.38E1,2.54E2,4.66E1,9.7197296E1,4.6938777E-1,3.696E1,3.23E1,1.3E2,2.14E2,3.783784E-1,4.086778E0,6.55E0,1.5E1,2.7E2,1.31E1,1.6396551E1,1E0,2.0408164E-1,4.12E1,2E0,1.015E1,3.32E1,1.2776667E2,4.2E1,1.04E2,3.7553382E-1,5.1666665E0,5.2E1,5.6017708E-2,1.8613003E-2,6.829696E-2,-5.077088E-3,3.6900252E-2,-3.6171395E-2,-9.893959E-3,5.3456288E-2,6.941362E-2,-2.0055477E-2,4.474443E-2,-3.359925E-3,-4.1879504E-3,-2.6068538E-2,9.250055E-3,-5.594324E-2,4.7989003E-2,-4.485007E-2,-2.0920351E-2,5.907724E-2,5.8249593E-2,-1.7330356E-2,-5.1875163E-2,6.443888E-3,-3.6522012E-2,2.640186E-2,-6.315345E-2,-3.0890817E-2,-1.0425418E-2,5.1386487E-2,4.395186E-2,-2.4513153E-2],"split_indices":[7,75,71,187,185,187,3,107,145,187,93,68,115,30,82,141,200,189,143,99,107,187,98,82,154,134,191,166,40,43,129,0,0,0,0,0,0,0,0,0,0,0,0,0,0,0,0,0,0,0,0,0,0,0,0,0,0,0,0,0,0,0,0],"split_type":[0,0,0,0,0,0,0,0,0,0,0,0,0,0,0,0,0,0,0,0,0,0,0,0,0,0,0,0,0,0,0,0,0,0,0,0,0,0,0,0,0,0,0,0,0,0,0,0,0,0,0,0,0,0,0,0,0,0,0,0,0,0,0],"sum_hessian":[1.1782407E3,8.481818E2,3.300589E2,1.4241003E2,7.057718E2,6.717821E1,2.628807E2,1.0829199E2,3.4118034E1,7.1320786E1,6.34451E2,5.0618954E1,1.655925E1,6.561352E1,1.9726718E2,7.753474E1,3.0757256E1,1.524043E1,1.8877604E1,2.6025888E1,4.52949E1,3.3105408E2,3.033969E2,2.7358614E1,2.326034E1,2.489508E0,1.4069742E1,9.011657E0,5.6601864E1,2.6530458E1,1.7073672E2,6.0383472E1,1.7151266E1,4.050208E0,2.6707047E1,2.2431977E0,1.2997232E1,6.7452116E0,1.2132393E1,2.3223928E1,2.8019602E0,1.7223124E1,2.8071775E1,2.56663E2,7.4391075E1,2.9767053E2,5.726394E0,2.5271414E1,2.0872004E0,1.7994272E1,5.2660675E0,1.4044102E0,1.0850977E0,1.1369085E1,2.7006571E0,4.705612E0,4.3060446E0,2.763388E1,2.8967983E1,1.8523413E1,8.007047E0,5.263869E0,1.6547285E2],"tree_param":{"num_deleted":"0","num_feature":"203","num_nodes":"63","size_leaf_vector":"1"}},{"base_weights":[-1.533048E-3,2.4532191E-1,-2.0682888E-1,3.3117166E-1,-1.1890761E-1,4.8684865E-2,-4.0285996E-1,4.22091E-1,-1.0322628E-1,2.5749347E-1,-4.2473164E-1,2.1338281E-1,-3.5981983E-1,-3.0758914E-1,-8.2372284E-1,8.4805775E-1,3.0826062E-1,-2.950008E-1,7.248367E-1,2.3999834E-2,9.4594836E-1,-5.1408046E-1,9.459349E-1,-4.086792E-2,4.5939025E-1,2.9927102E-1,-5.224987E-1,8.3868116E-2,-3.9228308E-1,-8.8919467E-1,6.126473E-1,4.4756055E-2,-4.460033E-2,2.669541E-2,4.083735E-3,1.2047321E-2,-2.8818754E-2,-2.5482247E-2,6.4023845E-2,2.6806792E-2,-2.3988841E-2,7.575237E-2,7.774892E-3,-2.8974239E-2,4.6116862E-2,1.702008E-4,6.375219E-2,2.674654E-2,-1.18050715E-2,2.762851E-2,-2.4663664E-2,-2.2883197E-2,5.3722512E-2,-3.0329037E-2,4.9083885E-2,1.988574E-2,-2.7173806E-2,-1.5036068E-2,-3.8855355E-2,-4.792027E-2,5.4207887E-3,-2.2300093E-2,6.151867E-2],"categories":[],"categories_nodes":[],"categories_segments":[],"categories_sizes":[],"default_left":[0,0,0,0,0,0,0,0,0,0,0,0,0,0,0,0,0,0,0,0,0,0,0,0,0,0,0,0,0,0,0,0,0,0,0,0,0,0,0,0,0,0,0,0,0,0,0,0,0,0,0,0,0,0,0,0,0,0,0,0,0,0,0],"id":4,"left_children":[1,3,5,7,9,11,13,15,17,19,21,23,25,27,29,31,33,35,37,39,41,43,45,47,49,51,53,55,57,59,61,-1,-1,-1,-1,-1,-1,-1,-1,-1,-1,-1,-1,-1,-1,-1,-1,-1,-1,-1,-1,-1,-1,-1,-1,-1,-1,-1,-1,-1,-1,-1,-1],"loss_changes":[5.988695E1,1.6816742E1,3.2334694E1,1.7203037E1,1.19750595E1,1.8980906E1,1.4388893E1,1.7168564E1,1.2282638E1,7.5052595E0,7.497402E0,1.2582835E1,8.852493E0,9.958212E0,6.8277893E0,6.959503E0,1.4540188E1,9.551755E0,1.0653765E1,9.544282E0,5.087989E0,5.6446123E0,1.1916404E0,1.133402E1,9.342346E0,1.0285683E1,8.86862E0,1.0862634E1,8.444595E0,4.543972E0,2.8406353E0,0E0,0E0,0E0,0E0,0E0,0E0,0E0,0E0,0E0,0E0,0E0,0E0,0E0,0E0,0E0,0E0,0E0,0E0,0E0,0E0,0E0,0E0,0E0,0E0,0E0,0E0,0E0,0E0,0E0,0E0,0E0,0E0],"parents":[2147483647,0,0,1,1,2,2,3,3,4,4,5,5,6,6,7,7,8,8,9,9,10,10,11,11,12,12,13,13,14,14,15,15,16,16,17,17,18,18,19,19,20,20,21,21,22,22,23,23,24,24,25,25,26,26,27,27,28,28,29,29,30,30],"right_children":[2,4,6,8,10,12,14,16,18,20,22,24,26,28,30,32,34,36,38,40,42,44,46,48,50,52,54,56,58,60,62,-1,-1,-1,-1,-1,-1,-1,-1,-1,-1,-1,-1,-1,-1,-1,-1,-1,-1,-1,-1,-1,-1,-1,-1,-1,-1,-1,-1,-1,-1,-1,-1],"split_conditions":[2.5E1,4.06E1,8.389116E1,5.121107E-1,1.0362694E-2,2.63E2,4.22E1,4.5871558E-3,1.24E3,5.05E1,5.4E0,1.05E2,1.7192308E1,7.658643E-3,8.6E1,2.39E2,9.836066E-1,1.891892E-1,1.07E0,8.4E1,2.0599352E1,2.05E1,2.04E2,1.8569534E-1,7.334209E1,1.34E2,3.7E0,5.3424656E-1,1.08E2,2.5956522E1,9.6E-1,4.4756055E-2,-4.460033E-2,2.669541E-2,4.083735E-3,1.2047321E-2,-2.8818754E-2,-2.5482247E-2,6.4023845E-2,2.6806792E-2,-2.3988841E-2,7.575237E-2,7.774892E-3,-2.8974239E-2,4.6116862E-2,1.702008E-4,6.375219E-2,2.674654E-2,-1.18050715E-2,2.762851E-2,-2.4663664E-2,-2.2883197E-2,5.3722512E-2,-3.0329037E-2,4.9083885E-2,1.988574E-2,-2.7173806E-2,-1.5036068E-2,-3.8855355E-2,-4.792027E-2,5.4207887E-3,-2.2300093E-2,6.151867E-2],"split_indices":[71,187,0,107,110,65,186,15,72,135,168,166,143,15,122,201,104,121,163,136,27,11,199,38,27,133,158,121,81,143,102,0,0,0,0,0,0,0,0,0,0,0,0,0,0,0,0,0,0,0,0,0,0,0,0,0,0,0,0,0,0,0,0],"split_type":[0,0,0,0,0,0,0,0,0,0,0,0,0,0,0,0,0,0,0,0,0,0,0,0,0,0,0,0,0,0,0,0,0,0,0,0,0,0,0,0,0,0,0,0,0,0,0,0,0,0,0,0,0,0,0,0,0,0,0,0,0,0,0],"sum_hessian":[1.1797069E3,5.3554895E2,6.4415796E2,4.3346985E2,1.0207911E2,2.799774E2,3.641806E2,3.5847043E2,7.499941E1,4.583029E1,5.6248817E1,1.9987207E2,8.010531E1,2.983695E2,6.58111E1,7.423272E1,2.8423773E2,6.14189E1,1.3580509E1,3.4996037E1,1.0834255E1,5.3393246E1,2.855572E0,9.869934E1,1.0117272E2,1.5691562E1,6.441375E1,5.3073296E1,2.4529622E2,6.3306442E1,2.504654E0,7.275062E1,1.4820981E0,1.4173418E2,1.4250354E2,2.1193775E1,4.022513E1,4.240981E0,9.339528E0,1.7322184E1,1.7673851E1,5.766135E0,5.0681205E0,5.163857E1,1.7546796E0,1.0005246E0,1.8550473E0,2.4551146E1,7.41482E1,9.2541245E1,8.631474E0,8.146448E0,7.5451136E0,6.1568844E1,2.8449037E0,3.561961E1,1.7453684E1,1.9958913E2,4.5707085E1,5.923614E1,4.070303E0,1.0253755E0,1.4792783E0],"tree_param":{"num_deleted":"0","num_feature":"203","num_nodes":"63","size_leaf_vector":"1"}},{"base_weights":[-1.3331525E-2,2.925816E-1,-1.4779013E-1,1.1600367E0,2.3664801E-1,5.1351614E-2,-3.2822546E-1,-2.0950677E-2,1.2671086E0,3.5080603E-1,-1.960066E-1,1.9990025E-1,-3.581848E-1,-1.5938322E-1,-5.3352594E-1,1.4356524E0,3.3637327E-1,8.957423E-1,2.6502657E-1,1.55268675E-2,-8.710834E-1,-2.614389E-1,2.9469308E-1,-5.207139E-1,1.6992307E-1,-3.2945606E-1,1.1496736E-1,-1.0261819E-1,-6.1667323E-1,-6.2673152E-3,7.905229E-2,3.7337366E-2,-2.6478982E-2,5.48891E-2,-2.3204189E-2,2.0890994E-2,7.289888E-4,-7.2846883E-3,4.864715E-2,7.4984967E-3,-5.4053366E-2,-3.4729857E-2,4.1068154E-3,1.718655E-2,-2.5734214E-2,-2.9330341E-2,3.5026956E-2,2.0912802E-2,-4.0043365E-2,-8.52172E-3,-4.038709E-2,-2.9873295E-2,1.2805144E-2,-2.332134E-2,1.9941295E-2,-3.346709E-2,1.5126951E-2],"categories":[],"categories_nodes":[],"categories_segments":[],"categories_sizes":[],"default_left":[0,0,0,0,0,0,0,0,0,0,0,0,0,0,0,0,0,0,0,0,0,0,0,0,0,0,0,0,0,0,0,0,0,0,0,0,0,0,0,0,0,0,0,0,0,0,0,0,0,0,0,0,0,0,0,0,0],"id":5,"left_children":[1,3,5,7,9,11,13,-1,15,17,19,21,23,25,27,29,31,33,35,37,39,41,43,45,47,49,51,53,55,-1,-1,-1,-1,-1,-1,-1,-1,-1,-1,-1,-1,-1,-1,-1,-1,-1,-1,-1,-1,-1,-1,-1,-1,-1,-1,-1,-1],"loss_changes":[4.8910168E1,1.734194E1,2.9695244E1,4.206024E0,1.6977299E1,2.4009975E1,1.4940342E1,0E0,2.7493858E0,1.2441002E1,1.0311204E1,1.2732726E1,9.109142E0,1.1202493E1,6.9300423E0,4.0882187E0,1.9822369E0,1.0528582E1,9.015667E0,8.768582E0,3.8547049E0,7.47692E0,9.723873E0,6.8977165E0,6.4791946E0,1.1116554E1,9.434621E0,6.1643763E0,8.114075E0,0E0,0E0,0E0,0E0,0E0,0E0,0E0,0E0,0E0,0E0,0E0,0E0,0E0,0E0,0E0,0E0,0E0,0E0,0E0,0E0,0E0,0E0,0E0,0E0,0E0,0E0,0E0,0E0],"parents":[2147483647,0,0,1,1,2,2,3,3,4,4,5,5,6,6,8,8,9,9,10,10,11,11,12,12,13,13,14,14,15,15,16,16,17,17,18,18,19,19,20,20,21,21,22,22,23,23,24,24,25,25,26,26,27,27,28,28],"right_children":[2,4,6,8,10,12,14,-1,16,18,20,22,24,26,28,30,32,34,36,38,40,42,44,46,48,50,52,54,56,-1,-1,-1,-1,-1,-1,-1,-1,-1,-1,-1,-1,-1,-1,-1,-1,-1,-1,-1,-1,-1,-1,-1,-1,-1,-1,-1,-1],"split_conditions":[1.9E1,8.59E0,9.310345E-1,2.7305827E-1,1E2,1E0,8.8E1,-2.0950677E-2,9.2E-1,4.2E1,6.888889E-1,2.8E2,4.990109E-1,1.07E2,1.9E1,1.424E1,5.15E1,4.5E0,2.52E2,3.62E1,1.3E1,1.58E2,2.62707E1,1.255E2,1.4813657E0,5.12E1,1.2222222E0,9.73E1,3.2E1,-6.2673152E-3,7.905229E-2,3.7337366E-2,-2.6478982E-2,5.48891E-2,-2.3204189E-2,2.0890994E-2,7.289888E-4,-7.2846883E-3,4.864715E-2,7.4984967E-3,-5.4053366E-2,-3.4729857E-2,4.1068154E-3,1.718655E-2,-2.5734214E-2,-2.9330341E-2,3.5026956E-2,2.0912802E-2,-4.0043365E-2,-8.52172E-3,-4.038709E-2,-2.9873295E-2,1.2805144E-2,-2.332134E-2,1.9941295E-2,-3.346709E-2,1.5126951E-2],"split_indices":[71,176,120,73,81,67,81,0,115,122,17,72,37,166,92,2,135,167,68,154,160,89,2,54,23,187,4,45,197,0,0,0,0,0,0,0,0,0,0,0,0,0,0,0,0,0,0,0,0,0,0,0,0,0,0,0,0],"split_type":[0,0,0,0,0,0,0,0,0,0,0,0,0,0,0,0,0,0,0,0,0,0,0,0,0,0,0,0,0,0,0,0,0,0,0,0,0,0,0,0,0,0,0,0,0,0,0,0,0,0,0,0,0,0,0,0,0],"sum_hessian":[1.1870323E3,3.6207727E2,8.24955E2,2.0736853E1,3.4134042E2,3.9248978E2,4.3246527E2,1.1318231E0,1.960503E1,2.702285E2,7.111192E1,2.883942E2,1.0409558E2,2.3827808E2,1.941872E2,1.6139828E1,3.4652028E0,3.5467785E1,2.3476071E2,5.488946E1,1.6222462E1,4.8857197E1,2.3953699E2,7.960924E1,2.4486338E1,1.4696935E2,9.130872E1,3.1770725E1,1.6241646E2,1.3869448E0,1.4752882E1,2.4444427E0,1.0207602E0,3.1047523E1,4.4202633E0,1.4539153E2,8.936919E1,4.7704296E1,7.185166E0,2.8158941E0,1.3406569E1,2.1159254E1,2.7697943E1,2.2639561E2,1.3141373E1,7.602687E1,3.5823722E0,1.9951742E1,4.5345945E0,1.113153E2,3.5654053E1,1.4563061E1,7.674566E1,1.8452713E1,1.3318012E1,1.5387183E2,8.544639E0],"tree_param":{"num_deleted":"0","num_feature":"203","num_nodes":"57","size_leaf_vector":"1"}},{"base_weights":[-1.6760784E-3,2.7930185E-1,-1.4240333E-1,1.2374012E0,2.2066674E-1,7.139445E-2,-3.1486857E-1,-1.9086882E-2,1.3429731E0,3.5950726E-1,-7.552955E-2,1.9106618E-1,-4.72925E-1,-4.6140215E-1,-1.07580625E-1,1.4560337E0,-1.5322988E-2,1.6441354E-1,6.212118E-1,2.9690433E-1,-2.496441E-1,-6.17833E-1,2.430052E-1,-1.0093774E0,-1.408584E-1,-3.4512597E-1,-7.437832E-1,9.182134E-1,-1.6376832E-1,7.692658E-2,1.7138565E-3,3.8646948E-2,-7.754975E-4,5.0395545E-2,8.86748E-3,-1.2662591E-3,5.5444002E-2,-4.6240225E-2,-7.445135E-3,-4.3972936E-2,3.9622888E-2,5.295294E-2,9.833167E-3,-5.6601025E-2,1.5865419E-2,4.2255238E-2,-1.76742E-2,-2.3982262E-2,-1.2685938E-3,-4.0463183E-2,2.4114648E-2,-4.5871984E-2,6.2532686E-2,-8.107312E-4,-2.6508871E-2],"categories":[],"categories_nodes":[],"categories_segments":[],"categories_sizes":[],"default_left":[0,0,0,0,0,0,0,0,0,0,0,0,0,0,0,0,0,0,0,0,0,0,0,0,0,0,0,0,0,0,0,0,0,0,0,0,0,0,0,0,0,0,0,0,0,0,0,0,0,0,0,0,0,0,0],"id":6,"left_children":[1,3,5,7,9,11,13,-1,15,17,19,21,23,25,27,29,-1,31,33,35,37,39,41,43,45,47,49,51,53,-1,-1,-1,-1,-1,-1,-1,-1,-1,-1,-1,-1,-1,-1,-1,-1,-1,-1,-1,-1,-1,-1,-1,-1,-1,-1],"loss_changes":[4.676132E1,2.1897486E1,2.9076084E1,4.3659286E0,1.5370693E1,2.3060528E1,1.3203247E1,0E0,4.433979E0,1.2876667E1,7.8492537E0,1.2325087E1,1.123059E1,8.126286E0,1.0640397E1,2.3149033E0,0E0,1.6106209E1,1.839407E1,1.0141571E1,5.456483E0,7.252283E0,1.0116652E1,4.304426E0,8.809181E0,7.8468113E0,6.2992973E0,7.0074415E0,9.366211E0,0E0,0E0,0E0,0E0,0E0,0E0,0E0,0E0,0E0,0E0,0E0,0E0,0E0,0E0,0E0,0E0,0E0,0E0,0E0,0E0,0E0,0E0,0E0,0E0,0E0,0E0],"parents":[2147483647,0,0,1,1,2,2,3,3,4,4,5,5,6,6,8,8,9,9,10,10,11,11,12,12,13,13,14,14,15,15,17,17,18,18,19,19,20,20,21,21,22,22,23,23,24,24,25,25,26,26,27,27,28,28],"right_children":[2,4,6,8,10,12,14,-1,16,18,20,22,24,26,28,30,-1,32,34,36,38,40,42,44,46,48,50,52,54,-1,-1,-1,-1,-1,-1,-1,-1,-1,-1,-1,-1,-1,-1,-1,-1,-1,-1,-1,-1,-1,-1,-1,-1,-1,-1],"split_conditions":[2E1,8.59E0,8.389116E1,2.7305827E-1,3.35E1,3.38E2,1.5E2,-1.9086882E-2,1.1685715E1,3.5E1,9.6E-1,1.0348837E0,4.5E1,1.1E0,8.918919E-1,5.951429E2,-1.5322988E-2,5.154639E-3,4E0,4.95E1,3.5E-1,8.3E0,5.95E1,1.7E0,7E0,5E0,3.3334967E2,4.2E-1,1.67E1,7.692658E-2,1.7138565E-3,3.8646948E-2,-7.754975E-4,5.0395545E-2,8.86748E-3,-1.2662591E-3,5.5444002E-2,-4.6240225E-2,-7.445135E-3,-4.3972936E-2,3.9622888E-2,5.295294E-2,9.833167E-3,-5.6601025E-2,1.5865419E-2,4.2255238E-2,-1.76742E-2,-2.3982262E-2,-1.2685938E-3,-4.0463183E-2,2.4114648E-2,-4.5871984E-2,6.2532686E-2,-8.107312E-4,-2.6508871E-2],"split_indices":[71,176,0,73,187,65,93,0,1,155,104,4,201,88,104,12,0,15,167,135,48,163,131,195,82,168,14,173,188,0,0,0,0,0,0,0,0,0,0,0,0,0,0,0,0,0,0,0,0,0,0,0,0,0,0],"split_type":[0,0,0,0,0,0,0,0,0,0,0,0,0,0,0,0,0,0,0,0,0,0,0,0,0,0,0,0,0,0,0,0,0,0,0,0,0,0,0,0,0,0,0,0,0,0,0,0,0,0,0,0,0,0,0],"sum_hessian":[1.1805897E3,3.9364606E2,7.869437E2,2.1542223E1,3.7210382E2,3.5162958E2,4.3531415E2,1.1585058E0,2.0383718E1,2.532026E2,1.1890122E2,2.8878708E2,6.2842503E1,2.5431258E2,1.8100157E2,1.9185871E1,1.1978467E0,1.4599529E2,1.0720734E2,3.765383E1,8.124739E1,1.6766708E1,2.720204E2,2.3247147E1,3.9595356E1,1.8171138E2,7.260118E1,8.602764E0,1.723988E2,1.8056032E1,1.1298392E0,3.2563892E1,1.1343139E2,5.661381E1,5.059352E1,2.7649889E1,1.0003943E1,9.486913E0,7.1760475E1,1.4460511E1,2.306197E0,1.3443031E1,2.5857736E2,2.1414272E1,1.8328743E0,6.496396E0,3.309896E1,1.27551094E2,5.4160286E1,6.924311E1,3.3580747E0,1.049266E0,7.5534983E0,1.2364925E2,4.8749554E1],"tree_param":{"num_deleted":"0","num_feature":"203","num_nodes":"55","size_leaf_vector":"1"}},{"base_weights":[-2.72646E-3,-1.5059882E-1,2.2074975E-1,-2.9585363E-2,-4.3946725E-1,4.1841125E-1,1.5850982E-2,-1.0558931E-1,5.456003E-1,-3.4014556E-1,-8.222526E-1,5.0965965E-1,-1.5721914E-1,1.559766E-1,-3.5800532E-1,3.1707662E-1,-1.6725366E-1,7.541497E-1,-3.9620516E-1,-4.090262E-1,4.6714506E-1,3.0607995E-1,-8.971811E-1,8.6499244E-1,3.6398754E-1,-3.5397178E-1,7.790336E-1,-6.2139815E-1,2.6944545E-1,2.4412066E-1,-5.532303E-1,4.741652E-3,4.999127E-2,7.3468115E-4,-1.6374433E-2,4.5824375E-2,-4.4190273E-2,-4.7877397E-2,3.1601425E-2,-2.2945417E-2,3.4788128E-2,5.080222E-2,-1.1587193E-2,-2.5342388E-2,5.3269543E-2,-1.23106865E-2,-4.990729E-2,-2.8580664E-2,4.9039435E-2,1.106323E-2,4.0541682E-2,-2.652267E-2,2.4509517E-2,-3.9308544E-2,6.58957E-2,2.7913207E-3,-4.9674597E-2,2.947552E-2,3.8912054E-3,4.8561048E-2,-2.7190775E-2,3.4810714E-3,-3.544879E-2],"categories":[],"categories_nodes":[],"categories_segments":[],"categories_sizes":[],"default_left":[0,0,0,0,0,0,0,0,0,0,0,0,0,0,0,0,0,0,0,0,0,0,0,0,0,0,0,0,0,0,0,0,0,0,0,0,0,0,0,0,0,0,0,0,0,0,0,0,0,0,0,0,0,0,0,0,0,0,0,0,0,0,0],"id":7,"left_children":[1,3,5,7,9,11,13,15,17,19,21,23,25,27,29,31,33,35,37,39,41,43,45,47,49,51,53,55,57,59,61,-1,-1,-1,-1,-1,-1,-1,-1,-1,-1,-1,-1,-1,-1,-1,-1,-1,-1,-1,-1,-1,-1,-1,-1,-1,-1,-1,-1,-1,-1,-1,-1],"loss_changes":[3.9010033E1,2.4820309E1,1.9031713E1,2.1991488E1,7.691551E0,1.2645458E1,1.2201819E1,1.1625435E1,1.183256E1,9.542807E0,3.8667946E0,1.0385769E1,6.446252E0,1.510446E1,7.6009655E0,8.53536E0,1.1320578E1,1.3685139E1,7.128252E0,8.888124E0,5.4864874E0,2.6334162E0,2.3896294E0,1.0438938E1,9.281359E0,4.4862127E0,6.2059646E0,5.566905E0,9.059821E0,9.834715E0,4.7316837E0,0E0,0E0,0E0,0E0,0E0,0E0,0E0,0E0,0E0,0E0,0E0,0E0,0E0,0E0,0E0,0E0,0E0,0E0,0E0,0E0,0E0,0E0,0E0,0E0,0E0,0E0,0E0,0E0,0E0,0E0,0E0,0E0],"parents":[2147483647,0,0,1,1,2,2,3,3,4,4,5,5,6,6,7,7,8,8,9,9,10,10,11,11,12,12,13,13,14,14,15,15,16,16,17,17,18,18,19,19,20,20,21,21,22,22,23,23,24,24,25,25,26,26,27,27,28,28,29,29,30,30],"right_children":[2,4,6,8,10,12,14,16,18,20,22,24,26,28,30,32,34,36,38,40,42,44,46,48,50,52,54,56,58,60,62,-1,-1,-1,-1,-1,-1,-1,-1,-1,-1,-1,-1,-1,-1,-1,-1,-1,-1,-1,-1,-1,-1,-1,-1,-1,-1,-1,-1,-1,-1,-1,-1],"split_conditions":[1.8E2,7.25E-1,1.9E1,1.05023994E2,1.04E2,4.35E0,4.23E1,5E-1,1.891892E-1,4.1E1,4.5E-1,4.33555E-2,1.045E2,1.4722222E0,8.9908254E-1,9.459459E-1,9.283019E-1,8.9E1,4.8275862E-2,8E1,9.6E-1,3E0,8.6E1,2.7E0,3.77E1,3.09E1,7.04918E-1,2.9E1,9.7828054E-1,1.02E2,1.1E0,4.741652E-3,4.999127E-2,7.3468115E-4,-1.6374433E-2,4.5824375E-2,-4.4190273E-2,-4.7877397E-2,3.1601425E-2,-2.2945417E-2,3.4788128E-2,5.080222E-2,-1.1587193E-2,-2.5342388E-2,5.3269543E-2,-1.23106865E-2,-4.990729E-2,-2.8580664E-2,4.9039435E-2,1.106323E-2,4.0541682E-2,-2.652267E-2,2.4509517E-2,-3.9308544E-2,6.58957E-2,2.7913207E-3,-4.9674597E-2,2.947552E-2,3.8912054E-3,4.8561048E-2,-2.7190775E-2,3.4810714E-3,-3.544879E-2],"split_indices":[93,7,92,56,81,167,187,75,103,155,48,35,136,4,120,120,120,122,108,92,120,51,147,157,155,186,102,142,102,5,87,0,0,0,0,0,0,0,0,0,0,0,0,0,0,0,0,0,0,0,0,0,0,0,0,0,0,0,0,0,0,0,0],"split_type":[0,0,0,0,0,0,0,0,0,0,0,0,0,0,0,0,0,0,0,0,0,0,0,0,0,0,0,0,0,0,0,0,0,0,0,0,0,0,0,0,0,0,0,0,0,0,0,0,0,0,0,0,0,0,0,0,0,0,0,0,0,0,0],"sum_hessian":[1.1784723E3,7.0939655E2,4.690757E2,5.0073135E2,2.0866518E2,2.3822401E2,2.3085168E2,4.4300937E2,5.772199E1,1.6717636E2,4.1488815E1,2.0572697E2,3.249704E1,1.6833907E2,6.2512615E1,5.587607E1,3.871333E2,4.742062E1,1.030137E1,1.5448825E2,1.2688106E1,2.391454E0,3.9097363E1,5.838139E1,1.473456E2,2.7367674E1,5.129364E0,2.0871576E1,1.474675E2,1.524439E1,4.7268227E1,4.3013508E1,1.2862557E1,1.8170973E2,2.0542358E2,4.354531E1,3.875309E0,6.708014E0,3.5933557E0,1.4837367E2,6.1145716E0,6.8524613E0,5.8356442E0,1.3155255E0,1.0759283E0,5.711462E0,3.33859E1,4.0611453E0,5.4320244E1,1.1280937E2,3.4536217E1,2.2942837E1,4.424837E0,1.1961602E0,3.9332037E0,7.702573E0,1.31690035E1,5.444748E1,9.302001E1,7.8072853E0,7.4371047E0,9.565841E0,3.7702385E1],"tree_param":{"num_deleted":"0","num_feature":"203","num_nodes":"63","size_leaf_vector":"1"}},{"base_weights":[7.4537867E-3,1.6821589E-1,-2.0448086E-1,2.77966E-1,-1.2074237E-1,5.0113883E-2,-3.8815367E-1,2.2151695E-1,8.3753985E-1,-3.196137E-2,-6.7810446E-1,1.3660103E-1,-6.808425E-1,1.03607625E-1,-4.6417648E-1,4.0196832E-2,4.024739E-1,-3.191169E-1,1.0431963E0,-3.574908E-1,1.0032327E-1,-9.7838706E-1,2.070084E-1,-9.3655236E-2,3.7658584E-1,5.4261323E-2,-8.271036E-1,9.776589E-1,-1.318482E-1,1.2119713E-1,-5.2597445E-1,2.8861567E-2,-2.4978654E-3,-4.180296E-2,2.25419E-2,2.0916443E-2,-5.4190148E-2,-4.5141812E-2,5.639289E-2,-4.1418493E-2,-5.3522964E-3,1.4225165E-4,4.6885967E-2,1.2196037E-2,-5.385234E-2,-3.5880942E-2,4.6136796E-2,3.9339107E-2,-1.0616158E-2,5.2324433E-2,9.397916E-3,-4.9564008E-2,2.1879006E-2,7.001927E-2,-1.8876167E-2,5.256575E-2,-1.4544337E-2,2.5270123E-2,-3.2803003E-2,-2.8085543E-2,1.4091563E-2],"categories":[],"categories_nodes":[],"categories_segments":[],"categories_sizes":[],"default_left":[0,0,0,0,0,0,0,0,0,0,0,0,0,0,0,0,0,0,0,0,0,0,0,0,0,0,0,0,0,0,0,0,0,0,0,0,0,0,0,0,0,0,0,0,0,0,0,0,0,0,0,0,0,0,0,0,0,0,0,0,0],"id":8,"left_children":[1,3,5,7,9,11,13,15,17,19,21,23,25,27,29,31,33,35,37,39,41,43,45,47,49,-1,51,53,55,57,59,-1,-1,-1,-1,-1,-1,-1,-1,-1,-1,-1,-1,-1,-1,-1,-1,-1,-1,-1,-1,-1,-1,-1,-1,-1,-1,-1,-1,-1,-1],"loss_changes":[3.9879116E1,2.114072E1,2.3629454E1,1.5060474E1,9.078427E0,1.3525736E1,1.1017395E1,1.4413895E1,1.0768164E1,6.9122596E0,6.9053593E0,1.0580347E1,6.747754E0,8.382299E0,9.263397E0,1.07184105E1,1.35553665E1,4.619728E0,7.1933556E0,5.378471E0,9.329389E0,2.5546036E0,5.436147E0,1.0426077E1,1.1636092E1,0E0,4.8943872E0,5.4722967E0,6.41646E0,7.826091E0,6.8041344E0,0E0,0E0,0E0,0E0,0E0,0E0,0E0,0E0,0E0,0E0,0E0,0E0,0E0,0E0,0E0,0E0,0E0,0E0,0E0,0E0,0E0,0E0,0E0,0E0,0E0,0E0,0E0,0E0,0E0,0E0],"parents":[2147483647,0,0,1,1,2,2,3,3,4,4,5,5,6,6,7,7,8,8,9,9,10,10,11,11,12,12,13,13,14,14,15,15,16,16,17,17,18,18,19,19,20,20,21,21,22,22,23,23,24,24,26,26,27,27,28,28,29,29,30,30],"right_children":[2,4,6,8,10,12,14,16,18,20,22,24,26,28,30,32,34,36,38,40,42,44,46,48,50,-1,52,54,56,58,60,-1,-1,-1,-1,-1,-1,-1,-1,-1,-1,-1,-1,-1,-1,-1,-1,-1,-1,-1,-1,-1,-1,-1,-1,-1,-1,-1,-1,-1,-1],"split_conditions":[2.4E1,3.23E1,1.1857707E-2,1.11E0,6.1E0,1.465E2,4.8275862E-2,1.7E2,3.5E0,1.04E2,1E0,4.472136E-1,7.55E0,9.7409326E-1,3.7164707E-2,1.4285715E-1,3.6038334E1,1E0,7.5E1,1.16338234E2,2E0,6.5625E1,4.608295E-2,4.109589E-2,7.466E1,5.4261323E-2,3.55E1,8.7E1,3.6E0,1.2328767E-1,8.9E1,2.8861567E-2,-2.4978654E-3,-4.180296E-2,2.25419E-2,2.0916443E-2,-5.4190148E-2,-4.5141812E-2,5.639289E-2,-4.1418493E-2,-5.3522964E-3,1.4225165E-4,4.6885967E-2,1.2196037E-2,-5.385234E-2,-3.5880942E-2,4.6136796E-2,3.9339107E-2,-1.0616158E-2,5.2324433E-2,9.397916E-3,-4.9564008E-2,2.1879006E-2,7.001927E-2,-1.8876167E-2,5.256575E-2,-1.4544337E-2,2.5270123E-2,-3.2803003E-2,-2.8085543E-2,1.4091563E-2],"split_indices":[92,186,110,172,51,91,111,12,90,50,128,23,1,102,35,121,146,87,139,12,128,140,111,109,0,0,154,42,167,109,122,0,0,0,0,0,0,0,0,0,0,0,0,0,0,0,0,0,0,0,0,0,0,0,0,0,0,0,0,0,0],"split_type":[0,0,0,0,0,0,0,0,0,0,0,0,0,0,0,0,0,0,0,0,0,0,0,0,0,0,0,0,0,0,0,0,0,0,0,0,0,0,0,0,0,0,0,0,0,0,0,0,0,0,0,0,0,0,0,0,0,0,0,0,0],"sum_hessian":[1.1684595E3,6.645638E2,5.0389572E2,4.8166083E2,1.8290298E2,2.1148157E2,2.9241415E2,4.3879196E2,4.2868855E1,1.586839E2,2.4219074E1,1.8983348E2,2.1648079E1,3.910387E1,2.5331029E2,2.197865E2,2.1900546E2,6.388251E0,3.6480602E1,4.5359543E1,1.1332436E2,1.8005247E1,6.213826E0,9.719159E1,9.264189E1,1.164708E0,2.0483372E1,7.6295414E0,3.1474327E1,2.4096636E1,2.2921364E2,3.0816223E1,1.8897028E2,7.6185575E0,2.113869E2,3.4826262E0,2.9056244E0,1.1180059E0,3.53626E1,1.4947709E1,3.0411833E1,1.0240694E2,1.0917422E1,1.2347996E0,1.6770449E1,2.7100937E0,3.5037322E0,1.087514E1,8.631645E1,1.935511E1,7.328678E1,1.8321169E1,2.1622028E0,5.7900705E0,1.8394711E0,3.0646322E0,2.8409695E1,1.6359667E1,7.7369704E0,2.1979482E2,9.418825E0],"tree_param":{"num_deleted":"0","num_feature":"203","num_nodes":"61","size_leaf_vector":"1"}},{"base_weights":[-2.425449E-3,2.479917E-1,-1.2762302E-1,3.5568494E-1,-1.8398193E-1,1.02151394E-1,-2.5320166E-1,4.4647017E-1,-4.8103224E-2,-3.919548E-2,-8.246716E-1,2.1126913E-1,-2.5218853E-1,5.159892E-1,-3.0943012E-1,1.0619785E0,3.6199087E-1,-2.5653097E-1,8.2157534E-1,-1.383949E-1,1.0205919E0,-1.0367595E0,9.070504E-2,1.5793927E-1,1.0514231E0,9.276677E-1,-3.947044E-1,1.1527597E0,-2.0225707E-2,-2.3173435E-1,-6.4735335E-1,2.2709092E-2,7.6185875E-2,2.5013877E-2,-5.9735676E-4,-2.2170028E-2,2.7544761E-2,-1.7472658E-2,6.3470386E-2,-1.5532823E-2,1.6043281E-2,-1.6137896E-2,7.164655E-2,5.3709582E-3,-5.8282107E-2,-3.411168E-2,3.8083717E-2,1.2697468E-2,-1.5014552E-2,7.187359E-2,-1.3199252E-3,7.1572E-2,-1.55369295E-2,-3.997169E-2,-3.5360892E-4,6.6855244E-2,-1.5862014E-2,3.236113E-2,-2.4525365E-2,-5.0904926E-2,-9.985469E-3,-3.5181563E-2,4.479916E-2],"categories":[],"categories_nodes":[],"categories_segments":[],"categories_sizes":[],"default_left":[0,0,0,0,0,0,0,0,0,0,0,0,0,0,0,0,0,0,0,0,0,0,0,0,0,0,0,0,0,0,0,0,0,0,0,0,0,0,0,0,0,0,0,0,0,0,0,0,0,0,0,0,0,0,0,0,0,0,0,0,0,0,0],"id":9,"left_children":[1,3,5,7,9,11,13,15,17,19,21,23,25,27,29,31,33,35,37,39,41,43,45,47,49,51,53,55,57,59,61,-1,-1,-1,-1,-1,-1,-1,-1,-1,-1,-1,-1,-1,-1,-1,-1,-1,-1,-1,-1,-1,-1,-1,-1,-1,-1,-1,-1,-1,-1,-1,-1],"loss_changes":[3.682486E1,1.8278528E1,2.2620893E1,1.1521816E1,7.2761183E0,1.0780407E1,2.207125E1,1.2938934E1,1.0812954E1,7.007653E0,2.9037714E0,9.362341E0,1.1426431E1,1.1935159E1,1.2261745E1,7.84132E0,1.1735153E1,7.4782667E0,6.498432E0,4.894211E0,3.6251693E0,1.8698196E0,2.4084537E0,8.925615E0,5.24597E0,5.0536494E0,9.311735E0,4.750532E0,6.5705504E0,9.515398E0,8.257717E0,0E0,0E0,0E0,0E0,0E0,0E0,0E0,0E0,0E0,0E0,0E0,0E0,0E0,0E0,0E0,0E0,0E0,0E0,0E0,0E0,0E0,0E0,0E0,0E0,0E0,0E0,0E0,0E0,0E0,0E0,0E0,0E0],"parents":[2147483647,0,0,1,1,2,2,3,3,4,4,5,5,6,6,7,7,8,8,9,9,10,10,11,11,12,12,13,13,14,14,15,15,16,16,17,17,18,18,19,19,20,20,21,21,22,22,23,23,24,24,25,25,26,26,27,27,28,28,29,29,30,30],"right_children":[2,4,6,8,10,12,14,16,18,20,22,24,26,28,30,32,34,36,38,40,42,44,46,48,50,52,54,56,58,60,62,-1,-1,-1,-1,-1,-1,-1,-1,-1,-1,-1,-1,-1,-1,-1,-1,-1,-1,-1,-1,-1,-1,-1,-1,-1,-1,-1,-1,-1,-1,-1,-1],"split_conditions":[2E1,1E2,7.9E1,5.121107E-1,8.235294E-1,9.6907216E-1,7.938144E-1,4.2E1,2.384848E2,3.84E1,2.2950819E-1,9E0,7.9E0,1.3793103E-2,4.09E1,1.3E1,2.59E2,8.8640526E-2,1.12E0,7.1724784E-1,7.235268E1,8.164966E-1,9.79E1,9.237875E-3,8.196721E-2,2.3E1,9.957356E-1,2.5956522E1,7.960714E1,9.61E1,8.8E1,2.2709092E-2,7.6185875E-2,2.5013877E-2,-5.9735676E-4,-2.2170028E-2,2.7544761E-2,-1.7472658E-2,6.3470386E-2,-1.5532823E-2,1.6043281E-2,-1.6137896E-2,7.164655E-2,5.3709582E-3,-5.8282107E-2,-3.411168E-2,3.8083717E-2,1.2697468E-2,-1.5014552E-2,7.187359E-2,-1.3199252E-3,7.1572E-2,-1.55369295E-2,-3.997169E-2,-3.5360892E-4,6.6855244E-2,-1.5862014E-2,3.236113E-2,-2.4525365E-2,-5.0904926E-2,-9.985469E-3,-3.5181563E-2,4.479916E-2],"split_indices":[71,81,81,107,17,120,120,122,32,154,116,168,164,15,186,188,89,25,163,24,32,30,84,112,111,143,104,143,140,84,122,0,0,0,0,0,0,0,0,0,0,0,0,0,0,0,0,0,0,0,0,0,0,0,0,0,0,0,0,0,0,0,0],"split_type":[0,0,0,0,0,0,0,0,0,0,0,0,0,0,0,0,0,0,0,0,0,0,0,0,0,0,0,0,0,0,0,0,0,0,0,0,0,0,0,0,0,0,0,0,0,0,0,0,0,0,0,0,0,0,0,0,0,0,0,0,0,0,0],"sum_hessian":[1.1725665E3,3.905057E2,7.8206085E2,3.127197E2,7.7786E1,2.7643933E2,5.056215E2,2.552297E2,5.7489986E1,6.431332E1,1.3472686E1,2.1166241E2,6.477693E1,3.3886482E1,4.7173502E2,2.9406424E1,2.2582327E2,4.694431E1,1.0545676E1,5.960364E1,4.709676E0,1.0830673E1,2.642013E0,2.0014589E2,1.1516529E1,6.3874536E0,5.8389477E1,1.4965141E1,1.892134E1,3.8491953E2,8.681547E1,1.3551689E1,1.5854734E1,1.6461052E2,6.1212757E1,3.8487633E1,8.4566765E0,2.9780655E0,7.5676103E0,4.358075E1,1.6022896E1,1.1571325E0,3.5525432E0,1.1133397E0,9.717334E0,1.2199153E0,1.4220978E0,1.6584355E2,3.4302338E1,8.233731E0,3.282798E0,4.4296427E0,1.9578105E0,2.8045076E1,3.03444E1,1.3377893E1,1.587248E0,7.6656303E0,1.1255711E1,1.3857663E1,3.7106186E2,8.428605E1,2.5294135E0],"tree_param":{"num_deleted":"0","num_feature":"203","num_nodes":"63","size_leaf_vector":"1"}},{"base_weights":[1.3699281E-3,2.5426483E-1,-1.0923413E-1,1.1097422E0,2.0165807E-1,5.3954795E-3,-3.4717277E-1,1.2617157E0,-1.3556204E-2,3.1266633E-1,-1.1352223E-1,2.1441782E-1,-1.942264E-1,-6.6912854E-1,-2.4267714E-1,7.6055825E-3,1.3406633E0,1.7554575E-1,6.6003054E-1,4.451847E-1,-2.9645044E-1,-2.4922363E-1,3.1236842E-1,-7.605268E-2,-4.9759877E-1,-4.2062187E-1,-1.0998819E0,6.722314E-1,-2.846875E-1,4.1925055E-3,7.1513005E-2,2.5867347E-2,-2.3156304E-3,6.619267E-2,2.0963237E-2,3.869041E-2,-3.182403E-2,-9.368134E-3,-6.1904956E-2,-3.658981E-2,3.5566248E-3,5.4839898E-2,1.2344253E-2,-3.8728338E-2,-2.6168983E-4,-2.9014496E-2,4.322445E-2,3.0202055E-2,-2.7372727E-2,-5.895855E-2,1.2769009E-2,5.8400918E-2,-4.7616385E-2,1.4087069E-2,-1.844108E-2],"categories":[],"categories_nodes":[],"categories_segments":[],"categories_sizes":[],"default_left":[0,0,0,0,0,0,0,0,0,0,0,0,0,0,0,0,0,0,0,0,0,0,0,0,0,0,0,0,0,0,0,0,0,0,0,0,0,0,0,0,0,0,0,0,0,0,0,0,0,0,0,0,0,0,0],"id":10,"left_children":[1,3,5,7,9,11,13,15,-1,17,19,21,23,25,27,-1,29,31,33,35,37,39,41,43,45,47,49,51,53,-1,-1,-1,-1,-1,-1,-1,-1,-1,-1,-1,-1,-1,-1,-1,-1,-1,-1,-1,-1,-1,-1,-1,-1,-1,-1],"loss_changes":[3.284687E1,1.5856686E1,2.2285511E1,4.6394176E0,1.1855545E1,2.3089043E1,8.774731E0,1.4275703E0,0E0,1.17969055E1,9.20034E0,1.2353301E1,1.0109936E1,6.444292E0,7.9600754E0,0E0,1.8235683E0,1.3725403E1,1.07004795E1,8.414001E0,6.695992E0,7.4264045E0,1.1214903E1,1.0131295E1,9.418787E0,5.858808E0,2.771223E0,8.498998E0,9.346848E0,0E0,0E0,0E0,0E0,0E0,0E0,0E0,0E0,0E0,0E0,0E0,0E0,0E0,0E0,0E0,0E0,0E0,0E0,0E0,0E0,0E0,0E0,0E0,0E0,0E0,0E0],"parents":[2147483647,0,0,1,1,2,2,3,3,4,4,5,5,6,6,7,7,9,9,10,10,11,11,12,12,13,13,14,14,16,16,17,17,18,18,19,19,20,20,21,21,22,22,23,23,24,24,25,25,26,26,27,27,28,28],"right_children":[2,4,6,8,10,12,14,16,-1,18,20,22,24,26,28,-1,30,32,34,36,38,40,42,44,46,48,50,52,54,-1,-1,-1,-1,-1,-1,-1,-1,-1,-1,-1,-1,-1,-1,-1,-1,-1,-1,-1,-1,-1,-1,-1,-1,-1,-1],"split_conditions":[1.9E1,8.59E0,7.25E-1,2E-1,3.21E1,9.283019E-1,9.7197296E1,1.8E0,-1.3556204E-2,3.71E1,4.7393367E-3,2.8E2,6.153846E-3,1.0350983E0,5.3E1,7.6055825E-3,2.56E1,2.14E2,1.16E1,2.45E1,1.5506166E0,3.8E0,2E2,2.48E1,4E0,1.2E0,2.25E0,8.3E1,6.55E0,4.1925055E-3,7.1513005E-2,2.5867347E-2,-2.3156304E-3,6.619267E-2,2.0963237E-2,3.869041E-2,-3.182403E-2,-9.368134E-3,-6.1904956E-2,-3.658981E-2,3.5566248E-3,5.4839898E-2,1.2344253E-2,-3.8728338E-2,-2.6168983E-4,-2.9014496E-2,4.322445E-2,3.0202055E-2,-2.7372727E-2,-5.895855E-2,1.2769009E-2,5.8400918E-2,-4.7616385E-2,1.4087069E-2,-1.844108E-2],"split_indices":[71,176,7,113,186,120,3,179,0,155,108,72,112,38,129,0,155,68,156,83,37,167,200,187,78,86,16,69,82,0,0,0,0,0,0,0,0,0,0,0,0,0,0,0,0,0,0,0,0,0,0,0,0,0,0],"split_type":[0,0,0,0,0,0,0,0,0,0,0,0,0,0,0,0,0,0,0,0,0,0,0,0,0,0,0,0,0,0,0,0,0,0,0,0,0,0,0,0,0,0,0,0,0,0,0,0,0,0,0,0,0,0,0],"sum_hessian":[1.1723173E3,3.5631293E2,8.160043E2,1.9477642E1,3.368353E2,5.5135846E2,2.646458E2,1.7624262E1,1.8533801E0,2.4910655E2,8.772874E1,2.693013E2,2.8205716E2,6.352353E1,2.011223E2,1.3650684E0,1.6259193E1,1.7968288E2,6.942368E1,2.1285131E1,6.64436E1,4.670107E1,2.2260022E2,2.0388702E2,7.817014E1,4.153689E1,2.1986637E1,8.171018E0,1.9295128E2,1.2107884E0,1.5048405E1,7.019958E1,1.094833E2,1.7280521E1,5.2143166E1,1.6543594E1,4.7415376E0,6.0619904E1,5.823698E0,1.812058E1,2.8580488E1,1.5937276E1,2.0666295E2,1.7853523E1,1.8603351E2,7.4237236E1,3.9329042E0,4.160698E0,3.7376194E1,2.0894165E1,1.0924733E0,6.4757547E0,1.6952624E0,2.4649677E1,1.683016E2],"tree_param":{"num_deleted":"0","num_feature":"203","num_nodes":"55","size_leaf_vector":"1"}},{"base_weights":[5.879578E-3,1.0974989E-1,-2.3405835E-1,3.0580717E-1,-2.2029087E-2,3.330871E-1,-3.0664167E-1,4.530635E-1,-9.349462E-2,9.530112E-2,-2.8145978E-1,-4.1071013E-1,5.7482004E-1,-7.586964E-1,-2.2773983E-1,5.502367E-1,-3.872627E-2,-2.8614908E-1,3.418542E-1,2.534492E-1,-1.7926168E-1,2.0452717E-1,-4.07351E-1,-9.3868643E-1,2.0841861E-1,2.078465E-1,1.052097E0,5.0475102E-2,-8.774609E-1,-1.4457797E-1,-6.528507E-1,3.457403E-2,6.004183E-3,-1.2700873E-2,4.2744737E-2,-2.2046084E-2,1.8493002E-2,3.61204E-2,-1.4579492E-2,2.6790394E-2,5.572843E-3,-2.4800554E-2,7.250248E-4,-1.892049E-2,3.73231E-2,-2.328675E-2,3.031084E-2,-5.5819415E-3,-5.6330618E-2,-4.1252922E-2,5.4420978E-2,3.434806E-2,-1.4192792E-2,4.4977167E-3,7.0547745E-2,4.1145556E-2,-2.609538E-2,-4.752168E-2,3.7856966E-2,5.1501696E-3,-1.4865892E-2,5.3868134E-2,-3.6295235E-2],"categories":[],"categories_nodes":[],"categories_segments":[],"categories_sizes":[],"default_left":[0,0,0,0,0,0,0,0,0,0,0,0,0,0,0,0,0,0,0,0,0,0,0,0,0,0,0,0,0,0,0,0,0,0,0,0,0,0,0,0,0,0,0,0,0,0,0,0,0,0,0,0,0,0,0,0,0,0,0,0,0,0,0],"id":11,"left_children":[1,3,5,7,9,11,13,15,17,19,21,23,25,27,29,31,33,35,37,39,41,43,45,47,49,51,53,55,57,59,61,-1,-1,-1,-1,-1,-1,-1,-1,-1,-1,-1,-1,-1,-1,-1,-1,-1,-1,-1,-1,-1,-1,-1,-1,-1,-1,-1,-1,-1,-1,-1,-1],"loss_changes":[2.917456E1,2.1112703E1,1.4661085E1,1.935445E1,1.4925982E1,7.5371647E0,1.1029224E1,1.1496361E1,7.5891285E0,1.4712836E1,9.424774E0,3.642101E0,5.2219944E0,4.488182E0,9.409273E0,1.2102791E1,8.018859E0,6.5050163E0,6.9256325E0,8.550142E0,7.620161E0,1.0416944E1,7.478428E0,7.8691435E-1,6.055629E0,4.625601E0,4.45008E0,3.4642627E0,5.535942E0,8.581575E0,6.305607E0,0E0,0E0,0E0,0E0,0E0,0E0,0E0,0E0,0E0,0E0,0E0,0E0,0E0,0E0,0E0,0E0,0E0,0E0,0E0,0E0,0E0,0E0,0E0,0E0,0E0,0E0,0E0,0E0,0E0,0E0,0E0,0E0],"parents":[2147483647,0,0,1,1,2,2,3,3,4,4,5,5,6,6,7,7,8,8,9,9,10,10,11,11,12,12,13,13,14,14,15,15,16,16,17,17,18,18,19,19,20,20,21,21,22,22,23,23,24,24,25,25,26,26,27,27,28,28,29,29,30,30],"right_children":[2,4,6,8,10,12,14,16,18,20,22,24,26,28,30,32,34,36,38,40,42,44,46,48,50,52,54,56,58,60,62,-1,-1,-1,-1,-1,-1,-1,-1,-1,-1,-1,-1,-1,-1,-1,-1,-1,-1,-1,-1,-1,-1,-1,-1,-1,-1,-1,-1,-1,-1,-1,-1],"split_conditions":[9.4E1,9.745223E-1,2.5906735E-3,3.89E1,2.8653296E-3,1.14E0,2.6E0,3.33E2,7.5E1,3.9683554E-1,9.2E1,1.15E2,2.1213202E0,8.2E1,1.16E2,4.3E0,2.5E2,3.52E2,2.06E2,1.725E1,8.1E0,9.67E1,8.7E1,1.02E2,2.23E1,2.44E2,3.9E2,4.058397E-1,1.07E2,1.35E1,9.6E1,3.457403E-2,6.004183E-3,-1.2700873E-2,4.2744737E-2,-2.2046084E-2,1.8493002E-2,3.61204E-2,-1.4579492E-2,2.6790394E-2,5.572843E-3,-2.4800554E-2,7.250248E-4,-1.892049E-2,3.73231E-2,-2.328675E-2,3.031084E-2,-5.5819415E-3,-5.6330618E-2,-4.1252922E-2,5.4420978E-2,3.434806E-2,-1.4192792E-2,4.4977167E-3,7.0547745E-2,4.1145556E-2,-2.609538E-2,-4.752168E-2,3.7856966E-2,5.1501696E-3,-1.4865892E-2,5.3868134E-2,-3.6295235E-2],"split_indices":[81,104,15,187,112,163,157,68,122,38,139,93,30,202,81,167,12,202,89,143,156,45,122,165,154,68,72,38,129,53,130,0,0,0,0,0,0,0,0,0,0,0,0,0,0,0,0,0,0,0,0,0,0,0,0,0,0,0,0,0,0,0,0],"split_type":[0,0,0,0,0,0,0,0,0,0,0,0,0,0,0,0,0,0,0,0,0,0,0,0,0,0,0,0,0,0,0,0,0,0,0,0,0,0,0,0,0,0,0,0,0,0,0,0,0,0,0,0,0,0,0,0,0,0,0,0,0,0,0],"sum_hessian":[1.1685841E3,8.1591364E2,3.5267044E2,3.2743857E2,4.8847507E2,3.9606606E1,3.1306384E2,2.3912013E2,8.8318436E1,3.3679068E2,1.516844E2,9.543335E0,3.0063269E1,4.5241966E1,2.6782187E2,1.9956837E2,3.9551758E1,6.1462303E1,2.6856134E1,2.137485E2,1.2304216E2,3.1079876E1,1.2060453E2,4.872261E0,4.671074E0,1.780707E1,1.2256199E1,5.864013E0,3.9377953E1,2.251226E2,4.2699265E1,1.4977962E2,4.9788757E1,3.2449715E1,7.1020427E0,4.999486E1,1.1467442E1,1.6689281E1,1.0166853E1,7.059447E1,1.4315404E2,4.6108E1,7.693416E1,1.5118871E1,1.5961005E1,1.14546844E2,6.0576863E0,1.1972611E0,3.6749997E0,2.1769216E0,2.494152E0,8.81785E0,8.98922E0,3.6692233E0,8.586976E0,2.309554E0,3.5544593E0,3.8095814E1,1.2821411E0,8.601826E1,1.3910434E2,1.172895E0,4.152637E1],"tree_param":{"num_deleted":"0","num_feature":"203","num_nodes":"63","size_leaf_vector":"1"}},{"base_weights":[-2.602266E-3,2.120424E-2,-1.0168585E0,-1.0598016E-1,1.9707641E-1,-1.1124927E0,3.1320967E-2,3.032494E-2,-3.6292702E-1,4.280782E-1,5.2927162E-2,2.5970662E-2,-1.2000372E0,1.5588234E-1,-2.2920774E-1,2.6719095E-2,-4.39048E-1,5.400961E-1,-9.909726E-2,3.470436E-1,-6.5203436E-2,5.4402405E-4,-1.2758671E0,1.3463147E-2,-1.1040261E-2,-2.3081651E-2,3.0499902E-3,4.0678702E-2,-1.4452889E-2,-2.2863869E-2,4.7872804E-2,-1.8609669E-2,3.0255487E-2,3.3731297E-2,-2.552186E-2,-3.0497432E-2,2.2105195E-2,6.258534E-3,-1.456285E-2,-6.673489E-2,-5.161206E-3],"categories":[],"categories_nodes":[],"categories_segments":[],"categories_sizes":[],"default_left":[0,0,0,0,0,0,0,0,0,0,0,0,0,0,0,0,0,0,0,0,0,0,0,0,0,0,0,0,0,0,0,0,0,0,0,0,0,0,0,0,0],"id":12,"left_children":[1,3,5,7,9,11,-1,13,15,17,19,-1,21,23,25,27,29,31,33,35,37,-1,39,-1,-1,-1,-1,-1,-1,-1,-1,-1,-1,-1,-1,-1,-1,-1,-1,-1,-1],"loss_changes":[2.8334385E1,2.5669626E1,4.926161E0,2.3339579E1,1.6013063E1,4.3080635E0,0E0,1.4247868E1,6.86178E0,1.0972408E1,1.0364986E1,0E0,2.2893524E0,1.263866E1,9.647197E0,9.847801E0,5.3578033E0,9.279152E0,1.0926092E1,8.043846E0,9.21211E0,0E0,1.4716263E0,0E0,0E0,0E0,0E0,0E0,0E0,0E0,0E0,0E0,0E0,0E0,0E0,0E0,0E0,0E0,0E0,0E0,0E0],"parents":[2147483647,0,0,1,1,2,2,3,3,4,4,5,5,7,7,8,8,9,9,10,10,12,12,13,13,14,14,15,15,16,16,17,17,18,18,19,19,20,20,22,22],"right_children":[2,4,6,8,10,12,-1,14,16,18,20,-1,22,24,26,28,30,32,34,36,38,-1,40,-1,-1,-1,-1,-1,-1,-1,-1,-1,-1,-1,-1,-1,-1,-1,-1,-1,-1],"split_conditions":[2E0,1.75E2,2.48E2,2.0970497E1,9.752066E-1,4.366812E-2,3.1320967E-2,1.5E1,1.3E1,2.935E2,1.4666667E1,2.5970662E-2,4.132231E-3,5.181347E-3,1.06E2,2.75E0,1.46E1,8.8E-1,9.25894E-2,2.5E0,8.7E0,5.4402405E-4,9.7E-1,1.3463147E-2,-1.1040261E-2,-2.3081651E-2,3.0499902E-3,4.0678702E-2,-1.4452889E-2,-2.2863869E-2,4.7872804E-2,-1.8609669E-2,3.0255487E-2,3.3731297E-2,-2.552186E-2,-3.0497432E-2,2.2105195E-2,6.258534E-3,-1.456285E-2,-6.673489E-2,-5.161206E-3],"split_indices":[98,93,50,2,102,111,0,159,160,8,11,0,15,112,147,5,156,173,35,44,164,0,175,0,0,0,0,0,0,0,0,0,0,0,0,0,0,0,0,0,0],"split_type":[0,0,0,0,0,0,0,0,0,0,0,0,0,0,0,0,0,0,0,0,0,0,0,0,0,0,0,0,0,0,0,0,0,0,0,0,0,0,0,0,0],"sum_hessian":[1.1715728E3,1.145661E3,2.5911734E1,6.650896E2,4.805714E2,2.4791918E1,1.119817E0,4.3513913E2,2.299505E2,1.8389946E2,2.9667194E2,1.0110959E0,2.378082E1,2.9353253E2,1.4160658E2,3.7687202E1,1.922633E2,1.5165108E2,3.224838E1,8.445693E1,2.1221501E2,1.4519132E0,2.2328907E1,2.25841E2,6.769154E1,7.830329E1,6.3303284E1,1.0341576E1,2.7345627E1,1.9044981E2,1.8134944E0,9.774053E0,1.4187703E2,1.0971365E1,2.1277016E1,7.14186E0,7.731507E1,1.1544103E2,9.677398E1,2.1130604E1,1.1983038E0],"tree_param":{"num_deleted":"0","num_feature":"203","num_nodes":"41","size_leaf_vector":"1"}},{"base_weights":[6.122693E-4,8.8865094E-2,-2.689614E-1,2.1585532E-1,-1.6442874E-1,-1.03135504E-1,-5.051998E-1,7.152504E-2,4.1452312E-1,1.4715579E-1,-3.4516066E-1,8.8780686E-2,-4.284534E-1,-5.4858595E-1,6.8059705E-2,2.1311219E-1,-2.252369E-1,9.2540336E-1,3.2950372E-1,6.568452E-1,-7.464352E-2,2.447835E-1,-4.3454796E-1,-2.3420854E-2,7.8707176E-1,7.231684E-1,-5.2388024E-1,-5.8231825E-1,5.9276797E-2,-1.5175476E-2,1.5531163E-2,-2.1912968E-2,1.38698E-2,5.616792E-2,-1.6712601E-3,4.2676743E-2,1.2142035E-2,4.6794225E-2,-9.714431E-3,4.4930696E-2,-9.86756E-3,3.323553E-2,-2.7525663E-2,2.3820098E-2,-2.4236962E-2,-4.1668545E-2,4.096684E-3,1.9245216E-3,7.044297E-2,6.1382957E-2,-1.675698E-2,-2.9898718E-2,4.30099E-2,3.5672087E-2,-3.0952895E-2],"categories":[],"categories_nodes":[],"categories_segments":[],"categories_sizes":[],"default_left":[0,0,0,0,0,0,0,0,0,0,0,0,0,0,0,0,0,0,0,0,0,0,0,0,0,0,0,0,0,0,0,0,0,0,0,0,0,0,0,0,0,0,0,0,0,0,0,0,0,0,0,0,0,0,0],"id":13,"left_children":[1,3,5,7,9,11,13,15,17,19,21,23,25,27,-1,29,31,33,35,37,39,41,43,45,47,49,51,53,-1,-1,-1,-1,-1,-1,-1,-1,-1,-1,-1,-1,-1,-1,-1,-1,-1,-1,-1,-1,-1,-1,-1,-1,-1,-1,-1],"loss_changes":[2.7820024E1,2.8372158E1,1.1246151E1,1.6807758E1,1.6649107E1,1.0696422E1,1.035803E1,1.4389631E1,1.0418331E1,1.2360628E1,9.959328E0,8.49589E0,7.3588E0,7.517418E0,0E0,1.1760918E1,1.19781E1,6.6182175E0,9.475527E0,8.048744E0,9.347041E0,8.790205E0,7.6661777E0,8.105946E0,6.931285E0,3.2306502E0,6.5889378E0,5.923645E0,0E0,0E0,0E0,0E0,0E0,0E0,0E0,0E0,0E0,0E0,0E0,0E0,0E0,0E0,0E0,0E0,0E0,0E0,0E0,0E0,0E0,0E0,0E0,0E0,0E0,0E0,0E0],"parents":[2147483647,0,0,1,1,2,2,3,3,4,4,5,5,6,6,7,7,8,8,9,9,10,10,11,11,12,12,13,13,15,15,16,16,17,17,18,18,19,19,20,20,21,21,22,22,23,23,24,24,25,25,26,26,27,27],"right_children":[2,4,6,8,10,12,14,16,18,20,22,24,26,28,-1,30,32,34,36,38,40,42,44,46,48,50,52,54,-1,-1,-1,-1,-1,-1,-1,-1,-1,-1,-1,-1,-1,-1,-1,-1,-1,-1,-1,-1,-1,-1,-1,-1,-1,-1,-1],"split_conditions":[4.12E1,2.0842342E1,8.8E0,1.7205556E2,1.45E1,7.4E1,4.26E2,1.5E1,1.05111115E2,2.5773194E-1,1.8367347E-1,5.3846157E-1,2.8571429E-2,1.68E2,6.8059705E-2,2.47E1,8.021739E1,1.2E-1,6E-1,2.4E0,3.8E1,1.04166664E2,1.8153847E1,1.8E0,7.9E0,2.5333334E1,2.5E2,3.9E1,5.9276797E-2,-1.5175476E-2,1.5531163E-2,-2.1912968E-2,1.38698E-2,5.616792E-2,-1.6712601E-3,4.2676743E-2,1.2142035E-2,4.6794225E-2,-9.714431E-3,4.4930696E-2,-9.86756E-3,3.323553E-2,-2.7525663E-2,2.3820098E-2,-2.4236962E-2,-4.1668545E-2,4.096684E-3,1.9245216E-3,7.044297E-2,6.1382957E-2,-1.675698E-2,-2.9898718E-2,4.30099E-2,3.5672087E-2,-3.0952895E-2],"split_indices":[187,2,164,12,53,42,89,159,134,106,107,21,17,201,0,186,140,109,67,47,122,131,11,179,156,83,95,122,0,0,0,0,0,0,0,0,0,0,0,0,0,0,0,0,0,0,0,0,0,0,0,0,0,0,0],"split_type":[0,0,0,0,0,0,0,0,0,0,0,0,0,0,0,0,0,0,0,0,0,0,0,0,0,0,0,0,0,0,0,0,0,0,0,0,0,0,0,0,0,0,0,0,0,0,0,0,0,0,0,0,0,0,0],"sum_hessian":[1.1673641E3,8.799553E2,2.8740875E2,5.8620575E2,2.937496E2,1.6971506E2,1.1769371E2,3.4032376E2,2.4588196E2,1.079052E2,1.8584439E2,1.07200745E2,6.2514305E1,1.1570999E2,1.9837186E0,2.305897E2,1.09734055E2,3.3670696E1,2.1221126E2,3.2123875E1,7.578133E1,2.4224894E1,1.616195E2,9.319295E1,1.40078E1,4.280349E0,5.8233955E1,1.1415366E2,1.5563277E0,3.6277256E1,1.9431245E2,7.716049E1,3.2573566E1,2.7766556E1,5.904139E0,2.885896E1,1.8335231E2,2.4117516E1,8.00636E0,7.7767477E0,6.800458E1,1.5961312E1,8.263582E0,7.9964113E0,1.536231E2,9.931429E0,8.326151E1,6.837688E0,7.170112E0,2.7902353E0,1.4901135E0,5.581402E1,2.419939E0,2.6395993E0,1.1151406E2],"tree_param":{"num_deleted":"0","num_feature":"203","num_nodes":"55","size_leaf_vector":"1"}},{"base_weights":[4.8262165E-3,5.3037757E-1,-3.7214175E-2,1.415406E0,3.592847E-1,1.3198248E-1,-1.6550763E-1,2.1693995E-3,1.5358452E0,-8.2368517E-1,4.7248697E-1,3.1944007E-2,6.3422734E-1,-9.328503E-2,-5.465321E-1,2.08887E-2,8.009558E-2,-1.1400512E0,4.919721E-3,7.634785E-1,9.9546924E-2,2.3910137E-1,-1.0471133E-1,-1.3455975E-1,8.5734004E-1,-2.1144341E-1,9.93683E-2,-8.623784E-2,-6.6790605E-1,-1.3893488E-2,-6.6838354E-2,-1.335179E-2,4.6638586E-2,4.8386484E-2,-8.010476E-3,2.3576437E-2,-3.0689081E-3,-1.2055027E-2,1.5553822E-2,6.547004E-2,-2.0390611E-2,4.908714E-2,-2.1907734E-3,-3.9512445E-3,-2.3497038E-2,-1.377895E-2,1.2573379E-2,4.0561568E-2,-1.8098095E-2,-4.3651585E-2,-1.840673E-2],"categories":[],"categories_nodes":[],"categories_segments":[],"categories_sizes":[],"default_left":[0,0,0,0,0,0,0,0,0,0,0,0,0,0,0,0,0,0,0,0,0,0,0,0,0,0,0,0,0,0,0,0,0,0,0,0,0,0,0,0,0,0,0,0,0,0,0,0,0,0,0],"id":14,"left_children":[1,3,5,7,9,11,13,-1,15,17,19,21,23,25,27,-1,-1,29,-1,31,33,35,37,39,41,43,45,47,49,-1,-1,-1,-1,-1,-1,-1,-1,-1,-1,-1,-1,-1,-1,-1,-1,-1,-1,-1,-1,-1,-1],"loss_changes":[2.5731947E1,1.2553402E1,2.3432266E1,2.1863613E0,1.0248993E1,2.3376015E1,1.6840677E1,0E0,2.54467E-1,2.0943298E0,7.2853546E0,1.1047583E1,1.3372902E1,1.1794868E1,5.39534E0,0E0,0E0,5.000706E-1,0E0,6.870264E0,7.118971E0,1.0858622E1,1.3418528E1,7.7347794E0,6.7740707E0,1.0947725E1,1.1321626E1,5.6175823E0,4.418907E0,0E0,0E0,0E0,0E0,0E0,0E0,0E0,0E0,0E0,0E0,0E0,0E0,0E0,0E0,0E0,0E0,0E0,0E0,0E0,0E0,0E0,0E0],"parents":[2147483647,0,0,1,1,2,2,3,3,4,4,5,5,6,6,8,8,9,9,10,10,11,11,12,12,13,13,14,14,17,17,19,19,20,20,21,21,22,22,23,23,24,24,25,25,26,26,27,27,28,28],"right_children":[2,4,6,8,10,12,14,-1,16,18,20,22,24,26,28,-1,-1,30,-1,32,34,36,38,40,42,44,46,48,50,-1,-1,-1,-1,-1,-1,-1,-1,-1,-1,-1,-1,-1,-1,-1,-1,-1,-1,-1,-1,-1,-1],"split_conditions":[7.529412E-1,2.7E2,4.494382E-3,2.31E1,3.95E1,6.932409E-3,4.33E1,2.1693995E-3,2.42E1,6.3013697E-1,9.578263E-2,7.9E1,6.06977E-1,1.76E2,6.557377E-2,2.08887E-2,8.009558E-2,4.16604E-1,4.919721E-3,1.4E0,3.61E0,1.1E1,3.6E1,1.25E1,1.7027028E0,9.5E1,9.788333E1,4.05E1,3.8E0,-1.3893488E-2,-6.6838354E-2,-1.335179E-2,4.6638586E-2,4.8386484E-2,-8.010476E-3,2.3576437E-2,-3.0689081E-3,-1.2055027E-2,1.5553822E-2,6.547004E-2,-2.0390611E-2,4.908714E-2,-2.1907734E-3,-3.9512445E-3,-2.3497038E-2,-1.377895E-2,1.2573379E-2,4.0561568E-2,-1.8098095E-2,-4.3651585E-2,-1.840673E-2],"split_indices":[120,200,110,154,138,117,186,0,186,120,35,81,23,93,109,0,0,23,0,86,167,156,155,189,17,81,3,135,167,0,0,0,0,0,0,0,0,0,0,0,0,0,0,0,0,0,0,0,0,0,0],"split_type":[0,0,0,0,0,0,0,0,0,0,0,0,0,0,0,0,0,0,0,0,0,0,0,0,0,0,0,0,0,0,0,0,0,0,0,0,0,0,0,0,0,0,0,0,0,0,0,0,0,0,0],"sum_hessian":[1.162744E3,8.526177E1,1.0774823E3,1.26343155E1,7.262745E1,4.646549E2,6.1282733E2,1.129342E0,1.1504974E1,5.7948403E0,6.683261E1,3.8836328E2,7.6291626E1,5.162229E2,9.660443E1,1.0504963E0,1.0454477E1,4.1385202E0,1.6563201E0,3.6952633E1,2.9879978E1,1.540649E2,2.3429837E2,1.724991E1,5.9041714E1,3.1991483E2,1.9630809E2,2.0514912E1,7.608952E1,1.2170187E0,2.9215014E0,5.1325626E0,3.1820072E1,6.253478E0,2.3626501E1,8.654851E1,6.751639E1,1.767424E2,5.755597E1,2.141512E0,1.51083975E1,5.1801228E1,7.2404876E0,2.1241054E2,1.0750427E2,5.6417866E1,1.3989023E2,4.364965E0,1.6149946E1,4.404107E1,3.2048454E1],"tree_param":{"num_deleted":"0","num_feature":"203","num_nodes":"51","size_leaf_vector":"1"}},{"base_weights":[-1.9074494E-2,1.20674804E-1,-1.8194056E-1,-4.946476E-2,2.649155E-1,6.44386E-2,-3.1761107E-1,1.5807596E-1,-2.5850236E-1,1.0070354E0,2.2398512E-1,1.9156079E-1,-2.8599867E-1,-4.173726E-2,-4.1894296E-1,-4.5013584E-2,7.006728E-1,4.862976E-1,-3.4083128E-1,1.2797288E0,-3.7994003E-1,2.4710502E-1,-1.0190811E0,4.2183253E-1,-4.167099E-3,1.4523658E-1,-6.164785E-1,7.443299E-1,-2.1518841E-1,6.201273E-2,-4.3330997E-1,5.851814E-3,-3.5786133E-2,6.1828893E-2,5.5552893E-3,4.7501042E-2,-3.568806E-2,-1.2250956E-2,-4.3662086E-2,7.19701E-2,-1.4809452E-2,-4.7417548E-2,2.6299795E-2,1.6260358E-2,-4.543859E-3,-1.129142E-2,-6.3169464E-2,-1.4143037E-2,3.2019485E-2,1.5744856E-2,-1.830647E-2,-9.328473E-3,5.509294E-2,-4.1155454E-2,1.2701774E-3,4.9462803E-2,-3.0249212E-2,-1.3328664E-2,4.7543727E-2,-2.693061E-2,-1.1926453E-2],"categories":[],"categories_nodes":[],"categories_segments":[],"categories_sizes":[],"default_left":[0,0,0,0,0,0,0,0,0,0,0,0,0,0,0,0,0,0,0,0,0,0,0,0,0,0,0,0,0,0,0,0,0,0,0,0,0,0,0,0,0,0,0,0,0,0,0,0,0,0,0,0,0,0,0,0,0,0,0,0,0],"id":15,"left_children":[1,3,5,7,9,11,13,15,17,19,21,23,25,27,29,31,33,35,37,39,41,43,45,47,49,51,53,55,57,-1,59,-1,-1,-1,-1,-1,-1,-1,-1,-1,-1,-1,-1,-1,-1,-1,-1,-1,-1,-1,-1,-1,-1,-1,-1,-1,-1,-1,-1,-1,-1],"loss_changes":[2.6754572E1,1.5540795E1,1.8164276E1,1.2671721E1,1.018042E1,8.67872E0,9.772659E0,1.6198874E1,9.08315E0,7.150749E0,9.619772E0,6.431256E0,7.4906063E0,1.313896E1,6.6404037E0,1.1789087E1,1.2506525E1,8.962799E0,6.496086E0,4.189371E0,2.3867567E0,8.4981E0,9.059715E-1,1.0277322E1,9.135115E0,7.614217E0,3.9456787E0,6.359417E0,4.972582E0,0E0,5.0928764E0,0E0,0E0,0E0,0E0,0E0,0E0,0E0,0E0,0E0,0E0,0E0,0E0,0E0,0E0,0E0,0E0,0E0,0E0,0E0,0E0,0E0,0E0,0E0,0E0,0E0,0E0,0E0,0E0,0E0,0E0],"parents":[2147483647,0,0,1,1,2,2,3,3,4,4,5,5,6,6,7,7,8,8,9,9,10,10,11,11,12,12,13,13,14,14,15,15,16,16,17,17,18,18,19,19,20,20,21,21,22,22,23,23,24,24,25,25,26,26,27,27,28,28,30,30],"right_children":[2,4,6,8,10,12,14,16,18,20,22,24,26,28,30,32,34,36,38,40,42,44,46,48,50,52,54,56,58,-1,60,-1,-1,-1,-1,-1,-1,-1,-1,-1,-1,-1,-1,-1,-1,-1,-1,-1,-1,-1,-1,-1,-1,-1,-1,-1,-1,-1,-1,-1,-1],"split_conditions":[2.3E1,1.5666667E2,7.9E1,3.689E1,7.3E1,5.135526E-1,5.1575933E-2,3.55E1,2.45E2,1.5E2,2E0,1.59E2,4.472136E-2,7.418398E-3,5E0,2E1,3.66E1,9.621667E0,2.4391891E1,1.2682143E2,1.53E2,4.09E1,1.2E-1,2.61E1,1.4E1,7.5592893E-1,1.16708336E2,9.98E1,5.14E2,6.201273E-2,1.0030441E0,5.851814E-3,-3.5786133E-2,6.1828893E-2,5.5552893E-3,4.7501042E-2,-3.568806E-2,-1.2250956E-2,-4.3662086E-2,7.19701E-2,-1.4809452E-2,-4.7417548E-2,2.6299795E-2,1.6260358E-2,-4.543859E-3,-1.129142E-2,-6.3169464E-2,-1.4143037E-2,3.2019485E-2,1.5744856E-2,-1.830647E-2,-9.328473E-3,5.509294E-2,-4.1155454E-2,1.2701774E-3,4.9462803E-2,-3.0249212E-2,-1.3328664E-2,4.7543727E-2,-2.693061E-2,-1.1926453E-2],"split_indices":[92,12,81,146,132,36,111,155,200,147,98,50,26,15,141,189,154,1,2,134,147,187,113,155,141,36,134,84,68,0,23,0,0,0,0,0,0,0,0,0,0,0,0,0,0,0,0,0,0,0,0,0,0,0,0,0,0,0,0,0,0],"split_type":[0,0,0,0,0,0,0,0,0,0,0,0,0,0,0,0,0,0,0,0,0,0,0,0,0,0,0,0,0,0,0,0,0,0,0,0,0,0,0,0,0,0,0,0,0,0,0,0,0,0,0,0,0,0,0,0,0,0,0,0,0],"sum_hessian":[1.1735223E3,6.317232E2,5.417991E2,2.9014218E2,3.4158105E2,1.9258594E2,3.4921317E2,1.457147E2,1.4442746E2,1.6620817E1,3.2496024E2,1.416539E2,5.093203E1,9.41913E1,2.5502185E2,1.0669622E2,3.901848E1,1.3887301E1,1.3054016E2,1.3954536E1,2.6662796E0,3.198132E2,5.147019E0,6.455291E1,7.7101E1,2.2340706E1,2.8591322E1,1.6431902E1,7.77594E1,1.4567838E0,2.5356506E2,8.659865E1,2.0097574E1,1.9864552E1,1.9153929E1,1.0166966E1,3.720335E0,1.1186858E2,1.8671577E1,1.2749386E1,1.2051508E0,1.6095694E0,1.0567101E0,2.598126E2,6.000063E1,1.6650546E0,3.4819646E0,1.5211689E1,4.9341225E1,4.1047913E1,3.605308E1,1.7185022E1,5.155684E0,2.1415157E1,7.176165E0,1.4133288E1,2.298614E0,7.521624E1,2.543161E0,1.6344073E2,9.012433E1],"tree_param":{"num_deleted":"0","num_feature":"203","num_nodes":"61","size_leaf_vector":"1"}},{"base_weights":[3.3166364E-3,1.4485063E-1,-1.6045722E-1,2.2122759E-1,-1.614778E-1,7.583322E-2,-2.8960887E-1,3.1242412E-1,-2.3159584E-2,-4.3542987E-1,8.421201E-2,5.152284E-1,-5.887015E-2,5.494449E-1,-3.2398862E-1,-2.7763313E-1,3.6337653E-1,1.5734807E-1,-3.4806994E-1,4.3415885E-2,-4.8836315E-1,3.356468E-1,-3.7446025E-1,5.3017274E-2,1.0218905E0,-1.8287334E-1,4.9586558E-1,-4.168927E-1,1.0639157E0,-4.6544415E-1,-1.8063623E-1,4.1742012E-2,-2.292912E-2,8.000144E-4,2.303843E-2,1.9192137E-2,-1.1479356E-2,-2.543115E-2,1.6115068E-2,-3.407697E-2,-6.4899363E-3,2.4567349E-2,-2.710468E-2,-2.9793665E-2,3.0815205E-2,6.235782E-2,-5.146269E-3,5.8180153E-2,-3.679209E-2,9.4303405E-3,-1.691032E-2,4.603161E-2,1.2445952E-3,2.888291E-2,-3.9957657E-2,-2.0619405E-2,6.50587E-2,5.119471E-2,-2.4402812E-2,-2.4163385E-3,-2.2717457E-2],"categories":[],"categories_nodes":[],"categories_segments":[],"categories_sizes":[],"default_left":[0,0,0,0,0,0,0,0,0,0,0,0,0,0,0,0,0,0,0,0,0,0,0,0,0,0,0,0,0,0,0,0,0,0,0,0,0,0,0,0,0,0,0,0,0,0,0,0,0,0,0,0,0,0,0,0,0,0,0,0,0],"id":16,"left_children":[1,3,5,7,9,11,13,15,17,19,21,23,25,27,29,31,33,35,37,-1,39,41,43,45,47,49,51,53,55,57,59,-1,-1,-1,-1,-1,-1,-1,-1,-1,-1,-1,-1,-1,-1,-1,-1,-1,-1,-1,-1,-1,-1,-1,-1,-1,-1,-1,-1,-1,-1],"loss_changes":[2.6936264E1,1.4619827E1,1.646222E1,1.1136761E1,8.448742E0,1.1346037E1,1.0232077E1,1.1036388E1,8.068333E0,4.5132313E0,7.8210278E0,1.04749E1,1.0217924E1,7.448377E0,6.718113E0,6.317002E0,1.1334751E1,7.8464403E0,5.449688E0,0E0,3.8999891E0,6.228675E0,5.6538563E0,4.703044E0,6.185364E0,7.049072E0,5.411815E0,2.595828E0,3.8557901E0,6.1644173E0,6.0708456E0,0E0,0E0,0E0,0E0,0E0,0E0,0E0,0E0,0E0,0E0,0E0,0E0,0E0,0E0,0E0,0E0,0E0,0E0,0E0,0E0,0E0,0E0,0E0,0E0,0E0,0E0,0E0,0E0,0E0,0E0],"parents":[2147483647,0,0,1,1,2,2,3,3,4,4,5,5,6,6,7,7,8,8,9,9,10,10,11,11,12,12,13,13,14,14,15,15,16,16,17,17,18,18,20,20,21,21,22,22,23,23,24,24,25,25,26,26,27,27,28,28,29,29,30,30],"right_children":[2,4,6,8,10,12,14,16,18,20,22,24,26,28,30,32,34,36,38,-1,40,42,44,46,48,50,52,54,56,58,60,-1,-1,-1,-1,-1,-1,-1,-1,-1,-1,-1,-1,-1,-1,-1,-1,-1,-1,-1,-1,-1,-1,-1,-1,-1,-1,-1,-1,-1,-1],"split_conditions":[2.3E1,1E2,7.9E1,3.22E1,1.55E2,5.8536585E-2,7.529412E-1,3.5E0,9.77E1,8.9E0,1.0091743E-1,7.4E1,1.3016667E2,3E0,1.05E2,6E0,2.53E1,9.5412844E-1,1E0,4.3415885E-2,1.04E2,9.836066E-1,3.7950425E0,6E-1,2.4222606E-1,1.7E2,9E0,7.079646E-2,7E-1,5.5E0,2.97E2,4.1742012E-2,-2.292912E-2,8.000144E-4,2.303843E-2,1.9192137E-2,-1.1479356E-2,-2.543115E-2,1.6115068E-2,-3.407697E-2,-6.4899363E-3,2.4567349E-2,-2.710468E-2,-2.9793665E-2,3.0815205E-2,6.235782E-2,-5.146269E-3,5.8180153E-2,-3.679209E-2,9.4303405E-3,-1.691032E-2,4.603161E-2,1.2445952E-3,2.888291E-2,-3.9957657E-2,-2.0619405E-2,6.50587E-2,5.119471E-2,-2.4402812E-2,-2.4163385E-3,-2.2717457E-2],"split_indices":[92,81,81,186,12,109,120,64,45,176,103,122,134,5,93,197,186,120,98,0,165,120,33,196,35,68,164,109,87,141,65,0,0,0,0,0,0,0,0,0,0,0,0,0,0,0,0,0,0,0,0,0,0,0,0,0,0,0,0,0,0],"split_type":[0,0,0,0,0,0,0,0,0,0,0,0,0,0,0,0,0,0,0,0,0,0,0,0,0,0,0,0,0,0,0,0,0,0,0,0,0,0,0,0,0,0,0,0,0,0,0,0,0,0,0,0,0,0,0,0,0,0,0,0,0],"sum_hessian":[1.1600667E3,6.223473E2,5.377193E2,4.9836707E2,1.2398021E2,1.9018239E2,3.4753693E2,3.6273062E2,1.3563646E2,5.8253452E1,6.572676E1,4.396054E1,1.4622185E2,1.308992E1,3.3444702E2,2.8479002E1,3.3425162E2,8.752607E1,4.8110382E1,1.6718454E0,5.6581608E1,4.262747E1,2.3099289E1,2.3566364E1,2.0394176E1,1.20055504E2,2.6166338E1,4.613669E0,8.476251E0,1.6720634E2,1.6724068E2,3.478649E0,2.5000353E1,7.344688E1,2.6080475E2,5.521415E1,3.231192E1,3.900905E1,9.1013365E0,3.6185802E1,2.0395807E1,3.657902E1,6.048448E0,1.9205805E1,3.8934844E0,1.913801E0,2.1652563E1,1.9185411E1,1.2087651E0,3.5335705E1,8.47198E1,1.3256073E1,1.2910264E1,1.1390271E0,3.474642E0,1.071412E0,7.4048386E0,1.8384235E0,1.6536792E2,1.13535545E2,5.370513E1],"tree_param":{"num_deleted":"0","num_feature":"203","num_nodes":"61","size_leaf_vector":"1"}},{"base_weights":[-5.469881E-3,6.8830855E-2,-2.7744004E-1,1.2693088E-1,-2.705203E-1,-4.6717116E-1,-4.6348147E-2,3.230391E-1,-1.5999547E-4,2.0331353E-1,-5.023304E-1,-4.938728E-1,8.301222E-1,1.1846286E-1,-4.056664E-1,-2.1921614E-1,3.960751E-1,-2.1323605E-2,1.0707555E0,-8.181741E-1,3.531607E-1,-1.01254135E-1,-6.83928E-1,7.4235135E-1,-5.2371794E-1,4.3434445E-3,5.685208E-2,1.2817039E-2,9.602189E-1,-5.3518873E-1,4.8962063E-1,-1.8660508E-2,4.4405296E-2,-1.4681816E-3,2.386303E-2,1.2928012E-2,-4.857788E-3,-2.9638425E-2,7.059171E-2,-5.924769E-2,2.4855396E-2,9.232454E-4,4.678744E-2,-1.3564649E-2,6.0395356E-2,-3.9097894E-2,3.1406123E-3,6.468992E-2,-1.47331385E-2,7.5509115E-3,-2.8793562E-2,-5.885465E-3,3.1083852E-2,-1.2613441E-2,6.740078E-2,-3.6592737E-2,5.2864277E-3,-1.876969E-2,6.49552E-2],"categories":[],"categories_nodes":[],"categories_segments":[],"categories_sizes":[],"default_left":[0,0,0,0,0,0,0,0,0,0,0,0,0,0,0,0,0,0,0,0,0,0,0,0,0,0,0,0,0,0,0,0,0,0,0,0,0,0,0,0,0,0,0,0,0,0,0,0,0,0,0,0,0,0,0,0,0,0,0],"id":17,"left_children":[1,3,5,7,9,11,13,15,17,19,21,23,25,27,29,31,33,35,37,39,41,43,45,47,49,-1,-1,51,53,55,57,-1,-1,-1,-1,-1,-1,-1,-1,-1,-1,-1,-1,-1,-1,-1,-1,-1,-1,-1,-1,-1,-1,-1,-1,-1,-1,-1,-1],"loss_changes":[2.3596962E1,1.811859E1,1.0964237E1,1.9535706E1,1.48646E1,5.172367E0,6.8036504E0,1.2293667E1,1.0824731E1,7.1560793E0,6.5249557E0,5.382103E0,6.188204E-1,7.0112057E0,4.4478607E0,6.6799555E0,9.408443E0,9.96538E0,6.0884924E0,3.5032616E0,7.747748E0,6.8703136E0,4.598387E0,2.4421992E0,4.75782E0,0E0,0E0,5.730503E0,4.4748E0,4.112482E0,4.0478773E0,0E0,0E0,0E0,0E0,0E0,0E0,0E0,0E0,0E0,0E0,0E0,0E0,0E0,0E0,0E0,0E0,0E0,0E0,0E0,0E0,0E0,0E0,0E0,0E0,0E0,0E0,0E0,0E0],"parents":[2147483647,0,0,1,1,2,2,3,3,4,4,5,5,6,6,7,7,8,8,9,9,10,10,11,11,12,12,13,13,14,14,15,15,16,16,17,17,18,18,19,19,20,20,21,21,22,22,23,23,24,24,27,27,28,28,29,29,30,30],"right_children":[2,4,6,8,10,12,14,16,18,20,22,24,26,28,30,32,34,36,38,40,42,44,46,48,50,-1,-1,52,54,56,58,-1,-1,-1,-1,-1,-1,-1,-1,-1,-1,-1,-1,-1,-1,-1,-1,-1,-1,-1,-1,-1,-1,-1,-1,-1,-1,-1,-1],"split_conditions":[9.9E1,5.66E1,1.4E2,9.745223E-1,1.1764706E-2,6.26E2,1.6E1,9.9E1,2E-1,1.15E1,1.2925E2,3.52E1,5.04525E-1,3.686E1,3.7E1,3.762E1,4E0,1.3E1,4.9E1,1.304E2,1.1377245E-1,9.861429E1,5.3333336E-1,1.1340206E-1,4.1322313E-2,4.3434445E-3,5.685208E-2,1.2883333E2,1.22E2,1.08E2,1.3824885E-2,-1.8660508E-2,4.4405296E-2,-1.4681816E-3,2.386303E-2,1.2928012E-2,-4.857788E-3,-2.9638425E-2,7.059171E-2,-5.924769E-2,2.4855396E-2,9.232454E-4,4.678744E-2,-1.3564649E-2,6.0395356E-2,-3.9097894E-2,3.1406123E-3,6.468992E-2,-1.47331385E-2,7.5509115E-3,-2.8793562E-2,-5.885465E-3,3.1083852E-2,-1.2613441E-2,6.740078E-2,-3.6592737E-2,5.2864277E-3,-1.876969E-2,6.49552E-2],"split_indices":[81,187,93,104,110,68,141,166,113,189,149,144,23,144,154,145,85,160,194,149,21,3,21,108,113,0,0,134,68,166,108,0,0,0,0,0,0,0,0,0,0,0,0,0,0,0,0,0,0,0,0,0,0,0,0,0,0,0,0],"split_type":[0,0,0,0,0,0,0,0,0,0,0,0,0,0,0,0,0,0,0,0,0,0,0,0,0,0,0,0,0,0,0,0,0,0,0,0,0,0,0,0,0,0,0,0,0,0,0,0,0,0,0,0,0,0,0,0,0,0,0],"sum_hessian":[1.1657831E3,9.1622296E2,2.4956009E2,7.828226E2,1.334004E2,1.3648311E2,1.1307698E2,3.0722128E2,4.7560126E2,4.3863564E1,8.953684E1,1.3433742E2,2.1457024E0,7.797977E1,3.509721E1,3.6230053E1,2.7099124E2,4.6734558E2,8.255672E0,5.040834E0,3.882273E1,2.8390718E1,6.1146122E1,2.6039786E0,1.3173343E2,1.0020695E0,1.1436328E0,7.018617E1,7.793592E0,3.101277E1,4.0844426E0,3.238875E1,3.8413048E0,4.3528065E1,2.2746318E2,9.911585E1,3.6822974E2,1.279129E0,6.976544E0,4.0191426E0,1.0216911E0,2.5312462E1,1.3510268E1,2.5828756E1,2.5619636E0,5.4008842E1,7.137282E0,1.5383308E0,1.0656478E0,9.315677E0,1.22417755E2,5.8460243E1,1.1725932E1,1.9733104E0,5.820282E0,2.3622345E1,7.390424E0,2.233731E0,1.8507115E0],"tree_param":{"num_deleted":"0","num_feature":"203","num_nodes":"59","size_leaf_vector":"1"}},{"base_weights":[-7.015621E-3,7.674385E-2,-2.4234265E-1,5.198795E-1,3.5318054E-2,-3.6365796E-2,-3.8915214E-1,8.684899E-1,3.4197208E-2,4.6346828E-1,-8.364041E-3,1.0419753E-1,-5.1355135E-1,-4.4043678E-1,6.1741006E-1,1.4963206E0,4.7939336E-1,1.0044345E0,-3.589706E-1,-6.814674E-1,5.5887544E-1,3.8899522E-2,-3.981163E-1,3.4469163E-1,-1.9715042E-1,7.609826E-1,-6.377979E-1,-2.3317032E-3,-5.6333315E-1,-4.3603197E-2,9.147037E-1,2.641485E-2,8.0165654E-2,-4.346793E-3,4.605206E-2,-3.6747985E-2,6.706996E-2,2.174343E-2,-3.6115713E-2,-5.5208694E-2,1.8102668E-2,4.1881796E-2,6.1729075E-3,2.132582E-2,-5.7477865E-4,-1.0430359E-4,-3.3065867E-2,2.66343E-2,-2.0137316E-2,3.4404267E-2,-1.6847955E-2,5.4862113E-3,5.2115362E-2,2.6219754E-2,-3.7783664E-2,2.2422967E-2,-2.2383181E-2,1.5696425E-2,-3.0854423E-2,-2.0115651E-2,6.8710126E-2],"categories":[],"categories_nodes":[],"categories_segments":[],"categories_sizes":[],"default_left":[0,0,0,0,0,0,0,0,0,0,0,0,0,0,0,0,0,0,0,0,0,0,0,0,0,0,0,0,0,0,0,0,0,0,0,0,0,0,0,0,0,0,0,0,0,0,0,0,0,0,0,0,0,0,0,0,0,0,0,0,0],"id":18,"left_children":[1,3,5,7,9,11,13,15,17,19,21,23,25,27,29,31,33,35,37,39,41,43,45,47,49,51,53,55,57,-1,59,-1,-1,-1,-1,-1,-1,-1,-1,-1,-1,-1,-1,-1,-1,-1,-1,-1,-1,-1,-1,-1,-1,-1,-1,-1,-1,-1,-1,-1,-1],"loss_changes":[2.3004602E1,1.5783641E1,9.249815E0,1.2417988E1,1.4746797E1,8.678679E0,9.499954E0,9.727802E0,1.2476214E1,8.354691E0,1.3210304E1,7.3269415E0,5.1455083E0,9.188431E0,4.819684E0,7.9857254E-1,7.0506473E0,6.5083656E0,7.045802E0,3.0752857E0,8.141916E0,1.2501439E1,8.082732E0,8.093086E0,5.812682E0,4.480908E-1,4.1441975E0,7.908547E0,6.479187E0,0E0,5.4303184E0,0E0,0E0,0E0,0E0,0E0,0E0,0E0,0E0,0E0,0E0,0E0,0E0,0E0,0E0,0E0,0E0,0E0,0E0,0E0,0E0,0E0,0E0,0E0,0E0,0E0,0E0,0E0,0E0,0E0,0E0],"parents":[2147483647,0,0,1,1,2,2,3,3,4,4,5,5,6,6,7,7,8,8,9,9,10,10,11,11,12,12,13,13,14,14,15,15,16,16,17,17,18,18,19,19,20,20,21,21,22,22,23,23,24,24,25,25,26,26,27,27,28,28,30,30],"right_children":[2,4,6,8,10,12,14,16,18,20,22,24,26,28,30,32,34,36,38,40,42,44,46,48,50,52,54,56,58,-1,60,-1,-1,-1,-1,-1,-1,-1,-1,-1,-1,-1,-1,-1,-1,-1,-1,-1,-1,-1,-1,-1,-1,-1,-1,-1,-1,-1,-1,-1,-1],"split_conditions":[8E-1,2.54E2,3.847077E0,1.1764706E-1,7.5510204E-1,2.16E1,8.5E1,2E-1,3.21E1,3.95E1,1.45E2,8.6E0,2.4324325E-1,6.481524E-1,6.2E1,1.5327868E1,4.4821408E-1,6.7391304E1,4.9122807E-1,6.3013697E-1,1.17E1,2.53E2,1.9857143E1,2.6833334E2,1.1547344E-2,5.7735026E-2,1.3E2,9.7E1,6.7E1,-4.3603197E-2,1.5622807E1,2.641485E-2,8.0165654E-2,-4.346793E-3,4.605206E-2,-3.6747985E-2,6.706996E-2,2.174343E-2,-3.6115713E-2,-5.5208694E-2,1.8102668E-2,4.1881796E-2,6.1729075E-3,2.132582E-2,-5.7477865E-4,-1.0430359E-4,-3.3065867E-2,2.66343E-2,-2.0137316E-2,3.4404267E-2,-1.6847955E-2,5.4862113E-3,5.2115362E-2,2.6219754E-2,-3.7783664E-2,2.2422967E-2,-2.2383181E-2,1.5696425E-2,-3.0854423E-2,-2.0115651E-2,6.8710126E-2],"split_indices":[88,185,30,119,120,189,54,107,187,138,91,164,115,94,199,2,37,131,17,120,156,200,143,5,108,24,52,192,81,0,2,0,0,0,0,0,0,0,0,0,0,0,0,0,0,0,0,0,0,0,0,0,0,0,0,0,0,0,0,0,0],"split_type":[0,0,0,0,0,0,0,0,0,0,0,0,0,0,0,0,0,0,0,0,0,0,0,0,0,0,0,0,0,0,0,0,0,0,0,0,0,0,0,0,0,0,0,0,0,0,0,0,0,0,0,0,0,0,0,0,0,0,0,0,0],"sum_hessian":[1.165159E3,8.598045E2,3.0535458E2,7.251841E1,7.872861E2,1.27590324E2,1.7776425E2,4.1757652E1,3.076076E1,7.199702E1,7.1528906E2,9.9162056E1,2.842827E1,1.6968137E2,8.082884E0,1.4888513E1,2.686914E1,8.422203E0,2.2338556E1,5.0655127E0,6.69315E1,6.3873285E2,7.655617E1,5.506944E1,4.4092613E1,2.0699303E0,2.6358341E1,3.739465E1,1.3228673E2,1.0231997E0,7.059684E0,2.072758E0,1.2815754E1,1.212469E1,1.4744451E1,1.1751299E0,7.2470737E0,6.9522705E0,1.5386287E1,3.563782E0,1.5017306E0,4.0243366E1,2.668814E1,7.2630165E1,5.661027E2,3.0967812E1,4.558836E1,4.4231678E1,1.0837761E1,5.4790344E0,3.8613583E1,1.0437368E0,1.0261934E0,2.1096373E0,2.4248703E1,1.8579931E1,1.8814716E1,7.358556E0,1.2492817E2,1.8581889E0,5.2014947E0],"tree_param":{"num_deleted":"0","num_feature":"203","num_nodes":"61","size_leaf_vector":"1"}},{"base_weights":[-5.174083E-3,2.1004751E-1,-9.252557E-2,1.6139413E-1,9.024876E-1,2.651457E-2,-2.1134073E-1,2.5764745E-1,-1.05027385E-1,-4.954703E-2,1.149177E0,7.1860924E-2,-5.7288206E-1,1.6789338E-1,-2.750777E-1,3.5609674E-1,-1.6350111E-1,-1.7844307E-1,1.1526513E0,1.4032215E0,1.2350931E-1,1.0972795E0,4.148861E-2,-9.781226E-2,-9.73622E-1,1.1150627E0,-1.5016879E-3,-2.4200092E-1,-9.9809366E-1,4.293154E-2,1.2888953E-2,-1.8544827E-2,3.4192037E-2,2.7444004E-3,-2.8122703E-2,3.04995E-4,7.272122E-2,7.792317E-2,-2.9655437E-3,5.407458E-2,-4.473644E-2,-2.979148E-2,7.8152135E-2,-8.964633E-4,2.1889895E-2,-1.7419579E-2,4.133434E-2,-5.805422E-2,1.5406123E-2,-8.4118445E-5,6.629836E-2,-1.6001826E-2,1.9740647E-2,-2.8049171E-2,-8.912091E-3,-2.374277E-2,-6.103111E-2],"categories":[],"categories_nodes":[],"categories_segments":[],"categories_sizes":[],"default_left":[0,0,0,0,0,0,0,0,0,0,0,0,0,0,0,0,0,0,0,0,0,0,0,0,0,0,0,0,0,0,0,0,0,0,0,0,0,0,0,0,0,0,0,0,0,0,0,0,0,0,0,0,0,0,0,0,0],"id":19,"left_children":[1,3,5,7,9,11,13,15,17,-1,19,21,23,25,27,29,31,33,35,37,39,41,43,45,47,49,51,53,55,-1,-1,-1,-1,-1,-1,-1,-1,-1,-1,-1,-1,-1,-1,-1,-1,-1,-1,-1,-1,-1,-1,-1,-1,-1,-1,-1,-1],"loss_changes":[2.1863604E1,1.1165585E1,1.1705036E1,8.102978E0,1.1332708E1,1.1296237E1,1.0055307E1,9.662176E0,7.9885473E0,0E0,4.978527E0,1.1971569E1,5.4705496E0,9.660949E0,8.245659E0,9.070349E0,8.086748E0,7.2445145E0,1.6460638E0,3.6684647E0,5.86593E0,9.65359E0,8.856922E0,3.6444647E0,4.1413107E0,2.1537094E0,6.6994147E0,6.8288593E0,1.1908159E0,0E0,0E0,0E0,0E0,0E0,0E0,0E0,0E0,0E0,0E0,0E0,0E0,0E0,0E0,0E0,0E0,0E0,0E0,0E0,0E0,0E0,0E0,0E0,0E0,0E0,0E0,0E0,0E0],"parents":[2147483647,0,0,1,1,2,2,3,3,4,4,5,5,6,6,7,7,8,8,10,10,11,11,12,12,13,13,14,14,15,15,16,16,17,17,18,18,19,19,20,20,21,21,22,22,23,23,24,24,25,25,26,26,27,27,28,28],"right_children":[2,4,6,8,10,12,14,16,18,-1,20,22,24,26,28,30,32,34,36,38,40,42,44,46,48,50,52,54,56,-1,-1,-1,-1,-1,-1,-1,-1,-1,-1,-1,-1,-1,-1,-1,-1,-1,-1,-1,-1,-1,-1,-1,-1,-1,-1,-1,-1],"split_conditions":[1.5E1,1.23E0,1.1857707E-2,2.581989E-1,2.47E1,1.465E2,4.8275862E-2,5.121107E-1,5.15E0,-4.954703E-2,1E0,3.5E-1,3.761E1,3.6E0,2E0,4.2E1,2.384848E2,1.98E2,1.1666667E1,1.1E1,1.108E0,3.0136988E-1,4.957143E0,1E0,9.1268835E0,3E1,9.81625E1,1.8348623E-2,4E-2,4.293154E-2,1.2888953E-2,-1.8544827E-2,3.4192037E-2,2.7444004E-3,-2.8122703E-2,3.04995E-4,7.272122E-2,7.792317E-2,-2.9655437E-3,5.407458E-2,-4.473644E-2,-2.979148E-2,7.8152135E-2,-8.964633E-4,2.1889895E-2,-1.7419579E-2,4.133434E-2,-5.805422E-2,1.5406123E-2,-8.4118445E-5,6.629836E-2,-1.6001826E-2,1.9740647E-2,-2.8049171E-2,-8.912091E-3,-2.374277E-2,-6.103111E-2],"split_indices":[92,172,110,40,155,91,111,107,6,0,153,174,145,167,98,122,32,68,11,82,163,115,6,125,30,198,3,110,119,0,0,0,0,0,0,0,0,0,0,0,0,0,0,0,0,0,0,0,0,0,0,0,0,0,0,0,0],"split_type":[0,0,0,0,0,0,0,0,0,0,0,0,0,0,0,0,0,0,0,0,0,0,0,0,0,0,0,0,0,0,0,0,0,0,0,0,0,0,0,0,0,0,0,0,0,0,0,0,0,0,0,0,0,0,0,0,0],"sum_hessian":[1.1609283E3,3.3474927E2,8.261791E2,3.1392484E2,2.0824429E1,4.1308685E2,4.1309222E2,2.306339E2,8.329095E1,2.0526505E0,1.8771778E1,3.8485165E2,2.8235199E1,5.9202717E1,3.538895E2,1.8706041E2,4.3573498E1,7.950787E1,3.7830722E0,1.4750232E1,4.021547E0,1.0060636E1,3.7479102E2,1.34886875E1,1.4746511E1,8.134758E0,5.106796E1,3.396842E2,1.4205278E1,2.93434E1,1.5771701E2,3.545726E1,8.116238E0,4.9990147E1,2.9517727E1,1.000813E0,2.7822592E0,1.3275499E1,1.4747322E0,2.0400755E0,1.9814712E0,2.1102712E0,7.950364E0,3.267559E2,4.803511E1,1.1102567E1,2.3861206E0,1.2947066E1,1.799445E0,1.44984E0,6.6849184E0,2.841893E1,2.2649029E1,5.5287273E1,2.8439694E2,5.1738214E0,9.031457E0],"tree_param":{"num_deleted":"0","num_feature":"203","num_nodes":"57","size_leaf_vector":"1"}},{"base_weights":[-8.934806E-3,2.8814474E-1,-6.722121E-2,4.1236216E-1,-1.754915E-1,1.9404436E-2,-2.556535E-1,5.898767E-1,7.843849E-3,-4.3676272E-1,6.3884944E-1,8.17077E-2,-2.4788222E-1,-3.7376964E-1,8.606938E-3,8.75991E-1,2.1551283E-1,-1.1661439E-1,7.0806794E-2,4.0721703E-1,-6.6005796E-1,-3.8974028E-2,9.710453E-1,-2.1415755E-1,1.6796318E-1,-3.193297E-1,9.58513E-1,-8.525141E-1,-3.0122244E-1,-5.841517E-1,1.9559929E-1,1.9760031E-2,5.6792557E-2,-2.259044E-2,2.5383575E-2,1.4532839E-2,-2.0354485E-2,-3.4271285E-2,4.99394E-2,-4.2980902E-2,4.719641E-4,6.7001015E-2,-1.8730659E-2,6.1242445E-3,-2.04669E-2,-2.1310255E-3,1.9019803E-2,-2.7574215E-2,-2.3165327E-3,6.821698E-2,-3.0338902E-2,-4.8630454E-2,1.7543131E-2,-1.6238233E-2,6.540077E-2,1.1081911E-2,-4.726211E-2,-3.4643527E-2,1.5587476E-2],"categories":[],"categories_nodes":[],"categories_segments":[],"categories_sizes":[],"default_left":[0,0,0,0,0,0,0,0,0,0,0,0,0,0,0,0,0,0,0,0,0,0,0,0,0,0,0,0,0,0,0,0,0,0,0,0,0,0,0,0,0,0,0,0,0,0,0,0,0,0,0,0,0,0,0,0,0,0,0],"id":20,"left_children":[1,3,5,7,9,11,13,15,17,19,21,23,25,27,29,31,33,35,-1,37,39,-1,41,43,45,47,49,51,53,55,57,-1,-1,-1,-1,-1,-1,-1,-1,-1,-1,-1,-1,-1,-1,-1,-1,-1,-1,-1,-1,-1,-1,-1,-1,-1,-1,-1,-1],"loss_changes":[2.0113586E1,1.10450735E1,1.5853626E1,1.0807129E1,8.994017E0,1.1112424E1,9.549946E0,1.1018288E1,8.391496E0,6.225E0,5.636111E0,1.3840344E1,1.1180251E1,7.0853767E0,1.0694686E1,6.919853E0,9.324724E0,5.329212E0,0E0,5.358469E0,3.3982496E0,0E0,4.889065E0,8.101845E0,1.8777245E1,7.570654E0,5.467488E0,4.2826576E0,7.4382706E0,6.9429975E0,7.781663E0,0E0,0E0,0E0,0E0,0E0,0E0,0E0,0E0,0E0,0E0,0E0,0E0,0E0,0E0,0E0,0E0,0E0,0E0,0E0,0E0,0E0,0E0,0E0,0E0,0E0,0E0,0E0,0E0],"parents":[2147483647,0,0,1,1,2,2,3,3,4,4,5,5,6,6,7,7,8,8,9,9,10,10,11,11,12,12,13,13,14,14,15,15,16,16,17,17,19,19,20,20,22,22,23,23,24,24,25,25,26,26,27,27,28,28,29,29,30,30],"right_children":[2,4,6,8,10,12,14,16,18,20,22,24,26,28,30,32,34,36,-1,38,40,-1,42,44,46,48,50,52,54,56,58,-1,-1,-1,-1,-1,-1,-1,-1,-1,-1,-1,-1,-1,-1,-1,-1,-1,-1,-1,-1,-1,-1,-1,-1,-1,-1,-1,-1],"split_conditions":[3.7593986E-3,4.7945204E-1,9.4E1,3.31E1,8.1E2,4.86E1,3.49E1,2.7522936E-2,3.79E1,2E2,1.893617E0,7.5555553E0,3E0,2.4E0,6E0,5E0,1.891892E-1,4.75E1,7.0806794E-2,9.857142E0,2.75E1,-3.8974028E-2,4.35E0,6.4E1,1.4088889E2,4.724282E-1,3.38E2,5.56E2,5.87E2,2.4E1,3E1,1.9760031E-2,5.6792557E-2,-2.259044E-2,2.5383575E-2,1.4532839E-2,-2.0354485E-2,-3.4271285E-2,4.99394E-2,-4.2980902E-2,4.719641E-4,6.7001015E-2,-1.8730659E-2,6.1242445E-3,-2.04669E-2,-2.1310255E-3,1.9019803E-2,-2.7574215E-2,-2.3165327E-3,6.821698E-2,-3.0338902E-2,-4.8630454E-2,1.7543131E-2,-1.6238233E-2,6.540077E-2,1.1081911E-2,-4.726211E-2,-3.4643527E-2,1.5587476E-2],"split_indices":[15,107,81,186,72,187,155,108,145,199,4,44,128,157,197,151,107,54,0,11,142,0,167,122,12,23,184,65,89,92,93,0,0,0,0,0,0,0,0,0,0,0,0,0,0,0,0,0,0,0,0,0,0,0,0,0,0,0,0],"split_type":[0,0,0,0,0,0,0,0,0,0,0,0,0,0,0,0,0,0,0,0,0,0,0,0,0,0,0,0,0,0,0,0,0,0,0,0,0,0,0,0,0,0,0,0,0,0,0,0,0,0,0,0,0,0,0,0,0,0,0],"sum_hessian":[1.1594624E3,1.8952585E2,9.699366E2,1.4956499E2,3.996086E1,6.650832E2,3.048534E2,1.036306E2,4.5934383E1,3.0605219E1,9.355645E0,5.3992377E2,1.25159386E2,2.103978E2,9.4455605E1,5.79791E1,4.5651505E1,4.3047264E1,2.8871207E0,6.230894E0,2.4374325E1,1.5198985E0,7.8357463E0,1.2154138E2,4.1838242E2,1.188556E2,6.303794E0,2.627248E1,1.8412532E2,2.214209E1,7.2313515E1,2.1226631E1,3.675247E1,1.3734342E1,3.1917162E1,1.7920528E1,2.5126736E1,2.1328416E0,4.098052E0,1.8558525E1,5.8157983E0,6.152847E0,1.6828996E0,4.474271E1,7.6798676E1,2.1050711E2,2.0787529E2,6.3681576E1,5.517402E1,5.107876E0,1.1959181E0,2.4062819E1,2.2096605E0,1.8225719E2,1.8681288E0,6.971367E0,1.5170724E1,7.786537E0,6.452698E1],"tree_param":{"num_deleted":"0","num_feature":"203","num_nodes":"59","size_leaf_vector":"1"}},{"base_weights":[-9.256336E-3,2.7853963E-1,-6.564658E-2,4.339291E-1,-1.1642389E-1,5.251275E-1,-1.00310504E-1,5.555812E-1,-1.0265049E-1,-2.0719856E-1,9.4378126E-1,9.626648E-1,8.481318E-2,-8.167324E-3,-2.8982928E-1,6.54883E-2,7.451814E-1,-3.300408E-1,6.298607E-2,-2.8278384E-1,4.9389616E-2,-1.5874535E-2,7.118716E-2,1.1610118E0,-3.5602418E-1,-3.6759272E-1,6.099804E-1,1.3689323E-2,-8.9011663E-1,-3.094055E-1,8.5003686E-1,1.53917745E-2,-3.2292426E-2,2.094231E-2,5.288005E-2,4.8197374E-2,-2.615127E-2,9.496697E-3,-2.503905E-2,-2.51912E-2,6.5946504E-2,-5.085295E-2,3.200218E-2,2.8309777E-2,-3.143769E-2,-2.5621274E-2,4.51433E-2,5.6416642E-2,-2.8735338E-5,-5.3873267E-3,-5.371697E-2,3.398603E-2,-1.6514018E-2,5.8355846E-2,3.427046E-3],"categories":[],"categories_nodes":[],"categories_segments":[],"categories_sizes":[],"default_left":[0,0,0,0,0,0,0,0,0,0,0,0,0,0,0,0,0,0,0,0,0,0,0,0,0,0,0,0,0,0,0,0,0,0,0,0,0,0,0,0,0,0,0,0,0,0,0,0,0,0,0,0,0,0,0],"id":21,"left_children":[1,3,5,7,9,11,13,15,17,19,21,23,25,27,29,31,33,35,-1,37,-1,-1,-1,39,41,43,45,47,49,51,53,-1,-1,-1,-1,-1,-1,-1,-1,-1,-1,-1,-1,-1,-1,-1,-1,-1,-1,-1,-1,-1,-1,-1,-1],"loss_changes":[1.880884E1,1.1704556E1,1.9895535E1,8.966282E0,5.431228E0,1.0295345E1,1.5995269E1,1.0304241E1,8.491643E0,4.8796864E0,3.1583538E0,7.454561E0,6.863193E0,1.1914078E1,6.9497776E0,5.7456584E0,7.737858E0,6.2808194E0,0E0,5.1115828E0,0E0,0E0,0E0,6.878397E0,3.4723883E0,4.1689982E0,4.837367E0,9.595646E0,2.0384789E0,6.3225746E0,1.2398756E0,0E0,0E0,0E0,0E0,0E0,0E0,0E0,0E0,0E0,0E0,0E0,0E0,0E0,0E0,0E0,0E0,0E0,0E0,0E0,0E0,0E0,0E0,0E0,0E0],"parents":[2147483647,0,0,1,1,2,2,3,3,4,4,5,5,6,6,7,7,8,8,9,9,10,10,11,11,12,12,13,13,14,14,15,15,16,16,17,17,19,19,23,23,24,24,25,25,26,26,27,27,28,28,29,29,30,30],"right_children":[2,4,6,8,10,12,14,16,18,20,22,24,26,28,30,32,34,36,-1,38,-1,-1,-1,40,42,44,46,48,50,52,54,-1,-1,-1,-1,-1,-1,-1,-1,-1,-1,-1,-1,-1,-1,-1,-1,-1,-1,-1,-1,-1,-1,-1,-1],"split_conditions":[3.7593986E-3,3.31E1,6.1E0,9.1E0,1.4678898E-1,1.0191083E-1,9.4E1,2.69E1,1.13E2,3.625E2,6.747222E1,1.26583336E2,6.39689E0,2E0,2.01E2,2.26E2,2.1132576E2,6.358762E1,6.298607E-2,6.6E1,4.9389616E-2,-1.5874535E-2,7.118716E-2,6.057895E1,1.4E2,3.615E1,1.4404762E1,4E1,8.163265E-2,1.761658E-1,8.8E0,1.53917745E-2,-3.2292426E-2,2.094231E-2,5.288005E-2,4.8197374E-2,-2.615127E-2,9.496697E-3,-2.503905E-2,-2.51912E-2,6.5946504E-2,-5.085295E-2,3.200218E-2,2.8309777E-2,-3.143769E-2,-2.5621274E-2,4.51433E-2,5.6416642E-2,-2.8735338E-5,-5.3873267E-3,-5.371697E-2,3.398603E-2,-1.6514018E-2,5.8355846E-2,3.427046E-3],"split_indices":[15,186,164,163,116,119,81,187,136,8,0,134,73,98,54,65,12,32,0,129,0,0,0,12,68,45,143,42,109,106,163,0,0,0,0,0,0,0,0,0,0,0,0,0,0,0,0,0,0,0,0,0,0,0,0],"split_type":[0,0,0,0,0,0,0,0,0,0,0,0,0,0,0,0,0,0,0,0,0,0,0,0,0,0,0,0,0,0,0,0,0,0,0,0,0,0,0,0,0,0,0,0,0,0,0,0,0,0,0,0,0,0,0],"sum_hessian":[1.1568463E3,1.8888815E2,9.679582E2,1.354857E2,5.3402435E1,5.286338E1,9.150948E2,1.1041683E2,2.5068876E1,4.9931843E1,3.4705925E0,2.5920273E1,2.694311E1,6.1643164E2,2.986632E2,3.1176039E1,7.924079E1,2.2132532E1,2.936344E0,4.7679398E1,2.2524474E0,1.0499585E0,2.420634E0,2.2635227E1,3.2850459E0,1.4635439E1,1.230767E1,6.0248517E2,1.3946432E1,2.9433676E2,4.3264256E0,2.3676779E1,7.4992595E0,3.9902073E1,3.9338722E1,2.3539598E0,1.9778574E1,1.5088765E1,3.259063E1,1.7712803E0,2.0863947E1,1.961941E0,1.323105E0,2.9433649E0,1.1692074E1,2.391874E0,9.915796E0,6.6256957E0,5.958595E2,2.960109E0,1.0986323E1,5.4310784E0,2.889057E2,2.7266784E0,1.5997473E0],"tree_param":{"num_deleted":"0","num_feature":"203","num_nodes":"55","size_leaf_vector":"1"}},{"base_weights":[9.167538E-3,1.0405787E-1,-1.4259538E-1,1.7072755E-1,-1.5927112E-1,-5.5278562E-2,-4.2151946E-1,-2.1870217E-1,2.3135267E-1,6.038252E-1,-2.2140029E-1,5.518094E-1,-9.666007E-2,1.4483753E-1,-5.262478E-1,-3.0769426E-1,1.1085674E0,8.0460805E-1,1.946503E-1,-3.4170988E-1,1.1207864E0,-2.574272E-1,5.7240784E-2,-2.6317816E-2,9.4210887E-1,1.1874976E-1,-2.2610992E-1,5.376193E-1,-8.1419486E-1,-6.3173217E-1,1.1911748E-2,2.0523628E-2,-2.1837806E-2,6.7444794E-2,3.498663E-3,-1.5163946E-2,5.1799096E-2,1.3203588E-2,-5.0023985E-3,2.0655848E-2,-4.227923E-2,-8.4303515E-3,7.0765756E-2,5.64825E-2,-1.4400723E-2,-2.8486019E-2,5.507753E-2,3.7047628E-3,7.153832E-2,1.5527158E-2,-1.5048446E-2,2.4347072E-2,-1.3913775E-2,-2.1007624E-2,6.103444E-2,3.0818344E-3,-5.1388443E-2,-2.0754725E-2,-5.040248E-2,-5.4140616E-2,2.2307394E-2],"categories":[],"categories_nodes":[],"categories_segments":[],"categories_sizes":[],"default_left":[0,0,0,0,0,0,0,0,0,0,0,0,0,0,0,0,0,0,0,0,0,0,0,0,0,0,0,0,0,0,0,0,0,0,0,0,0,0,0,0,0,0,0,0,0,0,0,0,0,0,0,0,0,0,0,0,0,0,0,0,0],"id":22,"left_children":[1,3,5,7,9,11,13,15,17,19,21,23,25,27,29,31,33,35,37,39,41,43,-1,45,47,49,51,53,55,57,59,-1,-1,-1,-1,-1,-1,-1,-1,-1,-1,-1,-1,-1,-1,-1,-1,-1,-1,-1,-1,-1,-1,-1,-1,-1,-1,-1,-1,-1,-1],"loss_changes":[1.6553766E1,1.2443164E1,1.0747629E1,1.3385601E1,6.93221E0,8.543734E0,6.321224E0,9.3887E0,1.0136543E1,5.79126E0,6.857407E0,4.924833E0,8.873232E0,6.9225297E0,5.0639477E0,6.9055085E0,1.1612258E0,7.778284E0,9.459869E0,2.1282961E0,3.0439215E0,5.871545E0,0E0,6.5878143E0,5.4042845E0,9.732514E0,7.519312E0,8.89707E0,1.0733953E0,5.654602E0,7.8889923E0,0E0,0E0,0E0,0E0,0E0,0E0,0E0,0E0,0E0,0E0,0E0,0E0,0E0,0E0,0E0,0E0,0E0,0E0,0E0,0E0,0E0,0E0,0E0,0E0,0E0,0E0,0E0,0E0,0E0,0E0],"parents":[2147483647,0,0,1,1,2,2,3,3,4,4,5,5,6,6,7,7,8,8,9,9,10,10,11,11,12,12,13,13,14,14,15,15,16,16,17,17,18,18,19,19,20,20,21,21,23,23,24,24,25,25,26,26,27,27,28,28,29,29,30,30],"right_children":[2,4,6,8,10,12,14,16,18,20,22,24,26,28,30,32,34,36,38,40,42,44,-1,46,48,50,52,54,56,58,60,-1,-1,-1,-1,-1,-1,-1,-1,-1,-1,-1,-1,-1,-1,-1,-1,-1,-1,-1,-1,-1,-1,-1,-1,-1,-1,-1,-1,-1,-1],"split_conditions":[2.0134615E1,4.49E1,9.704142E-1,4.5E0,6.125E-1,1.6E-1,6.721434E0,2.97956E2,4E-1,4.5714286E-1,9.1E1,1.35E2,6.912442E-2,3E-2,3.725E0,5.522222E1,1.7173158E2,1.1E1,4.3835616E-1,2.93E1,1.343E2,3E1,5.7240784E-2,1.82E2,1.45E1,1.25E2,4E1,2.0408164E-1,8.2E-1,5E1,7.06E0,2.0523628E-2,-2.1837806E-2,6.7444794E-2,3.498663E-3,-1.5163946E-2,5.1799096E-2,1.3203588E-2,-5.0023985E-3,2.0655848E-2,-4.227923E-2,-8.4303515E-3,7.0765756E-2,5.64825E-2,-1.4400723E-2,-2.8486019E-2,5.507753E-2,3.7047628E-3,7.153832E-2,1.5527158E-2,-1.5048446E-2,2.4347072E-2,-1.3913775E-2,-2.1007624E-2,6.103444E-2,3.0818344E-3,-5.1388443E-2,-2.0754725E-2,-5.040248E-2,-5.4140616E-2,2.2307394E-2],"split_indices":[143,187,120,90,6,107,73,32,195,6,122,148,113,171,6,137,5,188,107,154,10,138,0,50,53,130,122,107,175,71,176,0,0,0,0,0,0,0,0,0,0,0,0,0,0,0,0,0,0,0,0,0,0,0,0,0,0,0,0,0,0],"split_type":[0,0,0,0,0,0,0,0,0,0,0,0,0,0,0,0,0,0,0,0,0,0,0,0,0,0,0,0,0,0,0,0,0,0,0,0,0,0,0,0,0,0,0,0,0,0,0,0,0,0,0,0,0,0,0,0,0,0,0,0,0],"sum_hessian":[1.1474702E3,7.062187E2,4.4125153E2,5.6382184E2,1.4239687E2,3.3696368E2,1.0428785E2,7.5598976E1,4.8822284E2,1.0064283E1,1.3233258E2,2.0715914E1,3.1624777E2,1.6215202E1,8.807265E1,7.156856E1,4.0304236E0,2.8118383E1,4.6010446E2,3.6773398E0,6.386944E0,1.2972337E2,2.6092095E0,8.724865E0,1.1991049E1,1.1874083E2,1.9750693E2,1.1815468E1,4.3997345E0,7.349338E1,1.457927E1,1.0570183E1,6.099837E1,3.0304198E0,1.0000037E0,4.804107E0,2.3314276E1,3.724671E2,8.763735E1,1.5441915E0,2.1331482E0,1.2671449E0,5.1197987E0,2.0236256E0,1.27699745E2,6.2219996E0,2.502865E0,4.7338433E0,7.2572055E0,8.1677734E1,3.7063095E1,1.2896065E1,1.8461087E2,5.078921E0,6.7365475E0,1.0020201E0,3.3977141E0,4.7977074E1,2.55163E1,3.7164276E0,1.0862843E1],"tree_param":{"num_deleted":"0","num_feature":"203","num_nodes":"61","size_leaf_vector":"1"}},{"base_weights":[-9.564884E-3,-1.17627196E-1,1.4334717E-1,9.224712E-2,-2.1512541E-1,3.263221E-1,1.655704E-2,2.6236553E-2,9.5972705E-1,-1.4689551E-1,-4.8546505E-1,-4.6648192E-1,3.9678016E-1,6.9241114E-2,-5.97079E-1,1.1150238E-1,-5.0757045E-1,-1.7252145E-2,1.1444081E0,-7.4449666E-2,-4.9921995E-1,5.1917624E-2,-5.1579094E-1,5.159132E-1,-6.8265754E-1,-2.3373644E-1,4.889821E-1,4.0421277E-2,1.0118699E0,3.6030166E-2,-7.0219636E-1,-9.425561E-3,1.2617792E-2,-3.9037272E-2,3.860679E-3,6.5952204E-2,-2.6108352E-2,1.8835E-4,-1.6876472E-2,-2.8268386E-2,3.0410528E-2,-3.1510774E-2,-3.6740135E-3,5.5609968E-2,-2.1192059E-2,-4.508948E-2,8.955277E-3,5.0498594E-2,-2.0727929E-2,4.562046E-3,2.9846976E-2,1.8881915E-2,-2.1312665E-3,7.074949E-2,-2.7302248E-2,-4.3667894E-2,2.842236E-3],"categories":[],"categories_nodes":[],"categories_segments":[],"categories_sizes":[],"default_left":[0,0,0,0,0,0,0,0,0,0,0,0,0,0,0,0,0,0,0,0,0,0,0,0,0,0,0,0,0,0,0,0,0,0,0,0,0,0,0,0,0,0,0,0,0,0,0,0,0,0,0,0,0,0,0,0,0],"id":23,"left_children":[1,3,5,7,9,11,13,15,17,19,21,23,25,27,29,31,33,-1,35,37,39,-1,41,43,45,47,49,51,53,-1,55,-1,-1,-1,-1,-1,-1,-1,-1,-1,-1,-1,-1,-1,-1,-1,-1,-1,-1,-1,-1,-1,-1,-1,-1,-1,-1],"loss_changes":[1.9175858E1,1.393242E1,1.1143129E1,1.2364589E1,8.497309E0,1.116938E1,9.252173E0,9.255033E0,4.0749016E0,9.467134E0,4.8416557E0,3.8582497E0,1.0644407E1,7.111459E0,3.6406555E0,7.4460845E0,4.535622E0,0E0,4.649872E0,6.380804E0,4.9831867E0,0E0,4.6115723E0,2.4591022E0,2.7981043E0,5.767668E0,6.7448425E0,7.199603E0,5.6518316E0,0E0,2.8384113E0,0E0,0E0,0E0,0E0,0E0,0E0,0E0,0E0,0E0,0E0,0E0,0E0,0E0,0E0,0E0,0E0,0E0,0E0,0E0,0E0,0E0,0E0,0E0,0E0,0E0,0E0],"parents":[2147483647,0,0,1,1,2,2,3,3,4,4,5,5,6,6,7,7,8,8,9,9,10,10,11,11,12,12,13,13,14,14,15,15,16,16,18,18,19,19,20,20,22,22,23,23,24,24,25,25,26,26,27,27,28,28,30,30],"right_children":[2,4,6,8,10,12,14,16,18,20,22,24,26,28,30,32,34,-1,36,38,40,-1,42,44,46,48,50,52,54,-1,56,-1,-1,-1,-1,-1,-1,-1,-1,-1,-1,-1,-1,-1,-1,-1,-1,-1,-1,-1,-1,-1,-1,-1,-1,-1,-1],"split_conditions":[1.75E2,7.8E1,9.7633135E-1,1.145E2,1.36E2,2.7E0,1.45E0,1.583848E2,9.9E1,4.09E1,4E-2,5.785124E-2,9.9E1,1.5862069E-1,6.4E1,1.796053E-1,3.7553382E-1,-1.7252145E-2,1.64431E0,2.8E1,1.369863E-1,5.1917624E-2,9.291574E0,1.0362694E-2,1.11E3,8.8E1,1.5734375E1,9.1E1,3.839E1,3.6030166E-2,9.6E0,-9.425561E-3,1.2617792E-2,-3.9037272E-2,3.860679E-3,6.5952204E-2,-2.6108352E-2,1.8835E-4,-1.6876472E-2,-2.8268386E-2,3.0410528E-2,-3.1510774E-2,-3.6740135E-3,5.5609968E-2,-2.1192059E-2,-4.508948E-2,8.955277E-3,5.0498594E-2,-2.0727929E-2,4.562046E-3,2.9846976E-2,1.8881915E-2,-2.1312665E-3,7.074949E-2,-2.7302248E-2,-4.3667894E-2,2.842236E-3],"split_indices":[93,81,104,132,147,157,18,24,148,186,113,111,166,109,192,23,40,0,38,162,113,0,30,112,72,147,143,139,145,0,156,0,0,0,0,0,0,0,0,0,0,0,0,0,0,0,0,0,0,0,0,0,0,0,0,0,0],"split_type":[0,0,0,0,0,0,0,0,0,0,0,0,0,0,0,0,0,0,0,0,0,0,0,0,0,0,0,0,0,0,0,0,0,0,0,0,0,0,0,0,0,0,0,0,0,0,0,0,0,0,0,0,0,0,0,0,0],"sum_hessian":[1.1584625E3,6.789103E2,4.795523E2,2.1536664E2,4.6354364E2,1.9564171E2,2.8391058E2,2.0109465E2,1.4271979E1,3.713608E2,9.218282E1,1.5509205E1,1.801325E2,2.622796E2,2.1631002E1,1.7407974E2,2.701491E1,1.6619565E0,1.26100235E1,3.090288E2,6.233198E1,1.150151E0,9.103268E1,2.5471792E0,1.2962026E1,2.2784851E1,1.5734766E2,2.5551051E2,6.769071E0,1.1655253E0,2.0465477E1,5.550897E1,1.1857077E2,1.818493E1,8.829978E0,1.1602735E1,1.0072886E0,2.3896687E2,7.006194E1,5.928058E1,3.0514011E0,7.198543E1,1.9047249E1,1.4461062E0,1.1010729E0,1.0297176E1,2.6648486E0,2.3101332E0,2.0474718E1,3.3984753E1,1.233629E2,4.9789444E1,2.0572107E2,5.4504704E0,1.318601E0,1.6576841E1,3.8886354E0],"tree_param":{"num_deleted":"0","num_feature":"203","num_nodes":"57","size_leaf_vector":"1"}},{"base_weights":[-8.989373E-3,6.161584E-2,-2.4174748E-1,1.525849E-1,-1.0647584E-1,-7.078207E-2,-5.0905806E-1,5.1098626E-2,3.4313795E-1,1.056709E-1,-2.4180783E-1,7.198493E-1,-1.2324378E-1,1.7115954E-2,-6.962836E-1,-1.9766672E-2,5.123555E-1,3.01247E-1,1.3498693E0,-5.9153076E-2,4.928909E-1,1.4303362E-1,-3.4753248E-1,1.0725377E0,-3.972634E-1,4.579697E-1,-1.8949065E-1,5.605148E-1,-3.6311606E-1,5.265476E-2,-7.341549E-1,1.4906849E-2,-5.588506E-3,3.541543E-2,-1.7891569E-2,2.1353405E-2,-4.4946533E-4,7.180394E-2,1.9784128E-2,1.6924342E-2,-1.368578E-2,-8.242843E-3,4.1106455E-2,2.4029618E-2,-2.7374242E-2,-1.8869672E-2,6.798453E-2,7.030865E-2,-2.3797443E-2,-3.8124558E-2,1.0447298E-2,-2.6393518E-2,3.776455E-2,-2.248789E-2,-6.0738187E-4,-3.2581326E-2,4.622592E-2,3.531868E-2,-2.6724344E-2,-4.155622E-2,1.1765822E-4],"categories":[],"categories_nodes":[],"categories_segments":[],"categories_sizes":[],"default_left":[0,0,0,0,0,0,0,0,0,0,0,0,0,0,0,0,0,0,0,0,0,0,0,0,0,0,0,0,0,0,0,0,0,0,0,0,0,0,0,0,0,0,0,0,0,0,0,0,0,0,0,0,0,0,0,0,0,0,0,0,0],"id":24,"left_children":[1,3,5,7,9,11,13,15,17,19,21,23,25,27,29,31,33,35,37,39,41,43,45,47,49,51,53,55,57,-1,59,-1,-1,-1,-1,-1,-1,-1,-1,-1,-1,-1,-1,-1,-1,-1,-1,-1,-1,-1,-1,-1,-1,-1,-1,-1,-1,-1,-1,-1,-1],"loss_changes":[1.9022951E1,1.3598369E1,1.2275776E1,1.1135811E1,8.997278E0,6.9521523E0,1.03486805E1,1.2349322E1,8.038404E0,7.841218E0,7.824649E0,4.5404425E0,6.094474E0,6.0948963E0,5.9019203E0,9.632137E0,8.8320875E0,7.5583687E0,6.6185E-2,7.493958E0,8.07288E0,1.0027608E1,8.170183E0,4.909359E0,8.75678E-1,5.1638923E0,6.492096E0,5.9550433E0,3.563327E0,0E0,5.455723E0,0E0,0E0,0E0,0E0,0E0,0E0,0E0,0E0,0E0,0E0,0E0,0E0,0E0,0E0,0E0,0E0,0E0,0E0,0E0,0E0,0E0,0E0,0E0,0E0,0E0,0E0,0E0,0E0,0E0,0E0],"parents":[2147483647,0,0,1,1,2,2,3,3,4,4,5,5,6,6,7,7,8,8,9,9,10,10,11,11,12,12,13,13,14,14,15,15,16,16,17,17,18,18,19,19,20,20,21,21,22,22,23,23,24,24,25,25,26,26,27,27,28,28,30,30],"right_children":[2,4,6,8,10,12,14,16,18,20,22,24,26,28,30,32,34,36,38,40,42,44,46,48,50,52,54,56,58,-1,60,-1,-1,-1,-1,-1,-1,-1,-1,-1,-1,-1,-1,-1,-1,-1,-1,-1,-1,-1,-1,-1,-1,-1,-1,-1,-1,-1,-1,-1,-1],"split_conditions":[9E-1,9.490446E-1,8.8E0,2.1E2,1.9E1,2.46E1,2.0412414E0,8.298756E-3,2.6E3,3.55E1,1.69E2,9E0,6.9E1,4.116251E-1,7.6E1,5.4054055E-2,2.173077E1,1.7E1,1.48E2,1.0140673E-1,1.31E2,1.2244898E-1,1.602082E0,6.4E1,2.49E2,1.6236174E-1,1.0429879E2,8E-1,7.15E1,5.265476E-2,1.24E2,1.4906849E-2,-5.588506E-3,3.541543E-2,-1.7891569E-2,2.1353405E-2,-4.4946533E-4,7.180394E-2,1.9784128E-2,1.6924342E-2,-1.368578E-2,-8.242843E-3,4.1106455E-2,2.4029618E-2,-2.7374242E-2,-1.8869672E-2,6.798453E-2,7.030865E-2,-2.3797443E-2,-3.8124558E-2,1.0447298E-2,-2.6393518E-2,3.776455E-2,-2.248789E-2,-6.0738187E-4,-3.2581326E-2,4.622592E-2,3.531868E-2,-2.6724344E-2,-4.155622E-2,1.1765822E-4],"split_indices":[88,120,164,93,92,155,29,117,72,155,68,49,81,37,130,113,143,160,147,35,202,103,38,135,200,37,32,195,136,0,139,0,0,0,0,0,0,0,0,0,0,0,0,0,0,0,0,0,0,0,0,0,0,0,0,0,0,0,0,0,0],"split_type":[0,0,0,0,0,0,0,0,0,0,0,0,0,0,0,0,0,0,0,0,0,0,0,0,0,0,0,0,0,0,0,0,0,0,0,0,0,0,0,0,0,0,0,0,0,0,0,0,0,0,0,0,0,0,0,0,0,0,0,0,0],"sum_hessian":[1.1556345E3,8.872347E2,2.683999E2,5.757425E2,3.114922E2,1.6447221E2,1.0392767E2,3.7649432E2,1.9924817E2,1.2140173E2,1.9009045E2,9.442737E0,1.5502948E2,2.7513367E1,7.641431E1,3.2718442E2,4.9309906E1,1.9253583E2,6.712346E0,8.574905E1,3.5652683E1,4.0891407E1,1.4919905E2,7.207217E0,2.2355194E0,1.52572975E1,1.3977219E2,1.1131266E1,1.6382103E1,1.0511578E0,7.536315E1,7.29335E1,2.5425092E2,4.039874E1,8.911165E0,1.3671313E2,5.582269E1,5.692965E0,1.019381E0,2.9850597E1,5.589845E1,1.2059551E1,2.3593134E1,2.766932E1,1.3222088E1,1.4739983E2,1.7992198E0,6.0052395E0,1.2019778E0,1.2341623E0,1.0013571E0,3.355595E0,1.1901703E1,5.602065E1,8.375153E1,2.3882308E0,8.743034E0,1.8313192E0,1.4550783E1,6.648163E1,8.881516E0],"tree_param":{"num_deleted":"0","num_feature":"203","num_nodes":"61","size_leaf_vector":"1"}},{"base_weights":[5.7109105E-3,6.603449E-2,-2.2517599E-1,1.0166636E-1,-2.90274E-1,2.0475298E-1,-3.290721E-1,1.8241626E-1,-4.8357125E-2,-4.2972845E-1,6.069686E-1,7.824301E-2,6.708012E-2,-1.7483345E-1,-5.58021E-1,2.4583206E-1,-1.6548051E-1,-2.8343356E-1,1.16257675E-1,-6.251092E-1,-6.773488E-2,1.1073632E0,-3.879014E-1,5.315692E-1,-3.255163E-1,5.98769E-1,-2.4311206E-1,3.428279E-1,-6.428839E-1,1.4204442E-2,-1.6675701E-2,-1.13929575E-2,6.493292E-2,6.303518E-2,-1.6841767E-2,-2.9599953E-3,1.755269E-2,1.6668627E-2,-3.4650546E-2,-3.5511985E-2,1.1758022E-2,2.5838863E-3,7.9107694E-2,-4.008108E-2,1.791687E-2,3.5587635E-2,-2.5266126E-2,-4.094031E-2,1.310547E-2,-2.3500815E-2,7.399395E-2,-3.8225126E-2,-7.2088526E-3,-7.245322E-3,6.364127E-2,5.168698E-2,-3.4229796E-2],"categories":[],"categories_nodes":[],"categories_segments":[],"categories_sizes":[],"default_left":[0,0,0,0,0,0,0,0,0,0,0,0,0,0,0,0,0,0,0,0,0,0,0,0,0,0,0,0,0,0,0,0,0,0,0,0,0,0,0,0,0,0,0,0,0,0,0,0,0,0,0,0,0,0,0,0,0],"id":25,"left_children":[1,3,5,7,9,11,13,15,17,19,21,23,-1,25,27,29,31,33,35,37,39,41,43,45,47,49,51,53,55,-1,-1,-1,-1,-1,-1,-1,-1,-1,-1,-1,-1,-1,-1,-1,-1,-1,-1,-1,-1,-1,-1,-1,-1,-1,-1,-1,-1],"loss_changes":[1.5953202E1,1.1558298E1,1.0665959E1,1.0018395E1,1.0622795E1,6.625396E0,6.6640816E0,1.1895779E1,1.1251441E1,5.0682793E0,6.181644E0,8.0750265E0,0E0,6.265454E0,6.0776424E0,1.0177204E1,7.9171E0,1.0294231E1,7.0743103E0,3.2774086E0,5.314692E0,3.9015598E0,1.7096786E0,4.23033E0,7.013404E0,9.816534E0,5.418344E0,3.47224E0,5.628927E0,0E0,0E0,0E0,0E0,0E0,0E0,0E0,0E0,0E0,0E0,0E0,0E0,0E0,0E0,0E0,0E0,0E0,0E0,0E0,0E0,0E0,0E0,0E0,0E0,0E0,0E0,0E0,0E0],"parents":[2147483647,0,0,1,1,2,2,3,3,4,4,5,5,6,6,7,7,8,8,9,9,10,10,11,11,13,13,14,14,15,15,16,16,17,17,18,18,19,19,20,20,21,21,22,22,23,23,24,24,25,25,26,26,27,27,28,28],"right_children":[2,4,6,8,10,12,14,16,18,20,22,24,-1,26,28,30,32,34,36,38,40,42,44,46,48,50,52,54,56,-1,-1,-1,-1,-1,-1,-1,-1,-1,-1,-1,-1,-1,-1,-1,-1,-1,-1,-1,-1,-1,-1,-1,-1,-1,-1,-1,-1],"split_conditions":[1E0,1.08E2,1.5E0,9.490446E-1,3.56E1,3.822E1,8.8E0,4.7945204E-1,1.57E2,5.8984697E-1,4E-2,1.07E2,6.708012E-2,2.2529644E-1,8.4E-1,1.3513513E-1,8E0,1.78E2,1.07E2,1.67E1,2E0,1.9E2,1.05E2,2E1,1.3E1,8.7E1,1.2E0,1.5111111E0,6.3346153E1,1.4204442E-2,-1.6675701E-2,-1.13929575E-2,6.493292E-2,6.303518E-2,-1.6841767E-2,-2.9599953E-3,1.755269E-2,1.6668627E-2,-3.4650546E-2,-3.5511985E-2,1.1758022E-2,2.5838863E-3,7.9107694E-2,-4.008108E-2,1.791687E-2,3.5587635E-2,-2.5266126E-2,-4.094031E-2,1.310547E-2,-2.3500815E-2,7.399395E-2,-3.8225126E-2,-7.2088526E-3,-7.245322E-3,6.364127E-2,5.168698E-2,-3.4229796E-2],"split_indices":[88,81,29,120,154,145,164,107,202,23,110,130,0,106,120,111,90,200,166,161,123,68,93,159,159,139,67,6,131,0,0,0,0,0,0,0,0,0,0,0,0,0,0,0,0,0,0,0,0,0,0,0,0,0,0,0,0],"split_type":[0,0,0,0,0,0,0,0,0,0,0,0,0,0,0,0,0,0,0,0,0,0,0,0,0,0,0,0,0,0,0,0,0,0,0,0,0,0,0,0,0,0,0,0,0,0,0,0,0,0,0,0,0,0,0,0,0],"sum_hessian":[1.1433438E3,9.070688E2,2.3627492E2,8.252555E2,8.1813255E1,4.5796246E1,1.9047867E2,5.3635004E2,2.8890546E2,7.1258865E1,1.0554393E1,4.2172108E1,3.6241388E0,1.1486195E2,7.561672E1,4.5390424E2,8.244582E1,1.1868986E2,1.7021559E2,4.5807877E1,2.5450985E1,6.947102E0,3.607291E0,1.9717485E1,2.245462E1,8.685459E0,1.0617649E2,6.248366E0,6.9368355E1,