{"learner":{"attributes":{"scikit_learn":"{\"_estimator_type\": \"classifier\"}"},"feature_names":[],"feature_types":[],"gradient_booster":{"model":{"cats":{"enc":[],"feature_segments":[],"sorted_idx":[]},"gbtree_model_param":{"num_parallel_tree":"1","num_trees":"300"},"iteration_indptr":[0,1,2,3,4,5,6,7,8,9,10,11,12,13,14,15,16,17,18,19,20,21,22,23,24,25,26,27,28,29,30,31,32,33,34,35,36,37,38,39,40,41,42,43,44,45,46,47,48,49,50,51,52,53,54,55,56,57,58,59,60,61,62,63,64,65,66,67,68,69,70,71,72,73,74,75,76,77,78,79,80,81,82,83,84,85,86,87,88,89,90,91,92,93,94,95,96,97,98,99,100,101,102,103,104,105,106,107,108,109,110,111,112,113,114,115,116,117,118,119,120,121,122,123,124,125,126,127,128,129,130,131,132,133,134,135,136,137,138,139,140,141,142,143,144,145,146,147,148,149,150,151,152,153,154,155,156,157,158,159,160,161,162,163,164,165,166,167,168,169,170,171,172,173,174,175,176,177,178,179,180,181,182,183,184,185,186,187,188,189,190,191,192,193,194,195,196,197,198,199,200,201,202,203,204,205,206,207,208,209,210,211,212,213,214,215,216,217,218,219,220,221,222,223,224,225,226,227,228,229,230,231,232,233,234,235,236,237,238,239,240,241,242,243,244,245,246,247,248,249,250,251,252,253,254,255,256,257,258,259,260,261,262,263,264,265,266,267,268,269,270,271,272,273,274,275,276,277,278,279,280,281,282,283,284,285,286,287,288,289,290,291,292,293,294,295,296,297,298,299,300],"tree_info":[0,0,0,0,0,0,0,0,0,0,0,0,0,0,0,0,0,0,0,0,0,0,0,0,0,0,0,0,0,0,0,0,0,0,0,0,0,0,0,0,0,0,0,0,0,0,0,0,0,0,0,0,0,0,0,0,0,0,0,0,0,0,0,0,0,0,0,0,0,0,0,0,0,0,0,0,0,0,0,0,0,0,0,0,0,0,0,0,0,0,0,0,0,0,0,0,0,0,0,0,0,0,0,0,0,0,0,0,0,0,0,0,0,0,0,0,0,0,0,0,0,0,0,0,0,0,0,0,0,0,0,0,0,0,0,0,0,0,0,0,0,0,0,0,0,0,0,0,0,0,0,0,0,0,0,0,0,0,0,0,0,0,0,0,0,0,0,0,0,0,0,0,0,0,0,0,0,0,0,0,0,0,0,0,0,0,0,0,0,0,0,0,0,0,0,0,0,0,0,0,0,0,0,0,0,0,0,0,0,0,0,0,0,0,0,0,0,0,0,0,0,0,0,0,0,0,0,0,0,0,0,0,0,0,0,0,0,0,0,0,0,0,0,0,0,0,0,0,0,0,0,0,0,0,0,0,0,0,0,0,0,0,0,0,0,0,0,0,0,0,0,0,0,0,0,0,0,0,0,0,0,0,0,0,0,0,0,0,0,0,0,0,0,0,0,0,0,0,0,0],"trees":[{"base_weights":[5.3972974E-3,-7.680302E-1,1.2151626E0,-1.7751207E0,-1.1431865E-1,-1.7128174E-1,1.3731084E0,-1.8380867E0,-1.2599453E0,-5.523297E-1,4.4008622E-1,1.8641795E-1,-1.1514732E0,1.4002186E0,-3.7563193E-1,-1.8778958E0,-1.4647443E0,8.8416114E-2,-1.3294556E0,9.193677E-1,-6.52502E-1,5.198117E-1,-9.0077E-1,4.5209172E-1,-5.6625813E-1,-8.7761676E-1,-1.663498E0,-3.3970633E-1,1.409883E0,-3.967896E-2,-1.3898143E0,-7.376433E-2,-9.536335E-2,-6.0881075E-2,-9.439263E-2,2.5570313E-2,-4.0602878E-2,-5.8429934E-2,-8.614605E-2,5.171131E-2,1.6626172E-3,-4.752915E-2,-1.3165076E-2,3.1346817E-2,5.2361065E-3,-9.017547E-3,-5.9962403E-2,-1.8396414E-3,5.0424468E-2,-1.1257797E-2,-4.5579415E-2,4.8969793E-3,-5.1653307E-2,-8.46362E-2,5.930635E-2,2.4531858E-2,-7.41212E-2,7.1175925E-2,1.967909E-2,1.7975958E-2,-2.6946628E-2,-2.3103368E-2,-8.654811E-2],"categories":[],"categories_nodes":[],"categories_segments":[],"categories_sizes":[],"default_left":[0,0,0,0,0,0,0,0,0,0,0,0,0,0,0,0,0,0,0,0,0,0,0,0,0,0,0,0,0,0,0,0,0,0,0,0,0,0,0,0,0,0,0,0,0,0,0,0,0,0,0,0,0,0,0,0,0,0,0,0,0,0,0],"id":0,"left_children":[1,3,5,7,9,11,13,15,17,19,21,23,25,27,29,31,33,35,37,39,41,43,45,47,49,51,53,55,57,59,61,-1,-1,-1,-1,-1,-1,-1,-1,-1,-1,-1,-1,-1,-1,-1,-1,-1,-1,-1,-1,-1,-1,-1,-1,-1,-1,-1,-1,-1,-1,-1,-1],"loss_changes":[7.708981E4,3.308754E4,7.0364883E3,6.3939844E2,7.401243E3,1.1526829E3,1.3680586E3,2.5920703E2,2.0234814E2,2.510688E3,1.4384951E3,4.8198376E2,1.2178821E2,4.78125E2,1.5025098E2,1.8548438E2,1.7575244E2,4.106319E1,1.2786011E2,1.10443115E2,1.8492251E3,5.6455444E2,1.6219904E2,4.8452518E2,7.38784E1,8.726654E1,2.74234E1,1.5037216E2,3.9089844E2,6.644248E1,3.3932953E1,0E0,0E0,0E0,0E0,0E0,0E0,0E0,0E0,0E0,0E0,0E0,0E0,0E0,0E0,0E0,0E0,0E0,0E0,0E0,0E0,0E0,0E0,0E0,0E0,0E0,0E0,0E0,0E0,0E0,0E0,0E0,0E0],"parents":[2147483647,0,0,1,1,2,2,3,3,4,4,5,5,6,6,7,7,8,8,9,9,10,10,11,11,12,12,13,13,14,14,15,15,16,16,17,17,18,18,19,19,20,20,21,21,22,22,23,23,24,24,25,25,26,26,27,27,28,28,29,29,30,30],"right_children":[2,4,6,8,10,12,14,16,18,20,22,24,26,28,30,32,34,36,38,40,42,44,46,48,50,52,54,56,58,60,62,-1,-1,-1,-1,-1,-1,-1,-1,-1,-1,-1,-1,-1,-1,-1,-1,-1,-1,-1,-1,-1,-1,-1,-1,-1,-1,-1,-1,-1,-1,-1,-1],"split_conditions":[1E0,1.75E0,1.5E0,2E0,5E0,1E0,2.5238094E0,9.0909094E-1,1E0,1E0,1.6521739E0,7.95E0,3.1666667E0,1E0,3.4947982E0,1E0,7.95E0,2.6E1,7.95E0,1.32E2,3E0,2.1875E1,7.830374E-1,7.85E0,9.95E0,3.3716872E-2,8.56E2,1.5046875E-2,1.1511833E1,2.7078677E-3,3.5E0,-7.376433E-2,-9.536335E-2,-6.0881075E-2,-9.439263E-2,2.5570313E-2,-4.0602878E-2,-5.8429934E-2,-8.614605E-2,5.171131E-2,1.6626172E-3,-4.752915E-2,-1.3165076E-2,3.1346817E-2,5.2361065E-3,-9.017547E-3,-5.9962403E-2,-1.8396414E-3,5.0424468E-2,-1.1257797E-2,-4.5579415E-2,4.8969793E-3,-5.1653307E-2,-8.46362E-2,5.930635E-2,2.4531858E-2,-7.41212E-2,7.1175925E-2,1.967909E-2,1.7975958E-2,-2.6946628E-2,-2.3103368E-2,-8.654811E-2],"split_indices":[72,4,40,40,102,66,16,20,102,102,16,22,16,58,12,102,22,44,22,41,102,2,12,22,22,265,133,394,12,406,50,0,0,0,0,0,0,0,0,0,0,0,0,0,0,0,0,0,0,0,0,0,0,0,0,0,0,0,0,0,0,0,0],"split_type":[0,0,0,0,0,0,0,0,0,0,0,0,0,0,0,0,0,0,0,0,0,0,0,0,0,0,0,0,0,0,0,0,0,0,0,0,0,0,0,0,0,0,0,0,0,0,0,0,0,0,0,0,0,0,0,0,0,0,0,0,0,0,0],"sum_hessian":[8.238834E4,5.0257844E4,3.2130496E4,1.9781414E4,3.047643E4,3.2859985E3,2.8844496E4,1.7624709E4,2.1567048E3,1.7025406E4,1.3451025E4,2.4080447E3,8.7795404E2,2.8404352E4,4.4014578E2,1.5922842E4,1.7018673E3,1.0571779E2,2.050987E3,1.0844756E3,1.594093E4,1.2696709E4,7.543167E2,1.7801133E3,6.279313E2,5.737812E2,3.0417282E2,1.567121E2,2.8247639E4,3.3140524E2,1.08740524E2,1.0861046E3,1.4836737E4,1.0768148E3,6.2505255E2,7.222347E1,3.3494316E1,1.4586357E3,5.923513E2,9.598876E2,1.2458805E2,9.026368E3,6.914561E3,1.0091759E4,2.6049504E3,2.2144125E2,5.328754E2,9.480411E2,8.3207227E2,3.1673053E2,3.1120074E2,7.891334E1,4.9486786E2,3.0148672E2,2.6860788E0,9.1091835E1,6.562026E1,2.787327E4,3.7436926E2,1.8431152E2,1.4709373E2,2.9868368E1,7.8872154E1],"tree_param":{"num_deleted":"0","num_feature":"428","num_nodes":"63","size_leaf_vector":"1"}},{"base_weights":[-1.8984006E-3,-7.3629564E-1,1.148893E0,-1.62884E0,-7.0742294E-2,-1.6603681E-1,1.3007495E0,-1.7528837E0,-1.0568861E0,-4.2498982E-1,4.4618908E-1,8.9007837E-1,-5.4677427E-1,1.3260359E0,-3.024056E-1,-9.4205064E-1,-1.804031E0,-1.1365173E0,2.6330975E-1,-4.9014032E-1,9.520793E-1,6.043935E-1,-2.8696546E-1,1.0008917E0,-2.0126285E-1,-2.740493E-1,-1.2249048E0,-4.3558872E-1,1.3355532E0,-3.7791238E-3,-1.1934701E0,-4.1708652E-2,-7.835864E-2,-9.136232E-2,-7.297357E-2,-4.839806E-2,-7.6414116E-2,3.0074466E-2,-2.088782E-2,-4.5627948E-2,-1.1435046E-2,5.139047E-2,-2.0546561E-2,-1.595256E-2,3.4931608E-2,-6.3709444E-3,-6.840437E-2,5.1603924E-2,-1.4399855E-2,-2.070625E-2,6.523124E-2,-7.5923504E-5,-3.055357E-2,-4.6794828E-2,-8.0118276E-2,1.0531932E-2,-8.850911E-2,6.741469E-2,1.7676407E-2,1.9477196E-2,-2.4487494E-2,-1.2023251E-2,-8.181458E-2],"categories":[],"categories_nodes":[],"categories_segments":[],"categories_sizes":[],"default_left":[0,0,0,0,0,0,0,0,0,0,0,0,0,0,0,0,0,0,0,0,0,0,0,0,0,0,0,0,0,0,0,0,0,0,0,0,0,0,0,0,0,0,0,0,0,0,0,0,0,0,0,0,0,0,0,0,0,0,0,0,0,0,0],"id":1,"left_children":[1,3,5,7,9,11,13,15,17,19,21,23,25,27,29,31,33,35,37,39,41,43,45,47,49,51,53,55,57,59,61,-1,-1,-1,-1,-1,-1,-1,-1,-1,-1,-1,-1,-1,-1,-1,-1,-1,-1,-1,-1,-1,-1,-1,-1,-1,-1,-1,-1,-1,-1,-1,-1],"loss_changes":[6.935436E4,2.9757666E4,6.383707E3,1.5162812E3,5.25526E3,1.331683E3,1.1621719E3,7.274922E2,4.0148926E2,1.5282114E3,1.3537122E3,1.0633661E2,4.4980988E2,4.736211E2,1.1862831E2,6.919171E1,1.296289E2,2.3619678E2,5.043878E1,1.7954902E3,7.9859436E1,8.3554395E2,3.5720276E2,3.2329407E1,2.6738758E1,1.5955386E2,7.462537E1,1.3177899E2,3.5064062E2,6.420915E1,4.6831635E1,0E0,0E0,0E0,0E0,0E0,0E0,0E0,0E0,0E0,0E0,0E0,0E0,0E0,0E0,0E0,0E0,0E0,0E0,0E0,0E0,0E0,0E0,0E0,0E0,0E0,0E0,0E0,0E0,0E0,0E0,0E0,0E0],"parents":[2147483647,0,0,1,1,2,2,3,3,4,4,5,5,6,6,7,7,8,8,9,9,10,10,11,11,12,12,13,13,14,14,15,15,16,16,17,17,18,18,19,19,20,20,21,21,22,22,23,23,24,24,25,25,26,26,27,27,28,28,29,29,30,30],"right_children":[2,4,6,8,10,12,14,16,18,20,22,24,26,28,30,32,34,36,38,40,42,44,46,48,50,52,54,56,58,60,62,-1,-1,-1,-1,-1,-1,-1,-1,-1,-1,-1,-1,-1,-1,-1,-1,-1,-1,-1,-1,-1,-1,-1,-1,-1,-1,-1,-1,-1,-1,-1,-1],"split_conditions":[1E0,2.1666667E0,1.5E0,2E0,4E0,1E0,2.5238094E0,1E0,1E0,1E0,2E0,8.636364E-1,8.636364E-1,1E0,3.4947982E0,3E0,1E0,9.0375E0,2.25E1,1E0,1.85E1,6E0,1.5E0,1.1675E2,4.2933475E-2,8.5E0,1.2205414E1,2.18E1,1.1511833E1,1.5E0,3.5E0,-4.1708652E-2,-7.835864E-2,-9.136232E-2,-7.297357E-2,-4.839806E-2,-7.6414116E-2,3.0074466E-2,-2.088782E-2,-4.5627948E-2,-1.1435046E-2,5.139047E-2,-2.0546561E-2,-1.595256E-2,3.4931608E-2,-6.3709444E-3,-6.840437E-2,5.1603924E-2,-1.4399855E-2,-2.070625E-2,6.523124E-2,-7.5923504E-5,-3.055357E-2,-4.6794828E-2,-8.0118276E-2,1.0531932E-2,-8.850911E-2,6.741469E-2,1.7676407E-2,1.9477196E-2,-2.4487494E-2,-1.2023251E-2,-8.181458E-2],"split_indices":[72,4,40,40,103,54,16,54,104,104,75,16,16,58,12,74,104,1,10,79,136,101,35,0,410,1,46,136,12,35,50,0,0,0,0,0,0,0,0,0,0,0,0,0,0,0,0,0,0,0,0,0,0,0,0,0,0,0,0,0,0,0,0],"split_type":[0,0,0,0,0,0,0,0,0,0,0,0,0,0,0,0,0,0,0,0,0,0,0,0,0,0,0,0,0,0,0,0,0,0,0,0,0,0,0,0,0,0,0,0,0,0,0,0,0,0,0,0,0,0,0,0,0,0,0,0,0,0,0],"sum_hessian":[8.206076E4,5.009325E4,3.1967508E4,2.13971E4,2.8696152E4,3.3095886E3,2.8657918E4,1.7581918E4,3.8151814E3,1.702754E4,1.1668613E4,8.7662085E2,2.4329678E3,2.821309E4,4.448281E2,1.0444105E3,1.6537508E4,3.5982805E3,2.1690085E2,1.6258957E4,7.6858325E2,9.597733E3,2.07088E3,7.958902E2,8.073069E1,1.7361438E3,6.96824E2,1.5136362E2,2.8061727E4,3.3392316E2,1.1090492E2,8.926926E2,1.5171794E2,1.5489567E4,1.0479398E3,2.5182705E3,1.08001E3,1.4501253E2,7.188831E1,6.214859E3,1.0044098E4,7.2836084E2,4.0222435E1,8.885401E2,8.709193E3,1.8055444E3,2.6533533E2,7.7728174E2,1.8608416E1,7.136764E1,9.36305E0,9.604701E2,7.756737E2,3.9662326E2,3.0020074E2,1.02549835E2,4.881378E1,2.770195E4,3.5977808E2,1.8466331E2,1.4925984E2,3.567374E1,7.5231186E1],"tree_param":{"num_deleted":"0","num_feature":"428","num_nodes":"63","size_leaf_vector":"1"}},{"base_weights":[8.205839E-4,-7.039143E-1,1.1004586E0,-1.6067759E0,-1.0586899E-1,-1.4594227E-1,1.2435082E0,-1.6690023E0,-1.1239504E0,-5.2427614E-1,4.148627E-1,1.8354782E-1,-1.0786201E0,1.2758905E0,1.4150059E-1,-1.7030185E0,-1.2576193E0,-1.1918942E0,-2.771118E-3,8.200685E-1,-6.133809E-1,-1.6899414E-2,7.582727E-1,4.0692228E-1,-5.9634584E-1,-7.4941355E-1,-1.4550414E0,-5.0153136E-1,1.2838889E0,5.258253E-1,-6.162622E-1,-6.510436E-2,-8.660922E-2,-4.883711E-2,-8.579659E-2,-4.6158433E-2,-7.079046E-2,1.891199E-2,-4.071046E-2,-3.5795525E-2,4.544026E-2,-4.4887166E-2,-1.23917E-2,-2.3277441E-2,1.6401911E-2,4.10196E-2,-2.796838E-2,-1.1821778E-3,4.547154E-2,-2.217428E-2,-6.957755E-2,-1.5965136E-2,-6.393602E-2,-7.6668635E-2,-2.5569443E-2,-6.432743E-2,3.2554332E-2,6.733449E-2,5.423346E-2,3.30993E-2,-2.1406483E-2,-1.4725377E-2,-6.998756E-2],"categories":[],"categories_nodes":[],"categories_segments":[],"categories_sizes":[],"default_left":[0,0,0,0,0,0,0,0,0,0,0,0,0,0,0,0,0,0,0,0,0,0,0,0,0,0,0,0,0,0,0,0,0,0,0,0,0,0,0,0,0,0,0,0,0,0,0,0,0,0,0,0,0,0,0,0,0,0,0,0,0,0,0],"id":2,"left_children":[1,3,5,7,9,11,13,15,17,19,21,23,25,27,29,31,33,35,37,39,41,43,45,47,49,51,53,55,57,59,61,-1,-1,-1,-1,-1,-1,-1,-1,-1,-1,-1,-1,-1,-1,-1,-1,-1,-1,-1,-1,-1,-1,-1,-1,-1,-1,-1,-1,-1,-1,-1,-1],"loss_changes":[6.3470758E4,2.6950953E4,5.7036953E3,5.9566016E2,6.542325E3,1.0125541E3,1.02383203E3,2.4436719E2,1.7319653E2,1.9948999E3,1.9835918E3,4.2446664E2,1.0549579E2,3.9695703E2,2.3920758E2,1.8796875E2,1.7200342E2,1.2768506E2,4.0781982E1,1.4177014E2,1.6229321E3,9.174839E2,6.1036523E2,4.0971964E2,6.53369E1,1.04519806E2,2.8799072E1,1.1448557E2,3.457461E2,7.1045135E1,6.9288124E1,0E0,0E0,0E0,0E0,0E0,0E0,0E0,0E0,0E0,0E0,0E0,0E0,0E0,0E0,0E0,0E0,0E0,0E0,0E0,0E0,0E0,0E0,0E0,0E0,0E0,0E0,0E0,0E0,0E0,0E0,0E0,0E0],"parents":[2147483647,0,0,1,1,2,2,3,3,4,4,5,5,6,6,7,7,8,8,9,9,10,10,11,11,12,12,13,13,14,14,15,15,16,16,17,17,18,18,19,19,20,20,21,21,22,22,23,23,24,24,25,25,26,26,27,27,28,28,29,29,30,30],"right_children":[2,4,6,8,10,12,14,16,18,20,22,24,26,28,30,32,34,36,38,40,42,44,46,48,50,52,54,56,58,60,62,-1,-1,-1,-1,-1,-1,-1,-1,-1,-1,-1,-1,-1,-1,-1,-1,-1,-1,-1,-1,-1,-1,-1,-1,-1,-1,-1,-1,-1,-1,-1,-1],"split_conditions":[1E0,1.8E0,1.5E0,1.1666666E0,5E0,1E0,1.9583334E0,1.2E0,1E0,1E0,4E0,9.0375E0,5E-1,1E0,3E0,1E0,1E0,1E0,2E0,9.729032E1,3E0,1E0,1.7391304E0,9E0,1.125E0,5.4990794E-3,6.65E1,1.9502336E-2,3.4609812E-3,1.22E2,3.4947982E0,-6.510436E-2,-8.660922E-2,-4.883711E-2,-8.579659E-2,-4.6158433E-2,-7.079046E-2,1.891199E-2,-4.071046E-2,-3.5795525E-2,4.544026E-2,-4.4887166E-2,-1.23917E-2,-2.3277441E-2,1.6401911E-2,4.10196E-2,-2.796838E-2,-1.1821778E-3,4.547154E-2,-2.217428E-2,-6.957755E-2,-1.5965136E-2,-6.393602E-2,-7.6668635E-2,-2.5569443E-2,-6.432743E-2,3.2554332E-2,6.733449E-2,5.423346E-2,3.30993E-2,-2.1406483E-2,-1.4725377E-2,-6.998756E-2],"split_indices":[72,4,40,4,102,66,16,20,104,102,103,1,35,53,16,102,69,69,75,85,102,79,16,1,17,185,89,403,221,38,12,0,0,0,0,0,0,0,0,0,0,0,0,0,0,0,0,0,0,0,0,0,0,0,0,0,0,0,0,0,0,0,0],"split_type":[0,0,0,0,0,0,0,0,0,0,0,0,0,0,0,0,0,0,0,0,0,0,0,0,0,0,0,0,0,0,0,0,0,0,0,0,0,0,0,0,0,0,0,0,0,0,0,0,0,0,0,0,0,0,0,0,0,0,0,0,0,0,0],"sum_hessian":[8.1900695E4,4.9912918E4,3.198778E4,1.9887428E4,3.002549E4,3.293271E3,2.8694508E4,1.7614781E4,2.2726455E3,1.6648465E4,1.3377025E4,2.434153E3,8.591179E2,2.7875242E4,8.1926587E2,1.62666E4,1.3481816E3,2.1427324E3,1.2991324E2,1.0343762E3,1.5614089E4,5.9265947E3,7.45043E3,1.8925685E3,5.415847E2,4.59897E2,3.992209E2,1.24602104E2,2.775064E4,5.4377716E2,2.7548868E2,1.1061715E3,1.5160429E4,8.3784125E2,5.1034042E2,9.762432E2,1.1664891E3,8.8766685E1,4.114655E1,5.6108284E1,9.7826794E2,8.781455E3,6.832634E3,2.5758801E3,3.3507148E3,7.115359E3,3.3507153E2,1.0197586E3,8.728098E2,4.555695E2,8.601524E1,2.5460779E2,2.0528923E2,3.680451E2,3.1175785E1,7.405145E1,5.055065E1,2.1095025E4,6.6556143E3,4.7612463E2,6.765254E1,1.9626472E2,7.922396E1],"tree_param":{"num_deleted":"0","num_feature":"428","num_nodes":"63","size_leaf_vector":"1"}},{"base_weights":[1.1413193E-3,-6.67138E-1,1.0474287E0,-1.4907932E0,-6.2164094E-2,-1.2009361E-1,1.1822922E0,-1.593025E0,-9.49134E-1,-3.7585038E-1,3.9762983E-1,8.421596E-1,-4.6572977E-1,1.215118E0,9.9886075E-2,-8.117795E-1,-1.6478832E0,-7.158173E-1,-1.2077193E0,-3.046391E-1,-1.4201893E0,5.453707E-1,-2.8907633E-1,9.4301844E-1,-2.0978124E-1,-1.795704E-1,-1.0110362E0,-3.8867885E-1,1.2238296E0,4.5477134E-1,-6.286175E-1,-2.8637761E-2,-5.6063157E-2,-7.875147E-2,-8.503237E-2,-3.2031383E-2,-6.791626E-2,-5.188873E-2,-7.916172E-2,-8.100488E-3,-3.678258E-2,-4.4291597E-2,-7.79342E-2,-1.6065931E-2,3.1737402E-2,-7.2399876E-3,-6.412045E-2,4.807893E-2,-8.8930644E-2,-3.0742234E-2,4.6479095E-2,-3.8102057E-3,-5.222253E-2,-2.5021756E-2,-6.517955E-2,-6.7295596E-2,1.9232556E-2,6.348684E-2,4.986229E-2,3.1724326E-2,-1.58047E-2,-1.4872545E-2,-6.967726E-2],"categories":[],"categories_nodes":[],"categories_segments":[],"categories_sizes":[],"default_left":[0,0,0,0,0,0,0,0,0,0,0,0,0,0,0,0,0,0,0,0,0,0,0,0,0,0,0,0,0,0,0,0,0,0,0,0,0,0,0,0,0,0,0,0,0,0,0,0,0,0,0,0,0,0,0,0,0,0,0,0,0,0,0],"id":3,"left_children":[1,3,5,7,9,11,13,15,17,19,21,23,25,27,29,31,33,35,37,39,41,43,45,47,49,51,53,55,57,59,61,-1,-1,-1,-1,-1,-1,-1,-1,-1,-1,-1,-1,-1,-1,-1,-1,-1,-1,-1,-1,-1,-1,-1,-1,-1,-1,-1,-1,-1,-1,-1,-1],"loss_changes":[5.6949277E4,2.4766025E4,4.998672E3,1.1639648E3,4.133254E3,1.0940107E3,1.01103125E3,7.5741406E2,2.0089624E2,1.2664456E3,1.1792655E3,9.2431274E1,3.7742523E2,3.863789E2,2.1712843E2,8.543085E1,6.090625E1,8.41759E1,9.948926E1,9.8034216E2,7.907568E1,7.411067E2,2.9480774E2,4.1790527E1,3.6050808E1,1.4190952E2,1.2372211E2,1.11540764E2,2.8448438E2,7.8414085E1,6.9289604E1,0E0,0E0,0E0,0E0,0E0,0E0,0E0,0E0,0E0,0E0,0E0,0E0,0E0,0E0,0E0,0E0,0E0,0E0,0E0,0E0,0E0,0E0,0E0,0E0,0E0,0E0,0E0,0E0,0E0,0E0,0E0,0E0],"parents":[2147483647,0,0,1,1,2,2,3,3,4,4,5,5,6,6,7,7,8,8,9,9,10,10,11,11,12,12,13,13,14,14,15,15,16,16,17,17,18,18,19,19,20,20,21,21,22,22,23,23,24,24,25,25,26,26,27,27,28,28,29,29,30,30],"right_children":[2,4,6,8,10,12,14,16,18,20,22,24,26,28,30,32,34,36,38,40,42,44,46,48,50,52,54,56,58,60,62,-1,-1,-1,-1,-1,-1,-1,-1,-1,-1,-1,-1,-1,-1,-1,-1,-1,-1,-1,-1,-1,-1,-1,-1,-1,-1,-1,-1,-1,-1,-1,-1],"split_conditions":[1E0,2.1666667E0,1.5E0,1.3333334E0,4E0,1E0,1.875E0,1E0,2.4E1,2E0,2E0,8.636364E-1,1E0,1E0,3E0,3.75E2,1.005E1,9.95E0,9.5E0,2.225E1,7.250059E-1,6E0,1.5E0,7.25E2,4.3555107E-2,1.3E1,1.8229166E1,9.7E1,2.7738528E-3,2.4676225E-3,3.4947982E0,-2.8637761E-2,-5.6063157E-2,-7.875147E-2,-8.503237E-2,-3.2031383E-2,-6.791626E-2,-5.188873E-2,-7.916172E-2,-8.100488E-3,-3.678258E-2,-4.4291597E-2,-7.79342E-2,-1.6065931E-2,3.1737402E-2,-7.2399876E-3,-6.412045E-2,4.807893E-2,-8.8930644E-2,-3.0742234E-2,4.6479095E-2,-3.8102057E-3,-5.222253E-2,-2.5021756E-2,-6.517955E-2,-6.7295596E-2,1.9232556E-2,6.348684E-2,4.986229E-2,3.1724326E-2,-1.58047E-2,-1.4872545E-2,-6.967726E-2],"split_indices":[72,4,40,4,103,54,16,54,10,16,75,16,66,58,16,45,39,22,1,2,12,101,35,11,203,1,2,98,160,181,12,0,0,0,0,0,0,0,0,0,0,0,0,0,0,0,0,0,0,0,0,0,0,0,0,0,0,0,0,0,0,0,0],"split_type":[0,0,0,0,0,0,0,0,0,0,0,0,0,0,0,0,0,0,0,0,0,0,0,0,0,0,0,0,0,0,0,0,0,0,0,0,0,0,0,0,0,0,0,0,0,0,0,0,0,0,0,0,0,0,0,0,0,0,0,0,0,0,0],"sum_hessian":[8.1445766E4,4.970122E4,3.1744545E4,2.1046088E4,2.8655133E4,3.287193E3,2.8457352E4,1.770293E4,3.3431582E3,1.7034102E4,1.1621032E4,8.6832745E2,2.4188657E3,2.7619615E4,8.3773517E2,1.1625568E3,1.6540373E4,1.7594279E3,1.5837302E3,1.5947937E4,1.0861647E3,9.56367E3,2.057362E3,7.924517E2,7.5875755E1,1.5872545E3,8.316111E2,1.4897908E2,2.7470637E4,5.635712E2,2.741639E2,6.5755585E2,5.0500098E2,6.960514E3,9.579857E3,1.5768893E3,1.8253865E2,1.0928905E3,4.908398E2,1.1983703E4,3.964234E3,2.2509012E2,8.610745E2,8.938121E2,8.669857E3,1.7974388E3,2.599232E2,7.877265E2,4.7251983E0,5.6315113E1,1.956064E1,1.4187773E3,1.6847728E2,3.0390714E2,5.277039E2,6.6242836E1,8.273624E1,2.2838777E4,4.63186E3,4.5716687E2,1.06404366E2,1.9229912E2,8.186481E1],"tree_param":{"num_deleted":"0","num_feature":"428","num_nodes":"63","size_leaf_vector":"1"}},{"base_weights":[2.6956818E-3,-6.3687474E-1,1.0058403E0,-1.4811115E0,-8.578722E-2,-1.2411725E-1,1.1366956E0,-7.382282E-1,-1.5438781E0,-3.847053E-1,3.6304075E-1,8.339293E-1,-4.6441612E-1,1.1687784E0,1.01651214E-1,-8.463665E-1,-9.7727485E-2,-1.5898763E0,-1.1004728E0,-4.4437376E-1,8.380194E-1,-2.6489598E-1,5.2941394E-1,9.164757E-1,-4.2307E-2,-2.1463184E-1,-1.0813388E0,-6.625202E-1,1.1763252E0,4.1791165E-1,-5.454668E-1,-3.1208057E-2,-5.804335E-2,1.6750956E-2,-3.0290926E-2,-8.0545954E-2,-6.3848056E-2,-5.965758E-2,5.485901E-3,-4.309318E-2,-1.2199379E-2,5.0299104E-2,1.0285261E-2,3.401356E-5,-3.364032E-2,2.9706959E-2,-4.1630264E-2,4.6678092E-2,-8.411931E-2,8.739091E-3,-8.3377026E-2,-5.7501793E-3,-5.4400932E-2,-5.7273682E-2,1.8731436E-2,-5.8404338E-2,4.7119122E-2,6.426361E-2,5.4140408E-2,3.999975E-2,3.6915187E-3,-1.1431231E-2,-6.3735425E-2],"categories":[],"categories_nodes":[],"categories_segments":[],"categories_sizes":[],"default_left":[0,0,0,0,0,0,0,0,0,0,0,0,0,0,0,0,0,0,0,0,0,0,0,0,0,0,0,0,0,0,0,0,0,0,0,0,0,0,0,0,0,0,0,0,0,0,0,0,0,0,0,0,0,0,0,0,0,0,0,0,0,0,0],"id":4,"left_children":[1,3,5,7,9,11,13,15,17,19,21,23,25,27,29,31,33,35,37,39,41,43,45,47,49,51,53,55,57,59,61,-1,-1,-1,-1,-1,-1,-1,-1,-1,-1,-1,-1,-1,-1,-1,-1,-1,-1,-1,-1,-1,-1,-1,-1,-1,-1,-1,-1,-1,-1,-1,-1],"loss_changes":[5.211901E4,2.3079584E4,4.676676E3,9.124258E2,4.027145E3,1.0708651E3,9.4114844E2,1.05773315E2,3.6670703E2,1.314873E3,1.2537605E3,6.231201E1,3.732224E2,3.807539E2,1.7486053E2,9.064374E1,4.8991425E1,1.0569922E2,1.9093188E2,1.4370164E3,8.886395E1,2.7235168E2,8.3680005E2,3.6511353E1,2.6781176E1,1.5008655E2,6.562598E1,9.3172935E1,2.7757812E2,7.5368744E1,6.453191E1,0E0,0E0,0E0,0E0,0E0,0E0,0E0,0E0,0E0,0E0,0E0,0E0,0E0,0E0,0E0,0E0,0E0,0E0,0E0,0E0,0E0,0E0,0E0,0E0,0E0,0E0,0E0,0E0,0E0,0E0,0E0,0E0],"parents":[2147483647,0,0,1,1,2,2,3,3,4,4,5,5,6,6,7,7,8,8,9,9,10,10,11,11,12,12,13,13,14,14,15,15,16,16,17,17,18,18,19,19,20,20,21,21,22,22,23,23,24,24,25,25,26,26,27,27,28,28,29,29,30,30],"right_children":[2,4,6,8,10,12,14,16,18,20,22,24,26,28,30,32,34,36,38,40,42,44,46,48,50,52,54,56,58,60,62,-1,-1,-1,-1,-1,-1,-1,-1,-1,-1,-1,-1,-1,-1,-1,-1,-1,-1,-1,-1,-1,-1,-1,-1,-1,-1,-1,-1,-1,-1,-1,-1],"split_conditions":[1E0,1.8333334E0,1.5E0,1E0,4E0,1E0,1.875E0,4E0,1.2608696E0,1E0,4E0,8.636364E-1,8.636364E-1,1E0,3E0,3.9E2,4.4E0,1E0,1E0,3E0,1E0,2.3E1,1.875E0,7.25E2,2.5E0,1.3E1,8.2817055E-2,1.1329394E-2,5.004523E-3,1.3E0,3.4947982E0,-3.1208057E-2,-5.804335E-2,1.6750956E-2,-3.0290926E-2,-8.0545954E-2,-6.3848056E-2,-5.965758E-2,5.485901E-3,-4.309318E-2,-1.2199379E-2,5.0299104E-2,1.0285261E-2,3.401356E-5,-3.364032E-2,2.9706959E-2,-4.1630264E-2,4.6678092E-2,-8.411931E-2,8.739091E-3,-8.3377026E-2,-5.7501793E-3,-5.4400932E-2,-5.7273682E-2,1.8731436E-2,-5.8404338E-2,4.7119122E-2,6.426361E-2,5.4140408E-2,3.999975E-2,3.6915187E-3,-1.1431231E-2,-6.3735425E-2],"split_indices":[72,4,40,54,103,54,16,103,4,104,25,16,16,53,16,45,119,104,104,103,61,29,16,11,35,1,305,206,189,42,12,0,0,0,0,0,0,0,0,0,0,0,0,0,0,0,0,0,0,0,0,0,0,0,0,0,0,0,0,0,0,0,0],"split_type":[0,0,0,0,0,0,0,0,0,0,0,0,0,0,0,0,0,0,0,0,0,0,0,0,0,0,0,0,0,0,0,0,0,0,0,0,0,0,0,0,0,0,0,0,0,0,0,0,0,0,0,0,0,0,0,0,0,0,0,0,0,0,0],"sum_hessian":[8.123321E4,4.9606305E4,3.1626904E4,1.9591492E4,3.0014812E4,3.2824512E3,2.8344453E4,1.5273268E3,1.8064164E4,1.801621E4,1.1998601E4,8.5995667E2,2.4224946E3,2.7492162E4,8.522904E2,1.3064346E3,2.2089217E2,1.6364E4,1.7001643E3,1.7178543E4,8.376688E2,2.5130579E3,9.485543E3,7.858767E2,7.407999E1,1.7252928E3,6.9720166E2,1.1247526E2,2.7379688E4,5.7273615E2,2.7955423E2,7.672972E2,5.391374E2,1.1947481E2,1.0141736E2,1.5329015E4,1.0349861E3,1.5792373E3,1.2092704E2,5.570181E3,1.1608362E4,6.613914E2,1.7627744E2,1.5226875E3,9.903705E2,9.055763E3,4.297799E2,7.813803E2,4.4963536E0,6.6138115E1,7.941871E0,1.5496537E3,1.7563914E2,6.679902E2,2.9211454E1,8.573859E1,2.6736671E1,1.2640646E4,1.4739041E4,2.7075385E2,3.019823E2,1.9579738E2,8.375687E1],"tree_param":{"num_deleted":"0","num_feature":"428","num_nodes":"63","size_leaf_vector":"1"}},{"base_weights":[2.287714E-3,-6.083964E-1,9.64287E-1,-1.3832736E0,-5.1481128E-2,-1.3565646E-1,1.0918293E0,-1.4901314E0,-8.8415265E-1,-4.3815905E-1,3.9961705E-1,7.316045E-1,-4.4517365E-1,1.1221086E0,1.08071096E-1,-7.598165E-1,-1.538672E0,3.2138073E-1,-9.5813215E-1,7.852662E-1,-5.189864E-1,4.6320388E-1,-7.4672765E-1,8.2422805E-1,-2.1325947E-1,-1.9899656E-1,-1.0671626E0,-3.2797006E-1,1.1299648E0,4.2572862E-1,-5.3610545E-1,5.5190086E-2,-3.972075E-2,-6.060316E-2,-7.805798E-2,2.5479123E-2,-4.3979418E-2,-4.110238E-2,-6.8397574E-2,-3.0106058E-2,4.365906E-2,-4.4466585E-2,-1.3808215E-2,2.7478203E-2,7.982524E-4,-2.9608905E-3,-5.2402366E-2,4.7807064E-2,2.2616705E-2,4.0108124E-3,-7.0396386E-2,-2.6210457E-2,6.703574E-4,-4.124149E-2,-6.926232E-2,-5.826908E-2,2.7080048E-2,3.671115E-2,5.7854515E-2,3.1779822E-2,-1.3421299E-2,-1.3257677E-2,-5.8791783E-2],"categories":[],"categories_nodes":[],"categories_segments":[],"categories_sizes":[],"default_left":[0,0,0,0,0,0,0,0,0,0,0,0,0,0,0,0,0,0,0,0,0,0,0,0,0,0,0,0,0,0,0,0,0,0,0,0,0,0,0,0,0,0,0,0,0,0,0,0,0,0,0,0,0,0,0,0,0,0,0,0,0,0,0],"id":5,"left_children":[1,3,5,7,9,11,13,15,17,19,21,23,25,27,29,31,33,35,37,39,41,43,45,47,49,51,53,55,57,59,61,-1,-1,-1,-1,-1,-1,-1,-1,-1,-1,-1,-1,-1,-1,-1,-1,-1,-1,-1,-1,-1,-1,-1,-1,-1,-1,-1,-1,-1,-1,-1,-1],"loss_changes":[4.7390945E4,2.1294041E4,4.3945977E3,1.0992109E3,5.0082397E3,8.742431E2,8.36E2,6.0127344E2,3.250376E2,1.5291765E3,9.663313E2,7.514932E1,3.6726782E2,3.1059766E2,1.7196492E2,6.9295105E1,1.1513672E2,4.8200676E1,1.9021265E2,1.17433655E2,1.3039263E3,4.8496362E2,1.4429553E2,3.7852234E1,2.7206345E1,1.18863594E2,5.129663E1,1.0804969E2,2.8989844E2,8.213707E1,4.7809822E1,0E0,0E0,0E0,0E0,0E0,0E0,0E0,0E0,0E0,0E0,0E0,0E0,0E0,0E0,0E0,0E0,0E0,0E0,0E0,0E0,0E0,0E0,0E0,0E0,0E0,0E0,0E0,0E0,0E0,0E0,0E0,0E0],"parents":[2147483647,0,0,1,1,2,2,3,3,4,4,5,5,6,6,7,7,8,8,9,9,10,10,11,11,12,12,13,13,14,14,15,15,16,16,17,17,18,18,19,19,20,20,21,21,22,22,23,23,24,24,25,25,26,26,27,27,28,28,29,29,30,30],"right_children":[2,4,6,8,10,12,14,16,18,20,22,24,26,28,30,32,34,36,38,40,42,44,46,48,50,52,54,56,58,60,62,-1,-1,-1,-1,-1,-1,-1,-1,-1,-1,-1,-1,-1,-1,-1,-1,-1,-1,-1,-1,-1,-1,-1,-1,-1,-1,-1,-1,-1,-1,-1,-1],"split_conditions":[1E0,2.1666667E0,1.5E0,1.1666666E0,5E0,1E0,1.875E0,1E0,1E0,1E0,1.7391304E0,8.636364E-1,8.636364E-1,1E0,3E0,1E0,1E0,2E0,9.666667E0,9.752E1,1E0,2.2625E1,7.830374E-1,9.728102E-3,3.0050417E-2,4E0,1.3571431E1,2.9880354E-2,2.1666667E0,1.13E2,3.4947982E0,5.5190086E-2,-3.972075E-2,-6.060316E-2,-7.805798E-2,2.5479123E-2,-4.3979418E-2,-4.110238E-2,-6.8397574E-2,-3.0106058E-2,4.365906E-2,-4.4466585E-2,-1.3808215E-2,2.7478203E-2,7.982524E-4,-2.9608905E-3,-5.2402366E-2,4.7807064E-2,2.2616705E-2,4.0108124E-3,-7.0396386E-2,-2.6210457E-2,6.703574E-4,-4.124149E-2,-6.926232E-2,-5.826908E-2,2.7080048E-2,3.671115E-2,5.7854515E-2,3.1779822E-2,-1.3421299E-2,-1.3257677E-2,-5.8791783E-2],"split_indices":[72,4,40,4,102,54,16,54,102,102,16,16,16,58,16,102,102,42,1,85,79,2,12,355,206,101,46,182,4,38,12,0,0,0,0,0,0,0,0,0,0,0,0,0,0,0,0,0,0,0,0,0,0,0,0,0,0,0,0,0,0,0,0],"split_type":[0,0,0,0,0,0,0,0,0,0,0,0,0,0,0,0,0,0,0,0,0,0,0,0,0,0,0,0,0,0,0,0,0,0,0,0,0,0,0,0,0,0,0,0,0,0,0,0,0,0,0,0,0,0,0,0,0,0,0,0,0,0,0],"sum_hessian":[8.066651E4,4.9343355E4,3.1323152E4,2.0633275E4,2.8710078E4,3.2546357E3,2.8068516E4,1.6993186E4,3.6400894E3,1.5458876E4,1.3251202E4,8.5567834E2,2.3989573E3,2.7230252E4,8.382649E2,1.0601029E3,1.5933083E4,2.1027113E2,3.429818E3,9.5748004E2,1.4501396E4,1.2555362E4,6.958403E2,7.7940247E2,7.627591E1,1.7196549E3,6.793024E2,1.4651465E2,2.7083736E4,5.616447E2,2.7662015E2,1.8759031E1,1.0413439E3,1.0298959E3,1.49031875E4,1.8228177E2,2.7989363E1,2.5770793E3,8.5273883E2,5.670882E1,9.0077124E2,5.7416836E3,8.759713E3,1.0523151E4,2.0322103E3,2.1240355E2,4.834367E2,5.741697E2,2.0523276E2,6.1982487E1,1.42934265E1,6.7882855E2,1.0408263E3,3.8760086E2,2.917016E2,7.4464195E1,7.205045E1,1.7391285E3,2.5344607E4,4.313243E2,1.3032042E2,1.95312E2,8.130816E1],"tree_param":{"num_deleted":"0","num_feature":"428","num_nodes":"63","size_leaf_vector":"1"}},{"base_weights":[-2.3893109E-3,-5.8943933E-1,9.216595E-1,-1.3934889E0,-1.00747816E-1,-1.0784261E-1,1.0468253E0,-6.9232476E-1,-1.450163E0,-4.619793E-1,3.621268E-1,7.464431E-1,-4.275649E-1,1.0678381E0,-2.6694572E-1,-4.8819733E-1,-9.8854774E-1,-1.4843867E0,-1.0688789E0,7.254297E-1,-5.4159105E-1,-2.9637974E-2,6.710356E-1,8.413022E-1,-1.8803836E-1,-1.635278E-1,-9.5524544E-1,1.0836366E0,3.9722776E-1,-7.253683E-3,-8.781487E-1,-1.2611776E-2,-3.8609326E-2,7.5263165E-2,-5.098722E-2,-5.678788E-2,-7.54237E-2,-5.7729363E-2,3.0403675E-3,-3.52413E-2,4.0726587E-2,-4.2821337E-2,-1.4466486E-2,-1.8437205E-2,1.702995E-2,3.620319E-2,-2.3262678E-2,4.6666857E-2,2.5125457E-2,1.38485385E-2,-5.5143565E-2,-2.4229601E-4,-3.301621E-2,-2.7298937E-2,-5.9899952E-2,-2.4295377E-2,5.4519027E-2,3.7054524E-2,-1.62256E-2,1.755239E-2,-2.2788681E-2,5.8647883E-3,-6.3931905E-2],"categories":[],"categories_nodes":[],"categories_segments":[],"categories_sizes":[],"default_left":[0,0,0,0,0,0,0,0,0,0,0,0,0,0,0,0,0,0,0,0,0,0,0,0,0,0,0,0,0,0,0,0,0,0,0,0,0,0,0,0,0,0,0,0,0,0,0,0,0,0,0,0,0,0,0,0,0,0,0,0,0,0,0],"id":6,"left_children":[1,3,5,7,9,11,13,15,17,19,21,23,25,27,29,31,33,35,37,39,41,43,45,47,49,51,53,55,57,59,61,-1,-1,-1,-1,-1,-1,-1,-1,-1,-1,-1,-1,-1,-1,-1,-1,-1,-1,-1,-1,-1,-1,-1,-1,-1,-1,-1,-1,-1,-1,-1,-1],"loss_changes":[4.334758E4,1.9200445E4,4.0003848E3,7.3303516E2,5.082141E3,9.197065E2,7.643887E2,8.316388E1,2.2142188E2,1.6142034E3,1.6123717E3,8.144998E1,3.4119647E2,2.8820703E2,6.92825E1,5.4817825E1,4.5365295E1,1.2996094E2,1.3670728E2,1.3732898E2,1.2704487E3,7.3769855E2,4.4919824E2,2.5496216E1,3.660493E1,1.2882016E2,8.0502625E1,2.8225195E2,1.5625073E2,4.9556526E1,5.204104E1,0E0,0E0,0E0,0E0,0E0,0E0,0E0,0E0,0E0,0E0,0E0,0E0,0E0,0E0,0E0,0E0,0E0,0E0,0E0,0E0,0E0,0E0,0E0,0E0,0E0,0E0,0E0,0E0,0E0,0E0,0E0,0E0],"parents":[2147483647,0,0,1,1,2,2,3,3,4,4,5,5,6,6,7,7,8,8,9,9,10,10,11,11,12,12,13,13,14,14,15,15,16,16,17,17,18,18,19,19,20,20,21,21,22,22,23,23,24,24,25,25,26,26,27,27,28,28,29,29,30,30],"right_children":[2,4,6,8,10,12,14,16,18,20,22,24,26,28,30,32,34,36,38,40,42,44,46,48,50,52,54,56,58,60,62,-1,-1,-1,-1,-1,-1,-1,-1,-1,-1,-1,-1,-1,-1,-1,-1,-1,-1,-1,-1,-1,-1,-1,-1,-1,-1,-1,-1,-1,-1,-1,-1],"split_conditions":[1E0,1.6666666E0,1.2608696E0,1E0,5E0,1E0,2.5238094E0,4E2,1.1666666E0,1E0,4E0,8.5E-1,1E0,1.6078857E1,7.920594E-3,1.68E2,1E0,1E0,1E0,9.752E1,2E0,1E-1,1.7391304E0,3.315631E-2,1.14E2,1.02E1,1.8229166E1,1E0,1.4E0,1.03E2,1.2619332E-2,-1.2611776E-2,-3.8609326E-2,7.5263165E-2,-5.098722E-2,-5.678788E-2,-7.54237E-2,-5.7729363E-2,3.0403675E-3,-3.52413E-2,4.0726587E-2,-4.2821337E-2,-1.4466486E-2,-1.8437205E-2,1.702995E-2,3.620319E-2,-2.3262678E-2,4.6666857E-2,2.5125457E-2,1.38485385E-2,-5.5143565E-2,-2.4229601E-4,-3.301621E-2,-2.7298937E-2,-5.9899952E-2,-2.4295377E-2,5.4519027E-2,3.7054524E-2,-1.62256E-2,1.755239E-2,-2.2788681E-2,5.8647883E-3,-6.3931905E-2],"split_indices":[72,4,4,54,102,54,16,45,4,102,103,16,66,46,260,99,102,102,104,85,102,20,16,160,81,1,2,53,27,38,224,0,0,0,0,0,0,0,0,0,0,0,0,0,0,0,0,0,0,0,0,0,0,0,0,0,0,0,0,0,0,0,0],"split_type":[0,0,0,0,0,0,0,0,0,0,0,0,0,0,0,0,0,0,0,0,0,0,0,0,0,0,0,0,0,0,0,0,0,0,0,0,0,0,0,0,0,0,0,0,0,0,0,0,0,0,0,0,0,0,0,0,0,0,0,0,0,0,0],"sum_hessian":[7.9906836E4,4.886388E4,3.1042955E4,1.8471184E4,3.0392693E4,3.3650647E3,2.767789E4,1.3823356E3,1.708885E4,1.7070627E4,1.3322067E4,9.1605804E2,2.4490066E3,2.7242355E4,4.3553528E2,8.199534E2,5.6238214E2,1.5678652E4,1.4101964E3,1.0721033E3,1.5998523E4,5.873752E3,7.448315E3,8.31729E2,8.4329056E1,1.6331383E3,8.158684E2,2.6614736E4,6.276187E2,3.063732E2,1.2916206E2,4.4887714E2,3.710763E2,6.3644886E0,5.5601764E2,1.01636395E3,1.4662288E4,1.3107303E3,9.9466064E1,6.246776E1,1.00963556E3,7.1155464E3,8.882977E3,3.0657683E3,2.8079836E3,7.1165625E3,3.3175232E2,6.526723E2,1.7905669E2,5.6372288E1,2.7956764E1,1.2385442E3,3.9459406E2,3.0496555E2,5.1090283E2,1.1356266E2,2.6501174E4,4.2507224E2,2.025465E2,1.7043668E2,1.3593654E2,3.72591E1,9.190296E1],"tree_param":{"num_deleted":"0","num_feature":"428","num_nodes":"63","size_leaf_vector":"1"}},{"base_weights":[2.2341267E-3,-5.5959857E-1,8.876039E-1,-1.3469063E0,-8.1183605E-2,-1.0360728E-1,1.0044312E0,-6.7641675E-1,-1.4030397E0,-4.354231E-1,3.6070496E-1,6.9601095E-1,-3.930688E-1,1.0330702E0,9.7302556E-2,-4.5162153E-1,-9.8114115E-1,-1.4401577E0,-1.0343893E0,6.7994875E-1,-5.1000583E-1,-1.5005644E-3,6.4989346E-1,7.472333E-1,-7.288332E-1,-2.2449645E-1,-1.1111621E0,-3.888352E-1,1.0409489E0,3.953564E-1,-5.143015E-1,2.5482506E-2,-2.6615044E-2,-4.0257514E-2,-6.489925E-2,-5.4728013E-2,-7.321396E-2,5.2845567E-3,-5.5659957E-2,4.1621745E-2,-8.1337505E-4,-3.7807576E-2,-9.722645E-3,-2.1239482E-2,1.6069308E-2,3.4817457E-2,-2.4662293E-2,4.1202195E-2,1.3020462E-2,5.0334126E-2,-6.1343994E-2,-2.890558E-2,7.797735E-4,-5.1823906E-3,-5.868144E-2,-5.625694E-2,2.0296862E-2,5.4985862E-2,4.280293E-2,2.932459E-2,-1.4813848E-2,-1.3082355E-2,-5.699646E-2],"categories":[],"categories_nodes":[],"categories_segments":[],"categories_sizes":[],"default_left":[0,0,0,0,0,0,0,0,0,0,0,0,0,0,0,0,0,0,0,0,0,0,0,0,0,0,0,0,0,0,0,0,0,0,0,0,0,0,0,0,0,0,0,0,0,0,0,0,0,0,0,0,0,0,0,0,0,0,0,0,0,0,0],"id":7,"left_children":[1,3,5,7,9,11,13,15,17,19,21,23,25,27,29,31,33,35,37,39,41,43,45,47,49,51,53,55,57,59,61,-1,-1,-1,-1,-1,-1,-1,-1,-1,-1,-1,-1,-1,-1,-1,-1,-1,-1,-1,-1,-1,-1,-1,-1,-1,-1,-1,-1,-1,-1,-1,-1],"loss_changes":[3.9490508E4,1.8293766E4,3.569129E3,6.899844E2,4.729355E3,7.526292E2,7.161719E2,9.683569E1,2.3029297E2,1.3953557E3,1.4081399E3,6.3624115E1,2.8872278E2,2.9982617E2,1.542218E2,6.3795853E1,3.252478E1,1.2666406E2,1.3965686E2,1.11642914E2,1.2207778E3,8.159794E2,3.9731494E2,3.100119E1,2.759737E1,1.642569E2,2.8426147E1,8.7068985E1,2.878711E2,7.534452E1,4.352941E1,0E0,0E0,0E0,0E0,0E0,0E0,0E0,0E0,0E0,0E0,0E0,0E0,0E0,0E0,0E0,0E0,0E0,0E0,0E0,0E0,0E0,0E0,0E0,0E0,0E0,0E0,0E0,0E0,0E0,0E0,0E0,0E0],"parents":[2147483647,0,0,1,1,2,2,3,3,4,4,5,5,6,6,7,7,8,8,9,9,10,10,11,11,12,12,13,13,14,14,15,15,16,16,17,17,18,18,19,19,20,20,21,21,22,22,23,23,24,24,25,25,26,26,27,27,28,28,29,29,30,30],"right_children":[2,4,6,8,10,12,14,16,18,20,22,24,26,28,30,32,34,36,38,40,42,44,46,48,50,52,54,56,58,60,62,-1,-1,-1,-1,-1,-1,-1,-1,-1,-1,-1,-1,-1,-1,-1,-1,-1,-1,-1,-1,-1,-1,-1,-1,-1,-1,-1,-1,-1,-1,-1,-1],"split_conditions":[1E0,1.75E0,1.5E0,1E0,5E0,1E0,1.875E0,3.75E2,1.1666666E0,1E0,4E0,1.125E0,2E0,1E0,3E0,1E0,2.1666667E0,1E0,1E0,1.19E2,3E0,1E0,1.9583334E0,2.9264706E2,4E0,4E0,3.1217711E-2,2.9880354E-2,3.4609812E-3,1.14E2,3.4947982E0,2.5482506E-2,-2.6615044E-2,-4.0257514E-2,-6.489925E-2,-5.4728013E-2,-7.321396E-2,5.2845567E-3,-5.5659957E-2,4.1621745E-2,-8.1337505E-4,-3.7807576E-2,-9.722645E-3,-2.1239482E-2,1.6069308E-2,3.4817457E-2,-2.4662293E-2,4.1202195E-2,1.3020462E-2,5.0334126E-2,-6.1343994E-2,-2.890558E-2,7.797735E-4,-5.1823906E-3,-5.868144E-2,-5.625694E-2,2.0296862E-2,5.4985862E-2,4.280293E-2,2.932459E-2,-1.4813848E-2,-1.3082355E-2,-5.699646E-2],"split_indices":[72,4,40,54,102,54,16,45,4,102,103,16,16,58,16,60,20,102,102,98,102,79,16,11,119,101,323,182,221,38,12,0,0,0,0,0,0,0,0,0,0,0,0,0,0,0,0,0,0,0,0,0,0,0,0,0,0,0,0,0,0,0,0],"split_type":[0,0,0,0,0,0,0,0,0,0,0,0,0,0,0,0,0,0,0,0,0,0,0,0,0,0,0,0,0,0,0,0,0,0,0,0,0,0,0,0,0,0,0,0,0,0,0,0,0,0,0,0,0,0,0,0,0,0,0,0,0,0,0],"sum_hessian":[7.938713E4,4.85677E4,3.0819434E4,1.835682E4,3.0210877E4,3.249496E3,2.7569938E4,1.4191172E3,1.6937703E4,1.6768467E4,1.3442409E4,8.6329535E2,2.3862007E3,2.6726031E4,8.439047E2,8.1809247E2,6.010248E2,1.5385672E4,1.5520315E3,1.0504874E3,1.571798E4,5.9682427E3,7.4741665E3,8.3379645E2,2.949893E1,1.9336007E3,4.5259998E2,1.4700612E2,2.6579025E4,5.6763293E2,2.7627176E2,6.2934067E1,7.551584E2,3.8867593E2,2.1234883E2,1.0068272E3,1.4378845E4,1.0032778E2,1.4517037E3,8.615861E2,1.8890129E2,8.829314E3,6.8886655E3,2.5824539E3,3.385789E3,7.1826636E3,2.915033E2,7.1957056E2,1.14225845E2,6.350038E0,2.3148891E1,7.813683E2,1.1522324E3,2.6578575E1,4.260214E2,7.609422E1,7.0911896E1,2.016464E4,6.414385E3,4.4484927E2,1.2278367E2,1.9780725E2,7.846453E1],"tree_param":{"num_deleted":"0","num_feature":"428","num_nodes":"63","size_leaf_vector":"1"}},{"base_weights":[-2.624282E-3,-5.371131E-1,8.442488E-1,-1.3008186E0,-8.036419E-2,-1.53566515E-2,9.7496283E-1,-1.3535168E0,-8.9159673E-1,-4.0434593E-1,3.2688302E-1,2.4884559E-1,-6.638826E-1,1.0013208E0,1.1762135E-1,-1.2016038E0,-1.4368272E0,-9.5185167E-1,2.218757E-1,6.780507E-1,-4.7823873E-1,3.8633087E-1,-7.395133E-1,-2.8499065E-2,6.3631237E-1,-4.6452728E-1,-1.1491785E0,1.0574692E0,8.223118E-1,5.5357766E-1,-2.1668392E-1,-6.452591E-2,-3.9592143E-2,-7.2747074E-2,-5.9329312E-2,-4.299364E-2,-7.325124E-2,3.430235E-2,-2.1454629E-2,-2.8723467E-2,3.7652902E-2,-4.144461E-2,-1.2405762E-2,2.4014955E-2,1.1224094E-3,-2.0206021E-2,-6.458554E-2,-2.6897613E-2,8.860806E-3,3.4127694E-2,-4.750989E-2,3.1651333E-2,-2.6721356E-2,-6.2077444E-2,1.1151711E-2,-1.8895958E-2,5.326587E-2,4.201652E-2,-9.854437E-3,3.142347E-2,-5.7153698E-2,3.0443028E-3,-4.0380698E-2],"categories":[],"categories_nodes":[],"categories_segments":[],"categories_sizes":[],"default_left":[0,0,0,0,0,0,0,0,0,0,0,0,0,0,0,0,0,0,0,0,0,0,0,0,0,0,0,0,0,0,0,0,0,0,0,0,0,0,0,0,0,0,0,0,0,0,0,0,0,0,0,0,0,0,0,0,0,0,0,0,0,0,0],"id":8,"left_children":[1,3,5,7,9,11,13,15,17,19,21,23,25,27,29,31,33,35,37,39,41,43,45,47,49,51,53,55,57,59,61,-1,-1,-1,-1,-1,-1,-1,-1,-1,-1,-1,-1,-1,-1,-1,-1,-1,-1,-1,-1,-1,-1,-1,-1,-1,-1,-1,-1,-1,-1,-1,-1],"loss_changes":[3.546551E4,1.6755633E4,3.406463E3,3.864707E2,3.9661858E3,6.859661E2,5.945469E2,1.9980664E2,1.3800696E2,1.3393374E3,8.44631E2,3.0571112E2,1.11581696E2,2.5573438E2,1.14677895E2,2.0468262E2,4.4867188E1,9.0715454E1,3.2398056E1,1.0098398E2,1.2644478E3,4.3137976E2,1.2978958E2,1.7395082E2,8.77135E1,6.3485977E1,4.2961365E1,2.1929297E2,1.1221631E2,4.410225E1,7.31384E1,0E0,0E0,0E0,0E0,0E0,0E0,0E0,0E0,0E0,0E0,0E0,0E0,0E0,0E0,0E0,0E0,0E0,0E0,0E0,0E0,0E0,0E0,0E0,0E0,0E0,0E0,0E0,0E0,0E0,0E0,0E0,0E0],"parents":[2147483647,0,0,1,1,2,2,3,3,4,4,5,5,6,6,7,7,8,8,9,9,10,10,11,11,12,12,13,13,14,14,15,15,16,16,17,17,18,18,19,19,20,20,21,21,22,22,23,23,24,24,25,25,26,26,27,27,28,28,29,29,30,30],"right_children":[2,4,6,8,10,12,14,16,18,20,22,24,26,28,30,32,34,36,38,40,42,44,46,48,50,52,54,56,58,60,62,-1,-1,-1,-1,-1,-1,-1,-1,-1,-1,-1,-1,-1,-1,-1,-1,-1,-1,-1,-1,-1,-1,-1,-1,-1,-1,-1,-1,-1,-1,-1,-1],"split_conditions":[1E0,1.75E0,1.6666666E0,2E0,5E0,9.0375E0,1.875E0,1E0,1E0,1E0,1.7391304E0,9E0,3E0,4.301941E-3,1E0,7.5E-1,1E0,1.1666667E1,2.2E1,9.729032E1,1E0,2.1916666E1,2.875E0,4E0,2.2916667E0,1.9415654E-2,4.8193906E-2,1E0,7.9800005E0,2.4133432E-3,1E0,-6.452591E-2,-3.9592143E-2,-7.2747074E-2,-5.9329312E-2,-4.299364E-2,-7.325124E-2,3.430235E-2,-2.1454629E-2,-2.8723467E-2,3.7652902E-2,-4.144461E-2,-1.2405762E-2,2.4014955E-2,1.1224094E-3,-2.0206021E-2,-6.458554E-2,-2.6897613E-2,8.860806E-3,3.4127694E-2,-4.750989E-2,3.1651333E-2,-2.6721356E-2,-6.2077444E-2,1.1151711E-2,-1.8895958E-2,5.326587E-2,4.201652E-2,-9.854437E-3,3.142347E-2,-5.7153698E-2,3.0443028E-3,-4.0380698E-2],"split_indices":[72,4,4,40,102,1,16,69,104,102,16,1,51,221,35,20,104,1,44,85,79,2,16,101,16,360,252,58,46,219,17,0,0,0,0,0,0,0,0,0,0,0,0,0,0,0,0,0,0,0,0,0,0,0,0,0,0,0,0,0,0,0,0],"split_type":[0,0,0,0,0,0,0,0,0,0,0,0,0,0,0,0,0,0,0,0,0,0,0,0,0,0,0,0,0,0,0,0,0,0,0,0,0,0,0,0,0,0,0,0,0,0,0,0,0,0,0,0,0,0,0,0,0,0,0,0,0,0,0],"sum_hessian":[7.834986E4,4.803426E4,3.0315598E4,1.7975887E4,3.0058375E4,4.0015264E3,2.6314072E4,1.5923061E4,2.0528267E3,1.6740574E4,1.3317802E4,2.843665E3,1.1578611E3,2.5529043E4,7.850298E2,5.6450186E3,1.0278041E4,1.9475797E3,1.05246994E2,1.0692855E3,1.5671288E4,1.2615187E4,7.0261475E2,1.6578907E3,1.1857743E3,8.2210486E2,3.3575632E2,1.9429752E4,6.09929E3,3.4043024E2,4.4459958E2,4.6367393E3,1.0082796E3,9.579777E3,6.982638E2,1.6538301E3,2.937497E2,6.1406998E1,4.3839996E1,6.0040035E1,1.00924554E3,6.208464E3,9.462824E3,1.0025822E4,2.5893643E3,4.3819583E2,2.644189E2,4.7642078E2,1.18147E3,1.1527454E3,3.3028946E1,4.8740154E1,7.733647E2,3.146696E2,2.1086718E1,1.0540012E2,1.9324352E4,5.9935264E3,1.0576402E2,3.2664157E2,1.3788662E1,3.031172E2,1.4148238E2],"tree_param":{"num_deleted":"0","num_feature":"428","num_nodes":"63","size_leaf_vector":"1"}},{"base_weights":[-5.349876E-4,-5.1649415E-1,8.1601346E-1,-9.991199E-1,1.3166717E-2,8.5858536E-1,-6.4548475E-1,-1.1934198E0,-6.2185365E-1,-2.948584E-1,4.093055E-1,5.5112696E-1,9.819008E-1,-2.5946325E-1,-1.0813719E0,-1.2988235E0,-7.008836E-1,-3.5468322E-1,-1.0423462E0,-2.1592106E-1,-1.1886367E0,-5.02019E-2,6.2609667E-1,8.0839485E-1,2.5815693E-1,9.9980587E-1,2.3629099E-1,9.657561E-2,-7.644035E-1,7.742109E-2,-1.113779E0,-5.809725E-2,-7.112438E-2,-2.5930433E-2,-6.3296296E-2,2.7953697E-2,-2.3597104E-2,-3.085511E-2,-5.7995874E-2,-2.6051277E-2,-3.270649E-3,-3.653681E-2,-7.194849E-2,-2.2211283E-2,1.5957497E-2,3.3425957E-2,-2.2257082E-2,2.628081E-2,5.246758E-2,1.9559799E-2,-2.6896143E-2,4.593435E-2,5.4900654E-2,2.2346156E-2,-5.880425E-2,-1.0374386E-2,2.9709196E-2,2.5559712E-2,-5.085457E-2,-5.7589073E-2,5.0373275E-2],"categories":[],"categories_nodes":[],"categories_segments":[],"categories_sizes":[],"default_left":[0,0,0,0,0,0,0,0,0,0,0,0,0,0,0,0,0,0,0,0,0,0,0,0,0,0,0,0,0,0,0,0,0,0,0,0,0,0,0,0,0,0,0,0,0,0,0,0,0,0,0,0,0,0,0,0,0,0,0,0,0],"id":9,"left_children":[1,3,5,7,9,11,13,15,17,19,21,23,25,27,29,31,33,35,37,39,41,43,45,47,49,51,53,55,57,-1,59,-1,-1,-1,-1,-1,-1,-1,-1,-1,-1,-1,-1,-1,-1,-1,-1,-1,-1,-1,-1,-1,-1,-1,-1,-1,-1,-1,-1,-1,-1],"loss_changes":[3.2717908E4,1.2164922E4,1.8714766E3,1.8244785E3,2.7687188E3,1.107291E3,1.43026E2,8.522715E2,9.5079443E2,9.003436E2,9.887925E2,6.3040845E2,2.781621E2,8.151269E1,3.5787933E1,2.274707E2,2.9793628E2,5.551382E2,1.6371826E2,5.386293E2,1.1766553E2,4.633212E2,3.0677466E2,3.029558E2,4.146782E2,1.6122266E2,1.46399E2,4.045459E1,6.0936653E1,0E0,3.3035217E1,0E0,0E0,0E0,0E0,0E0,0E0,0E0,0E0,0E0,0E0,0E0,0E0,0E0,0E0,0E0,0E0,0E0,0E0,0E0,0E0,0E0,0E0,0E0,0E0,0E0,0E0,0E0,0E0,0E0,0E0],"parents":[2147483647,0,0,1,1,2,2,3,3,4,4,5,5,6,6,7,7,8,8,9,9,10,10,11,11,12,12,13,13,14,14,15,15,16,16,17,17,18,18,19,19,20,20,21,21,22,22,23,23,24,24,25,25,26,26,27,27,28,28,30,30],"right_children":[2,4,6,8,10,12,14,16,18,20,22,24,26,28,30,32,34,36,38,40,42,44,46,48,50,52,54,56,58,-1,60,-1,-1,-1,-1,-1,-1,-1,-1,-1,-1,-1,-1,-1,-1,-1,-1,-1,-1,-1,-1,-1,-1,-1,-1,-1,-1,-1,-1,-1,-1],"split_conditions":[1E0,2.5E0,2.5238094E0,5E-1,4E0,2.5E0,3.3125E0,8.333333E-1,2.8E1,1.1818181E0,5E0,2.35E1,1.2205414E1,5.3231786E-3,8.0754995E-1,9.0375E0,1E0,1E0,8.05E0,3E0,2.464641E0,1E0,1.9583334E0,5E-1,1.0116667E1,4E0,1.8333334E0,4E0,1.0125673E-1,7.742109E-2,8.314838E-2,-5.809725E-2,-7.112438E-2,-2.5930433E-2,-6.3296296E-2,2.7953697E-2,-2.3597104E-2,-3.085511E-2,-5.7995874E-2,-2.6051277E-2,-3.270649E-3,-3.653681E-2,-7.194849E-2,-2.2211283E-2,1.5957497E-2,3.3425957E-2,-2.2257082E-2,2.628081E-2,5.246758E-2,1.9559799E-2,-2.6896143E-2,4.593435E-2,5.4900654E-2,2.2346156E-2,-5.880425E-2,-1.0374386E-2,2.9709196E-2,2.5559712E-2,-5.085457E-2,-5.7589073E-2,5.0373275E-2],"split_indices":[72,25,16,48,103,25,16,20,44,16,102,10,46,282,46,1,69,102,39,102,46,79,16,48,1,103,17,103,262,0,245,0,0,0,0,0,0,0,0,0,0,0,0,0,0,0,0,0,0,0,0,0,0,0,0,0,0,0,0,0,0],"split_type":[0,0,0,0,0,0,0,0,0,0,0,0,0,0,0,0,0,0,0,0,0,0,0,0,0,0,0,0,0,0,0,0,0,0,0,0,0,0,0,0,0,0,0,0,0,0,0,0,0,0,0,0,0,0,0,0,0,0,0,0,0],"sum_hessian":[7.765637E4,4.7587336E4,3.0069033E4,2.4898758E4,2.2688576E4,2.9218344E4,8.5068805E2,1.643317E4,8.465588E3,1.276397E4,9.924607E3,8.365751E3,2.0852594E4,4.5199594E2,3.9869214E2,1.3535016E4,2.8981538E3,5.17767E3,3.2879182E3,1.1729295E4,1.0346747E3,3.181633E3,6.742974E3,4.4533438E3,3.9124067E3,2.036325E4,4.893444E2,2.655573E2,1.8643861E2,4.283838E0,3.944083E2,6.4292026E3,7.105813E3,2.1927275E3,7.054263E2,5.8843494E2,4.589235E3,7.135009E2,2.5744175E3,3.8738684E3,7.8554263E3,3.6710266E2,6.67572E2,1.5393041E3,1.6423291E3,6.486477E3,2.5649707E2,2.0503289E3,2.4030151E3,3.352631E3,5.5977563E2,1.1157519E4,9.20573E3,4.264327E2,6.2911694E1,1.6519687E2,1.0036044E2,3.0656754E1,1.5578186E2,3.8791574E2,6.492543E0],"tree_param":{"num_deleted":"0","num_feature":"428","num_nodes":"61","size_leaf_vector":"1"}},{"base_weights":[1.3689385E-3,-4.908972E-1,7.808965E-1,-1.646133E-2,-1.044307E0,8.2923955E-1,-2.9883507E-1,-2.9237714E-1,4.0481716E-1,-1.2859007E0,-6.1278343E-1,8.616099E-1,-8.515805E-2,-6.6988844E-1,4.0607676E-1,-5.41137E-1,-7.515608E-2,4.5757715E-2,5.9500873E-1,-1.1279199E0,-1.3646785E0,-3.587209E-1,-1.0709758E0,6.072799E-1,9.5322126E-1,5.136932E-1,-5.044308E-1,-4.8618302E-1,-1.2339816E0,7.7611285E-1,-4.6460533E-1,3.4063466E-2,-3.045978E-2,-2.1919584E-2,7.21468E-3,-1.4814714E-2,1.724864E-2,-5.053575E-2,3.1335082E-2,-6.2297314E-2,-4.376285E-2,-5.5363454E-2,-6.910648E-2,2.4962747E-2,-2.4057342E-2,-3.727392E-2,-6.391225E-2,4.164755E-2,1.7725756E-2,4.8454773E-2,1.2978333E-2,-3.5893924E-3,3.5913933E-2,-3.879876E-2,3.0760884E-3,-1.0459079E-2,-4.2239487E-2,-2.2634765E-2,-6.949607E-2,4.731133E-2,-7.4467002E-3,3.100788E-3,-5.2602805E-2],"categories":[],"categories_nodes":[],"categories_segments":[],"categories_sizes":[],"default_left":[0,0,0,0,0,0,0,0,0,0,0,0,0,0,0,0,0,0,0,0,0,0,0,0,0,0,0,0,0,0,0,0,0,0,0,0,0,0,0,0,0,0,0,0,0,0,0,0,0,0,0,0,0,0,0,0,0,0,0,0,0,0,0],"id":10,"left_children":[1,3,5,7,9,11,13,15,17,19,21,23,25,27,29,31,33,35,37,39,41,43,45,47,49,51,53,55,57,59,61,-1,-1,-1,-1,-1,-1,-1,-1,-1,-1,-1,-1,-1,-1,-1,-1,-1,-1,-1,-1,-1,-1,-1,-1,-1,-1,-1,-1,-1,-1,-1,-1],"loss_changes":[2.954682E4,1.2391331E4,1.5559004E3,2.953886E3,2.2703008E3,8.4443164E2,3.3452863E2,8.297041E2,6.867706E2,1.7225586E2,9.100176E2,6.413457E2,2.4537386E2,8.6198944E1,1.4254889E2,5.959197E2,6.535839E2,3.566374E2,3.352085E2,1.3764453E2,4.0304688E1,5.288497E2,1.872185E2,4.1603784E2,2.2275977E2,4.826545E1,8.837091E1,6.2750793E1,2.4361084E1,4.8935806E1,4.097811E1,0E0,0E0,0E0,0E0,0E0,0E0,0E0,0E0,0E0,0E0,0E0,0E0,0E0,0E0,0E0,0E0,0E0,0E0,0E0,0E0,0E0,0E0,0E0,0E0,0E0,0E0,0E0,0E0,0E0,0E0,0E0,0E0],"parents":[2147483647,0,0,1,1,2,2,3,3,4,4,5,5,6,6,7,7,8,8,9,9,10,10,11,11,12,12,13,13,14,14,15,15,16,16,17,17,18,18,19,19,20,20,21,21,22,22,23,23,24,24,25,25,26,26,27,27,28,28,29,29,30,30],"right_children":[2,4,6,8,10,12,14,16,18,20,22,24,26,28,30,32,34,36,38,40,42,44,46,48,50,52,54,56,58,60,62,-1,-1,-1,-1,-1,-1,-1,-1,-1,-1,-1,-1,-1,-1,-1,-1,-1,-1,-1,-1,-1,-1,-1,-1,-1,-1,-1,-1,-1,-1,-1,-1],"split_conditions":[1E0,1E0,1.0116667E1,4E0,4.1666668E-2,5E-1,1E0,4E0,5E0,9.1E0,2.85E1,2.5E0,1E0,2E0,3.1E1,1E0,1E0,1E0,3.68E1,6E0,1E0,1E0,9.05E0,3.00978E-3,1.107455E1,2.5E0,4E0,7.706175E-3,7.4913236E-3,3.7156849E-3,6.1422084E-3,3.4063466E-2,-3.045978E-2,-2.1919584E-2,7.21468E-3,-1.4814714E-2,1.724864E-2,-5.053575E-2,3.1335082E-2,-6.2297314E-2,-4.376285E-2,-5.5363454E-2,-6.910648E-2,2.4962747E-2,-2.4057342E-2,-3.727392E-2,-6.391225E-2,4.164755E-2,1.7725756E-2,4.8454773E-2,1.2978333E-2,-3.5893924E-3,3.5913933E-2,-3.879876E-2,3.0760884E-3,-1.0459079E-2,-4.2239487E-2,-2.2634765E-2,-6.949607E-2,4.731133E-2,-7.4467002E-3,3.100788E-3,-5.2602805E-2],"split_indices":[72,54,1,103,14,35,48,102,102,39,10,25,66,26,10,102,79,79,24,101,102,102,39,319,46,25,103,270,345,251,409,0,0,0,0,0,0,0,0,0,0,0,0,0,0,0,0,0,0,0,0,0,0,0,0,0,0,0,0,0,0,0,0],"split_type":[0,0,0,0,0,0,0,0,0,0,0,0,0,0,0,0,0,0,0,0,0,0,0,0,0,0,0,0,0,0,0,0,0,0,0,0,0,0,0,0,0,0,0,0,0,0,0,0,0,0,0,0,0,0,0,0,0,0,0,0,0,0,0],"sum_hessian":[7.699598E4,4.71938E4,2.9802182E4,2.5410508E4,2.1783291E4,2.8525246E4,1.2769353E3,1.5354441E4,1.0056066E4,1.3963612E4,7.819679E3,2.7550012E4,9.752338E2,8.366087E2,4.4032663E2,7.1569116E3,8.197529E3,3.4825881E3,6.573478E3,4.651279E3,9.312334E3,5.031533E3,2.788146E3,7.297748E3,2.0252264E4,4.0151743E2,5.7371643E2,6.324905E2,2.041182E2,3.090783E2,1.3124832E2,3.769775E2,6.779934E3,3.08696E3,5.1105693E3,1.6249795E3,1.8576086E3,1.2663453E2,6.4468433E3,3.1676455E3,1.4836334E3,5.9534033E2,8.716993E3,6.2791925E2,4.403614E3,1.0864977E3,1.7016483E3,3.8542954E3,3.4434526E3,1.9798775E4,4.5348892E2,1.0413984E2,2.973776E2,3.8744766E2,1.8626875E2,3.5774106E2,2.7474942E2,3.461149E1,1.6950671E2,2.6104916E2,4.8029137E1,6.9678955E1,6.1569374E1],"tree_param":{"num_deleted":"0","num_feature":"428","num_nodes":"63","size_leaf_vector":"1"}},{"base_weights":[-3.251716E-3,-9.990022E-1,3.593429E-1,-1.2151479E0,-5.8613632E-2,-4.3283854E-2,8.7026954E-1,-5.241198E-1,-1.2752326E0,5.9903294E-1,-3.2521057E-1,-3.285952E-1,3.1919688E-1,8.9022136E-1,-6.485841E-2,1.3834854E0,-5.577671E-1,-8.8403654E-1,-1.3033483E0,6.820606E-1,-1.9977853E-1,-1.8939596E-1,-1.0404509E0,6.597609E-1,-3.9815998E-1,9.947957E-3,5.6460327E-1,9.809072E-1,7.789102E-1,1.1480416E-1,-8.737438E-1,7.782257E-2,-4.7640763E-2,-3.284675E-2,-7.366557E-5,-2.2264058E-2,-5.3791057E-2,-6.6200905E-2,-5.1703423E-2,4.0403724E-2,1.7551232E-2,-5.793899E-2,8.255826E-3,-1.7932313E-2,1.2228711E-2,-5.9036613E-2,-1.6950304E-2,3.7279937E-2,-8.130304E-3,-3.5978626E-2,-9.390399E-3,-1.939882E-2,1.5536827E-2,2.9374642E-2,-5.8785226E-2,5.24302E-2,3.8867597E-2,4.0329304E-2,-2.3300475E-3,1.7851276E-2,-2.2153366E-2,-6.514908E-2,-8.546612E-3],"categories":[],"categories_nodes":[],"categories_segments":[],"categories_sizes":[],"default_left":[0,0,0,0,0,0,0,0,0,0,0,0,0,0,0,0,0,0,0,0,0,0,0,0,0,0,0,0,0,0,0,0,0,0,0,0,0,0,0,0,0,0,0,0,0,0,0,0,0,0,0,0,0,0,0,0,0,0,0,0,0,0,0],"id":11,"left_children":[1,3,5,7,9,11,13,15,17,19,21,23,25,27,29,31,33,35,37,39,41,43,45,47,49,51,53,55,57,59,61,-1,-1,-1,-1,-1,-1,-1,-1,-1,-1,-1,-1,-1,-1,-1,-1,-1,-1,-1,-1,-1,-1,-1,-1,-1,-1,-1,-1,-1,-1,-1,-1],"loss_changes":[2.7457762E4,4.126203E3,1.1468228E4,6.846836E2,6.655605E2,3.2247026E3,4.584707E2,8.563278E1,1.6586719E2,7.27616E1,2.6217743E2,1.1998616E3,1.0422281E3,2.4207227E2,7.482765E1,1.0859474E1,7.171063E1,8.546069E1,7.747266E1,4.110379E1,3.6539913E1,1.6690482E2,4.1991455E1,8.113452E1,1.1019609E3,7.2751227E2,3.0570435E2,1.8180664E2,2.46896E2,5.7132896E1,2.8004684E1,0E0,0E0,0E0,0E0,0E0,0E0,0E0,0E0,0E0,0E0,0E0,0E0,0E0,0E0,0E0,0E0,0E0,0E0,0E0,0E0,0E0,0E0,0E0,0E0,0E0,0E0,0E0,0E0,0E0,0E0,0E0,0E0],"parents":[2147483647,0,0,1,1,2,2,3,3,4,4,5,5,6,6,7,7,8,8,9,9,10,10,11,11,12,12,13,13,14,14,15,15,16,16,17,17,18,18,19,19,20,20,21,21,22,22,23,23,24,24,25,25,26,26,27,27,28,28,29,29,30,30],"right_children":[2,4,6,8,10,12,14,16,18,20,22,24,26,28,30,32,34,36,38,40,42,44,46,48,50,52,54,56,58,60,62,-1,-1,-1,-1,-1,-1,-1,-1,-1,-1,-1,-1,-1,-1,-1,-1,-1,-1,-1,-1,-1,-1,-1,-1,-1,-1,-1,-1,-1,-1,-1,-1],"split_conditions":[1.6E0,2.3822878E-2,4.186253E-2,1E0,1E0,5E0,2.2083333E0,1E0,1E0,8.333333E-1,1.2205414E1,1E0,4E0,2.4E1,4.8026686E0,9.9E1,4E0,9.15E0,1.1666666E0,1.9875E2,9.9E1,4.1666668E-2,2.5722763E-2,1.6E1,1E0,1E0,3E0,5.1678885E-3,8.9279995E0,7.3167803E-3,2.028266E-2,7.782257E-2,-4.7640763E-2,-3.284675E-2,-7.366557E-5,-2.2264058E-2,-5.3791057E-2,-6.6200905E-2,-5.1703423E-2,4.0403724E-2,1.7551232E-2,-5.793899E-2,8.255826E-3,-1.7932313E-2,1.2228711E-2,-5.9036613E-2,-1.6950304E-2,3.7279937E-2,-8.130304E-3,-3.5978626E-2,-9.390399E-3,-1.939882E-2,1.5536827E-2,2.9374642E-2,-5.8785226E-2,5.24302E-2,3.8867597E-2,4.0329304E-2,-2.3300475E-3,1.7851276E-2,-2.2153366E-2,-6.514908E-2,-8.546612E-3],"split_indices":[4,274,321,54,54,102,16,102,102,16,46,102,103,44,12,24,103,39,4,11,116,14,368,92,79,79,16,221,46,260,320,0,0,0,0,0,0,0,0,0,0,0,0,0,0,0,0,0,0,0,0,0,0,0,0,0,0,0,0,0,0,0,0],"split_type":[0,0,0,0,0,0,0,0,0,0,0,0,0,0,0,0,0,0,0,0,0,0,0,0,0,0,0,0,0,0,0,0,0,0,0,0,0,0,0,0,0,0,0,0,0,0,0,0,0,0,0,0,0,0,0,0,0,0,0,0,0,0,0],"sum_hessian":[7.604697E4,2.0299395E4,5.574757E4,1.6505387E4,3.794008E3,3.1178678E4,2.4568895E4,1.321116E3,1.5184271E4,1.0940175E3,2.6999905E3,1.74465E4,1.3732179E4,2.405569E4,5.132034E2,2.2203293E1,1.2989126E3,1.0203112E3,1.416396E4,9.9114496E2,1.0287245E2,2.2701787E3,4.298119E2,1.1466565E3,1.6299843E4,6.0762417E3,7.655937E3,1.3251669E4,1.0804021E4,4.2063397E2,9.256948E1,2.0983587E1,1.2197057E0,1.1022405E3,1.9667215E2,3.1134747E2,7.089637E2,1.3150607E4,1.0133522E3,7.168312E2,2.7431378E2,2.7754263E1,7.511819E1,1.6333418E3,6.368369E2,3.576104E2,7.220147E1,1.0383662E3,1.0829025E2,6.4468296E3,9.853014E3,2.6156335E3,3.4606082E3,7.5572026E3,9.873455E1,9.941315E3,3.3103538E3,1.0453581E4,3.5044043E2,2.9354163E2,1.2709235E2,5.6939857E1,3.562962E1],"tree_param":{"num_deleted":"0","num_feature":"428","num_nodes":"63","size_leaf_vector":"1"}},{"base_weights":[3.4511178E-3,-4.5539346E-1,7.31268E-1,-1.1623414E0,-5.1203247E-2,-1.0979895E-1,8.3449984E-1,-1.2271762E0,-7.420863E-1,-3.2925934E-1,2.922023E-1,8.126877E-2,-7.714982E-1,8.5999393E-1,5.464046E-2,-1.1213759E0,-1.3258723E0,1.4801835E-1,-7.970858E-1,-2.4654894E-1,-1.1562531E0,-3.3085535E-3,5.317585E-1,-1.2859125E-1,5.2450114E-1,-5.491314E-1,-1.1459633E0,9.080303E-1,6.2834615E-1,3.3385903E-1,-4.7231594E-1,-6.0428448E-2,-3.488272E-2,-6.647491E-2,-3.859354E-2,2.3637688E-2,-2.9148519E-2,-3.3395696E-2,-5.8594074E-2,3.3576485E-2,-1.5338706E-2,-3.3274885E-2,-6.784696E-2,-2.0209236E-2,1.4933079E-2,3.383691E-2,1.1295175E-2,-2.4682973E-2,3.331481E-3,1.8015994E-2,4.721337E-2,-4.786847E-2,-1.8147562E-2,7.069232E-2,-5.8905788E-2,5.013311E-2,3.955735E-2,2.5426466E-2,4.4665925E-2,2.5074562E-2,-1.8246774E-2,-5.4310593E-3,-4.5613904E-2],"categories":[],"categories_nodes":[],"categories_segments":[],"categories_sizes":[],"default_left":[0,0,0,0,0,0,0,0,0,0,0,0,0,0,0,0,0,0,0,0,0,0,0,0,0,0,0,0,0,0,0,0,0,0,0,0,0,0,0,0,0,0,0,0,0,0,0,0,0,0,0,0,0,0,0,0,0,0,0,0,0,0,0],"id":12,"left_children":[1,3,5,7,9,11,13,15,17,19,21,23,25,27,29,31,33,35,37,39,41,43,45,47,49,51,53,55,57,59,61,-1,-1,-1,-1,-1,-1,-1,-1,-1,-1,-1,-1,-1,-1,-1,-1,-1,-1,-1,-1,-1,-1,-1,-1,-1,-1,-1,-1,-1,-1,-1,-1],"loss_changes":[2.5206596E4,1.3227965E4,2.5341104E3,4.5793164E2,2.8126204E3,4.035574E2,5.167793E2,1.5083594E2,1.1042737E2,1.1130461E3,9.3298315E2,2.3049796E2,5.8921295E1,2.795293E2,1.2139137E2,2.595078E2,1.4123047E1,3.1602444E1,1.0196399E2,8.184062E2,1.4481897E2,7.145161E2,3.2260742E2,1.1991195E2,5.4534485E1,3.390291E1,2.3520203E1,2.2978711E2,1.3690662E2,6.33411E1,4.563093E1,0E0,0E0,0E0,0E0,0E0,0E0,0E0,0E0,0E0,0E0,0E0,0E0,0E0,0E0,0E0,0E0,0E0,0E0,0E0,0E0,0E0,0E0,0E0,0E0,0E0,0E0,0E0,0E0,0E0,0E0,0E0,0E0],"parents":[2147483647,0,0,1,1,2,2,3,3,4,4,5,5,6,6,7,7,8,8,9,9,10,10,11,11,12,12,13,13,14,14,15,15,16,16,17,17,18,18,19,19,20,20,21,21,22,22,23,23,24,24,25,25,26,26,27,27,28,28,29,29,30,30],"right_children":[2,4,6,8,10,12,14,16,18,20,22,24,26,28,30,32,34,36,38,40,42,44,46,48,50,52,54,56,58,60,62,-1,-1,-1,-1,-1,-1,-1,-1,-1,-1,-1,-1,-1,-1,-1,-1,-1,-1,-1,-1,-1,-1,-1,-1,-1,-1,-1,-1,-1,-1,-1,-1],"split_conditions":[1E0,1.8333334E0,1.5E0,2E0,5E0,8.636364E-1,1.875E0,9.0375E0,1E0,1.1818181E0,4E0,6.25E-1,1.3571431E1,2.7738528E-3,2.9166667E0,9E0,8.3333336E-2,2.6E1,9.8E0,1E0,7.830374E-1,1E0,2.4E1,4E0,3E0,3.6591667E1,2E0,2.4E1,4E0,2.4676225E-3,1.03333336E2,-6.0428448E-2,-3.488272E-2,-6.647491E-2,-3.859354E-2,2.3637688E-2,-2.9148519E-2,-3.3395696E-2,-5.8594074E-2,3.3576485E-2,-1.5338706E-2,-3.3274885E-2,-6.784696E-2,-2.0209236E-2,1.4933079E-2,3.383691E-2,1.1295175E-2,-2.4682973E-2,3.331481E-3,1.8015994E-2,4.721337E-2,-4.786847E-2,-1.8147562E-2,7.069232E-2,-5.8905788E-2,5.013311E-2,3.955735E-2,2.5426466E-2,4.4665925E-2,2.5074562E-2,-1.8246774E-2,-5.4310593E-3,-4.5613904E-2],"split_indices":[72,4,40,40,102,16,16,1,102,16,103,20,46,160,16,1,14,44,1,102,12,79,29,101,103,97,146,44,103,181,38,0,0,0,0,0,0,0,0,0,0,0,0,0,0,0,0,0,0,0,0,0,0,0,0,0,0,0,0,0,0,0,0],"split_type":[0,0,0,0,0,0,0,0,0,0,0,0,0,0,0,0,0,0,0,0,0,0,0,0,0,0,0,0,0,0,0,0,0,0,0,0,0,0,0,0,0,0,0,0,0,0,0,0,0,0,0,0,0,0,0,0,0,0,0,0,0,0,0],"sum_hessian":[7.5477055E4,4.6292688E4,2.918437E4,1.6838855E4,2.9453832E4,3.1904634E3,2.5993906E4,1.458659E4,2.2522646E3,1.6275539E4,1.3178292E4,2.476301E3,7.141624E2,2.517095E4,8.229566E2,7.0458955E3,7.5406943E3,1.3097034E2,2.1212944E3,1.4796946E4,1.4785935E3,5.900528E3,7.2777646E3,1.6810659E3,7.95235E2,4.496283E2,2.6453415E2,2.084537E4,4.325581E3,5.381652E2,2.8479135E2,5.8419023E3,1.2039933E3,7.4902705E3,5.042383E1,9.092912E1,4.004121E1,1.5796542E3,5.4164014E2,9.102874E2,1.3886658E4,4.304042E2,1.0481893E3,2.5349512E3,3.365577E3,4.936554E3,2.3412102E3,5.851992E2,1.0958667E3,5.7298444E2,2.2225052E2,1.3953252E2,3.1009576E2,2.748385E0,2.6178577E2,1.1514965E4,9.330403E3,2.9806787E3,1.3449025E3,4.3427124E2,1.03894005E2,1.5659169E2,1.2819966E2],"tree_param":{"num_deleted":"0","num_feature":"428","num_nodes":"63","size_leaf_vector":"1"}},{"base_weights":[-1.7348939E-3,-9.3304926E-1,3.3649263E-1,-1.153499E0,-4.1982565E-2,-5.860666E-2,8.135567E-1,-4.8262668E-1,-1.2136308E0,5.4356307E-1,-2.709173E-1,-3.2423046E-1,2.7674398E-1,8.380673E-1,1.2227421E-1,-5.870147E-1,8.439566E-2,-1.2476168E0,-8.6796725E-1,5.8756083E-1,-1.0358558E0,-1.0140217E-1,-7.559791E-1,-2.5595233E-1,-1.2472354E0,-1.0891468E-2,5.099088E-1,8.927397E-1,6.295011E-1,3.1122133E-1,-5.662486E-1,-2.5192713E-2,-6.0848046E-2,2.5135774E-2,-2.0755192E-2,-4.5027923E-2,-6.364813E-2,-4.7307756E-2,-9.148456E-3,3.095959E-2,-2.8860195E-2,-8.083888E-2,1.1501397E-2,-3.4398414E-5,-3.7623417E-2,-1.7064868E-2,-4.998487E-2,3.204282E-2,-1.5855165E-2,-4.7895305E-2,-7.012644E-2,-1.5643867E-2,1.5692933E-2,2.6985079E-2,-4.5504898E-2,-3.4717645E-2,4.506664E-2,3.2605328E-2,-1.9190818E-2,2.455108E-2,-1.2284758E-2,-6.194461E-2,-9.405964E-3],"categories":[],"categories_nodes":[],"categories_segments":[],"categories_sizes":[],"default_left":[0,0,0,0,0,0,0,0,0,0,0,0,0,0,0,0,0,0,0,0,0,0,0,0,0,0,0,0,0,0,0,0,0,0,0,0,0,0,0,0,0,0,0,0,0,0,0,0,0,0,0,0,0,0,0,0,0,0,0,0,0,0,0],"id":13,"left_children":[1,3,5,7,9,11,13,15,17,19,21,23,25,27,29,31,33,35,37,39,41,43,45,47,49,51,53,55,57,59,61,-1,-1,-1,-1,-1,-1,-1,-1,-1,-1,-1,-1,-1,-1,-1,-1,-1,-1,-1,-1,-1,-1,-1,-1,-1,-1,-1,-1,-1,-1,-1,-1],"loss_changes":[2.3452604E4,3.8963887E3,1.0294852E4,6.408965E2,5.2765466E2,2.661389E3,4.1913086E2,7.757175E1,1.7034961E2,7.749432E1,2.3259538E2,1.0503556E3,8.8565485E2,2.7191016E2,1.1055114E2,5.733731E1,4.293958E1,1.15708984E2,6.996887E1,4.0039276E1,2.2689144E1,1.3757146E2,7.370416E1,8.515909E2,5.024048E1,5.8000195E2,3.090442E2,2.58792E2,1.1400867E2,6.6847244E1,4.6324203E1,0E0,0E0,0E0,0E0,0E0,0E0,0E0,0E0,0E0,0E0,0E0,0E0,0E0,0E0,0E0,0E0,0E0,0E0,0E0,0E0,0E0,0E0,0E0,0E0,0E0,0E0,0E0,0E0,0E0,0E0,0E0,0E0],"parents":[2147483647,0,0,1,1,2,2,3,3,4,4,5,5,6,6,7,7,8,8,9,9,10,10,11,11,12,12,13,13,14,14,15,15,16,16,17,17,18,18,19,19,20,20,21,21,22,22,23,23,24,24,25,25,26,26,27,27,28,28,29,29,30,30],"right_children":[2,4,6,8,10,12,14,16,18,20,22,24,26,28,30,32,34,36,38,40,42,44,46,48,50,52,54,56,58,60,62,-1,-1,-1,-1,-1,-1,-1,-1,-1,-1,-1,-1,-1,-1,-1,-1,-1,-1,-1,-1,-1,-1,-1,-1,-1,-1,-1,-1,-1,-1,-1,-1],"split_conditions":[1.6666666E0,1E0,1E0,1E0,1E0,5E0,1.7391304E0,4E0,1.1666666E0,4.388715E-1,8.636364E-1,1.9583334E0,4E0,3.04965E-3,1.4285715E0,1.2E0,4.4E0,1E0,8.3333336E-2,1.1675E2,6.750305E-2,1.33E2,1.6E1,1E0,1.1388398E0,1E-1,1.5E0,1E0,1.107455E1,1.13E2,6E0,-2.5192713E-2,-6.0848046E-2,2.5135774E-2,-2.0755192E-2,-4.5027923E-2,-6.364813E-2,-4.7307756E-2,-9.148456E-3,3.095959E-2,-2.8860195E-2,-8.083888E-2,1.1501397E-2,-3.4398414E-5,-3.7623417E-2,-1.7064868E-2,-4.998487E-2,3.204282E-2,-1.5855165E-2,-4.7895305E-2,-7.012644E-2,-1.5643867E-2,1.5692933E-2,2.6985079E-2,-4.5504898E-2,-3.4717645E-2,4.506664E-2,3.2605328E-2,-1.9190818E-2,2.455108E-2,-1.2284758E-2,-6.194461E-2,-9.405964E-3],"split_indices":[4,72,72,54,54,102,16,103,4,31,16,16,103,337,17,144,119,102,14,0,403,81,111,102,12,20,35,53,46,38,101,0,0,0,0,0,0,0,0,0,0,0,0,0,0,0,0,0,0,0,0,0,0,0,0,0,0,0,0,0,0,0,0],"split_type":[0,0,0,0,0,0,0,0,0,0,0,0,0,0,0,0,0,0,0,0,0,0,0,0,0,0,0,0,0,0,0,0,0,0,0,0,0,0,0,0,0,0,0,0,0,0,0,0,0,0,0,0,0,0,0,0,0,0,0,0,0,0,0],"sum_hessian":[7.4451625E4,1.9834707E4,5.4616914E4,1.5900605E4,3.9341025E3,2.987535E4,2.4741564E4,1.3087107E3,1.4591895E4,1.1054141E3,2.8286885E3,1.6670807E4,1.3204543E4,2.3894143E4,8.4742163E2,1.1052083E3,2.0350249E2,1.3283262E4,1.3086332E3,1.0760662E3,2.9347921E1,2.0970417E3,7.3164667E2,1.5523735E4,1.1470714E3,5.912165E3,7.2923774E3,1.8928936E4,4.9652075E3,6.653749E2,1.820468E2,9.779121E2,1.2729615E2,1.10747475E2,9.2755005E1,9.065461E2,1.2376716E4,1.1742224E3,1.3441072E2,1.0480726E3,2.7993567E1,1.9926388E1,9.421535E0,1.8169731E3,2.800687E2,2.7172037E2,4.599263E2,9.9034607E2,1.4533389E4,4.0314114E2,7.439303E2,3.063472E3,2.8486929E3,7.1431294E3,1.4924806E2,1.0150617E2,1.882743E4,4.8572075E3,1.07999825E2,5.0307547E2,1.6229941E2,6.469187E1,1.1735493E2],"tree_param":{"num_deleted":"0","num_feature":"428","num_nodes":"63","size_leaf_vector":"1"}},{"base_weights":[-3.7128855E-3,-8.9316046E-1,3.2099018E-1,-1.116908E0,-1.3544537E-2,-5.6257665E-2,7.815338E-1,-1.1674324E0,-7.1415E-1,1.9616371E-1,-5.343886E-1,-2.680706E-1,2.662777E-1,8.042241E-1,7.440884E-2,-1.0080515E0,-1.2577457E0,-5.090453E-1,-9.719805E-1,-3.8729444E-2,5.2124435E-1,-3.6284336E-1,-9.7642124E-1,-2.0680648E-1,-1.1543543E0,3.8031122E-1,-2.55076E-1,8.573983E-1,6.0341644E-1,4.3707833E-1,-2.0436037E-1,-5.541238E-2,-2.8866602E-2,-5.238331E-2,-6.350132E-2,-2.0313693E-2,-4.9135856E-2,-3.4465525E-2,-5.9207965E-2,-1.1984159E-2,1.6597563E-2,2.7445856E-2,-7.176108E-2,3.9971913E-3,-2.6682919E-2,-5.7462603E-2,-2.1049598E-2,-1.7999792E-3,-2.369836E-2,-3.2760415E-2,-6.334022E-2,1.7393047E-3,2.5409028E-2,-6.882964E-3,-5.4230865E-2,-1.693616E-2,4.330681E-2,3.1297013E-2,-7.550569E-3,3.4444977E-2,-6.863709E-3,1.0274675E-3,-3.7064996E-2],"categories":[],"categories_nodes":[],"categories_segments":[],"categories_sizes":[],"default_left":[0,0,0,0,0,0,0,0,0,0,0,0,0,0,0,0,0,0,0,0,0,0,0,0,0,0,0,0,0,0,0,0,0,0,0,0,0,0,0,0,0,0,0,0,0,0,0,0,0,0,0,0,0,0,0,0,0,0,0,0,0,0,0],"id":14,"left_children":[1,3,5,7,9,11,13,15,17,19,21,23,25,27,29,31,33,35,37,39,41,43,45,47,49,51,53,55,57,59,61,-1,-1,-1,-1,-1,-1,-1,-1,-1,-1,-1,-1,-1,-1,-1,-1,-1,-1,-1,-1,-1,-1,-1,-1,-1,-1,-1,-1,-1,-1,-1,-1],"loss_changes":[2.1229008E4,3.8688926E3,9.355573E3,3.180703E2,4.3562643E2,2.022388E3,3.8898535E2,1.9914453E2,9.201642E1,2.1714832E2,8.645889E1,9.699663E2,6.977363E2,2.5033887E2,7.641668E1,2.1691016E2,2.1586914E1,4.7132477E1,4.560382E1,1.231118E2,6.536926E1,6.254487E1,3.0185822E1,7.627038E2,6.4002686E1,4.2540857E2,2.050384E2,1.9440234E2,8.373218E1,4.7595955E1,5.1645767E1,0E0,0E0,0E0,0E0,0E0,0E0,0E0,0E0,0E0,0E0,0E0,0E0,0E0,0E0,0E0,0E0,0E0,0E0,0E0,0E0,0E0,0E0,0E0,0E0,0E0,0E0,0E0,0E0,0E0,0E0,0E0,0E0],"parents":[2147483647,0,0,1,1,2,2,3,3,4,4,5,5,6,6,7,7,8,8,9,9,10,10,11,11,12,12,13,13,14,14,15,15,16,16,17,17,18,18,19,19,20,20,21,21,22,22,23,23,24,24,25,25,26,26,27,27,28,28,29,29,30,30],"right_children":[2,4,6,8,10,12,14,16,18,20,22,24,26,28,30,32,34,36,38,40,42,44,46,48,50,52,54,56,58,60,62,-1,-1,-1,-1,-1,-1,-1,-1,-1,-1,-1,-1,-1,-1,-1,-1,-1,-1,-1,-1,-1,-1,-1,-1,-1,-1,-1,-1,-1,-1,-1,-1],"split_conditions":[1.6923077E0,1E0,1E0,1.1666666E0,9.0375E0,4E0,1.875E0,1E0,2.7E1,9E0,3E0,2E0,2E0,3.04965E-3,1E0,8E-1,2.75E0,8.05E0,1E0,4.1666668E-2,1.6751821E0,4.703685E-3,3.966179E-2,2.4E1,6.686468E-1,1.57E2,1.5E0,1E0,3.9919288E0,2.7893076E-3,1.575042E-2,-5.541238E-2,-2.8866602E-2,-5.238331E-2,-6.350132E-2,-2.0313693E-2,-4.9135856E-2,-3.4465525E-2,-5.9207965E-2,-1.1984159E-2,1.6597563E-2,2.7445856E-2,-7.176108E-2,3.9971913E-3,-2.6682919E-2,-5.7462603E-2,-2.1049598E-2,-1.7999792E-3,-2.369836E-2,-3.2760415E-2,-6.334022E-2,1.7393047E-3,2.5409028E-2,-6.882964E-3,-5.4230865E-2,-1.693616E-2,4.330681E-2,3.1297013E-2,-7.550569E-3,3.4444977E-2,-6.863709E-3,1.0274675E-3,-3.7064996E-2],"split_indices":[4,72,72,4,1,103,16,69,44,1,51,16,75,337,35,20,22,22,69,14,31,227,156,29,12,150,35,58,12,161,424,0,0,0,0,0,0,0,0,0,0,0,0,0,0,0,0,0,0,0,0,0,0,0,0,0,0,0,0,0,0,0,0],"split_type":[0,0,0,0,0,0,0,0,0,0,0,0,0,0,0,0,0,0,0,0,0,0,0,0,0,0,0,0,0,0,0,0,0,0,0,0,0,0,0,0,0,0,0,0,0,0,0,0,0,0,0,0,0,0,0,0,0,0,0,0,0,0,0],"sum_hessian":[7.350404E4,1.9656883E4,5.3847152E4,1.5670513E4,3.9863696E3,2.9600883E4,2.424627E4,1.3922132E4,1.7483818E3,2.8425093E3,1.1438605E3,1.7867346E4,1.1733538E4,2.349231E4,7.5396075E2,5.039971E3,8.88216E3,9.7541296E2,7.729688E2,1.6506683E3,1.1918408E3,8.253696E2,3.1849084E2,1.6713277E4,1.1540676E3,9.627931E3,2.105607E3,1.8571322E4,4.9209873E3,3.2742447E2,4.265363E2,4.087537E3,9.5243427E2,4.953191E2,8.386841E3,8.0303754E2,1.7237547E2,3.332515E2,4.3971735E2,1.0706177E3,5.800507E2,1.1759276E3,1.5913211E1,2.2991504E2,5.954546E2,2.4209111E2,7.639973E1,1.019581E4,6.5174683E3,2.1344559E2,9.406221E2,2.6009592E3,7.0269717E3,1.8455465E3,2.6006036E2,1.3440875E2,1.8436914E4,4.778493E3,1.4249423E2,2.2748549E2,9.9938995E1,3.0129398E2,1.2524232E2],"tree_param":{"num_deleted":"0","num_feature":"428","num_nodes":"63","size_leaf_vector":"1"}},{"base_weights":[-1.4305589E-3,-8.879424E-1,3.0277568E-1,-1.1000727E0,-4.4189945E-2,-6.393438E-2,7.5512826E-1,-4.0845528E-1,-1.1643108E0,5.303419E-1,-2.6831785E-1,-4.534455E-1,1.4611346E-1,7.7774924E-1,2.9590506E-2,-1.7276847E-1,-7.312802E-1,-7.5060916E-1,-1.195196E0,5.870213E-1,-2.6120836E-1,-1.5564431E-1,-8.960459E-1,5.3952163E-1,-5.642297E-1,-9.089239E-2,3.755931E-1,8.3192414E-1,5.7282865E-1,4.5535657E-1,-2.9912728E-1,-2.4139457E-3,-3.920942E-2,-4.1840892E-2,-6.951034E-3,-2.5432456E-2,-5.2340437E-2,-6.1143406E-2,-4.4173043E-2,3.3128597E-2,2.6792802E-3,1.1448237E-2,-5.2323904E-2,-1.9762616E-3,-3.237371E-2,-4.887728E-2,2.5416205E-2,-4.049522E-2,3.1123037E-2,-4.403114E-2,-5.3294986E-3,-2.1841813E-2,6.4040846E-3,2.1611454E-2,-2.5955474E-2,-3.2583367E-2,4.2009536E-2,2.9608315E-2,-3.6375377E-2,2.5723299E-2,-7.633293E-2,8.06967E-4,-4.6324536E-2],"categories":[],"categories_nodes":[],"categories_segments":[],"categories_sizes":[],"default_left":[0,0,0,0,0,0,0,0,0,0,0,0,0,0,0,0,0,0,0,0,0,0,0,0,0,0,0,0,0,0,0,0,0,0,0,0,0,0,0,0,0,0,0,0,0,0,0,0,0,0,0,0,0,0,0,0,0,0,0,0,0,0,0],"id":15,"left_children":[1,3,5,7,9,11,13,15,17,19,21,23,25,27,29,31,33,35,37,39,41,43,45,47,49,51,53,55,57,59,61,-1,-1,-1,-1,-1,-1,-1,-1,-1,-1,-1,-1,-1,-1,-1,-1,-1,-1,-1,-1,-1,-1,-1,-1,-1,-1,-1,-1,-1,-1,-1,-1],"loss_changes":[1.9606953E4,3.3245137E3,8.979153E3,6.5896094E2,4.807991E2,2.4459993E3,3.9772656E2,9.596858E1,1.726289E2,4.716461E1,1.8982758E2,1.1524727E3,1.0564004E3,2.6043262E2,1.0283534E2,5.562732E1,3.3177826E1,6.727582E1,1.0791797E2,3.9384796E1,2.7457209E1,1.3009268E2,4.725467E1,1.1821838E2,1.3642996E3,7.2391223E2,5.002727E2,2.2848828E2,1.2407898E2,3.8286835E1,8.203562E1,0E0,0E0,0E0,0E0,0E0,0E0,0E0,0E0,0E0,0E0,0E0,0E0,0E0,0E0,0E0,0E0,0E0,0E0,0E0,0E0,0E0,0E0,0E0,0E0,0E0,0E0,0E0,0E0,0E0,0E0,0E0,0E0],"parents":[2147483647,0,0,1,1,2,2,3,3,4,4,5,5,6,6,7,7,8,8,9,9,10,10,11,11,12,12,13,13,14,14,15,15,16,16,17,17,18,18,19,19,20,20,21,21,22,22,23,23,24,24,25,25,26,26,27,27,28,28,29,29,30,30],"right_children":[2,4,6,8,10,12,14,16,18,20,22,24,26,28,30,32,34,36,38,40,42,44,46,48,50,52,54,56,58,60,62,-1,-1,-1,-1,-1,-1,-1,-1,-1,-1,-1,-1,-1,-1,-1,-1,-1,-1,-1,-1,-1,-1,-1,-1,-1,-1,-1,-1,-1,-1,-1,-1],"split_conditions":[1.6E0,1E0,1E0,1E0,1E0,4E0,1E0,3.75E2,1E0,2.8666666E0,1.2205414E1,1E0,4E0,3.04965E-3,1E0,5.3E0,4E0,8.05E0,1.5E0,3E2,3.15E1,9.95E0,5.9334334E-2,9.752E1,2E0,1E0,7.571706E0,1E0,1.9356913E1,8.52E2,8.333333E-1,-2.4139457E-3,-3.920942E-2,-4.1840892E-2,-6.951034E-3,-2.5432456E-2,-5.2340437E-2,-6.1143406E-2,-4.4173043E-2,3.3128597E-2,2.6792802E-3,1.1448237E-2,-5.2323904E-2,-1.9762616E-3,-3.237371E-2,-4.887728E-2,2.5416205E-2,-4.049522E-2,3.1123037E-2,-4.403114E-2,-5.3294986E-3,-2.1841813E-2,6.4040846E-3,2.1611454E-2,-2.5955474E-2,-3.2583367E-2,4.2009536E-2,2.9608315E-2,-3.6375377E-2,2.5723299E-2,-7.633293E-2,8.06967E-4,-4.6324536E-2],"split_indices":[4,72,72,54,54,102,35,45,102,17,46,102,103,337,66,119,103,22,40,11,93,22,406,85,79,79,46,53,46,139,17,0,0,0,0,0,0,0,0,0,0,0,0,0,0,0,0,0,0,0,0,0,0,0,0,0,0,0,0,0,0,0,0],"split_type":[0,0,0,0,0,0,0,0,0,0,0,0,0,0,0,0,0,0,0,0,0,0,0,0,0,0,0,0,0,0,0,0,0,0,0,0,0,0,0,0,0,0,0,0,0,0,0,0,0,0,0,0,0,0,0,0,0,0,0,0,0,0,0],"sum_hessian":[7.270186E4,1.8573479E4,5.4128383E4,1.4841762E4,3.7317168E3,2.9894543E4,2.423384E4,1.2619846E3,1.3579776E4,1.0468484E3,2.6848684E3,1.0472767E4,1.9421777E4,2.3501049E4,7.3279126E2,7.303261E2,5.3165857E2,9.4513873E2,1.2634638E4,9.7713824E2,6.971012E1,2.2773462E3,4.0752243E2,1.05077E3,9.421996E3,9.554512E3,9.867266E3,1.8584738E4,4.916311E3,3.190988E2,4.1369247E2,6.076775E2,1.226486E2,4.5089792E2,8.076068E1,5.216938E2,4.2344495E2,1.1601845E4,1.0327936E3,8.557028E2,1.2143541E2,4.335557E1,2.6354548E1,1.8432439E3,4.3410214E2,3.8545715E2,2.2065289E1,6.033583E1,9.9043414E2,5.5701226E3,3.8518735E3,3.703144E3,5.8513677E3,9.280324E3,5.869412E2,1.02549515E2,1.848219E4,4.844807E3,7.150401E1,3.1057693E2,8.521872E0,2.7597968E2,1.3771278E2],"tree_param":{"num_deleted":"0","num_feature":"428","num_nodes":"63","size_leaf_vector":"1"}},{"base_weights":[-3.6339005E-3,-8.6431974E-1,2.8817457E-1,-1.0778114E0,-4.7543615E-2,-4.9238943E-2,7.22152E-1,-4.184374E-1,-1.1398501E0,4.9118146E-1,-2.5549316E-1,-4.1953123E-1,1.4959311E-1,7.465826E-1,5.1008273E-2,-2.4053879E-1,-7.5334686E-1,-7.2246134E-1,-1.1713699E0,1.768258E-1,6.6471267E-1,-1.64331E-1,-1.0052847E0,5.347629E-1,-5.262858E-1,2.135717E-1,-8.328837E-1,7.9114836E-1,5.049902E-1,4.4706932E-1,-2.2561346E-1,-3.5849563E-4,-2.6424024E-2,-4.4418298E-2,-2.550025E-3,-5.772222E-3,-4.898722E-2,-5.9783977E-2,-4.4616524E-2,-3.1086192E-2,1.5000631E-2,4.0787186E-2,8.897066E-3,-1.5862465E-2,1.1712218E-2,-5.2539106E-2,7.667991E-2,3.375037E-2,-4.8949653E-3,-4.2089995E-2,-4.2324783E-3,1.4439577E-4,2.0810468E-2,-2.0228337E-2,-5.364543E-2,4.389112E-2,3.4438554E-2,3.1220963E-2,1.5633866E-2,4.0270697E-2,-6.5662357E-4,-6.469132E-2,-5.183499E-3],"categories":[],"categories_nodes":[],"categories_segments":[],"categories_sizes":[],"default_left":[0,0,0,0,0,0,0,0,0,0,0,0,0,0,0,0,0,0,0,0,0,0,0,0,0,0,0,0,0,0,0,0,0,0,0,0,0,0,0,0,0,0,0,0,0,0,0,0,0,0,0,0,0,0,0,0,0,0,0,0,0,0,0],"id":16,"left_children":[1,3,5,7,9,11,13,15,17,19,21,23,25,27,29,31,33,35,37,39,41,43,45,47,49,51,53,55,57,59,61,-1,-1,-1,-1,-1,-1,-1,-1,-1,-1,-1,-1,-1,-1,-1,-1,-1,-1,-1,-1,-1,-1,-1,-1,-1,-1,-1,-1,-1,-1,-1,-1],"loss_changes":[1.8035082E4,3.1703838E3,7.852593E3,5.8915625E2,4.223186E2,2.2214214E3,3.8457227E2,7.376546E1,1.724707E2,5.7155884E1,1.8573592E2,1.0741385E3,1.2341301E3,2.4328418E2,9.048161E1,5.456259E1,4.074051E1,1.4475607E2,8.201367E1,3.7055435E1,4.9561493E1,1.47944E2,3.5645264E1,9.420944E1,1.3210149E3,7.8688696E2,1.22976074E2,1.6893555E2,8.082532E1,5.600978E1,6.3222145E1,0E0,0E0,0E0,0E0,0E0,0E0,0E0,0E0,0E0,0E0,0E0,0E0,0E0,0E0,0E0,0E0,0E0,0E0,0E0,0E0,0E0,0E0,0E0,0E0,0E0,0E0,0E0,0E0,0E0,0E0,0E0,0E0],"parents":[2147483647,0,0,1,1,2,2,3,3,4,4,5,5,6,6,7,7,8,8,9,9,10,10,11,11,12,12,13,13,14,14,15,15,16,16,17,17,18,18,19,19,20,20,21,21,22,22,23,23,24,24,25,25,26,26,27,27,28,28,29,29,30,30],"right_children":[2,4,6,8,10,12,14,16,18,20,22,24,26,28,30,32,34,36,38,40,42,44,46,48,50,52,54,56,58,60,62,-1,-1,-1,-1,-1,-1,-1,-1,-1,-1,-1,-1,-1,-1,-1,-1,-1,-1,-1,-1,-1,-1,-1,-1,-1,-1,-1,-1,-1,-1,-1,-1],"split_conditions":[1.5714285E0,7.350059E-2,7.350059E-2,1E0,1E0,4E0,1.7391304E0,4.1E2,1E0,3E0,3.0177092E1,1E0,1.6521739E0,8.5714287E-1,1.1333333E0,1.68E2,4E0,1.7395834E1,1.5E0,4.9545456E1,3.4367315E-2,4.1666668E-2,1.1144071E-1,1.19E2,2E0,4E0,2.464641E0,3.822948E-3,4.830686E-3,7.2238105E-3,5E0,-3.5849563E-4,-2.6424024E-2,-4.4418298E-2,-2.550025E-3,-5.772222E-3,-4.898722E-2,-5.9783977E-2,-4.4616524E-2,-3.1086192E-2,1.5000631E-2,4.0787186E-2,8.897066E-3,-1.5862465E-2,1.1712218E-2,-5.2539106E-2,7.667991E-2,3.375037E-2,-4.8949653E-3,-4.2089995E-2,-4.2324783E-3,1.4439577E-4,2.0810468E-2,-2.0228337E-2,-5.364543E-2,4.389112E-2,3.4438554E-2,3.1220963E-2,1.5633866E-2,4.0270697E-2,-6.5662357E-4,-6.469132E-2,-5.183499E-3],"split_indices":[4,381,381,54,54,102,16,45,102,101,46,102,16,20,6,99,103,94,40,11,160,14,335,98,79,103,46,336,398,195,30,0,0,0,0,0,0,0,0,0,0,0,0,0,0,0,0,0,0,0,0,0,0,0,0,0,0,0,0,0,0,0,0],"split_type":[0,0,0,0,0,0,0,0,0,0,0,0,0,0,0,0,0,0,0,0,0,0,0,0,0,0,0,0,0,0,0,0,0,0,0,0,0,0,0,0,0,0,0,0,0,0,0,0,0,0,0,0,0,0,0,0,0,0,0,0,0,0,0],"sum_hessian":[7.180646E4,1.8180707E4,5.3625754E4,1.4413055E4,3.7676516E3,3.0169855E4,2.34559E4,1.2401339E3,1.3172921E4,1.0489149E3,2.7187366E3,1.0539899E4,1.9629955E4,2.2631951E4,8.239497E2,8.110403E2,4.2909357E2,9.266069E2,1.2246313E4,3.7379535E2,6.751196E2,2.4251035E3,2.9363303E2,1.0600406E3,9.479859E3,1.8430547E4,1.1994089E3,1.9105373E4,3.5265774E3,3.385726E2,4.8537714E2,4.4853766E2,3.6250262E2,3.5968323E2,6.941035E1,2.762617E2,6.5034515E2,1.1261905E4,9.844082E2,4.9415554E1,3.243798E2,5.147361E2,1.6038354E2,1.7528177E3,6.722858E2,2.890395E2,4.593529E0,8.6764075E2,1.923999E2,5.5289536E3,3.9509053E3,9.036377E3,9.394169E3,4.3171396E2,7.6769495E2,1.0342065E4,8.763308E3,2.1741514E3,1.352426E3,1.8992998E2,1.4864261E2,4.874712E1,4.3663E2],"tree_param":{"num_deleted":"0","num_feature":"428","num_nodes":"63","size_leaf_vector":"1"}},{"base_weights":[-2.1513879E-4,-8.4024906E-1,2.8002718E-1,-1.0523295E0,-3.7484445E-2,-4.3664597E-2,7.0154333E-1,-3.9081746E-1,-1.115555E0,4.701398E-1,-2.3738517E-1,-2.8535613E-1,2.617843E-1,7.201787E-1,-7.980063E-2,-5.790496E-3,-5.312019E-1,-6.7277133E-1,-1.1499014E0,-8.804784E-1,5.0330114E-1,-1.5458457E-1,-1.0259359E0,5.44475E-1,-3.4183678E-1,2.4763647E-2,4.5508328E-1,7.7828616E-1,5.4581994E-1,1.6538121E-1,-1.3027377E0,-1.35644525E-2,3.3323802E-2,6.005448E-2,-2.8213859E-2,-5.4272152E-3,-4.6130788E-2,-5.86981E-2,-4.3077514E-2,1.4134803E-3,-9.095482E-2,2.9070882E-2,2.9847757E-3,9.631208E-3,-1.5782068E-2,-1.4195415E-2,-5.887152E-2,3.2875825E-2,-7.723683E-3,-3.2331433E-2,-7.266213E-3,-1.3750486E-2,1.7199725E-2,9.717266E-3,3.0048473E-2,4.1593794E-2,2.757707E-2,2.1643393E-2,3.8079336E-2,-5.654428E-3,3.7601337E-2,-7.962872E-2,-2.6891807E-3],"categories":[],"categories_nodes":[],"categories_segments":[],"categories_sizes":[],"default_left":[0,0,0,0,0,0,0,0,0,0,0,0,0,0,0,0,0,0,0,0,0,0,0,0,0,0,0,0,0,0,0,0,0,0,0,0,0,0,0,0,0,0,0,0,0,0,0,0,0,0,0,0,0,0,0,0,0,0,0,0,0,0,0],"id":17,"left_children":[1,3,5,7,9,11,13,15,17,19,21,23,25,27,29,31,33,35,37,39,41,43,45,47,49,51,53,55,57,59,61,-1,-1,-1,-1,-1,-1,-1,-1,-1,-1,-1,-1,-1,-1,-1,-1,-1,-1,-1,-1,-1,-1,-1,-1,-1,-1,-1,-1,-1,-1,-1,-1],"loss_changes":[1.6720922E4,3.0249717E3,7.266898E3,5.8740137E2,3.7700385E2,2.2241611E3,3.3690723E2,6.635481E1,1.9431836E2,4.7458145E1,1.7387476E2,7.8848926E2,6.097323E2,2.2850195E2,1.6207304E2,5.890838E1,5.222354E1,1.3041556E2,8.157129E1,2.1818684E1,3.5491364E1,1.3501526E2,2.8118347E1,8.481583E1,9.431361E2,5.722902E2,2.7871423E2,2.0544531E2,1.3740112E2,7.368771E1,3.2588898E1,0E0,0E0,0E0,0E0,0E0,0E0,0E0,0E0,0E0,0E0,0E0,0E0,0E0,0E0,0E0,0E0,0E0,0E0,0E0,0E0,0E0,0E0,0E0,0E0,0E0,0E0,0E0,0E0,0E0,0E0,0E0,0E0],"parents":[2147483647,0,0,1,1,2,2,3,3,4,4,5,5,6,6,7,7,8,8,9,9,10,10,11,11,12,12,13,13,14,14,15,15,16,16,17,17,18,18,19,19,20,20,21,21,22,22,23,23,24,24,25,25,26,26,27,27,28,28,29,29,30,30],"right_children":[2,4,6,8,10,12,14,16,18,20,22,24,26,28,30,32,34,36,38,40,42,44,46,48,50,52,54,56,58,60,62,-1,-1,-1,-1,-1,-1,-1,-1,-1,-1,-1,-1,-1,-1,-1,-1,-1,-1,-1,-1,-1,-1,-1,-1,-1,-1,-1,-1,-1,-1,-1,-1],"split_conditions":[1.5714285E0,7.350059E-2,7.350059E-2,1E0,1E0,5E0,1.9356913E1,2.3E2,1E0,3.2E1,3.5E0,1E0,4E0,3.4609812E-3,1E0,8.1E1,1E0,1.7395834E1,1.1666666E0,3.258691E-2,9E1,1.220846E-2,4.547268E-2,4.7E0,1E0,1E-1,1.03E2,1.5E0,4E0,2.6E2,2.6339551E-2,-1.35644525E-2,3.3323802E-2,6.005448E-2,-2.8213859E-2,-5.4272152E-3,-4.6130788E-2,-5.86981E-2,-4.3077514E-2,1.4134803E-3,-9.095482E-2,2.9070882E-2,2.9847757E-3,9.631208E-3,-1.5782068E-2,-1.4195415E-2,-5.887152E-2,3.2875825E-2,-7.723683E-3,-3.2331433E-2,-7.266213E-3,-1.3750486E-2,1.7199725E-2,9.717266E-3,3.0048473E-2,4.1593794E-2,2.757707E-2,2.1643393E-2,3.8079336E-2,-5.654428E-3,3.7601337E-2,-7.962872E-2,-2.6891807E-3],"split_indices":[4,381,381,54,54,102,46,45,102,45,51,102,103,221,36,73,102,94,4,341,21,189,205,41,79,20,117,51,103,150,362,0,0,0,0,0,0,0,0,0,0,0,0,0,0,0,0,0,0,0,0,0,0,0,0,0,0,0,0,0,0,0,0],"split_type":[0,0,0,0,0,0,0,0,0,0,0,0,0,0,0,0,0,0,0,0,0,0,0,0,0,0,0,0,0,0,0,0,0,0,0,0,0,0,0,0,0,0,0,0,0,0,0,0,0,0,0,0,0,0,0,0,0,0,0,0,0,0,0],"sum_hessian":[7.1026016E4,1.776699E4,5.3259027E4,1.4053831E4,3.7131587E3,3.0125709E4,2.3133318E4,1.2266724E3,1.2827159E4,1.0487162E3,2.6644426E3,1.681814E4,1.3307568E4,2.2594508E4,5.3880963E2,3.280322E2,8.9864014E2,9.248473E2,1.1902312E4,2.4519459E1,1.0241968E3,2.412335E3,2.5210762E2,1.0711937E3,1.5746947E4,5.978249E3,7.32932E3,1.6944168E4,5.6503403E3,4.495466E2,8.926306E1,2.3558783E2,9.244437E1,1.617497E1,8.8246515E2,2.842825E2,6.4056476E2,1.09828125E4,9.1949945E2,1.2950738E1,1.1568721E1,8.7058154E2,1.536152E2,7.643472E2,1.6479877E3,4.3231514E1,2.088761E2,9.2211816E2,1.4907555E2,6.171943E3,9.575004E3,3.0831545E3,2.8950945E3,2.630406E3,4.698914E3,1.3702904E4,3.2412634E3,3.7107827E3,1.9395575E3,3.053906E2,1.4415602E2,7.2226746E1,1.7036316E1],"tree_param":{"num_deleted":"0","num_feature":"428","num_nodes":"63","size_leaf_vector":"1"}},{"base_weights":[-7.424788E-4,-8.031848E-1,2.7197933E-1,-1.0173938E0,-3.2704785E-2,-4.6209693E-2,6.783565E-1,-3.581338E-1,-1.0828096E0,4.6591306E-1,-2.2390664E-1,1.1291781E-1,-3.5188815E-1,6.996028E-1,1.5037646E-2,-4.6645886E-1,2.0873223E-1,-1.1197281E0,-6.190973E-1,5.2868825E-1,-2.877422E-1,-1.19779594E-1,-8.043422E-1,-5.468643E-2,3.60368E-1,-2.7577993E-1,-1.135736E0,7.689397E-1,5.500527E-1,1.556682E-1,-7.6322705E-1,-1.3278152E-2,-3.858622E-2,3.7963923E-2,-1.0728758E-2,-5.7680734E-2,-4.0603872E-2,-1.4050567E-3,-4.474459E-2,3.1395223E-2,6.495099E-3,-3.2762688E-2,3.989677E-2,-1.1059765E-2,2.126669E-2,-4.283857E-2,5.9790242E-2,5.7964413E-3,-1.2847911E-2,2.0507043E-2,-2.612646E-2,-3.6057323E-2,-7.279753E-3,-6.410187E-2,-3.7547205E-2,3.917227E-2,-3.35341E-3,-4.3783884E-2,2.8225163E-2,-3.872214E-2,1.3596936E-2,-4.617474E-2,5.204025E-2],"categories":[],"categories_nodes":[],"categories_segments":[],"categories_sizes":[],"default_left":[0,0,0,0,0,0,0,0,0,0,0,0,0,0,0,0,0,0,0,0,0,0,0,0,0,0,0,0,0,0,0,0,0,0,0,0,0,0,0,0,0,0,0,0,0,0,0,0,0,0,0,0,0,0,0,0,0,0,0,0,0,0,0],"id":18,"left_children":[1,3,5,7,9,11,13,15,17,19,21,23,25,27,29,31,33,35,37,39,41,43,45,47,49,51,53,55,57,59,61,-1,-1,-1,-1,-1,-1,-1,-1,-1,-1,-1,-1,-1,-1,-1,-1,-1,-1,-1,-1,-1,-1,-1,-1,-1,-1,-1,-1,-1,-1,-1,-1],"loss_changes":[1.5355697E4,2.9374814E3,6.7716035E3,6.0020605E2,3.6933295E2,1.4287698E3,3.2409668E2,7.738432E1,2.1619336E2,5.0954483E1,1.6913863E2,8.011867E2,5.995984E2,2.3064551E2,7.8349815E1,6.4617615E1,4.7383583E1,1.2138574E2,1.5261688E2,3.9151672E1,3.3724274E1,1.3141087E2,4.5670197E1,3.9751303E2,3.4301398E2,5.3141595E2,4.9121094E1,1.8465234E2,1.459978E2,6.57697E1,3.2638462E1,0E0,0E0,0E0,0E0,0E0,0E0,0E0,0E0,0E0,0E0,0E0,0E0,0E0,0E0,0E0,0E0,0E0,0E0,0E0,0E0,0E0,0E0,0E0,0E0,0E0,0E0,0E0,0E0,0E0,0E0,0E0,0E0],"parents":[2147483647,0,0,1,1,2,2,3,3,4,4,5,5,6,6,7,7,8,8,9,9,10,10,11,11,12,12,13,13,14,14,15,15,16,16,17,17,18,18,19,19,20,20,21,21,22,22,23,23,24,24,25,25,26,26,27,27,28,28,29,29,30,30],"right_children":[2,4,6,8,10,12,14,16,18,20,22,24,26,28,30,32,34,36,38,40,42,44,46,48,50,52,54,56,58,60,62,-1,-1,-1,-1,-1,-1,-1,-1,-1,-1,-1,-1,-1,-1,-1,-1,-1,-1,-1,-1,-1,-1,-1,-1,-1,-1,-1,-1,-1,-1,-1,-1],"split_conditions":[1.6666666E0,1E0,1E0,1E0,1E0,2.9E1,5E-1,4E0,1E0,2.1666667E0,1.107455E1,4E0,7.571706E0,2.7321533E-3,3.3125E0,3.9E2,2.06875E1,1.5E0,1.7461538E1,3.315631E-2,1.5645275E-2,1E0,9.119005E-2,2.01E2,9.0375E0,3E0,1.04E2,1.1675E2,1E0,1.1E2,6.1477043E-2,-1.3278152E-2,-3.858622E-2,3.7963923E-2,-1.0728758E-2,-5.7680734E-2,-4.0603872E-2,-1.4050567E-3,-4.474459E-2,3.1395223E-2,6.495099E-3,-3.2762688E-2,3.989677E-2,-1.1059765E-2,2.126669E-2,-4.283857E-2,5.9790242E-2,5.7964413E-3,-1.2847911E-2,2.0507043E-2,-2.612646E-2,-3.6057323E-2,-7.279753E-3,-6.410187E-2,-3.7547205E-2,3.917227E-2,-3.35341E-3,-4.3783884E-2,2.8225163E-2,-3.872214E-2,1.3596936E-2,-4.617474E-2,5.204025E-2],"split_indices":[4,72,72,54,54,44,35,103,104,17,46,103,46,416,16,45,2,40,94,160,304,104,301,8,1,103,116,0,53,45,245,0,0,0,0,0,0,0,0,0,0,0,0,0,0,0,0,0,0,0,0,0,0,0,0,0,0,0,0,0,0,0,0],"split_type":[0,0,0,0,0,0,0,0,0,0,0,0,0,0,0,0,0,0,0,0,0,0,0,0,0,0,0,0,0,0,0,0,0,0,0,0,0,0,0,0,0,0,0,0,0,0,0,0,0,0,0,0,0,0,0,0,0,0,0,0,0,0,0],"sum_hessian":[7.0165484E4,1.7797402E4,5.2368086E4,1.3925509E4,3.8718928E3,2.9371443E4,2.299664E4,1.2576261E3,1.2667883E4,1.0727997E3,2.799093E3,1.931647E4,1.0054974E4,2.2282861E4,7.1377924E2,1.0560061E3,2.0162003E2,1.1732391E4,9.354916E2,9.905879E2,8.221178E1,2.374353E3,4.2473993E2,1.1516699E4,7.7997705E3,9.166316E3,8.886574E2,1.5221482E4,7.0613794E3,6.052178E2,1.0856142E2,6.380042E2,4.1800186E2,8.7293686E1,1.1432634E2,1.0565853E4,1.1665387E3,2.9800424E2,6.374873E2,7.927746E2,1.9781331E2,6.171661E1,2.0495167E1,2.0024089E3,3.7194424E2,4.1444778E2,1.0292132E1,6.2474404E3,5.269259E3,7.384035E3,4.157356E2,2.0723167E3,7.094E3,6.4216766E2,2.4648978E2,1.4961939E4,2.59543E2,7.0254814E1,6.9911245E3,6.6620834E1,5.38597E2,1.0015213E2,8.409284E0],"tree_param":{"num_deleted":"0","num_feature":"428","num_nodes":"63","size_leaf_vector":"1"}},{"base_weights":[-1.77043E-3,-7.472037E-1,2.7048534E-1,-9.6643776E-1,1.2109226E-3,-3.3107627E-2,6.584777E-1,-3.534202E-1,-1.0358078E0,1.6187696E-1,-5.135663E-1,-3.721384E-1,1.3682604E-1,6.817446E-1,2.6170556E-2,-5.120345E-1,-3.0412454E-2,-1.1018137E0,-6.2525827E-1,2.6719123E-1,-2.9762813E-1,5.0638307E-2,-7.103708E-1,4.9559587E-1,-4.7082803E-1,1.9510064E-1,-7.2113055E-1,7.343806E-1,4.8733428E-1,-5.59935E-1,1.7775021E-1,-3.166136E-2,-8.1203034E-4,6.6308468E-3,-3.4315627E-2,-3.620157E-2,-5.660024E-2,-1.9639825E-2,-4.8697975E-2,-5.719294E-4,1.9812707E-2,-3.2565638E-3,-4.3427717E-2,1.6591633E-2,-4.193736E-2,-1.5741898E-2,-4.585075E-2,3.179623E-2,-6.6463873E-3,-3.8336203E-2,-2.544847E-3,1.4202825E-2,-9.871281E-3,-8.79574E-3,-4.8110355E-2,-3.1675555E-2,3.7184417E-2,2.5993634E-2,-8.118E-3,9.407396E-4,-5.0150212E-2,2.7374273E-2,-5.807246E-3],"categories":[],"categories_nodes":[],"categories_segments":[],"categories_sizes":[],"default_left":[0,0,0,0,0,0,0,0,0,0,0,0,0,0,0,0,0,0,0,0,0,0,0,0,0,0,0,0,0,0,0,0,0,0,0,0,0,0,0,0,0,0,0,0,0,0,0,0,0,0,0,0,0,0,0,0,0,0,0,0,0,0,0],"id":19,"left_children":[1,3,5,7,9,11,13,15,17,19,21,23,25,27,29,31,33,35,37,39,41,43,45,47,49,51,53,55,57,59,61,-1,-1,-1,-1,-1,-1,-1,-1,-1,-1,-1,-1,-1,-1,-1,-1,-1,-1,-1,-1,-1,-1,-1,-1,-1,-1,-1,-1,-1,-1,-1,-1],"loss_changes":[1.4070515E4,3.0432422E3,5.9818335E3,6.096719E2,3.477177E2,1.6415033E3,3.2794922E2,7.4777084E1,3.4851758E2,1.5513626E2,1.11078766E2,8.148856E2,9.490459E2,2.1966797E2,7.048247E1,5.8814484E1,5.1614216E1,1.2578613E2,1.4448486E2,9.3763E1,7.9308914E1,6.519037E1,6.031656E1,8.580876E1,1.061354E3,6.2064044E2,1.5852179E2,2.1587598E2,9.699292E1,4.1823586E1,6.8543304E1,0E0,0E0,0E0,0E0,0E0,0E0,0E0,0E0,0E0,0E0,0E0,0E0,0E0,0E0,0E0,0E0,0E0,0E0,0E0,0E0,0E0,0E0,0E0,0E0,0E0,0E0,0E0,0E0,0E0,0E0,0E0,0E0],"parents":[2147483647,0,0,1,1,2,2,3,3,4,4,5,5,6,6,7,7,8,8,9,9,10,10,11,11,12,12,13,13,14,14,15,15,16,16,17,17,18,18,19,19,20,20,21,21,22,22,23,23,24,24,25,25,26,26,27,27,28,28,29,29,30,30],"right_children":[2,4,6,8,10,12,14,16,18,20,22,24,26,28,30,32,34,36,38,40,42,44,46,48,50,52,54,56,58,60,62,-1,-1,-1,-1,-1,-1,-1,-1,-1,-1,-1,-1,-1,-1,-1,-1,-1,-1,-1,-1,-1,-1,-1,-1,-1,-1,-1,-1,-1,-1,-1,-1],"split_conditions":[2E0,1E0,1E0,1E0,1E0,4E0,1.7391304E0,3E0,1.1666666E0,9.2E0,1.9035305E-1,1E0,1.5833334E0,6.666667E-1,1.8E1,8.1E1,8.7E1,1E0,2.9E1,4E0,1.524877E-2,3E0,1.7708334E1,1.19E2,2E0,2.2520834E1,7.830374E-1,1E0,1.111875E2,2.2757561E0,1.1333333E0,-3.166136E-2,-8.1203034E-4,6.6308468E-3,-3.4315627E-2,-3.620157E-2,-5.660024E-2,-1.9639825E-2,-4.8697975E-2,-5.719294E-4,1.9812707E-2,-3.2565638E-3,-4.3427717E-2,1.6591633E-2,-4.193736E-2,-1.5741898E-2,-4.585075E-2,3.179623E-2,-6.6463873E-3,-3.8336203E-2,-2.544847E-3,1.4202825E-2,-9.871281E-3,-8.79574E-3,-4.8110355E-2,-3.1675555E-2,3.7184417E-2,2.5993634E-2,-8.118E-3,9.407396E-4,-5.0150212E-2,2.7374273E-2,-5.807246E-3],"split_indices":[4,72,72,54,66,102,16,103,4,1,321,102,16,20,112,73,21,102,44,101,181,51,2,98,79,2,12,53,0,46,6,0,0,0,0,0,0,0,0,0,0,0,0,0,0,0,0,0,0,0,0,0,0,0,0,0,0,0,0,0,0,0,0],"split_type":[0,0,0,0,0,0,0,0,0,0,0,0,0,0,0,0,0,0,0,0,0,0,0,0,0,0,0,0,0,0,0,0,0,0,0,0,0,0,0,0,0,0,0,0,0,0,0,0,0,0,0,0,0,0,0,0,0,0,0,0,0,0,0],"sum_hessian":[6.932847E4,1.8546531E4,5.078194E4,1.4344336E4,4.2021953E3,2.8490137E4,2.2291805E4,1.4588357E3,1.28855E4,3.2031519E3,9.990434E2,9.511924E3,1.8978213E4,2.1500576E4,7.9122876E2,9.779997E2,4.80836E2,1.1099331E4,1.7861696E3,2.6062437E3,5.9690814E2,2.5855453E2,7.4048883E2,9.7093134E2,8.540992E3,1.7771873E4,1.2063386E3,1.6917445E4,4.583131E3,1.6202824E2,6.292005E2,7.856716E2,1.9232814E2,3.8575195E2,9.508404E1,8.232272E2,1.0276104E4,1.072988E3,7.131816E2,8.2534454E2,1.7808992E3,4.2496484E2,1.719433E2,1.9692139E2,6.1633156E1,2.549735E2,4.8551535E2,7.9371014E2,1.7722118E2,5.009983E3,3.5310098E3,1.448867E4,3.2832034E3,3.7039267E2,8.359459E2,1.13882225E2,1.6803562E4,4.3647334E3,2.1839738E2,7.067199E1,9.1356255E1,2.782654E2,3.5093512E2],"tree_param":{"num_deleted":"0","num_feature":"428","num_nodes":"63","size_leaf_vector":"1"}},{"base_weights":[-9.3858724E-4,-8.1024456E-1,2.4042134E-1,-1.0132804E0,-7.1677715E-2,-4.2447325E-2,6.2543845E-1,-3.8215533E-1,-1.0756762E0,4.0572938E-1,-2.5104183E-1,-2.513142E-1,2.2696002E-1,6.4801973E-1,-4.003277E-3,-3.057837E-1,-1.0292473E0,-6.9149673E-1,-1.106116E0,4.6881297E-1,-3.945423E-1,-1.5221976E-1,-8.2059E-1,-1.855878E-1,-1.0143815E0,7.2688097E-3,4.081573E-1,7.0755756E-1,4.7044733E-1,3.1068328E-1,-3.2156554E-1,-1.75409E-2,4.4248547E-2,2.6864156E-2,-5.8528613E-2,1.3435361E-2,-4.3057162E-2,3.0162191E-2,-5.5462457E-2,2.7568681E-2,1.9330675E-4,3.9783783E-2,-3.543266E-2,9.183322E-3,-1.462002E-2,-4.3969084E-2,5.0409317E-2,-6.148649E-3,-4.132375E-2,-6.122629E-3,-5.3911466E-2,-1.3770093E-2,1.4456873E-2,2.564981E-2,1.9608324E-3,4.044604E-2,2.9229179E-2,1.8703764E-2,3.3115733E-2,2.2741485E-2,-2.4324877E-2,-4.4051655E-2,-4.951959E-3],"categories":[],"categories_nodes":[],"categories_segments":[],"categories_sizes":[],"default_left":[0,0,0,0,0,0,0,0,0,0,0,0,0,0,0,0,0,0,0,0,0,0,0,0,0,0,0,0,0,0,0,0,0,0,0,0,0,0,0,0,0,0,0,0,0,0,0,0,0,0,0,0,0,0,0,0,0,0,0,0,0,0,0],"id":20,"left_children":[1,3,5,7,9,11,13,15,17,19,21,23,25,27,29,31,33,35,37,39,41,43,45,47,49,51,53,55,57,59,61,-1,-1,-1,-1,-1,-1,-1,-1,-1,-1,-1,-1,-1,-1,-1,-1,-1,-1,-1,-1,-1,-1,-1,-1,-1,-1,-1,-1,-1,-1,-1,-1],"loss_changes":[1.339792E4,2.3627021E3,5.7540615E3,4.8627637E2,2.9112457E2,1.7139268E3,3.1805176E2,5.4712677E1,1.3075488E2,4.7061646E1,1.3895683E2,8.60302E2,5.295054E2,2.2804492E2,7.764248E1,5.3793526E1,2.6558167E1,1.35164E2,5.6467773E1,3.3054382E1,2.6132114E1,9.925846E1,4.014456E1,6.338441E2,7.733948E1,4.791923E2,2.8193213E2,2.0115381E2,1.0010242E2,4.506495E1,4.80556E1,0E0,0E0,0E0,0E0,0E0,0E0,0E0,0E0,0E0,0E0,0E0,0E0,0E0,0E0,0E0,0E0,0E0,0E0,0E0,0E0,0E0,0E0,0E0,0E0,0E0,0E0,0E0,0E0,0E0,0E0,0E0,0E0],"parents":[2147483647,0,0,1,1,2,2,3,3,4,4,5,5,6,6,7,7,8,8,9,9,10,10,11,11,12,12,13,13,14,14,15,15,16,16,17,17,18,18,19,19,20,20,21,21,22,22,23,23,24,24,25,25,26,26,27,27,28,28,29,29,30,30],"right_children":[2,4,6,8,10,12,14,16,18,20,22,24,26,28,30,32,34,36,38,40,42,44,46,48,50,52,54,56,58,60,62,-1,-1,-1,-1,-1,-1,-1,-1,-1,-1,-1,-1,-1,-1,-1,-1,-1,-1,-1,-1,-1,-1,-1,-1,-1,-1,-1,-1,-1,-1,-1,-1],"split_conditions":[1.5E0,7.350059E-2,7.350059E-2,1E0,1E0,5E0,1.875E0,1.2E0,1E0,2.1666667E0,2.4545455E0,1.6521739E0,4E0,3.4609812E-3,1.3162404E0,1.15E2,2.9E0,1.575E1,3.7E0,2.0219985E-2,1.85E2,1.716E1,8.283948E-2,9.0375E0,1E0,5E-1,2.1711538E1,2.4E1,4E0,4.7E1,1.9E1,-1.75409E-2,4.4248547E-2,2.6864156E-2,-5.8528613E-2,1.3435361E-2,-4.3057162E-2,3.0162191E-2,-5.5462457E-2,2.7568681E-2,1.9330675E-4,3.9783783E-2,-3.543266E-2,9.183322E-3,-1.462002E-2,-4.3969084E-2,5.0409317E-2,-6.148649E-3,-4.132375E-2,-6.122629E-3,-5.3911466E-2,-1.3770093E-2,1.4456873E-2,2.564981E-2,1.9608324E-3,4.044604E-2,2.9229179E-2,1.8703764E-2,3.3115733E-2,2.2741485E-2,-2.4324877E-2,-4.4051655E-2,-4.951959E-3],"split_indices":[4,381,381,54,54,102,16,144,102,17,16,16,103,221,12,116,118,94,39,280,147,94,390,1,102,52,94,44,103,29,112,0,0,0,0,0,0,0,0,0,0,0,0,0,0,0,0,0,0,0,0,0,0,0,0,0,0,0,0,0,0,0,0],"split_type":[0,0,0,0,0,0,0,0,0,0,0,0,0,0,0,0,0,0,0,0,0,0,0,0,0,0,0,0,0,0,0,0,0,0,0,0,0,0,0,0,0,0,0,0,0,0,0,0,0,0,0,0,0,0,0,0,0,0,0,0,0,0,0],"sum_hessian":[6.858779E4,1.5755508E4,5.283228E4,1.235789E4,3.397619E3,3.0456818E4,2.2375463E4,1.1124762E3,1.1245413E4,9.275445E2,2.4700742E3,1.7156076E4,1.3300742E4,2.1600514E4,7.74949E2,9.96356E2,1.1612021E2,8.2734015E2,1.0418073E4,8.6015466E2,6.7389854E1,2.1059407E3,3.641336E2,1.5796681E4,1.3593954E3,6.012262E3,7.2884805E3,1.61744375E4,5.426077E3,3.8924774E2,3.8570123E2,9.6072675E2,3.562929E1,9.377099E0,1.0674311E2,1.2413704E2,7.032031E2,1.8709686E1,1.0399363E4,7.30291E2,1.2986366E2,1.3751196E1,5.3638657E1,6.20015E2,1.4859257E3,3.5329498E2,1.0838611E1,1.4391792E4,1.4048893E3,9.100519E1,1.2683901E3,3.0018718E3,3.0103904E3,5.675366E3,1.6131139E3,8.863218E3,7.31122E3,3.613846E3,1.8122311E3,3.3000552E2,5.924222E1,1.0891413E2,2.7678708E2],"tree_param":{"num_deleted":"0","num_feature":"428","num_nodes":"63","size_leaf_vector":"1"}},{"base_weights":[2.0174873E-3,-7.830178E-1,2.2738397E-1,-9.9211335E-1,-5.152789E-2,-5.5373367E-2,6.05988E-1,-3.3935547E-1,-1.0569761E0,4.3249595E-1,-2.3262095E-1,-4.145468E-1,9.86538E-2,6.232992E-1,-1.6269211E-1,-1.2263382E-1,-6.416094E-1,-6.60683E-1,-1.0886645E0,4.866354E-1,-6.345321E-1,2.1501688E-2,-4.6683916E-1,5.002943E-1,-4.8562148E-1,1.4725068E-1,-7.8047323E-1,7.309945E-1,5.193951E-1,1.0345932E-1,-1.0947428E0,4.46552E-2,-1.1106616E-2,2.3428207E-2,-3.4963172E-2,1.8296499E-3,-4.0546205E-2,-4.5815166E-2,-5.6241926E-2,2.037263E-2,4.557026E-2,-7.319518E-2,1.5458936E-2,1.2660645E-2,-1.1202163E-2,1.3115557E-2,-2.745987E-2,-3.6311414E-2,2.9110944E-2,-3.779679E-2,-5.1124804E-3,1.1964238E-2,-1.1986767E-2,-2.2259861E-2,-5.4532375E-2,3.863908E-2,2.4899757E-2,1.0605819E-2,2.927877E-2,2.7212894E-2,-1.1609809E-2,-9.407684E-3,-7.374438E-2],"categories":[],"categories_nodes":[],"categories_segments":[],"categories_sizes":[],"default_left":[0,0,0,0,0,0,0,0,0,0,0,0,0,0,0,0,0,0,0,0,0,0,0,0,0,0,0,0,0,0,0,0,0,0,0,0,0,0,0,0,0,0,0,0,0,0,0,0,0,0,0,0,0,0,0,0,0,0,0,0,0,0,0],"id":21,"left_children":[1,3,5,7,9,11,13,15,17,19,21,23,25,27,29,31,33,35,37,39,41,43,45,47,49,51,53,55,57,59,61,-1,-1,-1,-1,-1,-1,-1,-1,-1,-1,-1,-1,-1,-1,-1,-1,-1,-1,-1,-1,-1,-1,-1,-1,-1,-1,-1,-1,-1,-1,-1,-1],"loss_changes":[1.2003974E4,2.3146494E3,5.643431E3,4.979502E2,2.950808E2,1.6696033E3,3.0001074E2,6.970044E1,1.3371289E2,5.3260895E1,1.4581505E2,5.891969E2,9.025061E2,2.4626953E2,1.2344904E2,6.302432E1,2.8785141E1,8.3330414E1,6.0762695E1,2.8989273E1,3.543609E1,6.695844E1,7.669809E1,6.6084656E1,8.709702E2,7.1295953E2,1.1459314E2,1.04973145E2,2.2808179E2,5.74837E1,3.7813156E1,0E0,0E0,0E0,0E0,0E0,0E0,0E0,0E0,0E0,0E0,0E0,0E0,0E0,0E0,0E0,0E0,0E0,0E0,0E0,0E0,0E0,0E0,0E0,0E0,0E0,0E0,0E0,0E0,0E0,0E0,0E0,0E0],"parents":[2147483647,0,0,1,1,2,2,3,3,4,4,5,5,6,6,7,7,8,8,9,9,10,10,11,11,12,12,13,13,14,14,15,15,16,16,17,17,18,18,19,19,20,20,21,21,22,22,23,23,24,24,25,25,26,26,27,27,28,28,29,29,30,30],"right_children":[2,4,6,8,10,12,14,16,18,20,22,24,26,28,30,32,34,36,38,40,42,44,46,48,50,52,54,56,58,60,62,-1,-1,-1,-1,-1,-1,-1,-1,-1,-1,-1,-1,-1,-1,-1,-1,-1,-1,-1,-1,-1,-1,-1,-1,-1,-1,-1,-1,-1,-1,-1,-1],"split_conditions":[1.4E0,1E0,1E0,1E0,1E0,6E0,2.1214945E1,3.75E2,1E0,1E0,8.333333E0,1E0,2E0,5.137219E-3,8.333333E-1,1E0,6.4833336E1,1.624E1,7.133333E0,4E0,1.7926281E-2,1.5626675E-2,3.7075034E-1,9.8681816E1,2E0,2.2520834E1,1.5E0,4.5E1,3.090909E0,5.353513E-3,7.23086E-3,4.46552E-2,-1.1106616E-2,2.3428207E-2,-3.4963172E-2,1.8296499E-3,-4.0546205E-2,-4.5815166E-2,-5.6241926E-2,2.037263E-2,4.557026E-2,-7.319518E-2,1.5458936E-2,1.2660645E-2,-1.1202163E-2,1.3115557E-2,-2.745987E-2,-3.6311414E-2,2.9110944E-2,-3.779679E-2,-5.1124804E-3,1.1964238E-2,-1.1986767E-2,-2.2259861E-2,-5.4532375E-2,3.863908E-2,2.4899757E-2,1.0605819E-2,2.927877E-2,2.7212894E-2,-1.1609809E-2,-9.407684E-3,-7.374438E-2],"split_indices":[4,72,72,54,54,101,46,45,102,66,1,102,16,312,17,60,0,94,1,103,272,228,381,85,79,2,35,44,4,403,383,0,0,0,0,0,0,0,0,0,0,0,0,0,0,0,0,0,0,0,0,0,0,0,0,0,0,0,0,0,0,0,0],"split_type":[0,0,0,0,0,0,0,0,0,0,0,0,0,0,0,0,0,0,0,0,0,0,0,0,0,0,0,0,0,0,0,0,0,0,0,0,0,0,0,0,0,0,0,0,0,0,0,0,0,0,0,0,0,0,0,0,0,0,0,0,0,0,0],"sum_hessian":[6.784747E4,1.5132582E4,5.2714887E4,1.1768278E4,3.364304E3,3.0177742E4,2.2537146E4,1.0642493E3,1.0704028E4,9.156296E2,2.4486746E3,9.056754E3,2.1120988E4,2.2040959E4,4.9618808E2,6.206427E2,4.436065E2,7.9416156E2,9.909867E3,8.719329E2,4.369664E1,1.1748696E3,1.2738048E3,6.524663E2,8.404287E3,2.0015398E4,1.10559E3,1.0820062E4,1.1220896E4,3.866635E2,1.09524574E2,5.4660526E1,5.659822E2,2.154839E1,4.220581E2,1.4091675E2,6.532448E2,1.7235999E3,8.186267E3,7.365832E2,1.3534975E2,2.296385E1,2.073279E1,6.0444617E2,5.704235E2,1.2905394E2,1.1447509E3,4.0359844E1,6.1210645E2,4.928351E3,3.4759368E3,1.6170149E4,3.8452478E3,5.324669E2,5.7312305E2,9.172678E3,1.6473842E3,1.9891887E3,9.231708E3,1.6688318E2,2.1978032E2,3.279893E1,7.672565E1],"tree_param":{"num_deleted":"0","num_feature":"428","num_nodes":"63","size_leaf_vector":"1"}},{"base_weights":[-1.4972809E-3,-7.7005297E-1,2.1451545E-1,-9.7613364E-1,-5.9339635E-2,-6.0550164E-2,5.8626425E-1,-3.4176487E-1,-1.0409756E0,4.039541E-1,-2.3309422E-1,-3.583192E-1,1.0460977E-1,6.037145E-1,-1.5395921E-1,1.4367563E0,-3.7042823E-1,-6.7520386E-1,-1.0706701E0,4.831429E-1,-1.7561379E-1,-1.2637252E-1,-7.678994E-1,4.5192352E-1,-4.4967473E-1,1.6453968E-1,-6.141613E-1,7.1268296E-1,4.986131E-1,1.7775151E-1,-4.1484547E-1,-5.0212204E-2,8.6444795E-2,2.241807E-2,-2.1745013E-2,3.916374E-3,-4.2250052E-2,-4.767749E-2,-5.6283068E-2,2.750153E-2,-3.7033379E-3,1.2776266E-2,-4.8558258E-2,-1.2629032E-2,1.1585778E-2,-3.1966113E-2,-6.683748E-2,2.565757E-2,-4.0164363E-2,-3.5999287E-2,-3.7433503E-3,-1.1358157E-3,1.7372783E-2,-1.8265001E-2,-5.2299984E-2,3.667562E-2,7.08877E-3,1.0098949E-2,2.8162975E-2,-3.32403E-2,1.702129E-2,-2.6877133E-2,2.7654493E-2],"categories":[],"categories_nodes":[],"categories_segments":[],"categories_sizes":[],"default_left":[0,0,0,0,0,0,0,0,0,0,0,0,0,0,0,0,0,0,0,0,0,0,0,0,0,0,0,0,0,0,0,0,0,0,0,0,0,0,0,0,0,0,0,0,0,0,0,0,0,0,0,0,0,0,0,0,0,0,0,0,0,0,0],"id":22,"left_children":[1,3,5,7,9,11,13,15,17,19,21,23,25,27,29,31,33,35,37,39,41,43,45,47,49,51,53,55,57,59,61,-1,-1,-1,-1,-1,-1,-1,-1,-1,-1,-1,-1,-1,-1,-1,-1,-1,-1,-1,-1,-1,-1,-1,-1,-1,-1,-1,-1,-1,-1,-1,-1],"loss_changes":[1.1135082E4,2.1552236E3,5.353736E3,4.6887793E2,2.664548E2,1.4799475E3,2.876958E2,5.4537575E1,1.1168457E2,4.1521576E1,1.3728316E2,7.9489856E2,8.339126E2,2.4877148E2,4.4519764E1,1.3864532E1,5.52735E1,9.983975E1,6.056543E1,2.9655441E1,3.7725323E1,9.0797264E1,2.8418015E1,8.405669E1,9.775154E2,6.120201E2,1.5973828E2,1.2686914E2,2.1228467E2,3.1313042E1,3.4476067E1,0E0,0E0,0E0,0E0,0E0,0E0,0E0,0E0,0E0,0E0,0E0,0E0,0E0,0E0,0E0,0E0,0E0,0E0,0E0,0E0,0E0,0E0,0E0,0E0,0E0,0E0,0E0,0E0,0E0,0E0,0E0,0E0],"parents":[2147483647,0,0,1,1,2,2,3,3,4,4,5,5,6,6,7,7,8,8,9,9,10,10,11,11,12,12,13,13,14,14,15,15,16,16,17,17,18,18,19,19,20,20,21,21,22,22,23,23,24,24,25,25,26,26,27,27,28,28,29,29,30,30],"right_children":[2,4,6,8,10,12,14,16,18,20,22,24,26,28,30,32,34,36,38,40,42,44,46,48,50,52,54,56,58,60,62,-1,-1,-1,-1,-1,-1,-1,-1,-1,-1,-1,-1,-1,-1,-1,-1,-1,-1,-1,-1,-1,-1,-1,-1,-1,-1,-1,-1,-1,-1,-1,-1],"split_conditions":[1.4E0,1E0,1E0,1E0,1E0,4E0,2.2916667E0,1E0,1E0,7.619048E-1,1.125E0,1E0,1.1818181E0,5.137219E-3,1.3E0,7.55E1,1E0,1.624E1,9.1E0,3.37E2,1.14E2,4.1666668E-2,2.1206845E-2,2.7558754E1,2E0,4E0,1.5E0,1.36E2,3.090909E0,1.8E1,1.186828E-1,-5.0212204E-2,8.6444795E-2,2.241807E-2,-2.1745013E-2,3.916374E-3,-4.2250052E-2,-4.767749E-2,-5.6283068E-2,2.750153E-2,-3.7033379E-3,1.2776266E-2,-4.8558258E-2,-1.2629032E-2,1.1585778E-2,-3.1966113E-2,-6.683748E-2,2.565757E-2,-4.0164363E-2,-3.5999287E-2,-3.7433503E-3,-1.1358157E-3,1.7372783E-2,-1.8265001E-2,-5.2299984E-2,3.667562E-2,7.08877E-3,1.0098949E-2,2.8162975E-2,-3.32403E-2,1.702129E-2,-2.6877133E-2,2.7654493E-2],"split_indices":[4,72,72,54,54,102,16,102,102,16,17,102,16,312,42,87,60,94,39,148,81,14,181,46,79,103,35,38,4,112,291,0,0,0,0,0,0,0,0,0,0,0,0,0,0,0,0,0,0,0,0,0,0,0,0,0,0,0,0,0,0,0,0],"split_type":[0,0,0,0,0,0,0,0,0,0,0,0,0,0,0,0,0,0,0,0,0,0,0,0,0,0,0,0,0,0,0,0,0,0,0,0,0,0,0,0,0,0,0,0,0,0,0,0,0,0,0,0,0,0,0,0,0,0,0,0,0,0,0],"sum_hessian":[6.706961E4,1.4714401E4,5.2355207E4,1.1406549E4,3.307852E3,3.0091004E4,2.2264201E4,1.058378E3,1.0348171E4,9.018535E2,2.4059985E3,1.07352E4,1.9355805E4,2.1751604E4,5.1259674E2,1.600753E1,1.0423705E3,7.788006E2,9.56937E3,7.935885E2,1.08265E2,2.0067773E3,3.9922113E2,1.0873573E3,9.647843E3,1.7866867E4,1.4889379E3,1.0676503E4,1.1075102E4,2.2580705E2,2.867897E2,1.4504676E0,1.4557062E1,7.565125E1,9.6671924E2,1.4331801E2,6.3548254E2,3.063362E3,6.5060083E3,7.085471E2,8.504143E1,7.065384E1,3.761116E1,1.4840269E3,5.227506E2,3.2735333E2,7.186778E1,1.0373478E3,5.000955E1,5.604768E3,4.043075E3,8.829127E3,9.037739E3,9.4575867E2,5.4317914E2,1.030041E4,3.7609293E2,1.9824806E3,9.092621E3,3.6042297E1,1.8976476E2,2.5492021E2,3.1869486E1],"tree_param":{"num_deleted":"0","num_feature":"428","num_nodes":"63","size_leaf_vector":"1"}},{"base_weights":[-2.3885737E-3,-7.609235E-1,2.0171987E-1,-9.640647E-1,-6.8634264E-2,-4.7801998E-2,5.5414206E-1,-3.2457936E-1,-1.0293995E0,8.844071E-2,-5.657109E-1,-3.9337954E-1,1.00012854E-1,5.7608974E-1,-6.8946384E-2,5.685991E-1,-3.9567345E-1,-6.26377E-1,-1.0636852E0,4.3445253E-1,-8.293616E-2,-1.5131588E-1,-8.272552E-1,4.473155E-1,-4.589573E-1,1.4496216E-1,-7.32227E-1,6.1554736E-1,2.6881033E-1,2.7344742E-1,-6.5863323E-1,5.214264E-2,-1.824817E-2,-1.3921342E-2,-4.23528E-2,-5.8586625E-3,-4.2605933E-2,-4.6766985E-2,-5.5621095E-2,9.685787E-3,2.8896911E-2,1.3886769E-2,-1.1833619E-2,5.0985375E-3,-3.8690187E-2,-4.6343677E-2,-8.576774E-3,2.9790882E-2,-1.9826721E-2,-3.573822E-2,-5.3721457E-3,-1.0479911E-3,1.5656885E-2,-2.150318E-2,-5.1576555E-2,3.3493772E-2,1.7766206E-2,4.9911807E-3,2.5065681E-2,-8.508393E-3,2.9430518E-2,-1.645042E-2,-6.565056E-2],"categories":[],"categories_nodes":[],"categories_segments":[],"categories_sizes":[],"default_left":[0,0,0,0,0,0,0,0,0,0,0,0,0,0,0,0,0,0,0,0,0,0,0,0,0,0,0,0,0,0,0,0,0,0,0,0,0,0,0,0,0,0,0,0,0,0,0,0,0,0,0,0,0,0,0,0,0,0,0,0,0,0,0],"id":23,"left_children":[1,3,5,7,9,11,13,15,17,19,21,23,25,27,29,31,33,35,37,39,41,43,45,47,49,51,53,55,57,59,61,-1,-1,-1,-1,-1,-1,-1,-1,-1,-1,-1,-1,-1,-1,-1,-1,-1,-1,-1,-1,-1,-1,-1,-1,-1,-1,-1,-1,-1,-1,-1,-1],"loss_changes":[1.0252147E4,1.9744443E3,4.588416E3,4.531914E2,2.4883109E2,1.5605701E3,2.9582812E2,6.4212395E1,1.3541602E2,1.4366104E2,8.28125E1,5.0479565E2,8.005843E2,2.5315771E2,1.4895221E2,3.345582E1,4.9193024E1,8.893329E1,5.5722656E1,2.7605911E1,8.992733E1,4.6956375E1,3.047116E1,8.329236E1,7.634148E2,5.6652997E2,9.873712E1,2.615171E2,9.343613E1,6.537436E1,5.8015457E1,0E0,0E0,0E0,0E0,0E0,0E0,0E0,0E0,0E0,0E0,0E0,0E0,0E0,0E0,0E0,0E0,0E0,0E0,0E0,0E0,0E0,0E0,0E0,0E0,0E0,0E0,0E0,0E0,0E0,0E0,0E0,0E0],"parents":[2147483647,0,0,1,1,2,2,3,3,4,4,5,5,6,6,7,7,8,8,9,9,10,10,11,11,12,12,13,13,14,14,15,15,16,16,17,17,18,18,19,19,20,20,21,21,22,22,23,23,24,24,25,25,26,26,27,27,28,28,29,29,30,30],"right_children":[2,4,6,8,10,12,14,16,18,20,22,24,26,28,30,32,34,36,38,40,42,44,46,48,50,52,54,56,58,60,62,-1,-1,-1,-1,-1,-1,-1,-1,-1,-1,-1,-1,-1,-1,-1,-1,-1,-1,-1,-1,-1,-1,-1,-1,-1,-1,-1,-1,-1,-1,-1,-1],"split_conditions":[1.2608696E0,7.350059E-2,7.350059E-2,1E0,1E0,6E0,1.2205414E1,1E0,1E0,1E0,1.8229166E1,1E0,2E0,1.23E2,1.5384616E-1,8.5E0,1.63E1,1.7395834E1,7.8333335E0,3E0,1.723276E1,1.9896954E-2,8.249987E-2,3E1,2E0,4E0,1.5E0,1.0989643E-2,4E0,4.752437E-2,9.622935E-3,5.214264E-2,-1.824817E-2,-1.3921342E-2,-4.23528E-2,-5.8586625E-3,-4.2605933E-2,-4.6766985E-2,-5.5621095E-2,9.685787E-3,2.8896911E-2,1.3886769E-2,-1.1833619E-2,5.0985375E-3,-3.8690187E-2,-4.6343677E-2,-8.576774E-3,2.9790882E-2,-1.9826721E-2,-3.573822E-2,-5.3721457E-3,-1.0479911E-3,1.5656885E-2,-2.150318E-2,-5.1576555E-2,3.3493772E-2,1.7766206E-2,4.9911807E-3,2.5065681E-2,-8.508393E-3,2.9430518E-2,-1.645042E-2,-6.565056E-2],"split_indices":[4,381,381,54,66,101,46,60,102,54,2,102,16,38,17,115,137,94,1,101,94,188,235,44,79,103,35,160,103,345,240,0,0,0,0,0,0,0,0,0,0,0,0,0,0,0,0,0,0,0,0,0,0,0,0,0,0,0,0,0,0,0,0],"split_type":[0,0,0,0,0,0,0,0,0,0,0,0,0,0,0,0,0,0,0,0,0,0,0,0,0,0,0,0,0,0,0,0,0,0,0,0,0,0,0,0,0,0,0,0,0,0,0,0,0,0,0,0,0,0,0,0,0,0,0,0,0,0,0],"sum_hessian":[6.621635E4,1.4039217E4,5.2177133E4,1.0853916E4,3.1853015E3,3.0548824E4,2.1628309E4,1.0066801E3,9.847235E3,2.4210713E3,7.642303E2,9.151589E3,2.1397236E4,2.0892467E4,7.358417E2,7.370481E1,9.329753E2,7.735479E2,9.0736875E3,8.014333E2,1.619638E3,2.963179E2,4.679124E2,6.6178644E2,8.489803E3,2.0301572E4,1.0956627E3,1.8514076E4,2.3783904E3,4.6587427E2,2.6996738E2,4.8798103E1,2.4906708E1,7.4188696E2,1.9108833E2,2.380652E2,5.3548267E2,2.5028284E3,6.5708594E3,3.0016827E2,5.0126505E2,4.8380493E2,1.135833E3,2.1121283E2,8.510507E1,4.0584247E2,6.2069954E1,5.6300226E2,9.878416E1,4.9132544E3,3.5765483E3,1.0219696E4,1.0081877E4,5.464397E2,5.492231E2,1.5315095E4,3.1989812E3,1.3781561E3,1.0002343E3,1.9369467E2,2.721796E2,1.805321E2,8.943529E1],"tree_param":{"num_deleted":"0","num_feature":"428","num_nodes":"63","size_leaf_vector":"1"}},{"base_weights":[-1.3603605E-3,-6.8929285E-1,2.1129873E-1,-8.986373E-1,-2.8115148E-2,-3.2405183E-2,5.467768E-1,-6.8080735E-1,-1.033835E0,1.3555259E-1,-4.4327715E-1,1.18306465E-1,-2.918676E-1,5.678373E-1,-8.313181E-2,-8.5465544E-1,-3.8545218E-1,-1.0742232E0,-6.7668974E-1,1.8379045E-1,-8.719885E-1,-2.8493768E-1,-9.710696E-1,1.5856357E-1,-6.443063E-1,-1.7650437E-1,-7.915872E-1,6.254464E-1,3.5222572E-1,-1.018643E0,-2.514294E-3,-4.6643045E-2,-4.9288226E-3,-1.4402463E-2,-4.2567488E-2,-5.5179764E-2,-3.693406E-2,-3.8865637E-2,-1.5283785E-3,1.5440655E-3,2.0181686E-2,-5.7333138E-2,1.2101116E-2,-9.215219E-3,-4.7721043E-2,-5.2123047E-2,3.9376277E-2,1.0743189E-2,-1.3300587E-2,-5.5865582E-2,-1.5182929E-2,-4.7425237E-3,-3.710941E-2,-1.9913102E-2,-4.586844E-2,-3.365835E-2,3.1754762E-2,4.562017E-3,2.1112284E-2,2.3403831E-3,-6.734803E-2,7.882838E-3,-2.1966137E-2],"categories":[],"categories_nodes":[],"categories_segments":[],"categories_sizes":[],"default_left":[0,0,0,0,0,0,0,0,0,0,0,0,0,0,0,0,0,0,0,0,0,0,0,0,0,0,0,0,0,0,0,0,0,0,0,0,0,0,0,0,0,0,0,0,0,0,0,0,0,0,0,0,0,0,0,0,0,0,0,0,0,0,0],"id":24,"left_children":[1,3,5,7,9,11,13,15,17,19,21,23,25,27,29,31,33,35,37,39,41,43,45,47,49,51,53,55,57,59,61,-1,-1,-1,-1,-1,-1,-1,-1,-1,-1,-1,-1,-1,-1,-1,-1,-1,-1,-1,-1,-1,-1,-1,-1,-1,-1,-1,-1,-1,-1,-1,-1],"loss_changes":[9.589559E3,2.1423936E3,4.0936929E3,3.4551367E2,2.5305249E2,1.1341866E3,2.7954736E2,2.309939E2,1.0387842E2,1.2998845E2,8.772438E1,5.63376E2,