{"learner":{"attributes":{"scikit_learn":"{\"_estimator_type\": \"classifier\"}"},"feature_names":[],"feature_types":[],"gradient_booster":{"model":{"cats":{"enc":[],"feature_segments":[],"sorted_idx":[]},"gbtree_model_param":{"num_parallel_tree":"1","num_trees":"300"},"iteration_indptr":[0,1,2,3,4,5,6,7,8,9,10,11,12,13,14,15,16,17,18,19,20,21,22,23,24,25,26,27,28,29,30,31,32,33,34,35,36,37,38,39,40,41,42,43,44,45,46,47,48,49,50,51,52,53,54,55,56,57,58,59,60,61,62,63,64,65,66,67,68,69,70,71,72,73,74,75,76,77,78,79,80,81,82,83,84,85,86,87,88,89,90,91,92,93,94,95,96,97,98,99,100,101,102,103,104,105,106,107,108,109,110,111,112,113,114,115,116,117,118,119,120,121,122,123,124,125,126,127,128,129,130,131,132,133,134,135,136,137,138,139,140,141,142,143,144,145,146,147,148,149,150,151,152,153,154,155,156,157,158,159,160,161,162,163,164,165,166,167,168,169,170,171,172,173,174,175,176,177,178,179,180,181,182,183,184,185,186,187,188,189,190,191,192,193,194,195,196,197,198,199,200,201,202,203,204,205,206,207,208,209,210,211,212,213,214,215,216,217,218,219,220,221,222,223,224,225,226,227,228,229,230,231,232,233,234,235,236,237,238,239,240,241,242,243,244,245,246,247,248,249,250,251,252,253,254,255,256,257,258,259,260,261,262,263,264,265,266,267,268,269,270,271,272,273,274,275,276,277,278,279,280,281,282,283,284,285,286,287,288,289,290,291,292,293,294,295,296,297,298,299,300],"tree_info":[0,0,0,0,0,0,0,0,0,0,0,0,0,0,0,0,0,0,0,0,0,0,0,0,0,0,0,0,0,0,0,0,0,0,0,0,0,0,0,0,0,0,0,0,0,0,0,0,0,0,0,0,0,0,0,0,0,0,0,0,0,0,0,0,0,0,0,0,0,0,0,0,0,0,0,0,0,0,0,0,0,0,0,0,0,0,0,0,0,0,0,0,0,0,0,0,0,0,0,0,0,0,0,0,0,0,0,0,0,0,0,0,0,0,0,0,0,0,0,0,0,0,0,0,0,0,0,0,0,0,0,0,0,0,0,0,0,0,0,0,0,0,0,0,0,0,0,0,0,0,0,0,0,0,0,0,0,0,0,0,0,0,0,0,0,0,0,0,0,0,0,0,0,0,0,0,0,0,0,0,0,0,0,0,0,0,0,0,0,0,0,0,0,0,0,0,0,0,0,0,0,0,0,0,0,0,0,0,0,0,0,0,0,0,0,0,0,0,0,0,0,0,0,0,0,0,0,0,0,0,0,0,0,0,0,0,0,0,0,0,0,0,0,0,0,0,0,0,0,0,0,0,0,0,0,0,0,0,0,0,0,0,0,0,0,0,0,0,0,0,0,0,0,0,0,0,0,0,0,0,0,0,0,0,0,0,0,0,0,0,0,0,0,0,0,0,0,0,0,0],"trees":[{"base_weights":[-9.642694E-3,2.3494378E-1,-3.3681032E-1,3.744044E-1,-1.557203E-1,-6.254237E-2,-5.658584E-1,-3.4552348E-1,4.28017E-1,4.6854675E-2,-5.7793605E-1,1.09558426E-1,-4.48482E-1,-3.6073261E-1,-8.1327933E-1,-5.8349365E-1,6.6900665E-1,-1.1141819E-2,4.910879E-1,-5.5191446E-2,9.409819E-1,-7.0199984E-1,3.0411756E-1,6.473409E-2,7.972803E-2,-5.298532E-1,1.0523137E0,-1.806137E-1,-6.746022E-1,-6.296618E-1,-1.1170496E0,1.9070927E-2,-4.1227706E-2,5.9955914E-2,-1.3678657E-2,-2.6683873E-2,1.4130132E-2,5.3721596E-2,2.1505462E-2,7.264598E-3,-2.4946427E-2,-2.1685466E-2,7.032888E-2,-3.779649E-2,5.1394373E-2,-3.9551806E-2,5.9643336E-2,7.3477267E-3,-2.8920326E-2,-3.2189697E-2,1.5010476E-2,6.892391E-2,1.4468112E-4,-1.7422555E-2,3.1320933E-2,-3.7676994E-2,3.3538766E-2,-3.424344E-2,2.8874699E-2,-5.975802E-2,2.8632E-2],"categories":[],"categories_nodes":[],"categories_segments":[],"categories_sizes":[],"default_left":[0,0,0,0,0,0,0,0,0,0,0,0,0,0,0,0,0,0,0,0,0,0,0,0,0,0,0,0,0,0,0,0,0,0,0,0,0,0,0,0,0,0,0,0,0,0,0,0,0,0,0,0,0,0,0,0,0,0,0,0,0],"id":0,"left_children":[1,3,5,7,9,11,13,15,17,19,21,23,25,27,29,31,33,35,37,39,41,43,45,47,-1,49,51,53,55,57,59,-1,-1,-1,-1,-1,-1,-1,-1,-1,-1,-1,-1,-1,-1,-1,-1,-1,-1,-1,-1,-1,-1,-1,-1,-1,-1,-1,-1,-1,-1],"loss_changes":[9.998352E1,3.901264E1,3.3541515E1,2.0496002E1,1.6175209E1,1.6279562E1,1.4482216E1,9.345388E0,1.3608002E1,1.1777533E1,6.9204426E0,1.1199491E1,9.784714E0,8.978237E0,6.6126175E0,7.4271803E0,4.082179E0,9.76724E0,1.4814026E1,1.041795E1,9.071376E0,5.8179874E0,8.978613E0,8.856019E0,0E0,7.034683E0,1.4407234E0,1.4256411E1,6.6997814E0,5.9962997E0,7.03574E0,0E0,0E0,0E0,0E0,0E0,0E0,0E0,0E0,0E0,0E0,0E0,0E0,0E0,0E0,0E0,0E0,0E0,0E0,0E0,0E0,0E0,0E0,0E0,0E0,0E0,0E0,0E0,0E0,0E0,0E0],"parents":[2147483647,0,0,1,1,2,2,3,3,4,4,5,5,6,6,7,7,8,8,9,9,10,10,11,11,12,12,13,13,14,14,15,15,16,16,17,17,18,18,19,19,20,20,21,21,22,22,23,23,25,25,26,26,27,27,28,28,29,29,30,30],"right_children":[2,4,6,8,10,12,14,16,18,20,22,24,26,28,30,32,34,36,38,40,42,44,46,48,-1,50,52,54,56,58,60,-1,-1,-1,-1,-1,-1,-1,-1,-1,-1,-1,-1,-1,-1,-1,-1,-1,-1,-1,-1,-1,-1,-1,-1,-1,-1,-1,-1,-1,-1],"split_conditions":[2.25E1,3.26E1,8.3416664E1,2.7E0,9.5708336E1,4.15E1,1E0,3.5119645E-2,2.1666667E0,6.7075655E-2,3.16E2,9.388262E-2,3.1327892E-2,3.91E1,1.01208336E2,8.1583336E1,3.2471545E-2,1.09E0,2.26E2,1.5379727E-2,7.05E0,2.4289401E-2,9.798333E1,6.289416E-2,7.972803E-2,1E0,4.4824526E-2,1.2777461E-1,2.616608E-2,7.520679E-2,1.4015794E-1,1.9070927E-2,-4.1227706E-2,5.9955914E-2,-1.3678657E-2,-2.6683873E-2,1.4130132E-2,5.3721596E-2,2.1505462E-2,7.264598E-3,-2.4946427E-2,-2.1685466E-2,7.032888E-2,-3.779649E-2,5.1394373E-2,-3.9551806E-2,5.9643336E-2,7.3477267E-3,-2.8920326E-2,-3.2189697E-2,1.5010476E-2,6.892391E-2,1.4468112E-4,-1.7422555E-2,3.1320933E-2,-3.7676994E-2,3.3538766E-2,-3.424344E-2,2.8874699E-2,-5.975802E-2,2.8632E-2],"split_indices":[29,134,0,108,0,135,59,171,4,345,11,255,231,135,0,0,396,114,133,342,22,165,3,203,0,36,272,313,186,187,205,0,0,0,0,0,0,0,0,0,0,0,0,0,0,0,0,0,0,0,0,0,0,0,0,0,0,0,0,0,0],"split_type":[0,0,0,0,0,0,0,0,0,0,0,0,0,0,0,0,0,0,0,0,0,0,0,0,0,0,0,0,0,0,0,0,0,0,0,0,0,0,0,0,0,0,0,0,0,0,0,0,0,0,0,0,0,0,0,0,0,0,0,0,0],"sum_hessian":[1.2474806E3,7.139914E2,5.3348926E2,5.261914E2,1.878E2,2.4335861E2,2.9013065E2,3.6091934E1,4.9009946E2,1.27510666E2,6.028934E1,1.688016E2,7.455702E1,1.5996698E2,1.3016365E2,2.9578747E1,6.5131855E0,6.1650978E1,4.284485E2,1.1529087E2,1.2219793E1,5.303405E1,7.255289E0,1.6486868E2,3.9329188E0,7.133621E1,3.2208061E0,1.0264055E2,5.732643E1,8.304123E1,4.712243E1,5.7960744E0,2.3782673E1,3.9944952E0,2.5186903E0,2.1891626E1,3.975935E1,3.897545E1,3.8947302E2,7.987526E1,3.5415607E1,3.1089542E0,9.110839E0,5.1976677E1,1.0573748E0,3.2994785E0,3.9558105E0,1.468647E2,1.8003986E1,6.2923286E1,8.412925E0,2.2179084E0,1.0028979E0,8.543995E1,1.7200596E1,5.456484E1,2.7615912E0,7.982332E1,3.2179084E0,4.5320053E1,1.8023764E0],"tree_param":{"num_deleted":"0","num_feature":"428","num_nodes":"61","size_leaf_vector":"1"}},{"base_weights":[-6.3502835E-3,1.9729519E-1,-2.8993434E-1,3.0005357E-1,-3.3090433E-1,-1.71449E-2,-5.045689E-1,4.4662073E-1,1.1413304E-2,-5.3657675E-1,2.5523764E-1,1.2376923E-1,-5.082887E-1,-2.3689352E-1,-7.0978576E-1,4.998133E-1,-3.0194375E-1,9.4702E-2,-8.2834136E-1,-8.40327E-1,-1.313577E-1,-6.323749E-2,1.3101628E0,6.916151E-2,1.2638296E0,8.195261E-1,-6.123287E-1,-2.9399878E-1,1.2176185E0,-7.611553E-1,5.7175153E-1,3.2689568E-2,1.2114604E-2,4.6317812E-2,-2.3863802E-2,1.1003871E-2,-2.123642E-2,5.698205E-3,-5.363957E-2,-4.5253377E-2,1.4321408E-2,6.3063884E-3,-3.7182763E-2,4.8080377E-2,-2.108494E-2,-1.9885588E-2,8.3412975E-2,1.0254555E-2,-1.764314E-2,8.483982E-2,-2.0982195E-2,-1.1024042E-2,6.659379E-2,-3.5598528E-2,2.9989988E-2,-2.3112891E-2,8.339972E-3,7.557374E-2,1.298923E-3,5.4371203E-3,-4.16512E-2,5.3121902E-2,-3.0714119E-2],"categories":[],"categories_nodes":[],"categories_segments":[],"categories_sizes":[],"default_left":[0,0,0,0,0,0,0,0,0,0,0,0,0,0,0,0,0,0,0,0,0,0,0,0,0,0,0,0,0,0,0,0,0,0,0,0,0,0,0,0,0,0,0,0,0,0,0,0,0,0,0,0,0,0,0,0,0,0,0,0,0,0,0],"id":1,"left_children":[1,3,5,7,9,11,13,15,17,19,21,23,25,27,29,31,33,35,37,39,41,43,45,47,49,51,53,55,57,59,61,-1,-1,-1,-1,-1,-1,-1,-1,-1,-1,-1,-1,-1,-1,-1,-1,-1,-1,-1,-1,-1,-1,-1,-1,-1,-1,-1,-1,-1,-1,-1,-1],"loss_changes":[7.2204506E1,3.9597946E1,3.058762E1,2.5789692E1,1.4481996E1,1.6060205E1,1.5895035E1,1.6251839E1,1.4512297E1,1.0771284E1,1.0694715E1,1.1144594E1,7.647875E0,1.1022978E1,1.1298859E1,1.4826775E1,6.3539534E0,1.2378743E1,4.4352245E0,3.9317398E0,6.2523007E0,9.66887E0,5.1711435E0,1.0009653E1,6.6808023E0,2.5243015E0,6.2898846E0,9.71882E0,1.7274051E0,1.0036659E1,4.686206E0,0E0,0E0,0E0,0E0,0E0,0E0,0E0,0E0,0E0,0E0,0E0,0E0,0E0,0E0,0E0,0E0,0E0,0E0,0E0,0E0,0E0,0E0,0E0,0E0,0E0,0E0,0E0,0E0,0E0,0E0,0E0,0E0],"parents":[2147483647,0,0,1,1,2,2,3,3,4,4,5,5,6,6,7,7,8,8,9,9,10,10,11,11,12,12,13,13,14,14,15,15,16,16,17,17,18,18,19,19,20,20,21,21,22,22,23,23,24,24,25,25,26,26,27,27,28,28,29,29,30,30],"right_children":[2,4,6,8,10,12,14,16,18,20,22,24,26,28,30,32,34,36,38,40,42,44,46,48,50,52,54,56,58,60,62,-1,-1,-1,-1,-1,-1,-1,-1,-1,-1,-1,-1,-1,-1,-1,-1,-1,-1,-1,-1,-1,-1,-1,-1,-1,-1,-1,-1,-1,-1,-1,-1],"split_conditions":[2.4E1,1.22E2,8.2958336E1,3.36E1,1.0239027E-1,5.15E1,1.4E1,2.5458334E1,3.13E2,1.65E2,1.4920773E-2,1.235E2,1.5E1,9.435233E-2,4.1815925E-2,7.595744E-3,1.36E2,1.21802315E-2,4.08E1,6.0129143E-2,1.66E2,4.51246E-2,6.55E1,1.0914683E-2,1.31E2,7.6E1,1.9389461E-1,5.2E0,3.02E2,8.7E1,5.154812E-2,3.2689568E-2,1.2114604E-2,4.6317812E-2,-2.3863802E-2,1.1003871E-2,-2.123642E-2,5.698205E-3,-5.363957E-2,-4.5253377E-2,1.4321408E-2,6.3063884E-3,-3.7182763E-2,4.8080377E-2,-2.108494E-2,-1.9885588E-2,8.3412975E-2,1.0254555E-2,-1.764314E-2,8.483982E-2,-2.0982195E-2,-1.1024042E-2,6.659379E-2,-3.5598528E-2,2.9989988E-2,-2.3112891E-2,8.339972E-3,7.557374E-2,1.298923E-3,5.4371203E-3,-4.16512E-2,5.3121902E-2,-3.0714119E-2],"split_indices":[10,38,0,135,313,135,136,2,41,11,215,87,138,182,302,399,9,277,135,208,84,265,83,411,81,38,262,119,99,116,398,0,0,0,0,0,0,0,0,0,0,0,0,0,0,0,0,0,0,0,0,0,0,0,0,0,0,0,0,0,0,0,0],"split_type":[0,0,0,0,0,0,0,0,0,0,0,0,0,0,0,0,0,0,0,0,0,0,0,0,0,0,0,0,0,0,0,0,0,0,0,0,0,0,0,0,0,0,0,0,0,0,0,0,0,0,0,0,0,0,0,0,0,0,0,0,0,0,0],"sum_hessian":[1.2482908E3,7.267245E2,5.215662E2,6.087311E2,1.1799344E2,2.3014441E2,2.914218E2,4.0336243E2,2.0536865E2,8.740745E1,3.058599E1,1.794161E2,5.0728302E1,1.2740067E2,1.6402113E2,3.769116E2,2.6450819E1,1.8764485E2,1.7723799E1,4.9344948E1,3.80625E1,2.421553E1,6.370459E0,1.7222725E2,7.1888437E0,3.1862803E0,4.7542023E1,1.2335551E2,4.0451627E0,1.5809026E2,5.9308777E0,2.3491287E2,1.4199872E2,2.7690008E0,2.3681818E1,1.5162363E2,3.6021233E1,3.7607315E0,1.3963067E1,4.6849823E1,2.4951272E0,2.7353655E1,1.0708843E1,5.8390427E0,1.8376488E1,1.0850229E0,5.285436E0,1.3065779E2,4.156947E1,5.7119045E0,1.4769391E0,1.2396369E0,1.9466432E0,4.4312023E1,3.2299993E0,9.035829E1,3.299722E1,3.0296557E0,1.015507E0,1.2025142E1,1.4606512E2,4.2689395E0,1.6619382E0],"tree_param":{"num_deleted":"0","num_feature":"428","num_nodes":"63","size_leaf_vector":"1"}},{"base_weights":[1.1087181E-2,2.4695365E-1,-2.9988146E-1,4.045335E-1,-7.820687E-2,-4.0227998E-2,-5.0989515E-1,-3.0233103E-1,4.5304266E-1,4.90371E-2,-6.8853164E-1,8.9590445E-2,-4.7775418E-1,-5.4041564E-1,6.582956E-1,-5.326722E-1,7.7684E-1,4.049431E-1,1.14566E0,-2.0898543E-2,9.6731246E-1,4.215749E-1,-8.264306E-1,1.6310886E-2,1.3209684E0,-6.7047316E-1,3.267219E-1,-3.90983E-1,-7.7327865E-1,1.2028446E0,-1.4382245E-1,1.9414864E-2,-3.761319E-2,7.101751E-2,-1.1102395E-2,4.967395E-2,1.7325414E-2,1.2338311E-2,7.0222035E-2,3.8883425E-2,-5.805272E-3,6.300077E-2,-4.8304297E-2,5.31497E-2,-2.2692014E-2,-2.0873046E-2,-5.7258617E-2,5.669756E-3,-3.4328856E-2,7.833944E-2,-2.190586E-2,-3.923888E-2,4.3828398E-2,4.8915848E-2,-2.7942812E-2,-2.1343736E-2,4.3590494E-2,-4.0171966E-2,5.5212248E-2,7.4802995E-2,3.7564968E-3,3.5196837E-2,-3.8439382E-2],"categories":[],"categories_nodes":[],"categories_segments":[],"categories_sizes":[],"default_left":[0,0,0,0,0,0,0,0,0,0,0,0,0,0,0,0,0,0,0,0,0,0,0,0,0,0,0,0,0,0,0,0,0,0,0,0,0,0,0,0,0,0,0,0,0,0,0,0,0,0,0,0,0,0,0,0,0,0,0,0,0,0,0],"id":2,"left_children":[1,3,5,7,9,11,13,15,17,19,21,23,25,27,29,31,33,35,37,39,41,43,45,47,49,51,53,55,57,59,61,-1,-1,-1,-1,-1,-1,-1,-1,-1,-1,-1,-1,-1,-1,-1,-1,-1,-1,-1,-1,-1,-1,-1,-1,-1,-1,-1,-1,-1,-1,-1,-1],"loss_changes":[9.077612E1,3.609213E1,2.9090244E1,1.6397163E1,1.793981E1,1.3662904E1,1.0875252E1,8.132776E0,1.4332802E1,1.2332857E1,6.4478016E0,1.6741169E1,8.750354E0,9.722191E0,3.6511858E0,5.587419E0,4.087866E0,1.3991882E1,6.235298E0,1.3709832E1,8.907762E0,3.3263378E0,4.1859455E0,1.2111591E1,5.1929493E0,8.595961E0,7.071296E0,8.417093E0,7.2058945E0,1.491262E0,2.7204297E0,0E0,0E0,0E0,0E0,0E0,0E0,0E0,0E0,0E0,0E0,0E0,0E0,0E0,0E0,0E0,0E0,0E0,0E0,0E0,0E0,0E0,0E0,0E0,0E0,0E0,0E0,0E0,0E0,0E0,0E0,0E0,0E0],"parents":[2147483647,0,0,1,1,2,2,3,3,4,4,5,5,6,6,7,7,8,8,9,9,10,10,11,11,12,12,13,13,14,14,15,15,16,16,17,17,18,18,19,19,20,20,21,21,22,22,23,23,24,24,25,25,26,26,27,27,28,28,29,29,30,30],"right_children":[2,4,6,8,10,12,14,16,18,20,22,24,26,28,30,32,34,36,38,40,42,44,46,48,50,52,54,56,58,60,62,-1,-1,-1,-1,-1,-1,-1,-1,-1,-1,-1,-1,-1,-1,-1,-1,-1,-1,-1,-1,-1,-1,-1,-1,-1,-1,-1,-1,-1,-1,-1,-1],"split_conditions":[2.3E1,3.42E1,8.3083336E1,2.7E0,7.5E-1,6.6346433E-3,9.551438E-2,3.5119645E-2,2.823877E-2,5.281368E-2,6.4E1,2.842187E-2,1.2614223E-1,1.7E1,8.7808564E-2,8.1583336E1,1.6580869E-2,1.86E2,2.2E1,7E0,8.0826096E-2,6.55E1,1.550468E-2,2.375E1,7.192439E-2,2.4953889E-2,1.81E1,5.719897E-2,1.2234609E-1,6.96026E-2,6E-1,1.9414864E-2,-3.761319E-2,7.101751E-2,-1.1102395E-2,4.967395E-2,1.7325414E-2,1.2338311E-2,7.0222035E-2,3.8883425E-2,-5.805272E-3,6.300077E-2,-4.8304297E-2,5.31497E-2,-2.2692014E-2,-2.0873046E-2,-5.7258617E-2,5.669756E-3,-3.4328856E-2,7.833944E-2,-2.190586E-2,-3.923888E-2,4.3828398E-2,4.8915848E-2,-2.7942812E-2,-2.1343736E-2,4.3590494E-2,-4.0171966E-2,5.5212248E-2,7.4802995E-2,3.7564968E-3,3.5196837E-2,-3.8439382E-2],"split_indices":[29,135,0,108,18,281,307,171,152,418,21,250,284,137,346,0,328,147,113,115,302,89,371,2,217,207,137,197,296,362,17,0,0,0,0,0,0,0,0,0,0,0,0,0,0,0,0,0,0,0,0,0,0,0,0,0,0,0,0,0,0,0,0],"split_type":[0,0,0,0,0,0,0,0,0,0,0,0,0,0,0,0,0,0,0,0,0,0,0,0,0,0,0,0,0,0,0,0,0,0,0,0,0,0,0,0,0,0,0,0,0,0,0,0,0,0,0,0,0,0,0,0,0,0,0,0,0,0,0],"sum_hessian":[1.2356146E3,7.0277386E2,5.328408E2,4.7320456E2,2.295693E2,2.3879488E2,2.9404593E2,3.0052578E1,4.4315198E2,1.9072545E2,3.8843864E1,1.8476767E2,5.4027206E1,2.8708292E2,6.9630246E0,2.5183704E1,4.868873E0,4.15857E2,2.7294977E1,1.781359E2,1.2589548E1,4.0647683E0,3.47791E1,1.7534604E2,9.421634E0,4.372023E1,1.0306974E1,1.7649907E2,1.10583824E2,3.8498313E0,3.1131933E0,4.70069E0,2.0483015E1,2.704579E0,2.1642938E0,3.6115227E1,3.7974176E2,6.53807E0,2.0756907E1,1.8211882E1,1.5992401E2,1.1236683E1,1.3528651E0,2.2222476E0,1.842521E0,1.624511E1,1.8533987E1,1.5480302E2,2.0543016E1,8.362366E0,1.0592686E0,4.1170998E1,2.5492315E0,5.877602E0,4.4293723E0,1.7226483E2,4.234238E0,1.0939851E2,1.1853101E0,2.7961729E0,1.0536585E0,1.2674917E0,1.8457016E0],"tree_param":{"num_deleted":"0","num_feature":"428","num_nodes":"63","size_leaf_vector":"1"}},{"base_weights":[8.2321055E-3,2.283604E-1,-2.8519768E-1,3.5659203E-1,-1.7309266E-1,-4.5313764E-2,-4.967394E-1,4.325368E-1,-1.1473828E-1,-4.4348252E-1,1.4375159E-1,-1.0158692E-1,8.418145E-1,-2.5361115E-1,-6.8098783E-1,5.1096284E-1,2.004932E-2,-3.3232078E-1,8.325965E-1,-6.656308E-1,-2.0887272E-2,3.9218405E-1,-3.6035383E-1,3.715322E-2,-4.7622705E-1,1.108936E0,-4.5399576E-1,-3.2796046E-1,6.276405E-1,-7.0689887E-1,6.022653E-2,3.5908755E-2,1.743134E-2,1.864749E-2,-1.6985606E-2,-2.2174377E-2,5.59645E-2,6.72722E-2,-1.4887509E-2,-3.708673E-2,4.0925372E-2,-1.772184E-2,4.699422E-2,4.8957944E-2,7.7514285E-3,-2.4503628E-2,5.818636E-2,3.9508153E-2,-2.160291E-3,-2.9655565E-2,4.071144E-2,6.9799125E-2,-5.076406E-3,1.0776915E-2,-4.9019672E-2,4.4933394E-2,-1.9170158E-2,5.4848284E-2,-2.82985E-2,-3.94974E-2,-8.222095E-3],"categories":[],"categories_nodes":[],"categories_segments":[],"categories_sizes":[],"default_left":[0,0,0,0,0,0,0,0,0,0,0,0,0,0,0,0,0,0,0,0,0,0,0,0,0,0,0,0,0,0,0,0,0,0,0,0,0,0,0,0,0,0,0,0,0,0,0,0,0,0,0,0,0,0,0,0,0,0,0,0,0],"id":3,"left_children":[1,3,5,7,9,11,13,15,17,19,21,23,25,27,29,31,33,35,37,39,41,43,45,47,49,51,53,55,57,59,-1,-1,-1,-1,-1,-1,-1,-1,-1,-1,-1,-1,-1,-1,-1,-1,-1,-1,-1,-1,-1,-1,-1,-1,-1,-1,-1,-1,-1,-1,-1],"loss_changes":[7.987125E1,3.6431637E1,2.6874508E1,1.9228271E1,1.4774418E1,1.2539961E1,1.2439934E1,1.4923981E1,1.5765084E1,8.7066555E0,1.0137494E1,1.225798E1,5.691724E0,8.263351E0,8.647911E0,1.2796371E1,9.622245E0,1.0472532E1,8.701918E0,7.480385E0,1.0920808E1,7.3578854E0,5.882825E0,1.0489131E1,1.0093094E1,4.5606155E0,1.3642532E0,8.101887E0,6.173057E0,6.9902344E0,0E0,0E0,0E0,0E0,0E0,0E0,0E0,0E0,0E0,0E0,0E0,0E0,0E0,0E0,0E0,0E0,0E0,0E0,0E0,0E0,0E0,0E0,0E0,0E0,0E0,0E0,0E0,0E0,0E0,0E0,0E0],"parents":[2147483647,0,0,1,1,2,2,3,3,4,4,5,5,6,6,7,7,8,8,9,9,10,10,11,11,12,12,13,13,14,14,15,15,16,16,17,17,18,18,19,19,20,20,21,21,22,22,23,23,24,24,25,25,26,26,27,27,28,28,29,29],"right_children":[2,4,6,8,10,12,14,16,18,20,22,24,26,28,30,32,34,36,38,40,42,44,46,48,50,52,54,56,58,60,-1,-1,-1,-1,-1,-1,-1,-1,-1,-1,-1,-1,-1,-1,-1,-1,-1,-1,-1,-1,-1,-1,-1,-1,-1,-1,-1,-1,-1,-1,-1],"split_conditions":[2.3E1,1.16E2,8.4166664E1,1.0838418E-2,1.65E2,3.21273E-2,1.4E1,4.34E1,7.066468E-2,1.04E2,3.52E1,4.49E1,6.2280018E-2,6.1124478E-2,7.548426E-2,1E2,7.9E0,3.9101228E-2,2.6868995E-2,4.3693345E-2,9.136821E-2,2.7E1,2.4E1,6.31875E1,5.703076E-3,6.0401175E-2,4.2367466E-2,2.07E1,2.149179E-2,4.7434982E-2,6.022653E-2,3.5908755E-2,1.743134E-2,1.864749E-2,-1.6985606E-2,-2.2174377E-2,5.59645E-2,6.72722E-2,-1.4887509E-2,-3.708673E-2,4.0925372E-2,-1.772184E-2,4.699422E-2,4.8957944E-2,7.7514285E-3,-2.4503628E-2,5.818636E-2,3.9508153E-2,-2.160291E-3,-2.9655565E-2,4.071144E-2,6.9799125E-2,-5.076406E-3,1.0776915E-2,-4.9019672E-2,4.4933394E-2,-1.9170158E-2,5.4848284E-2,-2.82985E-2,-3.94974E-2,-8.222095E-3],"split_indices":[29,38,0,198,11,231,136,135,345,116,135,135,368,201,302,98,114,204,351,154,313,93,145,82,366,327,169,105,164,296,0,0,0,0,0,0,0,0,0,0,0,0,0,0,0,0,0,0,0,0,0,0,0,0,0,0,0,0,0,0,0],"split_type":[0,0,0,0,0,0,0,0,0,0,0,0,0,0,0,0,0,0,0,0,0,0,0,0,0,0,0,0,0,0,0,0,0,0,0,0,0,0,0,0,0,0,0,0,0,0,0,0,0,0,0,0,0,0,0,0,0,0,0,0,0],"sum_hessian":[1.2345381E3,7.055002E2,5.290379E2,5.3479E2,1.707102E2,2.4848047E2,2.8055746E2,4.6064862E2,7.414134E1,9.189165E1,7.881856E1,2.3449147E2,1.3988997E1,1.21977005E2,1.5858046E2,3.8685696E2,7.379167E1,6.0821217E1,1.3320127E1,5.9853157E1,3.203849E1,5.2947216E1,2.5871344E1,1.7177792E2,6.271354E1,1.1717697E1,2.2713003E0,1.13065735E2,8.911268E0,1.5704738E2,1.5330774E0,1.6843538E2,2.1842157E2,3.7232536E1,3.6559135E1,5.713984E1,3.681377E0,9.03196E0,4.2881665E0,5.7409534E1,2.4436238E0,2.4250555E1,7.787934E0,1.4335984E1,3.861123E1,2.446731E1,1.404033E0,1.5712256E1,1.5606567E2,5.8000477E1,4.7130604E0,9.347735E0,2.3699615E0,1.2596593E0,1.011641E0,4.231782E0,1.08833954E2,6.454386E0,2.4568825E0,1.3580035E2,2.1247026E1],"tree_param":{"num_deleted":"0","num_feature":"428","num_nodes":"61","size_leaf_vector":"1"}},{"base_weights":[-7.248015E-3,2.2915967E-1,-3.1081465E-1,3.4946802E-1,-1.2675232E-1,-1.7632131E-1,-6.6930556E-1,4.062971E-1,-1.5604533E-1,-3.9600316E-1,1.8486173E-1,-1.3468988E-2,-5.1992553E-1,-7.0776707E-1,7.14117E-1,4.7598818E-1,-5.3556595E-2,9.637962E-1,-3.1682462E-1,-5.2352893E-1,5.4664165E-1,4.037983E-1,-4.571689E-1,1.11651346E-1,-5.028356E-1,-5.6829756E-1,8.144964E-1,-7.6988494E-1,-6.503452E-2,7.009868E-2,-2.696203E-2,3.0143877E-2,1.17195165E-2,-1.2585414E-2,7.095223E-2,-6.6770497E-3,6.909726E-2,-3.7437234E-2,3.2698233E-3,-1.3356506E-2,-4.330829E-2,5.8532473E-2,-7.54353E-3,4.846276E-2,2.8106738E-3,-3.0476188E-2,5.5615563E-2,5.605301E-2,2.6002533E-3,9.627326E-3,-3.4542702E-2,-3.0181676E-2,6.394305E-2,-2.7482659E-2,7.3731415E-2,-3.972214E-2,4.1445345E-2,3.4415428E-2,-2.6593113E-2],"categories":[],"categories_nodes":[],"categories_segments":[],"categories_sizes":[],"default_left":[0,0,0,0,0,0,0,0,0,0,0,0,0,0,0,0,0,0,0,0,0,0,0,0,0,0,0,0,0,0,0,0,0,0,0,0,0,0,0,0,0,0,0,0,0,0,0,0,0,0,0,0,0,0,0,0,0,0,0],"id":4,"left_children":[1,3,5,7,9,11,13,15,17,19,21,23,25,27,29,31,33,35,37,39,41,43,45,47,49,51,53,55,57,-1,-1,-1,-1,-1,-1,-1,-1,-1,-1,-1,-1,-1,-1,-1,-1,-1,-1,-1,-1,-1,-1,-1,-1,-1,-1,-1,-1,-1,-1],"loss_changes":[8.930492E1,3.0000721E1,2.6149513E1,1.5091728E1,1.4963836E1,2.2237545E1,8.394806E0,1.5105179E1,9.953836E0,1.1769731E1,1.1844086E1,1.66329E1,8.712223E0,5.7296753E0,4.642915E0,1.2388321E1,1.8689257E1,3.3851814E0,7.9093876E0,7.2057266E0,5.3442364E0,1.2207106E1,5.8338237E0,1.2972008E1,7.3641415E0,8.860298E0,5.2065144E0,5.837845E0,5.2369537E0,0E0,0E0,0E0,0E0,0E0,0E0,0E0,0E0,0E0,0E0,0E0,0E0,0E0,0E0,0E0,0E0,0E0,0E0,0E0,0E0,0E0,0E0,0E0,0E0,0E0,0E0,0E0,0E0,0E0,0E0],"parents":[2147483647,0,0,1,1,2,2,3,3,4,4,5,5,6,6,7,7,8,8,9,9,10,10,11,11,12,12,13,13,14,14,15,15,16,16,17,17,18,18,19,19,20,20,21,21,22,22,23,23,24,24,25,25,26,26,27,27,28,28],"right_children":[2,4,6,8,10,12,14,16,18,20,22,24,26,28,30,32,34,36,38,40,42,44,46,48,50,52,54,56,58,-1,-1,-1,-1,-1,-1,-1,-1,-1,-1,-1,-1,-1,-1,-1,-1,-1,-1,-1,-1,-1,-1,-1,-1,-1,-1,-1,-1,-1,-1],"split_conditions":[2.3E1,9.6125E1,8.3E1,4.07E1,1.65E2,4.11E1,9.618298E-2,1.1825799E-2,7.8E0,5.9415635E-2,4.15E1,1.1775045E-2,9.1E1,1.3E2,4.6E1,1.9869566E1,2.5778925E-2,3.643E1,1.35E2,1.46E1,2.6E1,2.9E1,3.3504985E-2,7.5E1,7.368535E-3,1.07E1,3.666E1,8.9637496E-2,2.1125E1,7.009868E-2,-2.696203E-2,3.0143877E-2,1.17195165E-2,-1.2585414E-2,7.095223E-2,-6.6770497E-3,6.909726E-2,-3.7437234E-2,3.2698233E-3,-1.3356506E-2,-4.330829E-2,5.8532473E-2,-7.54353E-3,4.846276E-2,2.8106738E-3,-3.0476188E-2,5.5615563E-2,5.605301E-2,2.6002533E-3,9.627326E-3,-3.4542702E-2,-3.0181676E-2,6.394305E-2,-2.7482659E-2,7.3731415E-2,-3.972214E-2,4.1445345E-2,3.4415428E-2,-2.6593113E-2],"split_indices":[29,0,21,134,11,135,184,191,115,345,135,281,73,30,138,2,384,97,84,136,113,93,183,81,154,115,96,372,2,0,0,0,0,0,0,0,0,0,0,0,0,0,0,0,0,0,0,0,0,0,0,0,0,0,0,0,0,0,0],"split_type":[0,0,0,0,0,0,0,0,0,0,0,0,0,0,0,0,0,0,0,0,0,0,0,0,0,0,0,0,0,0,0,0,0,0,0,0,0,0,0,0,0,0,0,0,0,0,0,0,0,0,0,0,0,0,0,0,0,0,0],"sum_hessian":[1.242407E3,6.986031E2,5.4380396E2,5.221273E2,1.7647574E2,3.965311E2,1.4727283E2,4.6953873E2,5.2588585E1,9.4527885E1,8.194785E1,2.6973062E2,1.2680048E2,1.4376433E2,3.5084977E0,4.077143E2,6.182444E1,5.9753346E0,4.661325E1,8.3655205E1,1.0872682E1,6.1385918E1,2.0561934E1,2.1542342E2,5.430721E1,1.2291888E2,3.881609E0,1.3091411E2,1.2850231E1,2.188726E0,1.3197716E0,2.6633655E2,1.4137775E2,5.5222794E1,6.6016493E0,1.836498E0,4.1388364E0,2.1433683E1,2.5179567E1,4.886708E1,3.478812E1,5.3806915E0,5.49199E0,2.268806E1,3.8697857E1,1.930005E1,1.2618825E0,1.1026365E1,2.0439705E2,1.1553339E1,4.275387E1,1.21272156E2,1.6467178E0,1.3203957E0,2.5612133E0,1.2942914E2,1.4849645E0,4.734881E0,8.115351E0],"tree_param":{"num_deleted":"0","num_feature":"428","num_nodes":"59","size_leaf_vector":"1"}},{"base_weights":[-7.831002E-3,1.9509105E-1,-2.7440175E-1,3.1716648E-1,-1.9254932E-1,-1.4327928E-1,-6.4148515E-1,4.049172E-1,-1.1103698E-1,-7.790945E-3,-5.394377E-1,-4.1948948E-2,-5.8370775E-1,-7.1200377E-1,2.575074E-1,4.9945235E-1,5.8994118E-2,-2.2317356E-1,1.1100538E0,-1.3246448E-1,9.065818E-1,-6.067336E-1,7.8801876E-1,9.64096E-2,-4.1317058E-1,-6.375376E-1,6.176251E-2,-7.8148323E-1,3.024284E-1,5.660578E-1,-4.5891967E-2,5.9796434E-2,2.2432003E-2,-6.177858E-3,3.745107E-2,-1.6682468E-2,4.5874003E-2,7.634791E-2,-3.1532597E-2,-1.6154949E-2,1.4520756E-2,6.110838E-2,-2.5424665E-2,-3.4578864E-2,2.09234E-2,5.6005757E-2,7.204302E-4,9.990611E-3,-1.5024382E-2,-2.361419E-2,5.0825924E-2,-3.4136027E-2,5.589285E-2,-4.1808084E-2,9.42894E-3,3.8513348E-2,-4.385576E-2,5.5327863E-2,-2.3370458E-2],"categories":[],"categories_nodes":[],"categories_segments":[],"categories_sizes":[],"default_left":[0,0,0,0,0,0,0,0,0,0,0,0,0,0,0,0,0,0,0,0,0,0,0,0,0,0,0,0,0,0,0,0,0,0,0,0,0,0,0,0,0,0,0,0,0,0,0,0,0,0,0,0,0,0,0,0,0,0,0],"id":5,"left_children":[1,3,5,7,9,11,13,15,17,19,21,23,25,27,29,31,33,35,37,39,41,43,45,47,49,51,-1,53,55,57,-1,-1,-1,-1,-1,-1,-1,-1,-1,-1,-1,-1,-1,-1,-1,-1,-1,-1,-1,-1,-1,-1,-1,-1,-1,-1,-1,-1,-1],"loss_changes":[6.7407684E1,3.3543907E1,2.5831959E1,2.0278488E1,1.0896409E1,1.77434E1,9.15152E0,1.4592018E1,1.2895423E1,1.288665E1,5.7569637E0,1.6718939E1,8.071163E0,9.500496E0,4.517415E0,1.1885796E1,1.2323495E1,1.1071615E1,6.7224045E0,8.108969E0,6.679245E0,5.2304916E0,8.281219E-1,9.802079E0,7.9477406E0,6.54591E0,0E0,6.697342E0,5.7228966E0,5.74014E0,0E0,0E0,0E0,0E0,0E0,0E0,0E0,0E0,0E0,0E0,0E0,0E0,0E0,0E0,0E0,0E0,0E0,0E0,0E0,0E0,0E0,0E0,0E0,0E0,0E0,0E0,0E0,0E0,0E0],"parents":[2147483647,0,0,1,1,2,2,3,3,4,4,5,5,6,6,7,7,8,8,9,9,10,10,11,11,12,12,13,13,14,14,15,15,16,16,17,17,18,18,19,19,20,20,21,21,22,22,23,23,24,24,25,25,27,27,28,28,29,29],"right_children":[2,4,6,8,10,12,14,16,18,20,22,24,26,28,30,32,34,36,38,40,42,44,46,48,50,52,-1,54,56,58,-1,-1,-1,-1,-1,-1,-1,-1,-1,-1,-1,-1,-1,-1,-1,-1,-1,-1,-1,-1,-1,-1,-1,-1,-1,-1,-1,-1,-1],"split_conditions":[2.3E1,1.16E2,2.2666666E1,4.38E1,1.47E1,4.12E1,8.8E1,1.2459265E-2,2.9593555E-2,1.5155743E-1,2.094015E-1,9.25E1,9.622488E-2,6.880013E-2,6.1417624E-2,5.2E-1,2.5575383E-2,3.76E2,7.2751995E-3,1.05E2,9.2850916E-2,1.8117767E-2,3.638119E-2,8.763876E-3,4.0372014E-2,6.0012136E-2,6.176251E-2,4.5939833E-2,5E-1,1.74E1,-4.5891967E-2,5.9796434E-2,2.2432003E-2,-6.177858E-3,3.745107E-2,-1.6682468E-2,4.5874003E-2,7.634791E-2,-3.1532597E-2,-1.6154949E-2,1.4520756E-2,6.110838E-2,-2.5424665E-2,-3.4578864E-2,2.09234E-2,5.6005757E-2,7.204302E-4,9.990611E-3,-1.5024382E-2,-2.361419E-2,5.0825924E-2,-3.4136027E-2,5.589285E-2,-4.1808084E-2,9.42894E-3,3.8513348E-2,-4.385576E-2,5.5327863E-2,-2.3370458E-2],"split_indices":[29,38,2,135,136,134,73,393,377,313,421,0,182,345,420,124,419,150,219,116,216,401,390,281,228,398,0,329,37,136,0,0,0,0,0,0,0,0,0,0,0,0,0,0,0,0,0,0,0,0,0,0,0,0,0,0,0,0,0],"split_type":[0,0,0,0,0,0,0,0,0,0,0,0,0,0,0,0,0,0,0,0,0,0,0,0,0,0,0,0,0,0,0,0,0,0,0,0,0,0,0,0,0,0,0,0,0,0,0,0,0,0,0,0,0,0,0,0,0,0,0],"sum_hessian":[1.2441525E3,7.0656274E2,5.375897E2,5.374813E2,1.6908145E2,3.9712628E2,1.4046347E2,4.461145E2,9.136681E1,1.1098924E2,5.80922E1,3.2373834E2,7.338794E1,1.3043954E2,1.002392E1,3.500168E2,9.609771E1,8.4430534E1,6.936285E0,9.842434E1,1.2564901E1,5.580603E1,2.2861724E0,2.3637788E2,8.736045E1,7.190937E1,1.4785686E0,1.222932E2,8.146347E0,8.350222E0,1.6736977E0,2.2267235E1,3.2774957E2,7.6642395E1,1.9455313E1,7.762026E1,6.8102684E0,5.695087E0,1.2411977E0,6.800403E1,3.0420315E1,1.0385158E1,2.1797435E0,5.1841183E1,3.9648473E0,1.286147E0,1.0000254E0,1.8791693E2,4.8460957E1,8.453485E1,2.8255963E0,7.0700645E1,1.2087246E0,1.15898506E2,6.394693E0,6.0813136E0,2.065033E0,5.4363217E0,2.9139001E0],"tree_param":{"num_deleted":"0","num_feature":"428","num_nodes":"59","size_leaf_vector":"1"}},{"base_weights":[3.109133E-3,1.300465E-1,-3.7312758E-1,2.609259E-1,-2.2650233E-1,-1.5790343E-1,-6.58315E-1,3.4518063E-1,-1.1385063E-1,-2.675665E-1,1.0719653E0,1.5316053E-1,-4.1046736E-1,-7.147706E-1,1.9172224E-1,4.655795E-1,3.2115597E-2,1.1554085E0,-1.684845E-1,-7.424082E-1,-1.6298504E-1,-5.89817E-3,7.2584525E-2,3.3022684E-1,-3.77871E-1,-4.9840185E-1,7.452788E-1,-7.3751676E-1,5.1935147E-2,-7.470999E-1,1.0439744E0,2.8100763E-2,2.9487635E-3,6.5843E-3,-2.8027628E-2,7.227439E-2,-1.383141E-3,-1.24638155E-2,3.3129673E-2,1.2506694E-2,-4.1765194E-2,3.8393324E-3,-2.0825023E-2,2.4927586E-2,-2.9921344E-2,-3.723633E-2,4.861037E-2,-2.925354E-2,1.1501281E-2,-2.487046E-2,6.6377215E-2,-3.9016776E-2,1.4824785E-2,3.4224105E-3,-5.6744467E-2,7.501175E-2,-9.179817E-3],"categories":[],"categories_nodes":[],"categories_segments":[],"categories_sizes":[],"default_left":[0,0,0,0,0,0,0,0,0,0,0,0,0,0,0,0,0,0,0,0,0,0,0,0,0,0,0,0,0,0,0,0,0,0,0,0,0,0,0,0,0,0,0,0,0,0,0,0,0,0,0,0,0,0,0,0,0],"id":6,"left_children":[1,3,5,7,9,11,13,15,17,19,21,23,25,27,29,31,33,35,37,39,41,-1,-1,43,45,47,49,51,-1,53,55,-1,-1,-1,-1,-1,-1,-1,-1,-1,-1,-1,-1,-1,-1,-1,-1,-1,-1,-1,-1,-1,-1,-1,-1,-1,-1],"loss_changes":[5.9144314E1,4.326938E1,1.9072044E1,2.1442043E1,1.357255E1,1.4154379E1,6.570202E0,2.0853233E1,8.873961E0,1.1912985E1,3.7128696E0,7.7506466E0,1.0459471E1,5.7882156E0,8.0907955E0,1.5642975E1,9.212042E0,1.8562527E0,8.280864E0,4.215824E0,1.2181372E1,0E0,0E0,9.889168E0,1.0999536E1,5.995962E0,6.0285983E0,5.7608337E0,0E0,1.6370647E0,3.191599E0,0E0,0E0,0E0,0E0,0E0,0E0,0E0,0E0,0E0,0E0,0E0,0E0,0E0,0E0,0E0,0E0,0E0,0E0,0E0,0E0,0E0,0E0,0E0,0E0,0E0,0E0],"parents":[2147483647,0,0,1,1,2,2,3,3,4,4,5,5,6,6,7,7,8,8,9,9,10,10,11,11,12,12,13,13,14,14,15,15,16,16,17,17,18,18,19,19,20,20,23,23,24,24,25,25,26,26,27,27,29,29,30,30],"right_children":[2,4,6,8,10,12,14,16,18,20,22,24,26,28,30,32,34,36,38,40,42,-1,-1,44,46,48,50,52,-1,54,56,-1,-1,-1,-1,-1,-1,-1,-1,-1,-1,-1,-1,-1,-1,-1,-1,-1,-1,-1,-1,-1,-1,-1,-1,-1,-1],"split_conditions":[4.11E1,2.1875E1,1E0,8.7172305E-3,4.3272074E-2,2.25E1,5.215643E-2,9.1391304E1,6.3E0,3E0,2.77E1,3.66E1,2.2422198E-2,4.365263E-2,1.02583336E2,3.75E1,3.1E2,1.14813205E-2,4.403168E-2,3.55E1,3.699286E1,-5.89817E-3,7.2584525E-2,2.4316762E-2,9.85E1,1.82541E-2,4.653623E-2,3.7866276E-2,5.1935147E-2,2.1517687E-2,8.941693E-2,2.8100763E-2,2.9487635E-3,6.5843E-3,-2.8027628E-2,7.227439E-2,-1.383141E-3,-1.24638155E-2,3.3129673E-2,1.2506694E-2,-4.1765194E-2,3.8393324E-3,-2.0825023E-2,2.4927586E-2,-2.9921344E-2,-3.723633E-2,4.861037E-2,-2.925354E-2,1.1501281E-2,-2.487046E-2,6.6377215E-2,-3.9016776E-2,1.4824785E-2,3.4224105E-3,-5.6744467E-2,7.501175E-2,-9.179817E-3],"split_indices":[135,2,59,288,153,29,183,0,115,109,106,105,169,393,85,10,147,308,164,86,97,0,0,385,83,209,397,368,0,319,212,0,0,0,0,0,0,0,0,0,0,0,0,0,0,0,0,0,0,0,0,0,0,0,0,0,0],"split_type":[0,0,0,0,0,0,0,0,0,0,0,0,0,0,0,0,0,0,0,0,0,0,0,0,0,0,0,0,0,0,0,0,0,0,0,0,0,0,0,0,0,0,0,0,0,0,0,0,0,0,0,0,0,0,0,0,0],"sum_hessian":[1.236388E3,9.249696E2,3.1141833E2,6.768021E2,2.4816751E2,1.7836455E2,1.330538E2,5.5264026E2,1.2416188E2,2.4132938E2,6.8381267E0,8.0102234E1,9.826231E1,1.24916534E2,8.13726E0,3.9878708E2,1.5385315E2,4.2923937E0,1.19869484E2,4.2457306E1,1.9887207E2,1.8210196E0,5.017107E0,6.0355526E1,1.974671E1,9.1843216E1,6.4190927E0,1.2388884E2,1.0276946E0,3.9306858E0,4.206575E0,3.2202832E2,7.675879E1,1.323891E2,2.1464043E1,3.2690423E0,1.0233512E0,1.0988706E2,9.982425E0,3.4887874E0,3.8968517E1,1.0256474E2,9.630733E1,5.1486404E1,8.869121E0,1.5880028E1,3.8666823E0,8.225343E1,9.589783E0,2.0945587E0,4.324534E0,1.1919814E2,4.6906977E0,1.5320886E0,2.398597E0,2.9048061E0,1.3017684E0],"tree_param":{"num_deleted":"0","num_feature":"428","num_nodes":"57","size_leaf_vector":"1"}},{"base_weights":[1.2700829E-2,1.8650824E-1,-2.2013773E-1,3.0357867E-1,-6.0519468E-2,-6.8694554E-2,-4.5776707E-1,3.791828E-1,-5.66886E-2,5.1501796E-2,-5.982288E-1,5.367692E-2,-5.4577875E-1,-4.8946095E-1,8.949797E-1,4.3354666E-1,-3.373028E-1,-2.0372286E-1,7.967361E-1,1.6604179E-1,-3.8997224E-1,3.602175E-2,-8.35329E-1,1.6427177E-1,-4.086446E-1,-6.243499E-1,9.5180976E-1,-5.4809487E-1,2.2680992E-1,7.589727E-2,-2.144559E-2,2.5853181E-2,-6.3876733E-3,-4.618206E-2,-1.7598991E-3,-1.6513279E-2,4.4485852E-2,-1.5338093E-2,6.234748E-2,2.4984411E-3,4.165157E-2,-2.6204938E-2,4.8166193E-2,-3.6724128E-2,2.724414E-2,-4.6222407E-2,3.3810157E-2,4.5558836E-2,5.333095E-3,-3.010735E-2,2.2309562E-2,-1.5804308E-2,-4.4496313E-2,2.328068E-3,6.386135E-2,-2.0920146E-2,-4.2268813E-2,2.6111221E-2,-4.5448177E-2],"categories":[],"categories_nodes":[],"categories_segments":[],"categories_sizes":[],"default_left":[0,0,0,0,0,0,0,0,0,0,0,0,0,0,0,0,0,0,0,0,0,0,0,0,0,0,0,0,0,0,0,0,0,0,0,0,0,0,0,0,0,0,0,0,0,0,0,0,0,0,0,0,0,0,0,0,0,0,0],"id":7,"left_children":[1,3,5,7,9,11,13,15,17,19,21,23,25,27,29,31,33,35,37,39,41,43,45,47,49,51,53,55,57,-1,-1,-1,-1,-1,-1,-1,-1,-1,-1,-1,-1,-1,-1,-1,-1,-1,-1,-1,-1,-1,-1,-1,-1,-1,-1,-1,-1,-1,-1],"loss_changes":[4.9811275E1,2.039872E1,1.8901873E1,1.3049168E1,1.3729861E1,1.88575E1,9.210354E0,1.55499E1,1.0681879E1,9.628725E0,5.938616E0,1.3237213E1,8.351421E0,8.547802E0,4.8057737E0,1.7317703E1,5.0074105E0,1.0298948E1,6.6046934E0,1.1639084E1,7.6312895E0,4.96787E0,4.4831867E0,8.877357E0,8.540844E0,4.896183E0,1.0253165E0,6.80542E0,5.8040195E0,0E0,0E0,0E0,0E0,0E0,0E0,0E0,0E0,0E0,0E0,0E0,0E0,0E0,0E0,0E0,0E0,0E0,0E0,0E0,0E0,0E0,0E0,0E0,0E0,0E0,0E0,0E0,0E0,0E0,0E0],"parents":[2147483647,0,0,1,1,2,2,3,3,4,4,5,5,6,6,7,7,8,8,9,9,10,10,11,11,12,12,13,13,14,14,15,15,16,16,17,17,18,18,19,19,20,20,21,21,22,22,23,23,24,24,25,25,26,26,27,27,28,28],"right_children":[2,4,6,8,10,12,14,16,18,20,22,24,26,28,30,32,34,36,38,40,42,44,46,48,50,52,54,56,58,-1,-1,-1,-1,-1,-1,-1,-1,-1,-1,-1,-1,-1,-1,-1,-1,-1,-1,-1,-1,-1,-1,-1,-1,-1,-1,-1,-1,-1,-1],"split_conditions":[2.3E1,3.42E1,1.06E2,1.1961738E-1,7.5E-1,5.63E1,1.17747165E-1,1E0,2.6881574E-2,7.584905E-2,1.01E2,2.2875E1,2.7969584E-2,8.7E1,7.6825514E-2,2.375E1,9E1,6.300092E-2,3.4E0,3.4968976E-2,2.3375E1,3.95E1,7.884286E1,7.5E1,5.9884895E-2,1.6692784E-2,5.711523E-2,1.1E0,2.8369376E-2,7.589727E-2,-2.144559E-2,2.5853181E-2,-6.3876733E-3,-4.618206E-2,-1.7598991E-3,-1.6513279E-2,4.4485852E-2,-1.5338093E-2,6.234748E-2,2.4984411E-3,4.165157E-2,-2.6204938E-2,4.8166193E-2,-3.6724128E-2,2.724414E-2,-4.6222407E-2,3.3810157E-2,4.5558836E-2,5.333095E-3,-3.010735E-2,2.2309562E-2,-1.5804308E-2,-4.4496313E-2,2.328068E-3,6.386135E-2,-2.0920146E-2,-4.2268813E-2,2.6111221E-2,-4.5448177E-2],"split_indices":[29,135,38,397,18,135,331,63,230,242,38,2,250,73,358,2,38,361,118,290,94,86,88,81,386,345,313,143,264,0,0,0,0,0,0,0,0,0,0,0,0,0,0,0,0,0,0,0,0,0,0,0,0,0,0,0,0,0,0],"split_type":[0,0,0,0,0,0,0,0,0,0,0,0,0,0,0,0,0,0,0,0,0,0,0,0,0,0,0,0,0,0,0,0,0,0,0,0,0,0,0,0,0,0,0,0,0,0,0,0,0,0,0,0,0,0,0,0,0,0,0],"sum_hessian":[1.2288336E3,7.037232E2,5.251105E2,4.7729596E2,2.2642722E2,3.21503E2,2.0360748E2,3.9446317E2,8.283281E1,1.8813681E2,3.8290417E1,2.5657846E2,6.492455E1,1.9956989E2,4.037605E0,3.6701083E2,2.7452324E1,7.130854E1,1.1524269E1,1.4987561E2,3.826119E1,1.0649836E1,2.7640581E1,2.075692E2,4.9009262E1,6.2242107E1,2.6824422E0,1.8468626E2,1.4883625E1,2.6459553E0,1.3916497E0,3.1954404E2,4.7466793E1,8.635266E0,1.8817057E1,6.453762E1,6.770918E0,3.4316745E0,8.092595E0,1.2857521E2,2.1300406E1,3.5368504E1,2.892684E0,4.0595636E0,6.590272E0,2.646842E1,1.1721613E0,1.3802691E1,1.9376651E2,4.0204163E1,8.805098E0,2.9819624E1,3.2422485E1,1.0115595E0,1.6708828E0,1.302645E2,5.4421757E1,1.2240164E1,2.643461E0],"tree_param":{"num_deleted":"0","num_feature":"428","num_nodes":"59","size_leaf_vector":"1"}},{"base_weights":[2.8983585E-3,1.8463115E-1,-2.351986E-1,2.9700166E-1,-1.2687407E-1,-1.3026117E-1,-6.225956E-1,-2.4383713E-1,3.6749166E-1,4.3531554E-3,-5.7908195E-1,-1.9973037E-1,4.9312776E-1,-6.656368E-1,9.318376E-1,-4.7527376E-1,3.9824328E-1,4.6424207E-1,-2.061624E-2,-1.6395648E-1,5.171608E-1,-6.773479E-1,4.7984216E-2,-9.188707E-2,-6.3614E-1,7.3077595E-1,-3.845616E-1,-7.299805E-1,1.7785548E-1,6.1684508E-2,4.821538E-3,-2.9272957E-2,3.6794033E-2,3.593227E-2,-3.721728E-2,3.1541374E-2,1.400129E-2,2.2949917E-2,-1.1044001E-2,-1.2141272E-2,4.14466E-2,3.866714E-2,-1.7397143E-2,-4.3344352E-2,6.9845244E-3,-1.1778314E-3,-2.9920926E-2,-3.389182E-2,5.4217007E-2,-3.086698E-2,4.621662E-2,1.4707662E-2,-4.6729397E-2,-4.037279E-2,1.0006111E-2,7.2691016E-2,-2.4170615E-2],"categories":[],"categories_nodes":[],"categories_segments":[],"categories_sizes":[],"default_left":[0,0,0,0,0,0,0,0,0,0,0,0,0,0,0,0,0,0,0,0,0,0,0,0,0,0,0,0,0,0,0,0,0,0,0,0,0,0,0,0,0,0,0,0,0,0,0,0,0,0,0,0,0,0,0,0,0],"id":8,"left_children":[1,3,5,7,9,11,13,15,17,19,21,23,25,27,29,31,33,35,37,39,41,43,-1,45,47,49,51,53,55,-1,-1,-1,-1,-1,-1,-1,-1,-1,-1,-1,-1,-1,-1,-1,-1,-1,-1,-1,-1,-1,-1,-1,-1,-1,-1,-1,-1],"loss_changes":[5.3244576E1,2.4465286E1,2.1572966E1,1.965276E1,1.1022505E1,1.8304237E1,8.198456E0,9.071211E0,1.7071304E1,1.2593498E1,6.9669333E0,1.7776657E1,9.133008E0,6.1433372E0,7.556863E-1,6.3547735E0,6.5314913E0,1.0986107E1,8.901996E0,8.805272E0,8.25936E0,6.2930164E0,0E0,1.0543615E1,6.109667E0,9.374935E0,3.8952098E0,7.5940666E0,8.007308E0,0E0,0E0,0E0,0E0,0E0,0E0,0E0,0E0,0E0,0E0,0E0,0E0,0E0,0E0,0E0,0E0,0E0,0E0,0E0,0E0,0E0,0E0,0E0,0E0,0E0,0E0,0E0,0E0],"parents":[2147483647,0,0,1,1,2,2,3,3,4,4,5,5,6,6,7,7,8,8,9,9,10,10,11,11,12,12,13,13,14,14,15,15,16,16,17,17,18,18,19,19,20,20,21,21,23,23,24,24,25,25,26,26,27,27,28,28],"right_children":[2,4,6,8,10,12,14,16,18,20,22,24,26,28,30,32,34,36,38,40,42,44,-1,46,48,50,52,54,56,-1,-1,-1,-1,-1,-1,-1,-1,-1,-1,-1,-1,-1,-1,-1,-1,-1,-1,-1,-1,-1,-1,-1,-1,-1,-1,-1,-1],"split_conditions":[2.25E1,3.26E1,3.05E2,4E0,1.0702834E-2,2.7904514E-2,1.0494191E-1,9.65E1,1.175E2,8.998025E-2,4.0844344E-2,2.35E1,6.129969E-2,2.3359232E-2,3.3829603E-2,8.4E1,9.125E0,1.05E2,5.1E1,3.76E2,3.2E0,4.0176105E-2,4.7984216E-2,2.4139954E-2,9.618298E-2,3.656E1,8.162178E-3,3.34E2,1.8403266E-2,6.1684508E-2,4.821538E-3,-2.9272957E-2,3.6794033E-2,3.593227E-2,-3.721728E-2,3.1541374E-2,1.400129E-2,2.2949917E-2,-1.1044001E-2,-1.2141272E-2,4.14466E-2,3.866714E-2,-1.7397143E-2,-4.3344352E-2,6.9845244E-3,-1.1778314E-3,-2.9920926E-2,-3.389182E-2,5.4217007E-2,-3.086698E-2,4.621662E-2,1.4707662E-2,-4.6729397E-2,-4.037279E-2,1.0006111E-2,7.2691016E-2,-2.4170615E-2],"split_indices":[29,134,148,40,277,266,316,87,38,323,266,2,244,393,184,73,1,98,73,150,108,415,0,288,184,96,366,8,292,0,0,0,0,0,0,0,0,0,0,0,0,0,0,0,0,0,0,0,0,0,0,0,0,0,0,0,0],"split_type":[0,0,0,0,0,0,0,0,0,0,0,0,0,0,0,0,0,0,0,0,0,0,0,0,0,0,0,0,0,0,0,0,0,0,0,0,0,0,0,0,0,0,0,0,0,0,0,0,0,0,0,0,0,0,0,0,0],"sum_hessian":[1.2285151E3,6.96852E2,5.316632E2,5.1214905E2,1.8470296E2,4.1939456E2,1.1226863E2,5.8770397E1,4.5337863E2,1.4392688E2,4.0776093E1,3.7795557E2,4.1438995E1,1.09800125E2,2.4685059E0,4.3390255E1,1.5380141E1,3.6275275E2,9.062587E1,1.0887354E2,3.505333E1,3.8854637E1,1.9214545E0,3.0403464E2,7.392092E1,3.274119E1,8.697805E0,1.0214297E2,7.6571565E0,1.4630992E0,1.0054067E0,4.0245514E1,3.1447444E0,1.2301595E1,3.0785463E0,1.8921904E2,1.735337E2,2.6314037E1,6.431184E1,1.01561554E2,7.311991E0,2.7126474E1,7.926856E0,3.1488764E1,7.3658743E0,2.6881796E2,3.521669E1,7.27635E1,1.1574272E0,3.8357606E0,2.890543E1,4.1016736E0,4.596132E0,9.441066E1,7.732308E0,2.2046287E0,5.4525275E0],"tree_param":{"num_deleted":"0","num_feature":"428","num_nodes":"57","size_leaf_vector":"1"}},{"base_weights":[-1.3770473E-2,1.6026486E-1,-2.4242714E-1,2.5293157E-1,-1.9302951E-1,-1.0509265E-1,-4.7373372E-1,2.7872786E-1,-8.110475E-1,-3.0711955E-1,3.8843235E-1,-1.025484E-2,-4.954886E-1,-2.6138598E-1,-7.070023E-1,3.569791E-1,-2.7718531E-2,-1.2584692E0,3.4759837E-1,-3.6018085E-1,7.8893393E-1,8.0146134E-1,-4.0093312E-1,-4.8266068E-2,1.1053703E0,-5.905261E-1,5.6373E-1,-3.5668632E-1,6.644113E-1,-7.758583E-1,2.8989184E-1,1.6438892E-2,6.552199E-2,1.0995902E-2,-2.3882682E-2,-7.081384E-2,1.9129819E-3,-4.048471E-2,6.1094303E-2,-1.9700577E-2,6.1066717E-2,6.8092026E-2,-2.3591816E-3,-3.432275E-2,4.8340864E-2,-3.8855564E-2,5.3116597E-2,4.8987377E-2,-4.113119E-3,8.354391E-2,-1.2095488E-2,-3.3450294E-2,3.2577436E-2,-3.0983767E-2,6.53435E-2,-2.0092182E-2,6.76268E-2,5.889941E-2,-2.650342E-2,-4.1527417E-2,2.488762E-2,-3.7954178E-2,5.866155E-2],"categories":[],"categories_nodes":[],"categories_segments":[],"categories_sizes":[],"default_left":[0,0,0,0,0,0,0,0,0,0,0,0,0,0,0,0,0,0,0,0,0,0,0,0,0,0,0,0,0,0,0,0,0,0,0,0,0,0,0,0,0,0,0,0,0,0,0,0,0,0,0,0,0,0,0,0,0,0,0,0,0,0,0],"id":9,"left_children":[1,3,5,7,9,11,13,15,17,19,21,23,25,27,29,31,33,35,37,39,41,43,45,47,49,51,53,55,57,59,61,-1,-1,-1,-1,-1,-1,-1,-1,-1,-1,-1,-1,-1,-1,-1,-1,-1,-1,-1,-1,-1,-1,-1,-1,-1,-1,-1,-1,-1,-1,-1,-1],"loss_changes":[4.930956E1,2.3085012E1,1.6960924E1,1.5537537E1,9.856343E0,1.2482656E1,9.682842E0,1.3088512E1,7.415681E0,7.452714E0,8.314665E0,1.1604167E1,6.966793E0,9.577547E0,6.700741E0,1.1253246E1,1.2569406E1,2.085678E0,5.5764527E0,6.808298E0,2.9407885E0,4.7057495E0,5.8281984E0,9.319902E0,7.273964E0,6.3784027E0,6.0315914E0,8.0023575E0,6.90012E0,6.579067E0,7.212992E0,0E0,0E0,0E0,0E0,0E0,0E0,0E0,0E0,0E0,0E0,0E0,0E0,0E0,0E0,0E0,0E0,0E0,0E0,0E0,0E0,0E0,0E0,0E0,0E0,0E0,0E0,0E0,0E0,0E0,0E0,0E0,0E0],"parents":[2147483647,0,0,1,1,2,2,3,3,4,4,5,5,6,6,7,7,8,8,9,9,10,10,11,11,12,12,13,13,14,14,15,15,16,16,17,17,18,18,19,19,20,20,21,21,22,22,23,23,24,24,25,25,26,26,27,27,28,28,29,29,30,30],"right_children":[2,4,6,8,10,12,14,16,18,20,22,24,26,28,30,32,34,36,38,40,42,44,46,48,50,52,54,56,58,60,62,-1,-1,-1,-1,-1,-1,-1,-1,-1,-1,-1,-1,-1,-1,-1,-1,-1,-1,-1,-1,-1,-1,-1,-1,-1,-1,-1,-1,-1,-1,-1,-1],"split_conditions":[2.25E1,9.8541664E1,1.07E2,1.8234679E-1,1.25E2,5.75E1,1E0,8.64983E-3,8.483205E-3,2.8826216E-2,3.319879E-2,2.961494E-1,2.578995E-2,2.4503598E-2,7.7521736E1,5.278794E-2,4.268192E-2,2.4445874E-3,7.950817E-3,8.552544E-2,1.5669893E-2,3.85E1,1.603557E-2,5.945946E1,4.3724224E-2,2.2422198E-2,4.721571E-2,9.4E0,5.7916578E-2,4.19439E-2,2.5E0,1.6438892E-2,6.552199E-2,1.0995902E-2,-2.3882682E-2,-7.081384E-2,1.9129819E-3,-4.048471E-2,6.1094303E-2,-1.9700577E-2,6.1066717E-2,6.8092026E-2,-2.3591816E-3,-3.432275E-2,4.8340864E-2,-3.8855564E-2,5.3116597E-2,4.8987377E-2,-4.113119E-3,8.354391E-2,-1.2095488E-2,-3.3450294E-2,3.2577436E-2,-3.0983767E-2,6.53435E-2,-2.0092182E-2,6.76268E-2,5.889941E-2,-2.650342E-2,-4.1527417E-2,2.488762E-2,-3.7954178E-2,5.866155E-2],"split_indices":[29,0,38,200,30,135,59,301,283,152,296,151,266,282,88,273,353,304,276,211,307,8,334,82,422,169,397,114,180,195,25,0,0,0,0,0,0,0,0,0,0,0,0,0,0,0,0,0,0,0,0,0,0,0,0,0,0,0,0,0,0,0,0],"split_type":[0,0,0,0,0,0,0,0,0,0,0,0,0,0,0,0,0,0,0,0,0,0,0,0,0,0,0,0,0,0,0,0,0,0,0,0,0,0,0,0,0,0,0,0,0,0,0,0,0,0,0,0,0,0,0,0,0,0,0,0,0,0,0],"sum_hessian":[1.2371335E3,7.026393E2,5.344942E2,5.568622E2,1.457771E2,3.362849E2,1.9820932E2,5.444012E2,1.2461024E1,1.2225998E2,2.3517115E1,2.713845E2,6.490041E1,1.0486748E2,9.3341835E1,4.335333E2,1.1086787E2,8.927452E0,3.5335722E0,1.1725491E2,5.0050693E0,1.5428799E1,8.088315E0,2.6336786E2,8.016649E0,5.996279E1,4.937621E0,9.563741E1,9.230064E0,8.751861E1,5.82323E0,4.2238492E2,1.11483965E1,7.183973E1,3.9028133E1,7.8766923E0,1.0507594E0,1.5524623E0,1.9811097E0,1.1553435E2,1.7205665E0,2.596906E0,2.4081633E0,1.2279555E0,1.4200843E1,6.8072243E0,1.281091E0,7.540218E0,2.5582764E2,5.477384E0,2.5392654E0,5.6833202E1,3.1295905E0,1.9687096E0,2.9689116E0,9.3920944E1,1.7164757E0,6.4644322E0,2.7656322E0,8.4248764E1,3.2698436E0,2.7263381E0,3.0968919E0],"tree_param":{"num_deleted":"0","num_feature":"428","num_nodes":"63","size_leaf_vector":"1"}},{"base_weights":[-1.6636243E-2,7.5911224E-2,-3.3951247E-1,3.0112225E-1,-3.355933E-2,-3.8695064E-1,7.097554E-1,3.5465693E-1,-4.8089382E-1,5.739819E-1,-7.604901E-2,-4.155553E-1,8.844426E-1,7.561373E-2,-9.863412E-2,4.5842823E-1,-7.542051E-2,7.8145975E-1,-6.9639736E-1,2.4722728E-1,1.5255044E0,-3.252918E-2,-5.7996947E-1,-9.484186E-1,-3.42388E-1,7.575638E-2,-2.1011535E-2,6.0949843E-2,-7.205887E-1,2.840961E-2,-2.2022955E-3,5.558344E-3,-4.1435506E-2,5.5561382E-2,9.457414E-5,-4.437666E-2,2.8768895E-2,-7.569426E-3,4.0089756E-2,8.438787E-2,-7.1288564E-4,3.7847504E-3,-1.3753975E-2,5.491347E-2,-3.423039E-2,-5.7947155E-2,-1.2082601E-2,-1.2394399E-2,-4.1259583E-2,1.23660145E-2,-5.3460967E-2],"categories":[],"categories_nodes":[],"categories_segments":[],"categories_sizes":[],"default_left":[0,0,0,0,0,0,0,0,0,0,0,0,0,0,0,0,0,0,0,0,0,0,0,0,0,0,0,0,0,0,0,0,0,0,0,0,0,0,0,0,0,0,0,0,0,0,0,0,0,0,0],"id":10,"left_children":[1,3,5,7,9,11,13,15,17,19,21,23,25,-1,27,29,31,33,35,37,39,41,43,45,47,-1,-1,-1,49,-1,-1,-1,-1,-1,-1,-1,-1,-1,-1,-1,-1,-1,-1,-1,-1,-1,-1,-1,-1,-1,-1],"loss_changes":[3.7113827E1,2.3813175E1,1.4046988E1,1.3395693E1,1.6838036E1,1.0018421E1,8.142452E0,1.325547E1,6.1658173E0,1.2881166E1,1.3335587E1,9.820393E0,5.7043443E0,0E0,6.6779394E0,1.3195332E1,8.306393E0,8.936956E-1,4.929884E0,7.4021854E0,2.6990128E0,1.4762546E1,9.242481E0,4.3102703E0,1.0305586E1,0E0,0E0,0E0,2.0987978E0,0E0,0E0,0E0,0E0,0E0,0E0,0E0,0E0,0E0,0E0,0E0,0E0,0E0,0E0,0E0,0E0,0E0,0E0,0E0,0E0,0E0,0E0],"parents":[2147483647,0,0,1,1,2,2,3,3,4,4,5,5,6,6,7,7,8,8,9,9,10,10,11,11,12,12,14,14,15,15,16,16,17,17,18,18,19,19,20,20,21,21,22,22,23,23,24,24,28,28],"right_children":[2,4,6,8,10,12,14,16,18,20,22,24,26,-1,28,30,32,34,36,38,40,42,44,46,48,-1,-1,-1,50,-1,-1,-1,-1,-1,-1,-1,-1,-1,-1,-1,-1,-1,-1,-1,-1,-1,-1,-1,-1,-1,-1],"split_conditions":[9E-1,1.6E1,3.9545093E-2,1.4E0,1E0,5.2216485E-2,6.261556E-2,1.46E1,9.73E1,1.5123538E-2,6.1276215E-3,2.2E0,8.7E0,7.561373E-2,1.5147805E-1,2.7E1,2.2033185E-2,1.39E1,7.5870964E1,6.6E1,2.739681E-2,9.1391304E1,8.5E1,1.6029708E-2,1.0677917E2,7.575638E-2,-2.1011535E-2,6.0949843E-2,3.07E1,2.840961E-2,-2.2022955E-3,5.558344E-3,-4.1435506E-2,5.5561382E-2,9.457414E-5,-4.437666E-2,2.8768895E-2,-7.569426E-3,4.0089756E-2,8.438787E-2,-7.1288564E-4,3.7847504E-3,-1.3753975E-2,5.491347E-2,-3.423039E-2,-5.7947155E-2,-1.2082601E-2,-1.2394399E-2,-4.1259583E-2,1.23660145E-2,-5.3460967E-2],"split_indices":[144,10,368,20,60,398,341,136,24,271,200,108,114,0,421,112,398,136,88,73,210,0,150,423,0,0,0,0,105,0,0,0,0,0,0,0,0,0,0,0,0,0,0,0,0,0,0,0,0,0,0],"split_type":[0,0,0,0,0,0,0,0,0,0,0,0,0,0,0,0,0,0,0,0,0,0,0,0,0,0,0,0,0,0,0,0,0,0,0,0,0,0,0,0,0,0,0,0,0,0,0,0,0,0,0],"sum_hessian":[1.2401763E3,9.644861E2,2.7569012E2,3.1489984E2,6.4958624E2,2.6436902E2,1.13211E1,2.9523532E2,1.9664518E1,4.164297E1,6.079433E2,2.5921027E2,5.158737E0,5.244229E0,6.076872E0,2.3779338E2,5.744194E1,2.4845552E0,1.7179964E1,3.1935936E1,9.707036E0,5.6059357E2,4.7349705E1,2.9850742E1,2.2935954E2,3.3688917E0,1.7898453E0,1.6408123E0,4.4360595E0,1.9505371E2,4.2739674E1,4.672158E1,1.0720359E1,1.4470106E0,1.0375445E0,1.5197982E1,1.9819824E0,1.9003496E1,1.2932439E1,8.694713E0,1.0123243E0,3.8810974E2,1.7248384E2,2.2216678E0,4.5128036E1,2.250685E1,7.343893E0,1.9308092E2,3.627863E1,1.2516575E0,3.184402E0],"tree_param":{"num_deleted":"0","num_feature":"428","num_nodes":"51","size_leaf_vector":"1"}},{"base_weights":[-2.867632E-3,1.5630035E-1,-2.1126473E-1,2.0135905E-1,-5.1517683E-1,-1.5346968E-2,-3.5942703E-1,2.583496E-1,-2.631676E-1,-6.547916E-1,5.036052E-1,9.9286236E-2,-4.685188E-1,-1.3571794E-1,-5.339641E-1,8.565353E-1,2.1114334E-1,-7.203514E-4,-6.3960755E-1,-7.562631E-1,5.840935E-1,5.9155356E-2,-4.7033656E-1,3.8575817E-2,1.0751626E0,-5.4250675E-1,5.9371173E-2,-2.7146178E-1,4.0363264E-1,-5.6866413E-1,9.5423853E-1,5.3267784E-2,4.7098505E-3,2.4136823E-2,4.5238296E-3,-1.30269155E-2,4.0191844E-2,-3.9276287E-2,4.7981597E-2,-4.127827E-2,3.2244693E-2,5.7363655E-2,-1.9806629E-2,6.132006E-3,-4.279862E-2,-2.4618715E-4,5.091762E-2,-2.5491117E-2,7.1533E-2,-1.6406005E-2,-5.3872347E-2,-2.0682013E-2,1.1502993E-2,-3.564303E-3,5.759255E-2,-3.0532604E-2,2.180768E-2,-1.0756417E-2,7.320474E-2],"categories":[],"categories_nodes":[],"categories_segments":[],"categories_sizes":[],"default_left":[0,0,0,0,0,0,0,0,0,0,0,0,0,0,0,0,0,0,0,0,0,0,0,0,0,0,0,0,0,0,0,0,0,0,0,0,0,0,0,0,0,0,0,0,0,0,0,0,0,0,0,0,0,0,0,0,0,0,0],"id":11,"left_children":[1,3,5,7,9,11,13,15,17,19,21,23,25,27,29,31,33,35,37,39,41,-1,43,45,47,49,-1,51,53,55,57,-1,-1,-1,-1,-1,-1,-1,-1,-1,-1,-1,-1,-1,-1,-1,-1,-1,-1,-1,-1,-1,-1,-1,-1,-1,-1,-1,-1],"loss_changes":[4.0967667E1,2.1290638E1,1.5519146E1,1.7459608E1,6.6331387E0,1.2064387E1,1.1816181E1,1.635698E1,7.1409683E0,5.3959713E0,4.465293E0,1.0946367E1,6.3879232E0,9.9776E0,9.357586E0,6.6668625E0,1.7789232E1,9.321881E0,7.682831E0,4.11182E0,2.4129703E0,0E0,8.2366157E-1,7.4906335E0,6.828723E0,4.8716393E0,0E0,7.81617E0,9.855354E0,7.3304443E0,2.8565068E0,0E0,0E0,0E0,0E0,0E0,0E0,0E0,0E0,0E0,0E0,0E0,0E0,0E0,0E0,0E0,0E0,0E0,0E0,0E0,0E0,0E0,0E0,0E0,0E0,0E0,0E0,0E0,0E0],"parents":[2147483647,0,0,1,1,2,2,3,3,4,4,5,5,6,6,7,7,8,8,9,9,10,10,11,11,12,12,13,13,14,14,15,15,16,16,17,17,18,18,19,19,20,20,22,22,23,23,24,24,25,25,27,27,28,28,29,29,30,30],"right_children":[2,4,6,8,10,12,14,16,18,20,22,24,26,28,30,32,34,36,38,40,42,-1,44,46,48,50,-1,52,54,56,58,-1,-1,-1,-1,-1,-1,-1,-1,-1,-1,-1,-1,-1,-1,-1,-1,-1,-1,-1,-1,-1,-1,-1,-1,-1,-1,-1,-1],"split_conditions":[2.3E1,3.02E2,8.2333336E1,4.07E1,1.1483464E-2,5.75E1,1.4E1,9.7E0,1.42486E-2,9.468965E1,1.29E2,4.4965915E-2,3.0468917E-2,1.2353933E-1,5.7017345E-2,3.0933633E-3,2.45E1,1.2686711E-2,5.0400548E-2,3.6073912E-2,1.19E2,5.9155356E-2,2.1669997E-2,1.25E2,1.4E0,2.602047E-2,5.9371173E-2,5.3E0,1.45E2,4.1815925E-2,2.8E1,5.3267784E-2,4.7098505E-3,2.4136823E-2,4.5238296E-3,-1.30269155E-2,4.0191844E-2,-3.9276287E-2,4.7981597E-2,-4.127827E-2,3.2244693E-2,5.7363655E-2,-1.9806629E-2,6.132006E-3,-4.279862E-2,-2.4618715E-4,5.091762E-2,-2.5491117E-2,7.1533E-2,-1.6406005E-2,-5.3872347E-2,-2.0682013E-2,1.1502993E-2,-3.564303E-3,5.759255E-2,-3.0532604E-2,2.180768E-2,-1.0756417E-2,7.320474E-2],"split_indices":[29,41,0,134,302,135,136,126,353,91,140,407,174,313,263,156,93,265,418,289,140,0,364,87,41,239,0,119,11,302,44,0,0,0,0,0,0,0,0,0,0,0,0,0,0,0,0,0,0,0,0,0,0,0,0,0,0,0,0],"split_type":[0,0,0,0,0,0,0,0,0,0,0,0,0,0,0,0,0,0,0,0,0,0,0,0,0,0,0,0,0,0,0,0,0,0,0,0,0,0,0,0,0,0,0,0,0,0,0,0,0,0,0,0,0,0,0,0,0,0,0],"sum_hessian":[1.2330809E3,6.992573E2,5.3382355E2,6.559413E2,4.331605E1,2.3034184E2,3.0348172E2,5.8465643E2,7.128486E1,3.840964E1,4.906411E0,1.8446176E2,4.5880074E1,1.3378424E2,1.6969748E2,4.1509842E1,5.4314655E2,4.2592228E1,2.8692629E1,3.5861916E1,2.5477254E0,2.7635615E0,2.1428497E0,1.7463693E2,9.82484E0,4.4561443E1,1.3186305E0,1.0728055E2,2.6503696E1,1.6643465E2,3.2628312E0,3.2272305E1,9.23754E0,1.6615941E2,3.7698715E2,3.270642E1,9.885806E0,2.6759817E1,1.9328117E0,3.456319E1,1.2987258E0,1.5098429E0,1.0378826E0,1.1131631E0,1.0296867E0,1.6816577E2,6.4711533E0,1.7203867E0,8.104453E0,3.2963943E1,1.1597501E1,8.372128E1,2.3559267E1,1.67663E1,9.737395E0,1.601354E2,6.299245E0,1.1661958E0,2.0966353E0],"tree_param":{"num_deleted":"0","num_feature":"428","num_nodes":"59","size_leaf_vector":"1"}},{"base_weights":[8.36617E-3,1.4359021E-1,-1.7352712E-1,2.0881087E-1,-2.881412E-1,-8.7157965E-2,-4.718835E-1,1.8750744E-1,1.3929791E0,-3.5074848E-1,6.0091373E-2,1.1172673E-1,-2.523575E-1,-5.0871915E-1,6.411471E-2,1.5309234E-1,8.9442575E-1,8.0690615E-2,1.0447571E-2,6.8227226E-1,-4.352769E-1,3.369424E-2,1.0018038E0,-3.3573288E-1,5.646829E-1,4.595965E-1,-5.678233E-1,4.5528798E-4,1.5141258E-2,5.7875503E-2,-2.7959723E-2,6.110064E-2,-4.2720344E-2,-2.3875568E-2,5.668952E-2,-1.5758325E-3,5.813104E-2,6.387215E-2,-1.9939572E-2,4.3825015E-2,-1.900969E-2,-2.2057046E-3,6.8162285E-2,4.9241487E-2,-3.5442185E-2,-3.279449E-2,1.0238584E-3],"categories":[],"categories_nodes":[],"categories_segments":[],"categories_sizes":[],"default_left":[0,0,0,0,0,0,0,0,0,0,0,0,0,0,0,0,0,0,0,0,0,0,0,0,0,0,0,0,0,0,0,0,0,0,0,0,0,0,0,0,0,0,0,0,0,0,0],"id":12,"left_children":[1,3,5,7,9,11,13,15,17,19,-1,21,23,25,-1,27,29,-1,-1,31,33,35,37,39,41,43,45,-1,-1,-1,-1,-1,-1,-1,-1,-1,-1,-1,-1,-1,-1,-1,-1,-1,-1,-1,-1],"loss_changes":[3.0150148E1,1.9856895E1,1.3428763E1,1.5161808E1,9.068041E0,1.3387279E1,8.220312E0,1.4502199E1,2.4471588E0,8.131948E0,0E0,1.2828144E1,1.5340774E1,6.867155E0,0E0,1.239388E1,1.1250929E1,0E0,0E0,6.9961276E0,6.0782337E0,1.2646859E1,6.258439E0,1.1244577E1,1.0253891E1,5.112424E0,5.6729126E0,0E0,0E0,0E0,0E0,0E0,0E0,0E0,0E0,0E0,0E0,0E0,0E0,0E0,0E0,0E0,0E0,0E0,0E0,0E0,0E0],"parents":[2147483647,0,0,1,1,2,2,3,3,4,4,5,5,6,6,7,7,8,8,9,9,11,11,12,12,13,13,15,15,16,16,19,19,20,20,21,21,22,22,23,23,24,24,25,25,26,26],"right_children":[2,4,6,8,10,12,14,16,18,20,-1,22,24,26,-1,28,30,-1,-1,32,34,36,38,40,42,44,46,-1,-1,-1,-1,-1,-1,-1,-1,-1,-1,-1,-1,-1,-1,-1,-1,-1,-1,-1,-1],"split_conditions":[2.25E1,1.25E2,8.00957E-3,6.3277446E-2,7.884416E-2,8.2958336E1,4.5375638E-2,4.0313855E-2,1.54E1,8.1818184E1,6.0091373E-2,2.3544442E-2,2.5616135E-2,5.7E-1,6.411471E-2,5E0,6.0339715E-2,8.0690615E-2,1.0447571E-2,1.87E2,7.858249E-2,2.842187E-2,4.063081E-2,9.2333336E1,7.7413074E-3,3.5584796E-2,8.313065E-2,4.5528798E-4,1.5141258E-2,5.7875503E-2,-2.7959723E-2,6.110064E-2,-4.2720344E-2,-2.3875568E-2,5.668952E-2,-1.5758325E-3,5.813104E-2,6.387215E-2,-1.9939572E-2,4.3825015E-2,-1.900969E-2,-2.2057046E-3,6.8162285E-2,4.9241487E-2,-3.5442185E-2,-3.279449E-2,1.0238584E-3],"split_indices":[29,38,281,319,344,0,207,165,136,82,0,407,390,125,0,102,211,0,0,149,312,250,330,100,183,240,386,0,0,0,0,0,0,0,0,0,0,0,0,0,0,0,0,0,0,0,0],"split_type":[0,0,0,0,0,0,0,0,0,0,0,0,0,0,0,0,0,0,0,0,0,0,0,0,0,0,0,0,0,0,0,0,0,0,0,0,0,0,0,0,0,0,0,0,0,0,0],"sum_hessian":[1.2237848E3,7.020636E2,5.217211E2,6.103724E2,9.1691185E1,4.0559915E2,1.1612201E2,6.0072363E2,9.648799E0,8.872752E1,2.9636664E0,1.841834E2,2.2141574E2,1.1442913E2,1.6928785E0,5.7399615E2,2.6727446E1,7.8261576E0,1.8226415E0,6.176241E0,8.2551285E1,1.7029187E2,1.3891524E1,2.0144797E2,1.9967787E1,6.1929398E0,1.0823619E2,2.931536E2,2.8084256E2,2.2803965E1,3.9234827E0,4.7223434E0,1.4538974E0,8.106493E1,1.4863466E0,1.6191136E2,8.380505E0,1.1680678E1,2.210846E0,6.4649954E0,1.9498297E2,1.1866177E1,8.101609E0,4.380827E0,1.8121128E0,9.404335E1,1.41928425E1],"tree_param":{"num_deleted":"0","num_feature":"428","num_nodes":"47","size_leaf_vector":"1"}},{"base_weights":[2.32242E-4,1.05758354E-1,-3.09894E-1,2.3873864E-1,-1.3976851E-1,-3.6340302E-1,4.103391E-1,3.0186406E-1,-1.754212E-1,-2.3498502E-1,3.9515695E-1,-4.0835392E-1,3.14224E-1,3.0608768E-2,1.1836784E0,5.2411985E-1,1.8892753E-1,-2.9293495E-1,1.0018623E0,-2.9441226E-1,5.6274724E-1,1.9033201E-1,1.1159817E0,-4.6726558E-1,1.7171955E-1,1.0113181E0,-2.5099057E-1,-3.1697953E-1,1.0731273E0,7.400265E-2,-1.20033E-2,4.3321285E-2,1.6334748E-2,7.4680992E-3,5.2239444E-2,3.254912E-2,-2.1282101E-2,7.670777E-2,-8.256429E-3,-1.8333443E-2,2.1821868E-2,6.850874E-2,4.299114E-3,1.9322189E-2,-3.138782E-2,-8.316539E-3,6.922219E-2,-2.4308214E-2,4.254856E-2,-1.5998809E-2,3.797787E-2,6.795453E-2,-2.5968065E-2,2.298684E-2,-3.950949E-2,-3.133317E-2,5.863964E-2,6.906717E-2,2.5022752E-3],"categories":[],"categories_nodes":[],"categories_segments":[],"categories_sizes":[],"default_left":[0,0,0,0,0,0,0,0,0,0,0,0,0,0,0,0,0,0,0,0,0,0,0,0,0,0,0,0,0,0,0,0,0,0,0,0,0,0,0,0,0,0,0,0,0,0,0,0,0,0,0,0,0,0,0,0,0,0,0],"id":13,"left_children":[1,3,5,7,9,11,13,15,17,19,21,23,25,27,29,31,33,35,37,39,41,43,45,47,49,51,53,55,57,-1,-1,-1,-1,-1,-1,-1,-1,-1,-1,-1,-1,-1,-1,-1,-1,-1,-1,-1,-1,-1,-1,-1,-1,-1,-1,-1,-1,-1,-1],"loss_changes":[4.022555E1,2.9976505E1,1.2175461E1,1.5615398E1,1.6535782E1,8.992355E0,6.4390697E0,1.2875507E1,1.1272826E1,1.31872635E1,7.0447655E0,9.421036E0,7.6093144E0,6.071076E0,3.4082422E0,1.1448429E1,1.1502934E1,9.412878E0,4.8680325E0,1.3694338E1,7.345234E0,6.577054E0,3.9037666E0,6.602249E0,7.738307E0,5.2614365E0,4.6211004E0,6.5631437E0,1.2497487E0,0E0,0E0,0E0,0E0,0E0,0E0,0E0,0E0,0E0,0E0,0E0,0E0,0E0,0E0,0E0,0E0,0E0,0E0,0E0,0E0,0E0,0E0,0E0,0E0,0E0,0E0,0E0,0E0,0E0,0E0],"parents":[2147483647,0,0,1,1,2,2,3,3,4,4,5,5,6,6,7,7,8,8,9,9,10,10,11,11,12,12,13,13,14,14,15,15,16,16,17,17,18,18,19,19,20,20,21,21,22,22,23,23,24,24,25,25,26,26,27,27,28,28],"right_children":[2,4,6,8,10,12,14,16,18,20,22,24,26,28,30,32,34,36,38,40,42,44,46,48,50,52,54,56,58,-1,-1,-1,-1,-1,-1,-1,-1,-1,-1,-1,-1,-1,-1,-1,-1,-1,-1,-1,-1,-1,-1,-1,-1,-1,-1,-1,-1,-1,-1],"split_conditions":[4.11E1,9.125E1,2.842187E-2,1.14057325E-2,1.1E2,8.7E1,2.192671E-2,6.3E1,2.4857575E-2,5.321734E-2,2.6385155E-2,4.5349833E-2,5.9068966E1,9.8E0,4.74E2,3.8E0,4.0313855E-2,2.54E2,2.4822503E-2,3.026111E-2,1.2550803E-1,1.5714285E0,2.8E0,1.07E1,9.813333E1,3.1224158E-2,1.83E2,1.5684545E-2,2.2295607E-2,7.400265E-2,-1.20033E-2,4.3321285E-2,1.6334748E-2,7.4680992E-3,5.2239444E-2,3.254912E-2,-2.1282101E-2,7.670777E-2,-8.256429E-3,-1.8333443E-2,2.1821868E-2,6.850874E-2,4.299114E-3,1.9322189E-2,-3.138782E-2,-8.316539E-3,6.922219E-2,-2.4308214E-2,4.254856E-2,-1.5998809E-2,3.797787E-2,6.795453E-2,-2.5968065E-2,2.298684E-2,-3.950949E-2,-3.133317E-2,5.863964E-2,6.906717E-2,2.5022752E-3],"split_indices":[135,0,250,191,30,73,314,73,309,315,244,418,88,107,147,118,165,148,214,390,168,19,108,115,3,157,99,286,282,0,0,0,0,0,0,0,0,0,0,0,0,0,0,0,0,0,0,0,0,0,0,0,0,0,0,0,0,0,0],"split_type":[0,0,0,0,0,0,0,0,0,0,0,0,0,0,0,0,0,0,0,0,0,0,0,0,0,0,0,0,0,0,0,0,0,0,0,0,0,0,0,0,0,0,0,0,0,0,0,0,0,0,0,0,0,0,0,0,0,0,0],"sum_hessian":[1.2271448E3,9.160881E2,3.1105667E2,5.942583E2,3.2182977E2,2.9000638E2,2.1050308E1,5.1589734E2,7.836092E1,2.7367624E2,4.815354E1,2.72338E2,1.7668373E1,1.4815218E1,6.2350893E0,1.725949E2,3.4330246E2,7.1932014E1,6.4289117E0,2.5528934E2,1.8386896E1,3.8482616E1,9.670926E0,2.4740617E2,2.493183E1,7.557833E0,1.0110539E1,1.1632688E1,3.1825306E0,5.1280546E0,1.1070346E0,6.1892944E1,1.1070195E2,3.2925583E2,1.4046631E1,8.385107E0,6.3546906E1,4.199014E0,2.2298977E0,2.3277405E2,2.2515276E1,6.1305604E0,1.2256335E1,3.1466991E1,7.0156255E0,1.7400389E0,7.9308877E0,2.4453168E2,2.8744931E0,1.3824244E1,1.1107586E1,6.249938E0,1.3078953E0,4.4251056E0,5.6854334E0,1.0110368E1,1.5223193E0,2.1766183E0,1.0059123E0],"tree_param":{"num_deleted":"0","num_feature":"428","num_nodes":"59","size_leaf_vector":"1"}},{"base_weights":[-1.1491827E-2,3.0491756E-2,-5.208335E-1,9.197132E-2,-3.413683E-1,-5.6668097E-1,5.4213848E-2,1.491152E-1,-2.8670615E-1,-3.9240813E-1,1.0073915E0,-6.3645774E-1,5.435535E-1,2.0822994E-1,-2.1294896E-1,-3.6814845E-1,1.1651082E0,-4.465085E-1,7.780126E-1,-1.9669367E-2,6.883054E-2,-6.8323195E-1,6.387563E-1,6.067428E-2,-4.8744392E-1,-1.0684749E-2,1.2855E-2,-1.4305256E-2,3.8114652E-2,-2.1993797E-2,2.5743127E-2,7.4906155E-2,-1.5415022E-2,-3.2745477E-2,-7.754878E-3,-2.1473147E-2,6.9326535E-2,-3.605104E-2,4.1163947E-2,6.028212E-2,-2.0273449E-2,6.1375783E-3,-4.2364355E-2],"categories":[],"categories_nodes":[],"categories_segments":[],"categories_sizes":[],"default_left":[0,0,0,0,0,0,0,0,0,0,0,0,0,0,0,0,0,0,0,0,0,0,0,0,0,0,0,0,0,0,0,0,0,0,0,0,0,0,0,0,0,0,0],"id":14,"left_children":[1,3,5,7,9,11,-1,13,15,17,19,21,23,25,27,29,31,33,35,-1,-1,37,39,-1,41,-1,-1,-1,-1,-1,-1,-1,-1,-1,-1,-1,-1,-1,-1,-1,-1,-1,-1],"loss_changes":[2.6291151E1,2.6004955E1,7.5042496E0,2.115635E1,1.1505943E1,7.4483185E0,0E0,1.8203772E1,1.559613E1,1.02400055E1,3.7301607E0,5.60902E0,4.7085204E0,1.5104322E1,8.749346E0,7.9675407E0,3.9229164E0,9.005825E0,5.935103E0,0E0,0E0,5.3833427E0,2.6110897E0,0E0,7.7614623E-1,0E0,0E0,0E0,0E0,0E0,0E0,0E0,0E0,0E0,0E0,0E0,0E0,0E0,0E0,0E0,0E0,0E0,0E0],"parents":[2147483647,0,0,1,1,2,2,3,3,4,4,5,5,7,7,8,8,9,9,10,10,11,11,12,12,13,13,14,14,15,15,16,16,17,17,18,18,21,21,22,22,24,24],"right_children":[2,4,6,8,10,12,-1,14,16,18,20,22,24,26,28,30,32,34,36,-1,-1,38,40,-1,42,-1,-1,-1,-1,-1,-1,-1,-1,-1,-1,-1,-1,-1,-1,-1,-1,-1,-1],"split_conditions":[1.47E2,1.23E2,2E1,4.12E1,7.884416E-2,1.15E2,5.4213848E-2,1.1358415E-2,7.4349135E-2,3.0712815E-2,1.6757576E1,9.1E1,1.8E0,4E0,6.75923E-2,2.2584688E-2,4.606686E-2,1.6136363E2,4.7494913E-3,-1.9669367E-2,6.883054E-2,4.480071E-2,2.37E2,6.067428E-2,6.325694E-2,-1.0684749E-2,1.2855E-2,-1.4305256E-2,3.8114652E-2,-2.1993797E-2,2.5743127E-2,7.4906155E-2,-1.5415022E-2,-3.2745477E-2,-7.754878E-3,-2.1473147E-2,6.9326535E-2,-3.605104E-2,4.1163947E-2,6.028212E-2,-2.0273449E-2,6.1375783E-3,-4.2364355E-2],"split_indices":[43,38,110,134,344,116,0,192,345,401,94,73,27,40,201,223,195,11,225,0,0,393,99,0,386,0,0,0,0,0,0,0,0,0,0,0,0,0,0,0,0,0,0],"split_type":[0,0,0,0,0,0,0,0,0,0,0,0,0,0,0,0,0,0,0,0,0,0,0,0,0,0,0,0,0,0,0,0,0,0,0,0,0,0,0,0,0,0,0],"sum_hessian":[1.2277358E3,1.1351119E3,9.262391E1,9.747151E2,1.6039684E2,9.06807E1,1.9432026E0,8.4743945E2,1.2727564E2,1.5523161E2,5.165221E0,8.572005E1,4.960654E0,7.28862E2,1.1857746E2,1.21221886E2,6.0537515E0,1.4896452E2,6.2670836E0,1.0638044E0,4.101417E0,8.3134926E1,2.5851257E0,2.8995516E0,2.0611022E0,7.530813E1,6.5355383E2,1.1096057E2,7.6168914E0,1.1257889E2,8.643001E0,4.9240584E0,1.1296928E0,8.612517E1,6.283936E1,2.1986248E0,4.068459E0,8.160926E1,1.5256608E0,1.5753329E0,1.0097929E0,1.008996E0,1.0521063E0],"tree_param":{"num_deleted":"0","num_feature":"428","num_nodes":"43","size_leaf_vector":"1"}},{"base_weights":[-8.5706415E-4,1.3888396E-1,-1.8534122E-1,2.151473E-1,-2.187481E-1,1.1146464E-2,-3.0580214E-1,2.8759068E-1,-1.14057295E-1,5.0835437E-1,-3.3406138E-1,-3.4673233E-2,1.1865945E0,-3.458585E-1,3.8055283E-1,2.5315666E-1,9.463119E-1,-1.991449E-1,1.130884E0,8.251277E-1,-4.834869E-2,-4.1573992E-1,6.857216E-1,-1.16590396E-1,5.04738E-1,8.182947E-2,-3.5785586E-2,-3.6917824E-1,6.3784623E-1,8.9798445E-1,-5.0457054E-1,1.6702248E-2,-1.3670824E-3,6.70991E-2,-4.2082067E-3,-1.8629402E-2,2.0693293E-2,7.482287E-2,-1.2569104E-2,-2.3639247E-2,5.986467E-2,-2.7332554E-2,1.2388268E-2,4.91191E-2,-3.1008122E-2,2.3531832E-3,-2.196998E-2,5.2504916E-2,-4.0100426E-3,-1.333963E-2,-2.979444E-2,4.991907E-2,-3.6493592E-2,5.8196187E-2,-2.5597556E-2,2.3949226E-2,-4.848038E-2],"categories":[],"categories_nodes":[],"categories_segments":[],"categories_sizes":[],"default_left":[0,0,0,0,0,0,0,0,0,0,0,0,0,0,0,0,0,0,0,0,0,0,0,0,0,0,0,0,0,0,0,0,0,0,0,0,0,0,0,0,0,0,0,0,0,0,0,0,0,0,0,0,0,0,0,0,0],"id":15,"left_children":[1,3,5,7,9,11,13,15,17,19,21,23,25,27,29,31,33,35,37,39,-1,41,43,45,47,-1,-1,49,51,53,55,-1,-1,-1,-1,-1,-1,-1,-1,-1,-1,-1,-1,-1,-1,-1,-1,-1,-1,-1,-1,-1,-1,-1,-1,-1,-1],"loss_changes":[3.1525309E1,1.9024742E1,1.2478203E1,1.3722332E1,1.0465476E1,1.08817005E1,9.115534E0,1.0438568E1,1.1268167E1,8.838617E0,9.163376E0,8.66197E0,7.6599884E0,7.330204E0,8.923757E0,1.01907425E1,9.499334E0,1.0619485E1,3.8219337E0,7.668441E0,0E0,8.761337E0,3.8175397E0,8.99321E0,8.3326645E0,0E0,0E0,6.868389E0,4.441096E0,5.107257E0,3.878169E0,0E0,0E0,0E0,0E0,0E0,0E0,0E0,0E0,0E0,0E0,0E0,0E0,0E0,0E0,0E0,0E0,0E0,0E0,0E0,0E0,0E0,0E0,0E0,0E0,0E0,0E0],"parents":[2147483647,0,0,1,1,2,2,3,3,4,4,5,5,6,6,7,7,8,8,9,9,10,10,11,11,12,12,13,13,14,14,15,15,16,16,17,17,18,18,19,19,21,21,22,22,23,23,24,24,27,27,28,28,29,29,30,30],"right_children":[2,4,6,8,10,12,14,16,18,20,22,24,26,28,30,32,34,36,38,40,-1,42,44,46,48,-1,-1,50,52,54,56,-1,-1,-1,-1,-1,-1,-1,-1,-1,-1,-1,-1,-1,-1,-1,-1,-1,-1,-1,-1,-1,-1,-1,-1,-1,-1],"split_conditions":[2.3E1,1.00625E2,8.0291664E1,1.19138986E-1,3.8E1,3.5819344E-2,6.17695E-2,3.9381795E-2,4.147079E-2,6.5E1,3.9708093E-2,1.671191E-2,1.12444274E-1,9.667221E-2,1.4544481E-2,1.0001987E-1,3.839569E-2,1.9772366E-2,5.496843E-2,1.02E2,-4.834869E-2,2.75E2,8.49E1,4.6631542E-1,2.8492462E-2,8.182947E-2,-3.5785586E-2,3.3E1,1.1728919E-1,6.282489E-2,9.383153E-2,1.6702248E-2,-1.3670824E-3,6.70991E-2,-4.2082067E-3,-1.8629402E-2,2.0693293E-2,7.482287E-2,-1.2569104E-2,-2.3639247E-2,5.986467E-2,-2.7332554E-2,1.2388268E-2,4.91191E-2,-3.1008122E-2,2.3531832E-3,-2.196998E-2,5.2504916E-2,-4.0100426E-3,-1.333963E-2,-2.979444E-2,4.991907E-2,-3.6493592E-2,5.8196187E-2,-2.5597556E-2,2.3949226E-2,-4.848038E-2],"split_indices":[29,0,0,397,73,385,292,165,387,141,154,263,339,173,256,177,393,230,410,99,0,11,135,381,226,0,0,139,180,240,292,0,0,0,0,0,0,0,0,0,0,0,0,0,0,0,0,0,0,0,0,0,0,0,0,0,0],"split_type":[0,0,0,0,0,0,0,0,0,0,0,0,0,0,0,0,0,0,0,0,0,0,0,0,0,0,0,0,0,0,0,0,0,0,0,0,0,0,0,0,0,0,0,0,0,0,0,0,0,0,0,0,0,0,0,0,0],"sum_hessian":[1.2208604E3,6.948103E2,5.2605005E2,5.730158E2,1.217945E2,2.0027783E2,3.2577222E2,4.697672E2,1.0324857E2,1.6205164E1,1.0558933E2,1.9369788E2,6.5799613E0,3.0827695E2,1.7495264E1,4.4774606E2,2.2021168E1,9.742962E1,5.818955E0,1.3703541E1,2.5016234E0,9.830779E1,7.281542E0,1.6884088E2,2.4857002E1,5.434176E0,1.1457853E0,3.017484E2,6.5285482E0,1.1031729E1,6.463535E0,3.4738E2,1.00366066E2,1.5693188E1,6.32798E0,7.6248375E1,2.1181248E1,4.5365453E0,1.2824097E0,2.9934938E0,1.0710047E1,8.225484E1,1.6052954E1,6.1354623E0,1.1460795E0,1.12606926E2,5.6233948E1,1.2452161E1,1.2404841E1,2.0937056E2,9.2377846E1,5.3803167E0,1.1482311E0,9.427934E0,1.6037945E0,2.06534E0,4.398195E0],"tree_param":{"num_deleted":"0","num_feature":"428","num_nodes":"57","size_leaf_vector":"1"}},{"base_weights":[4.0043183E-3,1.1038307E-1,-2.4378222E-1,-4.5218762E-2,3.0036768E-1,-4.931887E-2,-4.991841E-1,5.0561994E-1,-1.17782205E-1,4.388548E-2,4.9017647E-1,-1.0623676E-1,8.2836425E-1,-5.237732E-1,5.1741578E-2,8.3272964E-1,-3.9769076E-2,-1.3821946E-1,1.251129E0,-5.53489E-1,1.4505082E-1,4.0850824E-1,1.3292046E0,-2.133509E-2,-6.009011E-1,1.1523502E0,-4.430903E-2,-5.7349265E-1,2.9210392E-1,4.9110807E-2,-2.9267738E-2,2.4799686E-2,-2.4838936E-2,-1.3822374E-2,3.062338E-3,7.422298E-2,9.57681E-4,4.0564146E-2,-3.7140507E-2,4.307979E-2,2.9754008E-3,-5.0437827E-2,2.2724938E-2,7.281725E-2,-2.1077076E-3,-1.9371903E-2,5.989554E-3,-4.109169E-2,2.035453E-2,8.1204735E-2,1.1573352E-2,-2.9972116E-2,4.296929E-2,2.9607436E-2,-4.2977482E-2],"categories":[],"categories_nodes":[],"categories_segments":[],"categories_sizes":[],"default_left":[0,0,0,0,0,0,0,0,0,0,0,0,0,0,0,0,0,0,0,0,0,0,0,0,0,0,0,0,0,0,0,0,0,0,0,0,0,0,0,0,0,0,0,0,0,0,0,0,0,0,0,0,0,0,0],"id":16,"left_children":[1,3,5,7,9,11,13,15,17,19,21,23,25,27,-1,29,31,33,35,37,39,41,43,45,47,49,-1,51,53,-1,-1,-1,-1,-1,-1,-1,-1,-1,-1,-1,-1,-1,-1,-1,-1,-1,-1,-1,-1,-1,-1,-1,-1,-1,-1],"loss_changes":[3.2165295E1,2.5251097E1,1.8179585E1,1.8853634E1,1.869793E1,1.0538758E1,6.5142593E0,9.830832E0,1.1819003E1,1.0029821E1,1.4592438E1,8.275269E0,8.161489E0,6.515785E0,0E0,7.8619156E0,5.521491E0,1.1350428E1,1.7603855E0,6.8168974E0,8.627217E0,1.3672894E1,3.4001846E0,8.80252E0,6.7644653E0,4.509531E0,0E0,6.0124245E0,3.8440766E0,0E0,0E0,0E0,0E0,0E0,0E0,0E0,0E0,0E0,0E0,0E0,0E0,0E0,0E0,0E0,0E0,0E0,0E0,0E0,0E0,0E0,0E0,0E0,0E0,0E0,0E0],"parents":[2147483647,0,0,1,1,2,2,3,3,4,4,5,5,6,6,7,7,8,8,9,9,10,10,11,11,12,12,13,13,15,15,16,16,17,17,18,18,19,19,20,20,21,21,22,22,23,23,24,24,25,25,27,27,28,28],"right_children":[2,4,6,8,10,12,14,16,18,20,22,24,26,28,-1,30,32,34,36,38,40,42,44,46,48,50,-1,52,54,-1,-1,-1,-1,-1,-1,-1,-1,-1,-1,-1,-1,-1,-1,-1,-1,-1,-1,-1,-1,-1,-1,-1,-1,-1,-1],"split_conditions":[3.79E1,5E0,1E0,2.54E2,1.04E2,3.4376148E-2,9.2482746E-2,1.41E1,1.4033934E-1,8.3E1,1.14E0,6.9796175E-2,1E2,1.6829284E-1,5.1741578E-2,3.1E1,1.415E2,1.5166667E2,4.061438E-3,2.46E1,3.65E1,8E0,8.06674E-2,2.85E1,9.836667E1,8.392189E-2,-4.430903E-2,3.911E1,1.032329E-1,4.9110807E-2,-2.9267738E-2,2.4799686E-2,-2.4838936E-2,-1.3822374E-2,3.062338E-3,7.422298E-2,9.57681E-4,4.0564146E-2,-3.7140507E-2,4.307979E-2,2.9754008E-3,-5.0437827E-2,2.2724938E-2,7.281725E-2,-2.1077076E-3,-1.9371903E-2,5.989554E-3,-4.109169E-2,2.035453E-2,8.1204735E-2,1.1573352E-2,-2.9972116E-2,4.296929E-2,2.9607436E-2,-4.2977482E-2],"split_indices":[135,102,59,148,117,250,333,136,290,90,122,189,21,205,0,112,43,11,424,105,86,139,361,106,3,224,0,96,413,0,0,0,0,0,0,0,0,0,0,0,0,0,0,0,0,0,0,0,0,0,0,0,0,0,0],"split_type":[0,0,0,0,0,0,0,0,0,0,0,0,0,0,0,0,0,0,0,0,0,0,0,0,0,0,0,0,0,0,0,0,0,0,0,0,0,0,0,0,0,0,0,0,0,0,0,0,0,0,0,0,0,0,0],"sum_hessian":[1.2182463E3,8.5271606E2,3.655302E2,4.691958E2,3.835203E2,2.0819974E2,1.5733047E2,5.39193E1,4.152765E2,1.6363586E2,2.1988443E2,1.9634564E2,1.185409E1,1.5549654E2,1.8339323E0,3.337501E1,2.0544289E1,4.100536E2,5.2228913E0,2.3050873E1,1.4058499E2,2.0173508E2,1.8149343E1,1.6847293E2,2.7872707E1,1.0245891E1,1.6081997E0,1.4684492E2,8.651621E0,3.047036E1,2.9046504E0,9.418023E0,1.1126266E1,2.4197884E2,1.6807475E2,4.2189064E0,1.0039847E0,2.4078703E0,2.0643003E1,1.4025874E1,1.2655911E2,5.682624E0,1.9605246E2,1.6552744E1,1.5965992E0,4.6388557E1,1.2208438E2,2.3013308E1,4.8594003E0,6.2702017E0,3.9756885E0,1.4480415E2,2.0407739E0,7.248872E0,1.4027494E0],"tree_param":{"num_deleted":"0","num_feature":"428","num_nodes":"55","size_leaf_vector":"1"}},{"base_weights":[-1.6536867E-2,9.696631E-2,-2.313715E-1,-1.0039175E-1,2.2153531E-1,-1.2665164E-1,-5.107421E-1,-1.2698178E-1,1.1580544E0,2.8603068E-1,-2.4014768E-1,-2.0535116E-1,2.9195204E-1,-5.6701416E-1,5.407354E-1,-1.6647983E-1,7.252548E-1,7.614892E-2,-2.0811131E-2,-1.7202562E-1,3.6944982E-1,-3.3121932E-1,1.0771143E0,9.460435E-1,-2.3639311E-1,8.1162024E-1,-9.473087E-2,-6.0325885E-1,8.833797E-1,-5.4481584E-1,7.355814E-2,-9.675147E-3,4.4256173E-2,5.1600803E-2,-2.8346643E-2,-1.4647837E-2,4.4295635E-2,2.4382189E-2,2.8875105E-3,-1.9812677E-2,6.168739E-2,6.8139486E-2,4.352701E-3,7.070721E-2,-3.1919178E-2,-1.48628205E-2,1.3120495E-2,5.8996912E-2,-4.6617775E-3,-1.9147547E-2,6.259233E-2,-4.1718762E-2,-1.9389333E-2,5.768894E-2,8.127845E-3,6.780734E-3,-4.2462174E-2],"categories":[],"categories_nodes":[],"categories_segments":[],"categories_sizes":[],"default_left":[0,0,0,0,0,0,0,0,0,0,0,0,0,0,0,0,0,0,0,0,0,0,0,0,0,0,0,0,0,0,0,0,0,0,0,0,0,0,0,0,0,0,0,0,0,0,0,0,0,0,0,0,0,0,0,0,0],"id":17,"left_children":[1,3,5,7,9,11,13,15,17,19,21,23,25,27,29,31,33,-1,-1,35,37,39,41,43,45,47,49,51,53,55,-1,-1,-1,-1,-1,-1,-1,-1,-1,-1,-1,-1,-1,-1,-1,-1,-1,-1,-1,-1,-1,-1,-1,-1,-1,-1,-1],"loss_changes":[3.0048735E1,1.984743E1,1.2397308E1,1.0611469E1,1.4798466E1,1.0310806E1,7.1588173E0,1.0460081E1,4.408146E0,1.6666134E1,7.6959963E0,9.606E0,1.0054887E1,6.337227E0,7.2603593E0,8.536364E0,6.051997E0,0E0,0E0,8.910821E0,1.3524914E1,6.3905544E0,1.066824E0,6.1622267E0,7.86244E0,7.2051487E0,1.1876569E1,5.0704613E0,4.1621614E-1,8.776773E-1,0E0,0E0,0E0,0E0,0E0,0E0,0E0,0E0,0E0,0E0,0E0,0E0,0E0,0E0,0E0,0E0,0E0,0E0,0E0,0E0,0E0,0E0,0E0,0E0,0E0,0E0,0E0],"parents":[2147483647,0,0,1,1,2,2,3,3,4,4,5,5,6,6,7,7,8,8,9,9,10,10,11,11,12,12,13,13,14,14,15,15,16,16,19,19,20,20,21,21,22,22,23,23,24,24,25,25,26,26,27,27,28,28,29,29],"right_children":[2,4,6,8,10,12,14,16,18,20,22,24,26,28,30,32,34,-1,-1,36,38,40,42,44,46,48,50,52,54,56,-1,-1,-1,-1,-1,-1,-1,-1,-1,-1,-1,-1,-1,-1,-1,-1,-1,-1,-1,-1,-1,-1,-1,-1,-1,-1,-1],"split_conditions":[2.0958334E1,1.04E2,8E-1,1.0912148E-1,4.07E1,1.9372508E-2,4.2938996E-2,3.713062E-2,5.8068607E-2,2.2857144E0,3.498501E-2,1.3E0,6.420171E-3,9.45E2,1.0126923E2,8.6187094E-2,1.50625E1,7.614892E-2,-2.0811131E-2,3.6021806E-3,7.2567784E-3,4.2432964E-2,1.9124612E-2,5.65624E-2,1.095E2,1.721442E-1,3.7E1,3.04E1,5.2473087E-2,1.3070952E-2,7.355814E-2,-9.675147E-3,4.4256173E-2,5.1600803E-2,-2.8346643E-2,-1.4647837E-2,4.4295635E-2,2.4382189E-2,2.8875105E-3,-1.9812677E-2,6.168739E-2,6.8139486E-2,4.352701E-3,7.070721E-2,-3.1919178E-2,-1.48628205E-2,1.3120495E-2,5.8996912E-2,-4.6617775E-3,-1.9147547E-2,6.259233E-2,-4.1718762E-2,-1.9389333E-2,5.768894E-2,8.127845E-3,6.780734E-3,-4.2462174E-2],"split_indices":[2,117,143,345,134,266,195,165,390,4,266,115,272,139,85,312,23,0,0,337,206,390,169,410,83,360,106,106,316,365,0,0,0,0,0,0,0,0,0,0,0,0,0,0,0,0,0,0,0,0,0,0,0,0,0,0,0],"split_type":[0,0,0,0,0,0,0,0,0,0,0,0,0,0,0,0,0,0,0,0,0,0,0,0,0,0,0,0,0,0,0,0,0,0,0,0,0,0,0,0,0,0,0,0,0,0,0,0,0,0,0,0,0,0,0,0,0],"sum_hessian":[1.2303724E3,8.054037E2,4.2496878E2,3.1172437E2,4.9367935E2,3.101608E2,1.1480797E2,3.0615463E2,5.569722E0,4.335013E2,6.0178032E1,2.6150586E2,4.865493E1,1.0941324E2,5.3947306E0,2.93363E2,1.2791646E1,4.548051E0,1.0216715E0,6.6621124E1,3.668802E2,5.6986694E1,3.191338E0,6.0913634E0,2.554145E2,2.0289148E1,2.836578E1,1.07315544E2,2.097693E0,2.681088E0,2.7136426E0,2.8680884E2,6.554154E0,1.0500259E1,2.2913866E0,6.0435886E1,6.185235E0,2.656017E2,1.0127848E2,5.5430027E1,1.5566684E0,2.184534E0,1.0068039E0,4.785126E0,1.3062372E0,2.2799849E2,2.7416014E1,1.4203616E1,6.085532E0,2.3954248E1,4.4115314E0,5.039226E1,5.692328E1,1.0886655E0,1.0090275E0,1.0001545E0,1.6809336E0],"tree_param":{"num_deleted":"0","num_feature":"428","num_nodes":"57","size_leaf_vector":"1"}},{"base_weights":[-1.1139193E-3,9.749531E-2,-2.1859974E-1,1.8863507E-1,-1.8254839E-1,-7.1708456E-2,-4.6034175E-1,-9.692047E-3,3.1030345E-1,-2.2049357E-1,1.0697744E0,-1.4289638E-1,6.6326725E-1,-3.057583E-1,-7.3628587E-1,-8.224596E-2,6.4730614E-1,4.9065164E-1,2.8394386E-2,-2.912456E-1,4.2864886E-1,-2.8760288E-2,7.881607E-2,-1.9445819E-1,5.5956906E-1,9.606069E-1,-3.8649234E-1,-4.8445436E-1,2.5968224E-1,-3.6197814E-1,-9.8652685E-1,-1.1394506E-2,1.3900945E-2,5.3402197E-2,-2.3717701E-2,2.8221456E-2,-3.3281986E-3,3.0632226E-2,-3.4615346E-3,-1.1497694E-2,-5.18468E-2,-6.6067786E-3,6.612613E-2,-1.1719159E-2,4.069992E-2,4.354493E-2,-3.4110118E-2,5.8232326E-2,-2.2648739E-2,3.2052264E-2,-4.3060865E-2,-2.652581E-2,4.6747994E-2,-2.0047082E-2,3.0059481E-2,-2.5890687E-2,3.1275246E-2,-5.2832764E-2,9.965695E-3],"categories":[],"categories_nodes":[],"categories_segments":[],"categories_sizes":[],"default_left":[0,0,0,0,0,0,0,0,0,0,0,0,0,0,0,0,0,0,0,0,0,0,0,0,0,0,0,0,0,0,0,0,0,0,0,0,0,0,0,0,0,0,0,0,0,0,0,0,0,0,0,0,0,0,0,0,0,0,0],"id":18,"left_children":[1,3,5,7,9,11,13,15,17,19,21,23,25,27,29,31,33,35,37,39,41,-1,-1,43,45,47,49,51,53,55,57,-1,-1,-1,-1,-1,-1,-1,-1,-1,-1,-1,-1,-1,-1,-1,-1,-1,-1,-1,-1,-1,-1,-1,-1,-1,-1,-1,-1],"loss_changes":[2.6216206E1,2.1501478E1,1.3508516E1,1.53270035E1,1.0073683E1,1.2567869E1,5.915369E0,1.1609352E1,1.9998722E1,9.391623E0,6.1223087E0,8.010841E0,6.99743E0,9.621293E0,4.4177456E0,1.1565294E1,1.1937785E1,9.903664E0,8.862309E0,8.104132E0,1.0317679E1,0E0,0E0,8.403906E0,6.461344E0,5.3816996E0,3.1855888E0,5.1875763E0,5.4792604E0,3.7100887E0,2.703123E0,0E0,0E0,0E0,0E0,0E0,0E0,0E0,0E0,0E0,0E0,0E0,0E0,0E0,0E0,0E0,0E0,0E0,0E0,0E0,0E0,0E0,0E0,0E0,0E0,0E0,0E0,0E0,0E0],"parents":[2147483647,0,0,1,1,2,2,3,3,4,4,5,5,6,6,7,7,8,8,9,9,10,10,11,11,12,12,13,13,14,14,15,15,16,16,17,17,18,18,19,19,20,20,23,23,24,24,25,25,26,26,27,27,28,28,29,29,30,30],"right_children":[2,4,6,8,10,12,14,16,18,20,22,24,26,28,30,32,34,36,38,40,42,-1,-1,44,46,48,50,52,54,56,58,-1,-1,-1,-1,-1,-1,-1,-1,-1,-1,-1,-1,-1,-1,-1,-1,-1,-1,-1,-1,-1,-1,-1,-1,-1,-1,-1,-1],"split_conditions":[2.1363636E1,4.11E1,1E0,1.04E2,2.655842E-2,7.259608E-2,2.5291666E1,2.0116042E-2,7.595744E-3,1.13E2,3.528E1,2.6332425E-2,2.3060795E-2,6.5E1,3.762E1,1.59E2,3.5126135E-2,1.22E2,6.514554E-2,1.3940491E-1,8.1E0,-2.8760288E-2,7.881607E-2,1.74E2,2.312542E-2,9.563546E-2,4.226395E-2,5.209526E-2,7.8E0,4.4197705E-2,4.41E2,-1.1394506E-2,1.3900945E-2,5.3402197E-2,-2.3717701E-2,2.8221456E-2,-3.3281986E-3,3.0632226E-2,-3.4615346E-3,-1.1497694E-2,-5.18468E-2,-6.6067786E-3,6.612613E-2,-1.1719159E-2,4.069992E-2,4.354493E-2,-3.4110118E-2,5.8232326E-2,-2.2648739E-2,3.2052264E-2,-4.3060865E-2,-2.652581E-2,4.6747994E-2,-2.0047082E-2,3.0059481E-2,-2.5890687E-2,3.1275246E-2,-5.2832764E-2,9.965695E-3],"split_indices":[2,135,59,117,193,345,2,162,399,117,95,186,161,30,96,84,252,38,397,208,107,0,0,98,221,398,325,424,107,342,133,0,0,0,0,0,0,0,0,0,0,0,0,0,0,0,0,0,0,0,0,0,0,0,0,0,0,0,0],"split_type":[0,0,0,0,0,0,0,0,0,0,0,0,0,0,0,0,0,0,0,0,0,0,0,0,0,0,0,0,0,0,0,0,0,0,0,0,0,0,0,0,0,0,0,0,0,0,0,0,0,0,0,0,0,0,0,0,0,0,0],"sum_hessian":[1.2204287E3,8.400825E2,3.8034616E2,6.3405634E2,2.0602615E2,2.373937E2,1.4295245E2,2.4143022E2,3.926261E2,2.0076689E2,5.2592726E0,2.171652E2,2.0228506E1,9.297568E1,4.9976784E1,2.1820781E2,2.3222408E1,2.389927E2,1.536334E2,1.8153244E2,1.9234444E1,1.2063104E0,4.052962E0,2.0298877E2,1.4176443E1,1.5829733E1,4.398773E0,7.075745E1,2.2218235E1,2.10047E1,2.8972082E1,1.5565048E2,6.2557327E1,1.6922523E1,6.299884E0,2.1103758E2,2.7955124E1,2.1240623E1,1.3239278E2,1.6895374E2,1.2578709E1,1.2343038E1,6.891405E0,1.959968E2,6.9919643E0,1.1573475E1,2.6029682E0,1.398693E1,1.8428032E0,1.2793283E0,3.119445E0,6.914E1,1.6174409E0,7.512246E0,1.4705988E1,1.855253E1,2.4521694E0,2.745725E1,1.5148324E0],"tree_param":{"num_deleted":"0","num_feature":"428","num_nodes":"59","size_leaf_vector":"1"}},{"base_weights":[3.3404552E-3,6.600696E-2,-3.3965173E-1,1.0780102E-1,-3.7886348E-1,-3.8696733E-1,8.9250785E-1,1.3728854E-1,-4.3111017E-1,-4.698546E-1,5.678878E-1,8.51823E-1,-4.2655528E-1,1.2960104E0,-2.9766178E-2,1.9442572E-1,-1.2129234E-1,-5.408625E-1,7.459783E-1,-2.520285E-1,-9.05674E-1,-3.2659296E-2,8.8180393E-1,1.152269E0,-1.00833345E-2,-4.6725217E-1,5.5741894E-1,1.9091856E-3,7.773248E-2,6.781593E-3,2.526325E-2,2.0828178E-2,-1.2190701E-2,-3.1589832E-2,2.6437297E-2,-2.8503789E-2,7.043318E-2,-2.052311E-2,3.3669095E-2,-5.1159944E-2,1.3044545E-2,6.73606E-2,-6.555106E-3,1.8100592E-3,7.18803E-2,-2.6981393E-2,6.104033E-3,6.540487E-2,-1.8722331E-2],"categories":[],"categories_nodes":[],"categories_segments":[],"categories_sizes":[],"default_left":[0,0,0,0,0,0,0,0,0,0,0,0,0,0,0,0,0,0,0,0,0,0,0,0,0,0,0,0,0,0,0,0,0,0,0,0,0,0,0,0,0,0,0,0,0,0,0,0,0],"id":19,"left_children":[1,3,5,7,9,11,13,15,17,19,21,23,25,27,-1,29,31,33,35,37,39,-1,41,43,-1,45,47,-1,-1,-1,-1,-1,-1,-1,-1,-1,-1,-1,-1,-1,-1,-1,-1,-1,-1,-1,-1,-1,-1],"loss_changes":[2.6146856E1,1.9163689E1,1.1301306E1,1.5012006E1,7.894849E0,9.272669E0,5.125176E0,1.3215748E1,6.7409887E0,7.492716E0,3.7255957E0,2.1186585E0,7.336792E0,1.8989277E0,0E0,1.3303389E1,1.079091E1,4.754919E0,4.8185396E0,8.430178E0,3.9299603E0,0E0,3.4585757E0,1.4720883E0,0E0,7.327038E0,5.718414E0,0E0,0E0,0E0,0E0,0E0,0E0,0E0,0E0,0E0,0E0,0E0,0E0,0E0,0E0,0E0,0E0,0E0,0E0,0E0,0E0,0E0,0E0],"parents":[2147483647,0,0,1,1,2,2,3,3,4,4,5,5,6,6,7,7,8,8,9,9,10,10,11,11,12,12,13,13,15,15,16,16,17,17,18,18,19,19,20,20,22,22,23,23,25,25,26,26],"right_children":[2,4,6,8,10,12,14,16,18,20,22,24,26,28,-1,30,32,34,36,38,40,-1,42,44,-1,46,48,-1,-1,-1,-1,-1,-1,-1,-1,-1,-1,-1,-1,-1,-1,-1,-1,-1,-1,-1,-1,-1,-1],"split_conditions":[3.05E2,2.5458334E1,4.0331986E-2,2.54E2,7.3047735E-2,1E0,1.302E1,1.81E1,2.9975863E-2,1.0226364E-2,4.5E-1,8.86E2,1.0494191E-1,5.9166668E1,-2.9766178E-2,2.64E2,7.330556E1,2.1991076E-1,5.904646E-2,1.68E2,2.9853148E-2,-3.2659296E-2,1E0,5E1,-1.00833345E-2,3.41E2,2.2346359E-2,1.9091856E-3,7.773248E-2,6.781593E-3,2.526325E-2,2.0828178E-2,-1.2190701E-2,-3.1589832E-2,2.6437297E-2,-2.8503789E-2,7.043318E-2,-2.052311E-2,3.3669095E-2,-5.1159944E-2,1.3044545E-2,6.73606E-2,-6.555106E-3,1.8100592E-3,7.18803E-2,-2.6981393E-2,6.104033E-3,6.540487E-2,-1.8722331E-2],"split_indices":[148,2,368,41,383,62,126,137,289,301,6,147,316,21,0,150,0,151,262,150,293,0,59,73,0,8,154,0,0,0,0,0,0,0,0,0,0,0,0,0,0,0,0,0,0,0,0,0,0],"split_type":[0,0,0,0,0,0,0,0,0,0,0,0,0,0,0,0,0,0,0,0,0,0,0,0,0,0,0,0,0,0,0,0,0,0,0,0,0,0,0,0,0,0,0,0,0,0,0,0,0],"sum_hessian":[1.2144225E3,1.0275002E3,1.8692221E2,9.399526E2,8.754767E1,1.8067032E2,6.251894E0,8.9189606E2,4.8056477E1,8.033088E1,7.216784E0,4.9595094E0,1.7571082E2,5.0195184E0,1.2323757E0,7.306881E2,1.61208E2,4.4452236E1,3.6042414E0,5.4613094E1,2.5717785E1,1.2548585E0,5.9619255E0,3.786009E0,1.1735003E0,1.6923637E2,6.4744334E0,1.0518318E0,3.9676867E0,6.156727E2,1.1501537E2,2.9464102E1,1.3174388E2,4.134644E1,3.1057978E0,1.2538725E0,2.3503687E0,4.7105E1,7.5080957E0,2.3475643E1,2.2421424E0,3.8588307E0,2.1030948E0,1.0003014E0,2.7857077E0,1.5080093E2,1.8435448E1,3.3622122E0,3.1122212E0],"tree_param":{"num_deleted":"0","num_feature":"428","num_nodes":"49","size_leaf_vector":"1"}},{"base_weights":[-9.079867E-3,9.37448E-2,-1.9985212E-1,6.7778595E-2,7.738017E-1,6.2434383E-2,-3.500092E-1,6.8051696E-1,3.7533235E-2,9.0200096E-1,-3.2188475E-2,-8.589585E-1,1.4480592E-1,-2.286215E-1,-7.1398956E-1,1.008396E0,-1.958899E-1,-4.0277555E-3,4.9453217E-1,1.1409217E0,-2.1389225E-1,1.3311154E-2,-1.0150895E0,3.445239E-1,-2.3043916E-1,-1.2766452E-1,-5.394497E-1,-7.62151E-1,5.052507E-1,5.7487037E-2,-8.209581E-3,3.2920282E-2,-4.848324E-2,4.801445E-2,-1.0518058E-3,3.7913308E-2,-9.708188E-3,6.628857E-2,-9.480391E-3,3.0524312E-2,-4.006615E-2,3.932614E-3,-5.6494016E-2,2.7981257E-2,-6.6022696E-3,7.1402057E-3,-3.3571932E-2,-9.134794E-3,3.6388524E-2,-3.6147557E-2,2.231552E-2,2.3228288E-2,-3.976963E-2,5.4571655E-2,-1.8434051E-2],"categories":[],"categories_nodes":[],"categories_segments":[],"categories_sizes":[],"default_left":[0,0,0,0,0,0,0,0,0,0,0,0,0,0,0,0,0,0,0,0,0,0,0,0,0,0,0,0,0,0,0,0,0,0,0,0,0,0,0,0,0,0,0,0,0,0,0,0,0,0,0,0,0,0,0],"id":20,"left_children":[1,3,5,7,9,11,13,15,17,19,-1,21,23,25,27,29,31,33,35,37,39,-1,41,43,45,47,49,51,53,-1,-1,-1,-1,-1,-1,-1,-1,-1,-1,-1,-1,-1,-1,-1,-1,-1,-1,-1,-1,-1,-1,-1,-1,-1,-1],"loss_changes":[2.3974447E1,1.3972019E1,1.6879162E1,1.4172047E1,5.871502E0,1.2015657E1,1.1869713E1,1.0535973E1,1.3888277E1,7.4732475E0,0E0,2.554309E0,1.0921857E1,6.386181E0,4.3569717E0,4.5552044E0,7.6669774E0,1.1028172E1,1.1218684E1,5.7830906E0,3.2126544E0,0E0,1.54842E0,9.79419E0,8.466375E0,7.504164E0,9.389192E0,3.0392113E0,2.0272048E0,0E0,0E0,0E0,0E0,0E0,0E0,0E0,0E0,0E0,0E0,0E0,0E0,0E0,0E0,0E0,0E0,0E0,0E0,0E0,0E0,0E0,0E0,0E0,0E0,0E0,0E0],"parents":[2147483647,0,0,1,1,2,2,3,3,4,4,5,5,6,6,7,7,8,8,9,9,11,11,12,12,13,13,14,14,15,15,16,16,17,17,18,18,19,19,20,20,22,22,23,23,24,24,25,25,26,26,27,27,28,28],"right_children":[2,4,6,8,10,12,14,16,18,20,-1,22,24,26,28,30,32,34,36,38,40,-1,42,44,46,48,50,52,54,-1,-1,-1,-1,-1,-1,-1,-1,-1,-1,-1,-1,-1,-1,-1,-1,-1,-1,-1,-1,-1,-1,-1,-1,-1,-1],"split_conditions":[1E0,8.090178E-2,1.8E1,8.42E0,7.1515694E-2,1.5E0,9.9521736E1,7.783915E-3,2.4289401E-2,4.9194645E-2,-3.2188475E-2,6.3E1,7.9E0,4.6442766E-3,1.6581677E-1,3.4800626E-2,3.0416666E2,1.23E0,9.0420015E-2,7.194872E-2,9.982083E-2,1.3311154E-2,2.4E2,3.24E1,4.035285E-2,9.452743E-2,1.4135024E-2,1.18E1,1.1115687E-1,5.7487037E-2,-8.209581E-3,3.2920282E-2,-4.848324E-2,4.801445E-2,-1.0518058E-3,3.7913308E-2,-9.708188E-3,6.628857E-2,-9.480391E-3,3.0524312E-2,-4.006615E-2,3.932614E-3,-5.6494016E-2,2.7981257E-2,-6.6022696E-3,7.1402057E-3,-3.3571932E-2,-9.134794E-3,3.6388524E-2,-3.6147557E-2,2.231552E-2,2.3228288E-2,-3.976963E-2,5.4571655E-2,-1.8434051E-2],"split_indices":[59,344,29,126,281,40,0,277,165,190,0,21,114,388,205,420,11,115,383,261,343,0,147,134,265,386,338,137,155,0,0,0,0,0,0,0,0,0,0,0,0,0,0,0,0,0,0,0,0,0,0,0,0,0,0],"split_type":[0,0,0,0,0,0,0,0,0,0,0,0,0,0,0,0,0,0,0,0,0,0,0,0,0,0,0,0,0,0,0,0,0,0,0,0,0,0,0,0,0,0,0,0,0,0,0,0,0,0,0,0,0,0,0],"sum_hessian":[1.2202274E3,7.932051E2,4.2702234E2,7.650917E2,2.8113375E1,1.5567741E2,2.7134494E2,3.4977867E1,7.3011383E2,2.6115314E1,1.9980612E0,1.2001621E1,1.436758E2,2.0470409E2,6.664085E1,2.534519E1,9.632678E0,6.7015857E2,5.995524E1,2.1491417E1,4.623897E0,1.3765045E0,1.0625117E1,9.3822296E1,4.9853497E1,1.5558185E2,4.9122246E1,6.446913E1,2.1717105E0,2.2636099E1,2.7090905E0,4.648997E0,4.983681E0,1.065398E1,6.595046E2,4.32802E1,1.6675037E1,1.8872982E1,2.6184347E0,1.9075974E0,2.7162998E0,1.0391155E0,9.586001E0,6.452461E1,2.929769E1,2.7367222E1,2.2486275E1,1.469169E2,8.664942E0,4.163787E1,7.4843764E0,1.3585631E0,6.3110573E1,1.1508864E0,1.0208241E0],"tree_param":{"num_deleted":"0","num_feature":"428","num_nodes":"55","size_leaf_vector":"1"}},{"base_weights":[-2.5602516E-3,7.594391E-2,-2.5210652E-1,1.14614956E-1,-4.1062218E-1,5.937026E-3,-4.1885775E-1,1.6355212E-1,-2.4025635E-1,-4.7524676E-1,9.0031624E-1,1.1267027E0,-5.8160454E-2,-4.522742E-1,7.6454276E-1,2.1607664E-1,-1.8244036E-1,-3.1464434E-1,8.8479567E-1,-5.24013E-1,5.578496E-2,5.897584E-2,4.719141E-3,7.9370745E-2,-4.822285E-3,-1.4384918E-1,7.98322E-1,-4.7500533E-1,5.8379497E-2,6.1080165E-2,-1.7841723E-2,9.271166E-3,3.8421284E-2,6.338372E-2,-1.2760311E-2,1.7093433E-2,-2.2174824E-2,6.55003E-2,-2.5146514E-2,2.3150211E-2,-2.9945407E-2,-5.132134E-4,-3.7127886E-2,6.9340624E-2,-1.1183454E-2,-4.1103072E-2,-1.8905975E-2],"categories":[],"categories_nodes":[],"categories_segments":[],"categories_sizes":[],"default_left":[0,0,0,0,0,0,0,0,0,0,0,0,0,0,0,0,0,0,0,0,0,0,0,0,0,0,0,0,0,0,0,0,0,0,0,0,0,0,0,0,0,0,0,0,0,0,0],"id":21,"left_children":[1,3,5,7,9,11,13,15,17,19,21,23,25,27,29,31,33,35,37,39,-1,-1,-1,-1,-1,41,43,45,-1,-1,-1,-1,-1,-1,-1,-1,-1,-1,-1,-1,-1,-1,-1,-1,-1,-1,-1],"loss_changes":[2.3781176E1,1.7422657E1,1.2502207E1,1.4909079E1,6.206357E0,8.328249E0,7.324541E0,1.3724981E1,8.996571E0,5.678667E0,6.874678E-1,3.6870584E0,8.169278E0,6.8973846E0,3.1103845E0,1.0935192E1,1.0853924E1,8.479709E0,4.6258874E0,5.0368576E0,0E0,0E0,0E0,0E0,0E0,8.039261E0,6.4050865E0,5.4250603E0,0E0,0E0,0E0,0E0,0E0,0E0,0E0,0E0,0E0,0E0,0E0,0E0,0E0,0E0,0E0,0E0,0E0,0E0,0E0],"parents":[2147483647,0,0,1,1,2,2,3,3,4,4,5,5,6,6,7,7,8,8,9,9,10,10,11,11,12,12,13,13,14,14,15,15,16,16,17,17,18,18,19,19,25,25,26,26,27,27],"right_children":[2,4,6,8,10,12,14,16,18,20,22,24,26,28,30,32,34,36,38,40,-1,-1,-1,-1,-1,42,44,46,-1,-1,-1,-1,-1,-1,-1,-1,-1,-1,-1,-1,-1,-1,-1,-1,-1,-1,-1],"split_conditions":[8.4E1,1.47E2,1.964E1,6.48E1,4.8886355E-2,9.3E1,5.923812E-2,1.2132767E-2,4.2976562E-2,2E1,2.0723065E-2,9.888E1,3.2326147E-2,1.2708955E-1,5.3E1,4.3542903E-2,3.6759954E-2,8E-1,8.90691E-2,9.9E1,5.578496E-2,5.897584E-2,4.719141E-3,7.9370745E-2,-4.822285E-3,4.7839064E-2,2.050597E-2,7.7E1,5.8379497E-2,6.1080165E-2,-1.7841723E-2,9.271166E-3,3.8421284E-2,6.338372E-2,-1.2760311E-2,1.7093433E-2,-2.2174824E-2,6.55003E-2,-2.5146514E-2,2.3150211E-2,-2.9945407E-2,-5.132134E-4,-3.7127886E-2,6.9340624E-2,-1.1183454E-2,-4.1103072E-2,-1.8905975E-2],"split_indices":[21,43,94,135,425,100,266,191,188,110,373,3,161,344,10,283,177,27,182,100,0,0,0,0,0,180,409,146,0,0,0,0,0,0,0,0,0,0,0,0,0,0,0,0,0,0,0],"split_type":[0,0,0,0,0,0,0,0,0,0,0,0,0,0,0,0,0,0,0,0,0,0,0,0,0,0,0,0,0,0,0,0,0,0,0,0,0,0,0,0,0,0,0,0,0,0,0],"sum_hessian":[1.2119414E3,9.224467E2,2.8949466E2,8.5523895E2,6.7207794E1,1.1401837E2,1.7547627E2,7.5206714E2,1.031718E2,6.465787E1,2.5499256E0,5.2712293E0,1.0874714E2,1.7125816E2,4.2181077E0,6.5327075E2,9.879643E1,9.7448845E1,5.7229495E0,6.338558E1,1.272289E0,1.549566E0,1.0003595E0,3.6126678E0,1.6585612E0,9.961317E1,9.133978E0,1.6958519E2,1.6729805E0,2.933194E0,1.2849139E0,6.201883E2,3.3082447E1,3.9360268E0,9.4860405E1,1.5716859E1,8.173199E1,4.4235454E0,1.2994041E0,4.1050096E0,5.928057E1,8.227333E1,1.733983E1,5.569777E0,3.5642014E0,3.5376755E1,1.3420844E2],"tree_param":{"num_deleted":"0","num_feature":"428","num_nodes":"47","size_leaf_vector":"1"}},{"base_weights":[-7.287248E-3,1.03723206E-1,-2.1302326E-1,3.2358518E-1,2.2168124E-2,-1.1632393E-1,-4.7588232E-1,-5.733885E-1,3.9505023E-1,6.3245136E-1,-1.451426E-2,6.6043097E-1,-1.619975E-1,-5.161822E-1,6.5584704E-2,5.4383297E-2,-9.336136E-1,3.5037124E-1,1.339627E0,1.7186025E-1,1.0995829E0,1.2864496E-2,-8.009719E-1,1.006388E0,-3.361826E-1,-2.0407285E-1,5.209871E-1,-5.8038056E-1,5.4813755E-1,3.427116E-2,-3.3695705E-2,-5.8028217E-2,-1.3744568E-3,1.45729575E-2,5.4023247E-2,7.604056E-2,5.545466E-4,3.316567E-2,-1.3762347E-2,6.407804E-2,-9.653351E-3,1.6603287E-3,-4.5921296E-2,-6.258141E-2,3.4183964E-2,5.9823252E-2,-2.8061066E-2,1.9389223E-2,-4.6747737E-2,-6.4612366E-3,-2.6871825E-2,6.479585E-2,-1.2523875E-2,-3.1186847E-2,3.38484E-2,6.097231E-2,-3.446057E-2],"categories":[],"categories_nodes":[],"categories_segments":[],"categories_sizes":[],"default_left":[0,0,0,0,0,0,0,0,0,0,0,0,0,0,0,0,0,0,0,0,0,0,0,0,0,0,0,0,0,0,0,0,0,0,0,0,0,0,0,0,0,0,0,0,0,0,0,0,0,0,0,0,0,0,0,0,0],"id":22,"left_children":[1,3,5,7,9,11,13,15,17,19,21,23,25,27,-1,29,31,33,35,37,39,41,43,45,47,49,51,53,55,-1,-1,-1,-1,-1,-1,-1,-1,-1,-1,-1,-1,-1,-1,-1,-1,-1,-1,-1,-1,-1,-1,-1,-1,-1,-1,-1,-1],"loss_changes":[2.7834822E1,1.4187917E1,1.0801422E1,1.3952532E1,1.2960527E1,1.1231829E1,8.928936E0,3.716312E0,7.925501E0,6.873455E0,1.1782093E1,6.4105196E0,8.640182E0,8.021326E0,0E0,3.612305E0,2.0974245E0,7.9126377E0,2.0604086E0,4.0747466E0,4.0373573E0,1.0057717E1,1.3171803E1,4.641509E0,2.6547651E0,6.928277E0,1.07952795E1,6.244972E0,6.5949163E0,0E0,0E0,0E0,0E0,0E0,0E0,0E0,0E0,0E0,0E0,0E0,0E0,0E0,0E0,0E0,0E0,0E0,0E0,0E0,0E0,0E0,0E0,0E0,0E0,0E0,0E0,0E0,0E0],"parents":[2147483647,0,0,1,1,2,2,3,3,4,4,5,5,6,6,7,7,8,8,9,9,10,10,11,11,12,12,13,13,15,15,16,16,17,17,18,18,19,19,20,20,21,21,22,22,23,23,24,24,25,25,26,26,27,27,28,28],"right_children":[2,4,6,8,10,12,14,16,18,20,22,24,26,28,-1,30,32,34,36,38,40,42,44,46,48,50,52,54,56,-1,-1,-1,-1,-1,-1,-1,-1,-1,-1,-1,-1,-1,-1,-1,-1,-1,-1,-1,-1,-1,-1,-1,-1,-1,-1,-1,-1],"split_conditions":[2.0958334E1,1.4E1,9E-1,1.4E0,1E0,9.86E0,4.6973884E-2,7.4E1,4.31E1,7.369551E-2,7.3002174E-2,1.4322807E-1,4.10066E-2,2.2420553E-2,6.5584704E-2,3.7485714E1,1.3278427E-2,4E-2,3.3993714E-2,9.25E1,9.6959785E-2,2E0,9.5743695E-3,4.12E2,1.4078481E-2,2.6541666E1,9.412E1,8.8E1,5.036326E-2,3.427116E-2,-3.3695705E-2,-5.8028217E-2,-1.3744568E-3,1.45729575E-2,5.4023247E-2,7.604056E-2,5.545466E-4,3.316567E-2,-1.3762347E-2,6.407804E-2,-9.653351E-3,1.6603287E-3,-4.5921296E-2,-6.258141E-2,3.4183964E-2,5.9823252E-2,-2.8061066E-2,1.9389223E-2,-4.6747737E-2,-6.4612366E-3,-2.6871825E-2,6.479585E-2,-1.2523875E-2,-3.1186847E-2,3.38484E-2,6.097231E-2,-3.446057E-2],"split_indices":[2,29,144,4,60,126,340,149,106,151,200,389,413,185,0,97,171,121,326,87,316,35,300,5,178,2,82,73,191,0,0,0,0,0,0,0,0,0,0,0,0,0,0,0,0,0,0,0,0,0,0,0,0,0,0,0,0],"split_type":[0,0,0,0,0,0,0,0,0,0,0,0,0,0,0,0,0,0,0,0,0,0,0,0,0,0,0,0,0,0,0,0,0,0,0,0,0,0,0,0,0,0,0,0,0,0,0,0,0,0,0,0,0,0,0,0,0],"sum_hessian":[1.2167815E3,7.906569E2,4.2612457E2,2.1312682E2,5.775301E2,3.1257755E2,1.13547005E2,1.5209217E1,1.979176E2,3.1824583E1,5.457055E2,1.6611502E1,2.9596606E2,1.1173914E2,1.807856E0,5.85486E0,9.354357E0,1.9028781E2,7.6297865E0,1.6713247E1,1.5111335E1,5.2829767E2,1.7407852E1,1.2323728E1,4.287775E0,2.794516E2,1.6514452E1,1.0581143E2,5.9277153E0,3.1684215E0,2.6864386E0,7.2561584E0,2.0981991E0,1.7737447E2,1.2913344E1,6.5867643E0,1.0430222E0,7.7314234E0,8.981825E0,1.3254025E1,1.8573086E0,5.179485E2,1.0349152E1,1.3474661E1,3.9331915E0,1.12021885E1,1.1215391E0,2.1004803E0,2.1872945E0,2.2934564E2,5.0105953E1,7.899577E0,8.614876E0,1.0277155E2,3.0398765E0,3.8522127E0,2.0755026E0],"tree_param":{"num_deleted":"0","num_feature":"428","num_nodes":"57","size_leaf_vector":"1"}},{"base_weights":[-7.893053E-3,-1.2740108E-1,1.427857E-1,-5.6230962E-2,-4.5656246E-1,1.867885E-1,-4.1655526E-1,-8.887734E-2,6.640272E-1,-8.731021E-1,-2.5764182E-1,2.9651645E-1,-1.0453774E-1,-6.040886E-1,5.6388207E-2,-1.9718692E-1,1.5278265E-1,-4.5581743E-2,8.3910847E-1,3.3557344E-2,-9.700976E-1,-6.450591E-2,-8.1770104E-1,3.775615E-1,-6.763377E-2,-2.0987208E-1,5.610633E-1,5.8618143E-2,-9.190701E-1,-1.2800421E-2,1.345699E-2,3.2641895E-3,4.55728E-2,5.2601214E-2,-1.614385E-2,-5.1898737E-2,3.183845E-2,-7.7764774E-3,5.2268263E-2,1.5890095E-2,-4.8128728E-2,7.7210427E-3,2.6219888E-2,-7.838013E-3,6.9445215E-2,-1.7158924E-2,1.4232743E-2,4.585979E-2,-1.4683965E-2,3.669177E-2,-4.3699667E-2,-5.1437806E-2,3.2476418E-2],"categories":[],"categories_nodes":[],"categories_segments":[],"categories_sizes":[],"default_left":[0,0,0,0,0,0,0,0,0,0,0,0,0,0,0,0,0,0,0,0,0,0,0,0,0,0,0,0,0,0,0,0,0,0,0,0,0,0,0,0,0,0,0,0,0,0,0,0,0,0,0,0,0],"id":23,"left_children":[1,3,5,7,9,11,13,15,17,19,21,23,25,27,-1,29,31,-1,33,-1,35,37,39,41,43,45,47,49,51,-1,-1,-1,-1,-1,-1,-1,-1,-1,-1,-1,-1,-1,-1,-1,-1,-1,-1,-1,-1,-1,-1,-1,-1],"loss_changes":[2.1919718E1,1.5876555E1,1.3330241E1,1.3209759E1,9.762621E0,1.6009926E1,1.2143793E1,1.4057047E1,7.487504E0,6.4237976E0,8.924932E0,1.0749271E1,9.75805E0,7.5569153E0,0E0,1.023147E1,1.0987825E1,0E0,5.8945055E0,0E0,4.6606636E0,6.5070295E0,3.792882E0,9.662254E0,8.914861E0,7.9717293E0,6.0710363E0,8.525551E0,4.8704624E0,0E0,0E0,0E0,0E0,0E0,0E0,0E0,0E0,0E0,0E0,0E0,0E0,0E0,0E0,0E0,0E0,0E0,0E0,0E0,0E0,0E0,0E0,0E0,0E0],"parents":[2147483647,0,0,1,1,2,2,3,3,4,4,5,5,6,6,7,7,8,8,9,9,10,10,11,11,12,12,13,13,15,15,16,16,18,18,20,20,21,21,22,22,23,23,24,24,25,25,26,26,27,27,28,28],"right_children":[2,4,6,8,10,12,14,16,18,20,22,24,26,28,-1,30,32,-1,34,-1,36,38,40,42,44,46,48,50,52,-1,-1,-1,-1,-1,-1,-1,-1,-1,-1,-1,-1,-1,-1,-1,-1,-1,-1,-1,-1,-1,-1,-1,-1],"split_conditions":[5E0,1E0,1.2214497E-1,9.1E1,4E0,1.5E1,3.2359418E-2,1.825E2,6.2E1,2.6E0,2.05822E-1,1.1469135E-1,2.694695E-1,9.304597E-2,5.6388207E-2,2.7904514E-2,2.341926E-2,-4.5581743E-2,1.12E2,3.3557344E-2,8.299217E-2,1.6241815E-2,6.5E-1,1.04E2,2.4956366E-2,2.9E2,6.25E2,1.2672817E-2,1.1508613E-1,-1.2800421E-2,1.345699E-2,3.2641895E-3,4.55728E-2,5.2601214E-2,-1.614385E-2,-5.1898737E-2,3.183845E-2,-7.7764774E-3,5.2268263E-2,1.5890095E-2,-4.8128728E-2,7.7210427E-3,2.6219888E-2,-7.838013E-3,6.9445215E-2,-1.7158924E-2,1.4232743E-2,4.585979E-2,-1.4683965E-2,3.669177E-2,-4.3699667E-2,-5.1437806E-2,3.2476418E-2],"split_indices":[102,69,208,73,40,92,164,11,8,22,168,397,321,360,0,266,416,0,116,0,403,186,6,117,228,11,45,207,316,0,0,0,0,0,0,0,0,0,0,0,0,0,0,0,0,0,0,0,0,0,0,0,0],"split_type":[0,0,0,0,0,0,0,0,0,0,0,0,0,0,0,0,0,0,0,0,0,0,0,0,0,0,0,0,0,0,0,0,0,0,0,0,0,0,0,0,0,0,0,0,0,0,0,0,0,0,0,0,0],"sum_hessian":[1.2152568E3,6.77815E2,5.374418E2,5.5827716E2,1.1953789E2,4.988628E2,3.8578987E1,5.349085E2,2.3368624E1,3.753999E1,8.1997894E1,3.6236157E2,1.365012E2,3.4944374E1,3.634614E0,3.6949057E2,1.6541794E2,1.9162452E0,2.145238E1,1.8687396E0,3.567125E1,6.180104E1,2.0196856E1,2.9636575E2,6.599581E1,1.1844193E2,1.8059277E1,1.1520231E1,2.342414E1,3.285047E2,4.0985893E1,1.4928656E2,1.6131378E1,1.8210262E1,3.2421157E0,3.4565186E1,1.1060615E0,5.791143E1,3.889611E0,2.1501968E0,1.804666E1,1.1843575E2,1.7793001E2,6.3031265E1,2.9645474E0,9.35345E1,2.4907434E1,1.2696256E1,5.363021E0,6.8058715E0,4.7143598E0,2.2214895E1,1.2092453E0],"tree_param":{"num_deleted":"0","num_feature":"428","num_nodes":"53","size_leaf_vector":"1"}},{"base_weights":[2.588103E-3,2.3862378E-1,-6.991084E-2,-6.1426884E-1,2.9518846E-1,4.9785668E-1,-1.0077953E-1,-7.686402E-1,4.7384407E-2,3.501069E-1,-4.987722E-1,1.9968498E-1,1.2171222E0,-4.6003222E-2,-3.7325257E-1,5.775759E-2,-1.0055343E0,8.4090585E-1,2.813435E-1,5.308081E-2,-6.876882E-1,-5.0114885E-2,1.1376052E0,-2.559559E-2,1.398844E0,-8.202205E-2,3.8095242E-1,-4.4220325E-1,2.5414497E-1,-3.9561685E-2,3.576534E-2,3.2932311E-3,-6.0265984E-2,5.4931562E-2,-2.724034E-2,2.7100736E-2,6.601661E-3,-1.8059523E-4,-5.4228034E-2,-1.8494451E-2,3.410345E-2,7.3566504E-2,-1.2620485E-2,7.635494E-2,-1.4176368E-3,-2.2328855E-2,-2.0904725E-3,2.8222794E-2,-1.8147686E-2,-2.4549296E-2,1.7224666E-2,-3.40117E-3,6.3779384E-2],"categories":[],"categories_nodes":[],"categories_segments":[],"categories_sizes":[],"default_left":[0,0,0,0,0,0,0,0,0,0,0,0,0,0,0,0,0,0,0,0,0,0,0,0,0,0,0,0,0,0,0,0,0,0,0,0,0,0,0,0,0,0,0,0,0,0,0,0,0,0,0,0,0],"id":24,"left_children":[1,3,5,7,9,11,13,15,-1,17,19,21,23,25,27,29,31,33,35,-1,37,39,41,-1,43,45,47,49,51,-1,-1,-1,-1,-1,-1,-1,-1,-1,-1,-1,-1,-1,-1,-1,-1,-1,-1,-1,-1,-1,-1,-1,-1],"loss_changes":[2.0681227E1,1.38816395E1,1.6254929E1,5.065517E0,1.18164215E1,1.0018095E1,1.3083372E1,3.3707771E0,0E0,8.2111E0,5.943501E0,8.261925E0,5.0600605E0,1.1287846E1,6.4620743E0,3.1985157E0,2.9060888E0,1.1404381E1,8.531979E0,0E0,4.443823E0,6.951417E0,3.8076124E0,0E0,2.3823223E0,9.889076E0,8.002791E0,5.2584305E0,5.078522E0,0E0,0E0,0E0,0E0,0E0,0E0,0E0,0E0,0E0,0E0,0E0,0E0,0E0,0E0,0E0,0E0,0E0,0E0,0E0,0E0,0E0,0E0,0E0,0E0],"parents":[2147483647,0,0,1,1,2,2,3,3,4,4,5,5,6,6,7,7,9,9,10,10,11,11,12,12,13,13,14,14,15,15,16,16,17,17,18,18,20,20,21,21,22,22,24,24,25,25,26,26,27,27,28,28],"right_children":[2,4,6,8,10,12,14,16,-1,18,20,22,24,26,28,30,32,34,36,-1,38,40,42,-1,44,46,48,50,52,-1,-1,-1,-1,-1,-1,-1,-1,-1,-1,-1,-1,-1,-1,-1,-1,-1,-1,-1,-1,-1,-1,-1,-1],"split_conditions":[1.4E1,2.4E0,1E0,3.1700727E-2,1.4E0,7.4E1,3.05E2,3.728E1,4.7384407E-2,3.6E1,7.2E1,2.0575374E-2,1.3E0,3.7012547E-2,3.34E2,7E0,2.99E2,5.5472344E-2,1.738889E1,5.308081E-2,7E-1,9.85E1,4.0217374E-2,-2.559559E-2,5.205403E-2,5.6E1,2.044137E-2,3.183685E-2,4.8210297E-2,-3.9561685E-2,3.576534E-2,3.2932311E-3,-6.0265984E-2,5.4931562E-2,-2.724034E-2,2.7100736E-2,6.601661E-3,-1.8059523E-4,-5.4228034E-2,-1.8494451E-2,3.410345E-2,7.3566504E-2,-1.2620485E-2,7.635494E-2,-1.4176368E-3,-2.2328855E-2,-2.0904725E-3,2.8222794E-2,-1.8147686E-2,-2.4549296E-2,1.7224666E-2,-3.40117E-3,6.3779384E-2],"split_indices":[10,108,60,377,20,73,148,96,0,73,149,271,5,295,8,107,148,399,94,0,27,83,261,0,350,140,157,368,403,0,0,0,0,0,0,0,0,0,0,0,0,0,0,0,0,0,0,0,0,0,0,0,0],"split_type":[0,0,0,0,0,0,0,0,0,0,0,0,0,0,0,0,0,0,0,0,0,0,0,0,0,0,0,0,0,0,0,0,0,0,0,0,0,0,0,0,0,0,0,0,0,0,0,0,0,0,0,0,0],"sum_hessian":[1.2065817E3,2.8298206E2,9.2359955E2,1.6987146E1,2.6599493E2,4.6845352E1,8.767542E2,1.5921493E1,1.0656537E0,2.4930919E2,1.6685734E1,3.401998E1,1.2825368E1,7.309728E2,1.4578145E2,3.7156725E0,1.220582E1,2.9257156E1,2.2005203E2,1.30309E0,1.5382643E1,2.7612427E1,6.407555E0,1.0469465E0,1.1778421E1,6.7484906E2,5.612371E1,1.3161249E2,1.416897E1,1.5330176E0,2.1826549E0,2.0236752E0,1.0182145E1,2.4843706E1,4.4134507E0,7.918242E1,1.4086961E2,6.018261E0,9.364382E0,1.9563204E1,8.049224E0,5.119846E0,1.2877092E0,1.0743004E1,1.0354177E0,6.604052E1,6.0880853E2,4.5212196E1,1.0911514E1,1.2428172E2,7.3307605E0,1.1481158E1,2.6878123E0],"tree_param":{"num_deleted":"0","num_feature":"428","num_nodes":"53","size_leaf_vector":"1"}},{"base_weights":[-1.7190571E-3,5.3854533E-2,-3.0617225E-1,1.131331E-1,-2.2499275E-1,-3.5951447E-1,5.583241E-1,-3.8105205E-2,2.034509E-1,-3.0530998E-1,4.45343E-1,-4.2641953E-1,2.1150486E-1,1.2804165E0,-1.951288E-1,-1.3836265E-1,2.9136878E-1,2.8145358E-1,-1.760181E-1,-3.5660064E-1,5.221324E-1,1.2965278E-1,6.675905E-2,5.8311224E-1,-4.6522716E-1,1.0556207E0,-3.0614957E-1,7.584955E-2,4.448201E-3,4.0904753E-2,-7.251663E-1,-9.310374E-3,3.941615E-2,3.5297967E-2,-3.983791E-3,-2.7515216E-2,1.5481572E-2,1.4892965E-2,-2.1589197E-2,-1.473888E-2,-5.190459E-2,4.3030478E-2,-2.4010722E-2,3.4632053E-2,-2.3958748E-2,5.9315126E-2,-1.5370823E-2,-1.4582629E-2,-3.4939945E-2,7.416273E-2,-2.7529879E-2,1.7012184E-2,-3.1826824E-2,1.0859667E-2,-5.2291065E-2],"categories":[],"categories_nodes":[],"categories_segments":[],"categories_sizes":[],"default_left":[0,0,0,0,0,0,0,0,0,0,0,0,0,0,0,0,0,0,0,0,0,0,0,0,0,0,0,0,0,0,0,0,0,0,0,0,0,0,0,0,0,0,0,0,0,0,0,0,0,0,0,0,0,0,0],"id":25,"left_children":[1,3,5,7,9,11,13,15,17,19,21,23,25,27,29,31,33,35,37,39,41,43,-1,45,47,49,51,-1,-1,-1,53,-1,-1,-1,-1,-1,-1,-1,-1,-1,-1,-1,-1,-1,-1,-1,-1,-1,-1,-1,-1,-1,-1,-1,-1],"loss_changes":[2.0452541E1,1.6922832E1,8.805199E0,1.1532224E1,9.8028345E0,6.8276634E0,6.362839E0,1.0488405E1,1.5689844E1,7.016141E0,5.337819E0,6.46879E0,8.697269E0,1.5194778E0,4.01224E0,1.0928888E1,1.1457563E1,1.0451916E1,1.1122939E1,6.1036167E0,3.7378697E0,5.6749315E0,0E0,3.748624E0,5.994705E0,5.9749947E0,2.919085E0,0E0,0E0,0E0,1.6503367E0,0E0,0E0,0E0,0E0,0E0,0E0,0E0,0E0,0E0,0E0,0E0,0E0,0E0,0E0,0E0,0E0,0E0,0E0,0E0,0E0,0E0,0E0,0E0,0E0],"parents":[2147483647,0,0,1,1,2,2,3,3,4,4,5,5,6,6,7,7,8,8,9,9,10,10,11,11,12,12,13,13,14,14,15,15,16,16,17,17,18,18,19,19,20,20,21,21,23,23,24,24,25,25,26,26,30,30],"right_children":[2,4,6,8,10,12,14,16,18,20,22,24,26,28,30,32,34,36,38,40,42,44,-1,46,48,50,52,-1,-1,-1,54,-1,-1,-1,-1,-1,-1,-1,-1,-1,-1,-1,-1,-1,-1,-1,-1,-1,-1,-1,-1,-1,-1,-1,-1],"split_conditions":[3.05E2,2.3166666E1,9.574453E-2,1.04E2,2.7341079E-2,3.41E2,1.3728394E-1,1.5903093E-2,7.53962E-3,7.6945186E-2,9.55E1,1E0,9.2333336E1,9.42416E-2,1.1E0,7.435524E-2,1.6551917E-2,2.2E0,6.046118E-3,8.8E0,4.8E1,1.1767931E-2,6.675905E-2,1.7E1,1.0026459E-2,4.7710136E-2,8.8E1,7.584955E-2,4.448201E-3,4.0904753E-2,6.5865725E-2,-9.310374E-3,3.941615E-2,3.5297967E-2,-3.983791E-3,-2.7515216E-2,1.5481572E-2,1.4892965E-2,-2.1589197E-2,-1.473888E-2,-5.190459E-2,4.3030478E-2,-2.4010722E-2,3.4632053E-2,-2.3958748E-2,5.9315126E-2,-1.5370823E-2,-1.4582629E-2,-3.4939945E-2,7.416273E-2,-2.7529879E-2,1.7012184E-2,-3.1826824E-2,1.0859667E-2,-5.2291065E-2],"split_indices":[148,2,316,117,266,8,262,312,181,345,83,62,0,225,143,361,392,108,406,22,135,425,0,110,312,198,80,0,0,0,208,0,0,0,0,0,0,0,0,0,0,0,0,0,0,0,0,0,0,0,0,0,0,0,0],"split_type":[0,0,0,0,0,0,0,0,0,0,0,0,0,0,0,0,0,0,0,0,0,0,0,0,0,0,0,0,0,0,0,0,0,0,0,0,0,0,0,0,0,0,0,0,0,0,0,0,0,0,0,0,0,0,0],"sum_hessian":[1.206836E3,1.02124536E3,1.8559067E2,8.4269574E2,1.7854964E2,1.7535484E2,1.0235827E1,3.153E2,5.2739575E2,1.5993173E2,1.8617908E1,1.5719043E2,1.8164417E1,4.869556E0,5.3662715E0,2.4218443E2,7.311557E1,4.376847E2,8.971104E1,1.5113252E2,8.7992115E0,1.458814E1,4.029769E0,5.2996984E0,1.5189073E2,6.5098534E0,1.1654564E1,3.8348758E0,1.0346802E0,1.6564064E0,3.7098653E0,2.3105415E2,1.1130278E1,3.4105175E1,3.9010395E1,1.3734627E1,4.2395007E2,3.1389214E1,5.8321823E1,1.398759E2,1.1256614E1,6.683651E0,2.115561E0,7.507877E0,7.0802627E0,2.9615746E0,2.338124E0,8.8426704E1,6.3464024E1,5.201563E0,1.3082906E0,3.931958E0,7.722606E0,1.0237796E0,2.6860857E0],"tree_param":{"num_deleted":"0","num_feature":"428","num_nodes":"55","size_leaf_vector":"1"}},{"base_weights":[-3.632383E-3,3.278028E-2,-4.3887222E-1,8.642048E-2,-2.638231E-1,-4.8247877E-1,5.321951E-2,1.6061059E-1,-1.3030942E-1,-3.3714005E-1,4.2202678E-1,-5.4222274E-1,4.3524137E-1,-2.6165165E-2,2.8315145E-1,2.2067249E-2,-4.5992815E-1,-3.9251927E-1,3.4452906E-1,8.6779493E-1,-5.585267E-1,-5.875995E-1,7.853843E-1,-6.2412214E-1,6.1275627E-2,-3.0461254E-3,5.2696813E-2,-1.8795583E-2,1.7564962E-2,-2.026471E-3,5.454571E-2,-3.0278359E-2,3.1016243E-3,-1.5150869E-3,-2.4156552E-2,3.593068E-2,-2.2628566E-2,5.585543E-2,-3.0631477E-2,1.7222647E-2,-4.6298154E-2,6.723396E-3,-3.2729417E-2,2.1380708E-3,5.4737817E-2,4.6044585E-4,-4.5908716E-2],"categories":[],"categories_nodes":[],"categories_segments":[],"categories_sizes":[],"default_left":[0,0,0,0,0,0,0,0,0,0,0,0,0,0,0,0,0,0,0,0,0,0,0,0,0,0,0,0,0,0,0,0,0,0,0,0,0,0,0,0,0,0,0,0,0,0,0],"id":26,"left_children":[1,3,5,7,9,11,-1,13,15,17,19,21,23,25,27,29,31,33,35,37,39,41,43,45,-1,-1,-1,-1,-1,-1,-1,-1,-1,-1,-1,-1,-1,-1,-1,-1,-1,-1,-1,-1,-1,-1,-1],"loss_changes":[1.9174965E1,1.778769E1,6.6365967E0,1.5237354E1,8.753726E0,5.2507153E0,0E0,1.6153616E1,1.2159216E1,5.9967823E0,7.907997E0,5.661461E0,5.9093895E0,1.0590562E1,1.9268051E1,1.1175529E1,5.8540916E0,4.7139835E0,3.9627922E0,5.1381683E0,2.281854E0,4.152912E0,7.069249E-1,6.208025E-1,0E0,0E0,0E0,0E0,0E0,0E0,0E0,0E0,0E0,0E0,0E0,0E0,0E0,0E0,0E0,0E0,0E0,0E0,0E0,0E0,0E0,0E0,0E0],"parents":[2147483647,0,0,1,1,2,2,3,3,4,4,5,5,7,7,8,8,9,9,10,10,11,11,12,12,13,13,14,14,15,15,16,16,17,17,18,18,19,19,20,20,21,21,22,22,23,23],"right_children":[2,4,6,8,10,12,-1,14,16,18,20,22,24,26,28,30,32,34,36,38,40,42,44,46,-1,-1,-1,-1,-1,-1,-1,-1,-1,-1,-1,-1,-1,-1,-1,-1,-1,-1,-1,-1,-1,-1,-1],"split_conditions":[1.47E2,1.22E2,2E1,4.1002696E-3,1.6000481E-1,1.21E2,5.321951E-2,1.04E2,1E0,7.316733E-2,1.8457746E-2,9.1E1,2.64E1,8.6187094E-2,2.7E0,4.3121766E-2,9.487059E-3,5.1E1,1.5958413E-2,1.15E2,1.45E1,1.25E0,1.28E1,1E0,6.1275627E-2,-3.0461254E-3,5.2696813E-2,-1.8795583E-2,1.7564962E-2,-2.026471E-3,5.454571E-2,-3.0278359E-2,3.1016243E-3,-1.5150869E-3,-2.4156552E-2,3.593068E-2,-2.2628566E-2,5.585543E-2,-3.0631477E-2,1.7222647E-2,-4.6298154E-2,6.723396E-3,-3.2729417E-2,2.1380708E-3,