{"learner":{"attributes":{"scikit_learn":"{\"_estimator_type\": \"classifier\"}"},"feature_names":[],"feature_types":[],"gradient_booster":{"model":{"cats":{"enc":[],"feature_segments":[],"sorted_idx":[]},"gbtree_model_param":{"num_parallel_tree":"1","num_trees":"20"},"iteration_indptr":[0,1,2,3,4,5,6,7,8,9,10,11,12,13,14,15,16,17,18,19,20],"tree_info":[0,0,0,0,0,0,0,0,0,0,0,0,0,0,0,0,0,0,0,0],"trees":[{"base_weights":[4.8659045E-2,-7.3148817E-1,1.377637E0,-1.7170287E0,2.5665367E-2,1.4533136E0,-7.1428575E-2,-1.7966598E0,4.3151972E-1,-1.1808548E0,5.437766E-1,1.516341E0,-6.666667E-2,-1.8390797E0,3.0641595E-2,-5E-2,6.460627E-2,-1.4583204E0,6.2387522E-2,-9.558414E-1,9.113967E-1,-4.5721748E-1,1.5697664E0,3.0641595E-2,-9.413716E-2,3.6682658E-2,-8.950176E-2,6.460627E-2,-6.695845E-2,-1.159517E-2,6.977828E-2,3.0641595E-2,-6.0000002E-2,8.017346E-2,-5E-2],"categories":[],"categories_nodes":[],"categories_segments":[],"categories_sizes":[],"default_left":[0,0,0,0,0,0,0,0,0,0,0,0,0,0,0,0,0,0,0,0,0,0,0,0,0,0,0,0,0,0,0,0,0,0,0],"id":0,"left_children":[1,3,5,7,9,11,-1,13,15,17,19,21,-1,23,-1,-1,-1,25,-1,27,29,31,33,-1,-1,-1,-1,-1,-1,-1,-1,-1,-1,-1,-1],"loss_changes":[3.1980344E2,1.4510605E2,2.6302948E1,1.5228409E1,6.998166E1,2.16194E1,0E0,9.472626E0,6.0048676E0,2.448724E1,4.40287E1,1.227179E1,0E0,9.770782E0,0E0,0E0,0E0,2.3599716E1,0E0,1.54321375E1,3.540986E1,3.646547E0,1.0863556E1,0E0,0E0,0E0,0E0,0E0,0E0,0E0,0E0,0E0,0E0,0E0,0E0],"parents":[2147483647,0,0,1,1,2,2,3,3,4,4,5,5,7,7,8,8,9,9,10,10,11,11,13,13,17,17,19,19,20,20,21,21,22,22],"right_children":[2,4,6,8,10,12,-1,14,16,18,20,22,-1,24,-1,-1,-1,26,-1,28,30,32,34,-1,-1,-1,-1,-1,-1,-1,-1,-1,-1,-1,-1],"split_conditions":[1E0,2.2857144E0,9.666667E0,3.5E2,1.07833336E2,1.3525E2,-7.1428575E-2,9.2E1,7.95625E1,4.642857E2,5E0,1.3233333E2,-6.666667E-2,8E-1,3.0641595E-2,-5E-2,6.460627E-2,2.54E2,6.2387522E-2,1.3722223E2,1.21E1,8.65E1,1.6470588E0,3.0641595E-2,-9.413716E-2,3.6682658E-2,-8.950176E-2,6.460627E-2,-6.695845E-2,-1.159517E-2,6.977828E-2,3.0641595E-2,-6.0000002E-2,8.017346E-2,-5E-2],"split_indices":[73,4,22,30,86,37,0,74,0,11,102,9,0,130,0,0,0,133,0,9,137,0,16,0,0,0,0,0,0,0,0,0,0,0,0],"split_type":[0,0,0,0,0,0,0,0,0,0,0,0,0,0,0,0,0,0,0,0,0,0,0,0,0,0,0,0,0,0,0,0,0,0,0],"sum_hessian":[3.0648087E2,1.9339952E2,1.1308134E2,8.3476074E1,1.0992345E2,1.1058134E2,2.5E0,8.065072E1,2.8253589E0,3.2638756E1,7.728469E1,1.0858134E2,2E0,7.948804E1,1.1626794E0,1E0,1.8253589E0,2.9650719E1,2.9880383E0,1.4900718E1,6.2383972E1,2.6626794E0,1.0591866E2,1.1626794E0,7.8325356E1,3.7380383E0,2.591268E1,1.8253589E0,1.3075359E1,1.8714115E1,4.3669857E1,1.1626794E0,1.5E0,1.0491866E2,1E0],"tree_param":{"num_deleted":"0","num_feature":"421","num_nodes":"35","size_leaf_vector":"1"}},{"base_weights":[-2.51595E-3,-6.732381E-1,1.199944E0,-1.5464402E0,2.2913527E-1,1.4004838E0,2.258019E-1,1.1915146E0,-1.6753803E0,-1.4715059E0,6.5302193E-1,1.4887874E0,-3.188686E-1,-9.111346E-1,9.4342947E-1,7.127741E-2,1.6726764E-2,-1.2145345E-1,-1.7418778E0,-3.8352937E-1,-8.953675E-2,8.5362184E-1,-1.2795616E0,1.5399867E0,-5.7103217E-2,-7.437565E-2,6.208218E-2,2.7752226E-2,-8.320686E-2,1.2525078E0,-5.361023E-2,-6.072879E-2,4.0949184E-2,-8.8868365E-2,2.8785497E-2,2.9334221E-2,-6.66809E-2,5.072094E-2,-7.692096E-2,-8.492359E-2,3.095384E-2,-2.5185896E-2,8.054277E-2,-1.1200072E-2,8.068329E-2],"categories":[],"categories_nodes":[],"categories_segments":[],"categories_sizes":[],"default_left":[0,0,0,0,0,0,0,0,0,0,0,0,0,0,0,0,0,0,0,0,0,0,0,0,0,0,0,0,0,0,0,0,0,0,0,0,0,0,0,0,0,0,0,0,0],"id":1,"left_children":[1,3,5,7,9,11,13,15,17,19,21,23,25,27,29,-1,-1,31,33,35,-1,37,39,41,-1,-1,-1,-1,-1,43,-1,-1,-1,-1,-1,-1,-1,-1,-1,-1,-1,-1,-1,-1,-1],"loss_changes":[2.5043875E2,1.5741763E2,2.1404617E1,3.780487E1,7.2254974E1,1.4444611E1,1.7319403E1,5.5526257E-1,9.8411255E0,6.273262E0,3.20517E1,1.357103E1,1.154607E1,1.0103776E1,9.353863E0,0E0,0E0,6.203918E0,8.69046E0,6.14595E0,0E0,2.9619259E1,7.342724E0,1.3331894E1,0E0,0E0,0E0,0E0,0E0,6.5527706E0,0E0,0E0,0E0,0E0,0E0,0E0,0E0,0E0,0E0,0E0,0E0,0E0,0E0,0E0,0E0],"parents":[2147483647,0,0,1,1,2,2,3,3,4,4,5,5,6,6,7,7,8,8,9,9,10,10,11,11,12,12,13,13,14,14,17,17,18,18,19,19,21,21,22,22,23,23,29,29],"right_children":[2,4,6,8,10,12,14,16,18,20,22,24,26,28,30,-1,-1,32,34,36,-1,38,40,42,-1,-1,-1,-1,-1,44,-1,-1,-1,-1,-1,-1,-1,-1,-1,-1,-1,-1,-1,-1,-1],"split_conditions":[1E0,2E0,3.8E1,1E0,2.5E0,5.25E2,8.29053E-3,8.4875E1,3.9E1,3.6784286E1,9.04E0,4.3E1,7.899039E-3,7.014286E1,1.46E1,7.127741E-2,1.6726764E-2,1.1666666E0,5.65E2,4.347826E-1,-8.953675E-2,3E0,5.65E2,6.3E0,-5.7103217E-2,-7.437565E-2,6.208218E-2,2.7752226E-2,-8.320686E-2,5.15E1,-5.361023E-2,-6.072879E-2,4.0949184E-2,-8.8868365E-2,2.8785497E-2,2.9334221E-2,-6.66809E-2,5.072094E-2,-7.692096E-2,-8.492359E-2,3.095384E-2,-2.5185896E-2,8.054277E-2,-1.1200072E-2,8.068329E-2],"split_indices":[73,103,45,130,4,11,382,0,149,98,1,94,325,0,1,0,0,4,8,16,0,77,8,22,0,0,0,0,0,8,0,0,0,0,0,0,0,0,0,0,0,0,0,0,0],"split_type":[0,0,0,0,0,0,0,0,0,0,0,0,0,0,0,0,0,0,0,0,0,0,0,0,0,0,0,0,0,0,0,0,0,0,0,0,0,0,0,0,0,0,0,0,0],"sum_hessian":[3.085174E2,1.9833044E2,1.1018695E2,1.0043169E2,9.789876E1,9.101307E1,1.9173883E1,4.146332E0,9.6285355E1,1.9039694E1,7.885906E1,8.669465E1,4.3184156E0,7.315035E0,1.185885E1,2.7357624E0,1.4105694E0,4.0672526E0,9.22181E1,4.8186164E0,1.4221078E1,7.194913E1,6.909934E0,8.544641E1,1.2482386E0,2.495987E0,1.8224288E0,2.5713077E0,4.743727E0,1.0610442E1,1.2484071E0,1.7461287E0,2.3211236E0,9.105683E1,1.1612653E0,2.5733013E0,2.245315E0,6.795687E1,3.992257E0,5.747294E0,1.1626405E0,2.658993E0,8.278742E1,2.1599138E0,8.450528E0],"tree_param":{"num_deleted":"0","num_feature":"421","num_nodes":"45","size_leaf_vector":"1"}},{"base_weights":[5.153058E-2,-6.625674E-1,1.2315819E0,-1.4088714E0,2.593685E-1,1.2999291E0,-6.801319E-2,-1.5768188E0,3.8788497E-1,6.60222E-1,-8.979772E-1,1.3358812E0,-5.4314654E-2,4.0436766E-1,-1.6759087E0,-6.79767E-2,1.2376786E0,7.969499E-1,-7.48693E-2,-1.5584979E0,8.9379406E-1,-5.3743105E-2,1.3723893E0,6.307713E-2,-5.6448568E-2,5.3470354E-3,-8.7376095E-2,7.102738E-2,1.415883E-2,1.8983293E-2,7.126438E-2,-8.745658E-2,2.8379867E-2,1.0486101E-2,6.9962114E-2,8.780011E-4,7.193094E-2],"categories":[],"categories_nodes":[],"categories_segments":[],"categories_sizes":[],"default_left":[0,0,0,0,0,0,0,0,0,0,0,0,0,0,0,0,0,0,0,0,0,0,0,0,0,0,0,0,0,0,0,0,0,0,0,0,0],"id":2,"left_children":[1,3,5,7,9,11,-1,13,15,17,19,21,-1,23,25,-1,27,29,-1,31,33,-1,35,-1,-1,-1,-1,-1,-1,-1,-1,-1,-1,-1,-1,-1,-1],"loss_changes":[2.6115088E2,1.332399E2,2.2462494E1,3.2864E1,4.106498E1,1.1259552E1,0E0,1.9905182E1,1.6441511E1,2.0478468E1,2.8455103E1,1.1427673E1,0E0,8.614843E0,1.2120819E1,0E0,8.5631084E-1,1.5748806E1,0E0,7.912033E0,2.055829E0,0E0,1.0009567E1,0E0,0E0,0E0,0E0,0E0,0E0,0E0,0E0,0E0,0E0,0E0,0E0,0E0,0E0],"parents":[2147483647,0,0,1,1,2,2,3,3,4,4,5,5,7,7,8,8,9,9,10,10,11,11,13,13,14,14,16,16,17,17,19,19,20,20,22,22],"right_children":[2,4,6,8,10,12,-1,14,16,18,20,22,-1,24,26,-1,28,30,-1,32,34,-1,36,-1,-1,-1,-1,-1,-1,-1,-1,-1,-1,-1,-1,-1,-1],"split_conditions":[1E0,3.5E0,1.3525E2,6E-2,3.34E1,1.125E0,-6.801319E-2,1.32E2,1.9166666E0,9.85E1,6.3783783E1,1.33E2,-5.4314654E-2,8.0736115E1,1.0333333E1,-6.79767E-2,2E0,1.07E2,-7.48693E-2,4.642857E2,1.76E2,-5.3743105E-2,3.3E1,6.307713E-2,-5.6448568E-2,5.3470354E-3,-8.7376095E-2,7.102738E-2,1.415883E-2,1.8983293E-2,7.126438E-2,-8.745658E-2,2.8379867E-2,1.0486101E-2,6.9962114E-2,8.780011E-4,7.193094E-2],"split_indices":[73,4,37,122,135,16,0,44,4,24,89,44,0,0,10,0,52,117,0,11,8,0,74,0,0,0,0,0,0,0,0,0,0,0,0,0,0],"split_type":[0,0,0,0,0,0,0,0,0,0,0,0,0,0,0,0,0,0,0,0,0,0,0,0,0,0,0,0,0,0,0,0,0,0,0,0,0],"sum_hessian":[3.079397E2,1.9211903E2,1.1582066E2,1.0588075E2,8.623829E1,1.1333058E2,2.4900835E0,9.6941765E1,8.938982E0,6.4372154E1,2.1866138E1,1.1208206E2,1.2485197E0,4.4708834E0,9.247089E1,2.7285213E0,6.21046E0,6.112903E1,3.243122E0,1.6071653E1,5.794483E0,1.2477465E0,1.1083431E2,2.981441E0,1.4894422E0,3.551867E0,8.891902E1,4.802172E0,1.4082881E0,3.7697834E1,2.3431198E1,1.49119005E1,1.1597533E0,3.0634043E0,2.731079E0,5.2244687E0,1.0560985E2],"tree_param":{"num_deleted":"0","num_feature":"421","num_nodes":"37","size_leaf_vector":"1"}},{"base_weights":[5.8639087E-2,-6.5246534E-1,1.1732336E0,-1.4397149E0,1.904652E-1,1.2459663E0,-8.6212623E-1,-1.5657021E0,8.5198843E-1,-1.2838948E0,6.397035E-1,1.288071E0,-5.734337E-2,-7.478947E-2,2.8245425E-2,-5.2699786E-1,-1.6687719E0,-3.8071466E-3,6.7266926E-2,-1.5872521E0,6.307345E-2,-4.3894532E-1,9.4189334E-1,1.3530902E0,-2.7310976E-1,-7.353393E-2,3.290204E-2,-8.5441306E-2,3.000696E-2,-8.779868E-2,1.7218458E-2,-7.817494E-2,1.7187295E-2,5.1710065E-2,-5.928826E-2,2.9631946E-2,7.442366E-2,-6.942429E-2,4.9820866E-2],"categories":[],"categories_nodes":[],"categories_segments":[],"categories_sizes":[],"default_left":[0,0,0,0,0,0,0,0,0,0,0,0,0,0,0,0,0,0,0,0,0,0,0,0,0,0,0,0,0,0,0,0,0,0,0,0,0,0,0],"id":3,"left_children":[1,3,5,7,9,11,13,15,17,19,21,23,-1,-1,-1,25,27,-1,-1,29,-1,31,33,35,37,-1,-1,-1,-1,-1,-1,-1,-1,-1,-1,-1,-1,-1,-1],"loss_changes":[2.3879538E2,1.2236776E2,1.844342E1,2.8835846E1,6.0256145E1,1.293158E1,5.03996E0,8.824539E0,2.6718063E0,1.8440884E1,2.304966E1,1.17582245E1,0E0,0E0,0E0,1.1752538E1,8.477402E0,0E0,0E0,6.9484596E0,0E0,1.4514608E1,1.1942978E1,1.0224197E1,8.913683E0,0E0,0E0,0E0,0E0,0E0,0E0,0E0,0E0,0E0,0E0,0E0,0E0,0E0,0E0],"parents":[2147483647,0,0,1,1,2,2,3,3,4,4,5,5,6,6,7,7,8,8,9,9,10,10,11,11,15,15,16,16,19,19,21,21,22,22,23,23,24,24],"right_children":[2,4,6,8,10,12,14,16,18,20,22,24,-1,-1,-1,26,28,-1,-1,30,-1,32,34,36,38,-1,-1,-1,-1,-1,-1,-1,-1,-1,-1,-1,-1,-1,-1],"split_conditions":[1E0,2E0,1.16E2,1.414E1,1.1E0,1.125E0,6.6E1,1.1505882E2,3.7E0,5.3E1,8.4E1,9.666667E0,-5.734337E-2,-7.478947E-2,2.8245425E-2,1.0526316E-1,5.65E2,-3.8071466E-3,6.7266926E-2,1.15E3,6.307345E-2,5.55E1,1.15E1,1.6E1,3.64E2,-7.353393E-2,3.290204E-2,-8.5441306E-2,3.000696E-2,-8.779868E-2,1.7218458E-2,-7.817494E-2,1.7187295E-2,5.1710065E-2,-5.928826E-2,2.9631946E-2,7.442366E-2,-6.942429E-2,4.9820866E-2],"split_indices":[73,103,117,125,114,16,10,101,4,39,84,22,0,0,0,16,8,0,0,46,0,90,38,139,46,0,0,0,0,0,0,0,0,0,0,0,0,0,0],"split_type":[0,0,0,0,0,0,0,0,0,0,0,0,0,0,0,0,0,0,0,0,0,0,0,0,0,0,0,0,0,0,0,0,0,0,0,0,0,0,0],"sum_hessian":[2.9931784E2,1.8298755E2,1.163303E2,9.425278E1,8.8734764E1,1.1269117E2,3.6391287E0,8.96415E1,4.611277E0,2.0289267E1,6.8445496E1,1.1119624E2,1.49493E0,2.4867344E0,1.1523943E0,8.643913E0,8.099759E1,1.8939261E0,2.717351E0,1.8465014E1,1.8242534E0,1.4879927E1,5.356557E1,1.0687833E2,4.3179183E0,4.6778035E0,3.9661093E0,7.9835075E1,1.1625162E0,1.706534E1,1.3996742E0,5.6970043E0,9.182922E0,5.183083E1,1.7347419E0,1.6964672E1,8.991365E1,2.2486262E0,2.069292E0],"tree_param":{"num_deleted":"0","num_feature":"421","num_nodes":"39","size_leaf_vector":"1"}},{"base_weights":[-3.3630054E-2,-1.1305083E0,5.0013787E-1,-1.4962237E0,6.673437E-1,-5.767993E-1,8.0839556E-1,-1.571709E0,4.3890333E-1,1.1225187E0,-7.981669E-1,-1.0158637E0,7.657867E-2,6.0168767E-1,1.5046643E0,-1.6154417E0,6.858138E-3,6.5568476E-3,3.0730773E-2,1.341228E0,-7.2930786E-3,-6.867861E-2,2.5756955E-2,-1.3116457E0,7.014062E-2,7.6468986E-1,-2.7966854E-1,1.1493891E-2,1.6073446E0,-8.279561E-2,6.821216E-3,2.9682785E-2,7.300058E-2,-7.9643324E-2,1.8750988E-2,3.9924136E-3,5.352209E-2,-8.2529925E-2,3.3947438E-2,8.170161E-2,2.3478929E-2],"categories":[],"categories_nodes":[],"categories_segments":[],"categories_sizes":[],"default_left":[0,0,0,0,0,0,0,0,0,0,0,0,0,0,0,0,0,0,0,0,0,0,0,0,0,0,0,0,0,0,0,0,0,0,0,0,0,0,0,0,0],"id":4,"left_children":[1,3,5,7,9,11,13,15,17,19,21,23,-1,25,27,29,-1,-1,-1,31,-1,-1,-1,33,-1,35,37,-1,39,-1,-1,-1,-1,-1,-1,-1,-1,-1,-1,-1,-1],"loss_changes":[1.7343779E2,6.4748535E1,6.663167E1,1.2503876E1,1.2289869E1,4.315483E1,2.1456406E1,6.0552063E0,1.2587857E-1,3.9263039E0,4.208144E0,2.8877373E1,0E0,1.766468E1,4.1988983E0,5.6276703E0,0E0,0E0,0E0,1.6053963E-1,0E0,0E0,0E0,1.6815475E1,0E0,2.1435673E1,2.6998774E1,0E0,2.0837402E-1,0E0,0E0,0E0,0E0,0E0,0E0,0E0,0E0,0E0,0E0,0E0,0E0],"parents":[2147483647,0,0,1,1,2,2,3,3,4,4,5,5,6,6,7,7,8,8,9,9,10,10,11,11,13,13,14,14,15,15,19,19,23,23,25,25,26,26,28,28],"right_children":[2,4,6,8,10,12,14,16,18,20,22,24,-1,26,28,30,-1,-1,-1,32,-1,-1,-1,34,-1,36,38,-1,40,-1,-1,-1,-1,-1,-1,-1,-1,-1,-1,-1,-1],"split_conditions":[2.3333333E0,2.6005704E-3,2E0,3.5E2,1.0714286E1,8.346953E-3,3.5422985E-2,1.501E2,9.958572E1,6.818182E-1,3.809524E-1,8.4E-1,7.657867E-2,7.368421E-1,2.1E1,1.717E1,6.858138E-3,6.5568476E-3,3.0730773E-2,6.4458336E1,-7.2930786E-3,-6.867861E-2,2.5756955E-2,3.13E2,7.014062E-2,1.21E1,3.2E2,1.1493891E-2,3.7E0,-8.279561E-2,6.821216E-3,2.9682785E-2,7.300058E-2,-7.9643324E-2,1.8750988E-2,3.9924136E-3,5.352209E-2,-8.2529925E-2,3.3947438E-2,8.170161E-2,2.3478929E-2],"split_indices":[4,342,103,30,1,363,340,86,3,16,16,123,0,16,39,125,0,0,0,0,0,0,0,8,0,137,46,0,42,0,0,0,0,0,0,0,0,0,0,0,0],"split_type":[0,0,0,0,0,0,0,0,0,0,0,0,0,0,0,0,0,0,0,0,0,0,0,0,0,0,0,0,0,0,0,0,0,0,0,0,0,0,0,0,0],"sum_hessian":[2.9426688E2,9.5957954E1,1.9830891E2,7.987726E1,1.6080694E1,4.393729E1,1.5437163E2,7.7059135E1,2.8181198E0,1.2448379E1,3.6323168E0,3.6793327E1,7.1439614E0,1.2047055E2,3.3901066E1,7.51896E1,1.8695414E0,1.6588676E0,1.1592522E0,1.0568583E1,1.8797957E0,2.493805E0,1.138512E0,3.3191956E1,3.6013718E0,1.01779366E2,1.8691185E1,2.7685103E0,3.1132557E1,7.354537E1,1.644228E0,2.2713687E0,8.297214E0,2.8496323E1,4.6956315E0,3.1804E1,6.9975365E1,7.3944464E0,1.1296739E1,2.9992867E1,1.1396894E0],"tree_param":{"num_deleted":"0","num_feature":"421","num_nodes":"41","size_leaf_vector":"1"}},{"base_weights":[1.0121294E-1,-5.1496345E-1,1.1038502E0,-1.4295057E0,1.339879E-1,1.1688042E0,-6.6955805E-2,-1.5040104E0,4.2674655E-1,-1.0587518E0,4.526809E-1,1.2890855E0,-6.472449E-2,-1.5460111E0,3.2228086E-2,6.352167E-3,2.9909393E-2,-1.2785192E0,3.499735E-2,-7.648252E-2,6.7428637E-1,-5.5226315E-2,1.3289969E0,7.9177165E-1,-8.1973456E-2,2.7333582E-2,-7.931415E-2,-7.8794435E-2,-1.1586136E-2,4.613006E-2,-9.43692E-3,7.073305E-2,2.5812034E-2,5.690069E-2,-1.0118687E-2],"categories":[],"categories_nodes":[],"categories_segments":[],"categories_sizes":[],"default_left":[0,0,0,0,0,0,0,0,0,0,0,0,0,0,0,0,0,0,0,0,0,0,0,0,0,0,0,0,0,0,0,0,0,0,0],"id":5,"left_children":[1,3,5,7,9,11,-1,13,15,17,19,21,23,25,-1,-1,-1,27,-1,-1,29,-1,31,33,-1,-1,-1,-1,-1,-1,-1,-1,-1,-1,-1],"loss_changes":[1.8893956E2,1.1267627E2,2.0031693E1,1.153334E1,4.2967697E1,1.6982178E1,0E0,7.8489685E0,1.20174885E-1,1.0120075E1,4.008863E1,1.138649E1,1.6230797E1,7.1687775E0,0E0,0E0,0E0,6.3494835E0,0E0,0E0,1.7460377E1,0E0,6.411392E0,2.930819E0,0E0,0E0,0E0,0E0,0E0,0E0,0E0,0E0,0E0,0E0,0E0],"parents":[2147483647,0,0,1,1,2,2,3,3,4,4,5,5,7,7,8,8,9,9,10,10,11,11,12,12,13,13,17,17,20,20,22,22,23,23],"right_children":[2,4,6,8,10,12,-1,14,16,18,20,22,24,26,-1,-1,-1,28,-1,-1,30,-1,32,34,-1,-1,-1,-1,-1,-1,-1,-1,-1,-1,-1],"split_conditions":[1E0,2.2857144E0,1.3525E2,3.5E2,5E0,3.749765E-2,-6.6955805E-2,9.2E1,9.958572E1,7.5E2,2.44E1,1.33E2,9.861667E1,8E-1,3.2228086E-2,6.352167E-3,2.9909393E-2,9.5978264E1,3.499735E-2,-7.648252E-2,9.84125E1,-5.5226315E-2,2.0517322E-1,9.89E1,-8.1973456E-2,2.7333582E-2,-7.931415E-2,-7.8794435E-2,-1.1586136E-2,4.613006E-2,-9.43692E-3,7.073305E-2,2.5812034E-2,5.690069E-2,-1.0118687E-2],"split_indices":[73,4,37,30,102,343,0,74,3,46,107,44,3,130,0,0,0,0,0,0,3,0,356,40,0,0,0,0,0,0,0,0,0,0,0],"split_type":[0,0,0,0,0,0,0,0,0,0,0,0,0,0,0,0,0,0,0,0,0,0,0,0,0,0,0,0,0,0,0,0,0,0,0],"sum_hessian":[3.039056E2,1.885299E2,1.1537571E2,7.7752914E1,1.10776985E2,1.1289559E2,2.4801197E0,7.493499E1,2.817924E0,2.2868229E1,8.790876E1,1.0282418E2,1.0071416E1,7.37733E1,1.1616858E0,1.6589245E0,1.1589997E0,2.0570738E1,2.2974916E0,8.245707E0,7.9663055E1,1.2489076E0,1.0157527E2,6.845427E0,3.2259893E0,1.1554779E0,7.261782E1,1.5626257E1,4.9444804E0,6.180974E1,1.7853315E1,9.122015E1,1.0355117E1,4.9698167E0,1.87561E0],"tree_param":{"num_deleted":"0","num_feature":"421","num_nodes":"35","size_leaf_vector":"1"}},{"base_weights":[2.4338434E-2,-5.3223854E-1,9.9308246E-1,-1.2978169E0,2.0798434E-1,1.1869805E0,2.1433723E-1,6.0653645E-1,-1.4559293E0,-7.2159696E-1,6.6662496E-1,1.2790488E0,-4.1361564E-1,-7.354246E-2,5.352523E-1,-5.038339E-2,1.1203998E0,8.951639E-1,-1.5552499E0,5.338231E-1,-1.2370968E0,8.031416E-1,-7.6245286E-2,1.3546245E0,-1.4859107E-2,-7.309241E-2,3.670722E-2,1.0394976E0,-4.293105E-1,6.91228E-3,7.135276E-2,5.7281483E-2,1.1359366E-2,-4.5377924E-3,-7.978363E-2,5.7483453E-2,-6.774225E-2,-7.4188344E-2,3.6974773E-2,5.473646E-2,-1.3521868E-2,7.021465E-2,-1.5177958E-2,2.7502272E-2,-2.7772307E-2,6.888884E-2,-1.8454473E-3,5.3456277E-2,-7.9409584E-2],"categories":[],"categories_nodes":[],"categories_segments":[],"categories_sizes":[],"default_left":[0,0,0,0,0,0,0,0,0,0,0,0,0,0,0,0,0,0,0,0,0,0,0,0,0,0,0,0,0,0,0,0,0,0,0,0,0,0,0,0,0,0,0,0,0,0,0,0,0],"id":6,"left_children":[1,3,5,7,9,11,13,15,17,19,21,23,25,-1,27,-1,29,31,33,35,37,39,-1,41,43,-1,-1,45,47,-1,-1,-1,-1,-1,-1,-1,-1,-1,-1,-1,-1,-1,-1,-1,-1,-1,-1,-1,-1],"loss_changes":[1.630795E2,1.0914526E2,1.6408974E1,2.9361801E1,4.2493134E1,1.351709E1,1.3344661E1,7.7289352E0,2.1853668E1,2.2040249E1,2.1121552E1,8.193878E0,7.7500033E0,0E0,1.0289867E1,0E0,1.763094E0,4.4012046E-1,4.8538666E0,1.3555363E1,1.2662762E1,2.0098999E1,0E0,6.9313507E0,2.0162287E0,0E0,0E0,4.9967594E0,1.4992155E1,0E0,0E0,0E0,0E0,0E0,0E0,0E0,0E0,0E0,0E0,0E0,0E0,0E0,0E0,0E0,0E0,0E0,0E0,0E0,0E0],"parents":[2147483647,0,0,1,1,2,2,3,3,4,4,5,5,6,6,7,7,8,8,9,9,10,10,11,11,12,12,14,14,16,16,17,17,18,18,19,19,20,20,21,21,23,23,24,24,27,27,28,28],"right_children":[2,4,6,8,10,12,14,16,18,20,22,24,26,-1,28,-1,30,32,34,36,38,40,-1,42,44,-1,-1,46,48,-1,-1,-1,-1,-1,-1,-1,-1,-1,-1,-1,-1,-1,-1,-1,-1,-1,-1,-1,-1],"split_conditions":[1E0,2E0,3.8E1,1.2E1,1.07833336E2,3.8E1,5.882353E-2,4.1666668E-2,1E0,1.3E1,2.67E2,1.1218647E-1,1.9041666E1,-7.354246E-2,5.3027384E-2,-5.038339E-2,1E0,7.5666664E1,2.26E1,4.1666668E-2,9.16E2,1.44E2,-7.6245286E-2,3E0,1.97E2,-7.309241E-2,3.670722E-2,4.1666668E-2,7.95E1,6.91228E-3,7.135276E-2,5.7281483E-2,1.1359366E-2,-4.5377924E-3,-7.978363E-2,5.7483453E-2,-6.774225E-2,-7.4188344E-2,3.6974773E-2,5.473646E-2,-1.3521868E-2,7.021465E-2,-1.5177958E-2,2.7502272E-2,-2.7772307E-2,6.888884E-2,-1.8454473E-3,5.3456277E-2,-7.9409584E-2],"split_indices":[73,25,45,111,86,94,17,14,130,111,149,160,2,0,232,0,71,0,107,14,46,44,0,50,8,0,0,14,37,0,0,0,0,0,0,0,0,0,0,0,0,0,0,0,0,0,0,0,0],"split_type":[0,0,0,0,0,0,0,0,0,0,0,0,0,0,0,0,0,0,0,0,0,0,0,0,0,0,0,0,0,0,0,0,0,0,0,0,0,0,0,0,0,0,0,0,0,0,0,0,0],"sum_hessian":[3.0047775E2,1.9112207E2,1.0935566E2,9.3581635E1,9.7540436E1,8.713572E1,2.2219946E1,6.9567213E0,8.6624916E1,3.203598E1,6.5504456E1,8.258614E1,4.5495706E0,2.9812956E0,1.923865E1,1.4477923E0,5.5089293E0,3.186316E0,8.34386E1,9.315058E0,2.2720922E1,6.225965E1,3.2448056E0,7.7984245E1,4.6018977E0,2.2348561E0,2.3147147E0,1.2582958E1,6.655692E0,1.6559807E0,3.8529484E0,1.7973163E0,1.3889997E0,2.3283615E0,8.111024E1,7.3196034E0,1.9954537E0,2.0421713E1,2.2992105E0,4.8946045E1,1.3313609E1,7.5864944E1,2.119305E0,2.241779E0,2.3601186E0,9.361095E0,3.2218628E0,2.9363868E0,3.719305E0],"tree_param":{"num_deleted":"0","num_feature":"421","num_nodes":"49","size_leaf_vector":"1"}},{"base_weights":[-2.9954793E-2,-5.921697E-1,9.6966755E-1,-1.2854174E0,1.1524266E-1,1.0482876E0,-8.493582E-1,-1.4020479E0,9.221118E-1,3.975158E-1,-1.1851774E0,1.0948486E0,-5.955959E-2,2.426566E-2,-6.892484E-2,-1.4393046E0,2.7762506E-2,6.2238555E-2,5.452135E-3,5.3373253E-1,-7.874786E-2,2.965163E-1,-7.824426E-2,1.155081E0,-6.730558E-1,-7.377601E-2,1.4921998E-2,-1.1942936E-2,4.5205794E-2,-4.36144E-2,5.1365424E-2,-5.2722044E-2,5.9789658E-2,-6.46802E-2,2.2504551E-2],"categories":[],"categories_nodes":[],"categories_segments":[],"categories_sizes":[],"default_left":[0,0,0,0,0,0,0,0,0,0,0,0,0,0,0,0,0,0,0,0,0,0,0,0,0,0,0,0,0,0,0,0,0,0,0],"id":7,"left_children":[1,3,5,7,9,11,13,15,17,19,21,23,-1,-1,-1,25,-1,-1,-1,27,-1,29,-1,31,33,-1,-1,-1,-1,-1,-1,-1,-1,-1,-1],"loss_changes":[1.6066844E2,8.986518E1,1.5609413E1,2.5102814E1,3.4045074E1,1.16381E1,4.0705376E0,7.233444E0,1.239994E0,2.1233725E1,9.782942E0,1.1171211E1,0E0,0E0,0E0,5.907013E0,0E0,0E0,0E0,2.0745848E1,0E0,4.5002413E0,0E0,9.78495E0,3.2640004E0,0E0,0E0,0E0,0E0,0E0,0E0,0E0,0E0,0E0,0E0],"parents":[2147483647,0,0,1,1,2,2,3,3,4,4,5,5,6,6,7,7,8,8,9,9,10,10,11,11,15,15,19,19,21,21,23,23,24,24],"right_children":[2,4,6,8,10,12,14,16,18,20,22,24,-1,-1,-1,26,-1,-1,-1,28,-1,30,-1,32,34,-1,-1,-1,-1,-1,-1,-1,-1,-1,-1],"split_conditions":[1E0,2E0,1.29E2,1.414E1,9.04E0,5.666667E2,8.827003E-3,6.2E0,2.5856671E0,1.37E2,1.36E2,4.3E1,-5.955959E-2,2.426566E-2,-6.892484E-2,1.75E2,2.7762506E-2,6.2238555E-2,5.452135E-3,1.069079E2,-7.874786E-2,1.98E2,-7.824426E-2,1.33E2,9.8814285E1,-7.377601E-2,1.4921998E-2,-1.1942936E-2,4.5205794E-2,-4.36144E-2,5.1365424E-2,-5.2722044E-2,5.9789658E-2,-6.46802E-2,2.2504551E-2],"split_indices":[73,103,37,125,1,11,344,27,12,149,44,94,0,0,0,30,0,0,0,86,0,11,0,44,3,0,0,0,0,0,0,0,0,0,0],"split_type":[0,0,0,0,0,0,0,0,0,0,0,0,0,0,0,0,0,0,0,0,0,0,0,0,0,0,0,0,0,0,0,0,0,0,0],"sum_hessian":[2.8386383E2,1.8194218E2,1.0192165E2,9.147841E1,9.046378E1,9.8105156E1,3.8164942E0,8.723443E1,4.2439785E0,7.490007E1,1.556372E1,9.6607704E1,1.4974517E0,1.1070228E0,2.7094717E0,8.586466E1,1.3697684E0,2.6581583E0,1.58582E0,7.074398E1,4.15609E0,3.2195399E0,1.2344179E1,9.375995E1,2.8477597E0,8.4259544E1,1.6051154E0,2.3039806E1,4.770417E1,1.1640993E0,2.0554407E0,1.2458422E0,9.251411E1,1.7365396E0,1.1112201E0],"tree_param":{"num_deleted":"0","num_feature":"421","num_nodes":"35","size_leaf_vector":"1"}},{"base_weights":[6.1303873E-2,-9.4743025E-1,5.410419E-1,-1.3559763E0,7.309846E-1,1.35504E-1,1.0747384E0,6.989711E-1,-1.4746455E0,9.8909855E-1,-5.841912E-2,4.3678883E-1,-8.7243056E-1,1.142477E0,-6.500914E-1,-4.2691328E-2,7.153267E-2,2.8509906E-2,-7.581195E-2,1.2139689E0,-2.202687E-2,-1.113878E0,6.493924E-1,-1.3716745E0,8.894652E-1,-5.6812316E-1,1.2125323E0,-6.3502505E-2,2.3086261E-2,6.947275E-2,-9.643036E-3,-7.041972E-2,2.6886145E-2,-2.7076848E-4,5.027699E-2,-7.538777E-2,2.6006958E-2,5.822211E-2,2.0624164E-3,-6.1812043E-2,2.7330277E-2,6.869002E-2,1.8836875E-2],"categories":[],"categories_nodes":[],"categories_segments":[],"categories_sizes":[],"default_left":[0,0,0,0,0,0,0,0,0,0,0,0,0,0,0,0,0,0,0,0,0,0,0,0,0,0,0,0,0,0,0,0,0,0,0,0,0,0,0,0,0,0,0],"id":8,"left_children":[1,3,5,7,9,11,13,15,17,19,-1,21,23,25,27,-1,-1,-1,-1,29,-1,31,33,35,37,39,41,-1,-1,-1,-1,-1,-1,-1,-1,-1,-1,-1,-1,-1,-1,-1,-1],"loss_changes":[1.4036734E2,6.511092E1,4.238161E1,1.9455124E1,1.0448433E1,3.4634148E1,1.0638344E1,6.678808E0,6.9670715E0,6.073593E0,0E0,2.957157E1,2.434573E1,1.0498383E1,3.2317796E0,0E0,0E0,0E0,0E0,4.009058E0,0E0,6.0685825E0,1.8098995E1,6.159382E0,1.4473696E0,3.5813951E0,1.012468E1,0E0,0E0,0E0,0E0,0E0,0E0,0E0,0E0,0E0,0E0,0E0,0E0,0E0,0E0,0E0,0E0],"parents":[2147483647,0,0,1,1,2,2,3,3,4,4,5,5,6,6,7,7,8,8,9,9,11,11,12,12,13,13,14,14,19,19,21,21,22,22,23,23,24,24,25,25,26,26],"right_children":[2,4,6,8,10,12,14,16,18,20,-1,22,24,26,28,-1,-1,-1,-1,30,-1,32,34,36,38,40,42,-1,-1,-1,-1,-1,-1,-1,-1,-1,-1,-1,-1,-1,-1,-1,-1],"split_conditions":[2.3333333E0,3.004281E-2,1E0,1.1E1,1.1E1,3.38E1,1.115E2,5.7729168E1,1.31E2,7.692308E-2,-5.841912E-2,2.46E1,1.09E2,3.3E1,2.0333334E1,-4.2691328E-2,7.153267E-2,2.8509906E-2,-7.581195E-2,1.4325E2,-2.202687E-2,5.7E0,5.4E1,9.16E2,1E0,2.03E2,4.0333332E1,-6.3502505E-2,2.3086261E-2,6.947275E-2,-9.643036E-3,-7.041972E-2,2.6886145E-2,-2.7076848E-4,5.027699E-2,-7.538777E-2,2.6006958E-2,5.822211E-2,2.0624164E-3,-6.1812043E-2,2.7330277E-2,6.869002E-2,1.8836875E-2],"split_indices":[4,255,73,111,22,135,0,0,44,17,0,107,91,74,2,0,0,0,0,9,0,27,74,46,59,8,10,0,0,0,0,0,0,0,0,0,0,0,0,0,0,0,0],"split_type":[0,0,0,0,0,0,0,0,0,0,0,0,0,0,0,0,0,0,0,0,0,0,0,0,0,0,0,0,0,0,0,0,0,0,0,0,0,0,0,0,0,0,0],"sum_hessian":[2.8799896E2,9.250853E1,1.9549045E2,7.4553444E1,1.7955084E1,1.1179505E2,8.369539E1,3.8032894E0,7.075015E1,1.622891E1,1.7261745E0,8.650441E1,2.5290648E1,8.085753E1,2.837865E0,1.1646655E0,2.638624E0,1.1570638E0,6.9593094E1,1.4153528E1,2.0753818E0,9.918997E0,7.658541E1,1.9879225E1,5.4114227E0,2.9014182E0,7.795611E1,1.7305664E0,1.1072986E0,1.2594817E1,1.5587109E0,8.542871E0,1.3761249E0,2.7327051E1,4.9258358E1,1.8734627E1,1.1445975E0,3.805073E0,1.6063497E0,1.7459619E0,1.1554563E0,6.480766E1,1.3148446E1],"tree_param":{"num_deleted":"0","num_feature":"421","num_nodes":"43","size_leaf_vector":"1"}},{"base_weights":[3.2668808E-3,-5.7306564E-1,9.803375E-1,-1.2795476E0,1.066027E-1,1.0823693E0,-4.7877312E-1,3.8284642E-1,-1.3387779E0,-9.273179E-1,5.345639E-1,1.1472113E0,-7.023059E-1,-1.1201154E0,4.2752337E-2,2.361455E-3,3.0815443E-2,-1.4029522E0,3.1550658E-1,-1.2124807E0,5.3811934E-2,6.804674E-1,-7.077562E-2,1.2201477E0,-3.4945485E-1,-6.335499E-2,2.1693148E-2,2.4064472E-2,-8.119481E-2,1.331529E-2,-7.2190575E-2,5.761512E-2,-4.516382E-2,3.440166E-2,-7.214413E-2,-8.13296E-3,4.846753E-2,-1.6427604E-2,6.328399E-2,3.9466497E-2,-6.499456E-2],"categories":[],"categories_nodes":[],"categories_segments":[],"categories_sizes":[],"default_left":[0,0,0,0,0,0,0,0,0,0,0,0,0,0,0,0,0,0,0,0,0,0,0,0,0,0,0,0,0,0,0,0,0,0,0,0,0,0,0,0,0],"id":9,"left_children":[1,3,5,7,9,11,13,15,17,19,21,23,25,27,-1,-1,-1,29,31,33,-1,35,-1,37,39,-1,-1,-1,-1,-1,-1,-1,-1,-1,-1,-1,-1,-1,-1,-1,-1],"loss_changes":[1.5975262E2,8.581997E1,1.6187767E1,9.1353E0,4.1146362E1,1.2225151E1,7.435386E0,2.6788902E-1,9.443314E0,1.6879902E1,1.9630772E1,1.0862259E1,3.1678197E0,5.2562156E0,0E0,0E0,0E0,5.963623E0,5.102498E0,1.1648247E1,0E0,1.5190073E1,0E0,6.8595886E0,6.6755724E0,0E0,0E0,0E0,0E0,0E0,0E0,0E0,0E0,0E0,0E0,0E0,0E0,0E0,0E0,0E0,0E0],"parents":[2147483647,0,0,1,1,2,2,3,3,4,4,5,5,6,6,7,7,8,8,9,9,10,10,11,11,12,12,13,13,17,17,18,18,19,19,21,21,23,23,24,24],"right_children":[2,4,6,8,10,12,14,16,18,20,22,24,26,28,-1,-1,-1,30,32,34,-1,36,-1,38,40,-1,-1,-1,-1,-1,-1,-1,-1,-1,-1,-1,-1,-1,-1,-1,-1],"split_conditions":[1E0,2E0,6.697478E-2,9E0,1.07833336E2,3E0,2.66E2,1.4E0,4E-2,9.16E2,2.36E1,9.666667E0,2.3831477E-2,9.83E1,4.2752337E-2,2.361455E-3,3.0815443E-2,2.26E1,9.4E-1,2.27E2,5.3811934E-2,1.12E0,-7.077562E-2,1.33E2,1.1125E1,-6.335499E-2,2.1693148E-2,2.4064472E-2,-8.119481E-2,1.331529E-2,-7.2190575E-2,5.761512E-2,-4.516382E-2,3.440166E-2,-7.214413E-2,-8.13296E-3,4.846753E-2,-1.6427604E-2,6.328399E-2,3.9466497E-2,-6.499456E-2],"split_indices":[73,25,410,110,86,50,8,26,120,46,138,22,347,40,0,0,0,107,6,133,0,114,0,44,1,0,0,0,0,0,0,0,0,0,0,0,0,0,0,0,0],"split_type":[0,0,0,0,0,0,0,0,0,0,0,0,0,0,0,0,0,0,0,0,0,0,0,0,0,0,0,0,0,0,0,0,0,0,0,0,0,0,0,0,0],"sum_hessian":[2.8169556E2,1.7744296E2,1.0425259E2,8.657249E1,9.087047E1,9.768025E1,6.5723286E0,2.7904463E0,8.3782036E1,2.6260452E1,6.4610016E1,9.4600365E1,3.0798926E0,4.546466E0,2.0258627E0,1.6380057E0,1.1524404E0,8.079953E1,2.9825077E0,2.3334175E1,2.926277E0,6.0718178E1,3.8918424E0,9.038064E1,4.219725E0,1.9802592E0,1.0996333E0,1.0986744E0,3.4477916E0,1.7986904E0,7.900084E1,1.8007145E0,1.1817932E0,2.3082128E0,2.1025963E1,1.5606478E1,4.51117E1,2.4037879E0,8.797685E1,1.9967663E0,2.2229588E0],"tree_param":{"num_deleted":"0","num_feature":"421","num_nodes":"41","size_leaf_vector":"1"}},{"base_weights":[8.947235E-3,-4.7181723E-1,8.8145506E-1,-1.1405128E0,1.4373083E-1,1.0836533E0,2.3840196E-1,-1.3181725E0,5.349799E-1,-5.3401256E-1,7.068529E-1,-4.6454093E-1,1.1399564E0,4.639336E-1,-6.447011E-2,-1.4025681E0,4.206371E-1,1.008899E0,-4.5946173E-2,-7.741083E-1,8.302415E-1,9.7970665E-1,-4.805755E-1,1.9688515E-2,-5.271555E-2,1.2188144E0,-3.560176E-2,-8.6906815E-1,7.3789763E-1,-7.223171E-2,1.6130168E-2,7.831253E-2,-4.787544E-2,6.87562E-2,-2.7324208E-3,-5.7302516E-2,3.0846313E-2,-7.1115433E-3,6.409478E-2,-6.2589287E-3,5.682273E-2,3.998325E-2,-5.748068E-2,6.5551125E-2,1.2496403E-2,5.1234227E-2,-3.9447937E-2,-6.924544E-2,1.8074399E-2,4.5896064E-2,-5.1389392E-2],"categories":[],"categories_nodes":[],"categories_segments":[],"categories_sizes":[],"default_left":[0,0,0,0,0,0,0,0,0,0,0,0,0,0,0,0,0,0,0,0,0,0,0,0,0,0,0,0,0,0,0,0,0,0,0,0,0,0,0,0,0,0,0,0,0,0,0,0,0,0,0],"id":10,"left_children":[1,3,5,7,9,11,13,15,17,19,21,23,25,27,-1,29,31,33,-1,35,37,39,41,-1,-1,43,45,47,49,-1,-1,-1,-1,-1,-1,-1,-1,-1,-1,-1,-1,-1,-1,-1,-1,-1,-1,-1,-1,-1,-1],"loss_changes":[1.1598432E2,7.354799E1,1.2513496E1,2.6174995E1,3.6145515E1,7.0189743E0,9.136421E0,1.1985001E1,7.0693436E0,1.4760366E1,1.719487E1,2.09722E0,6.7294617E0,8.795167E0,0E0,5.857132E0,8.389203E0,2.8793564E0,0E0,1.993715E1,3.2272873E0,7.4685707E0,9.755084E0,0E0,0E0,5.713318E0,5.206206E0,3.208368E0,7.002512E0,0E0,0E0,0E0,0E0,0E0,0E0,0E0,0E0,0E0,0E0,0E0,0E0,0E0,0E0,0E0,0E0,0E0,0E0,0E0,0E0,0E0,0E0],"parents":[2147483647,0,0,1,1,2,2,3,3,4,4,5,5,6,6,7,7,8,8,9,9,10,10,11,11,12,12,13,13,15,15,16,16,17,17,19,19,20,20,21,21,22,22,25,25,26,26,27,27,28,28],"right_children":[2,4,6,8,10,12,14,16,18,20,22,24,26,28,-1,30,32,34,-1,36,38,40,42,-1,-1,44,46,48,50,-1,-1,-1,-1,-1,-1,-1,-1,-1,-1,-1,-1,-1,-1,-1,-1,-1,-1,-1,-1,-1,-1],"split_conditions":[1E0,2E0,9.30108E-3,9.1E-1,1.1091428E2,6.1E0,9.666667E0,1.3639131E2,9.878333E1,2.48E2,8.6E1,5.4985758E-2,1.3333334E0,9.822857E1,-6.447011E-2,1.75E2,9.1875E1,1.25E0,-4.5946173E-2,4E2,9.8152176E1,1.07E1,6.70625E1,1.9688515E-2,-5.271555E-2,6.741627E-2,1.595E2,3.5E-1,3.5E2,-7.223171E-2,1.6130168E-2,7.831253E-2,-4.787544E-2,6.87562E-2,-2.7324208E-3,-5.7302516E-2,3.0846313E-2,-7.1115433E-3,6.409478E-2,-6.2589287E-3,5.682273E-2,3.998325E-2,-5.748068E-2,6.5551125E-2,1.2496403E-2,5.1234227E-2,-3.9447937E-2,-6.924544E-2,1.8074399E-2,4.5896064E-2,-5.1389392E-2],"split_indices":[73,103,392,123,86,22,22,86,3,150,149,329,20,3,0,30,11,19,0,11,0,137,0,0,0,256,8,20,30,0,0,0,0,0,0,0,0,0,0,0,0,0,0,0,0,0,0,0,0,0,0],"split_type":[0,0,0,0,0,0,0,0,0,0,0,0,0,0,0,0,0,0,0,0,0,0,0,0,0,0,0,0,0,0,0,0,0,0,0,0,0,0,0,0,0,0,0,0,0,0,0,0,0,0,0],"sum_hessian":[2.7451013E2,1.7728357E2,9.722657E1,8.456463E1,9.271893E1,7.344708E1,2.3779491E1,7.665033E1,7.9143E0,4.2100605E1,5.061833E1,2.3228817E0,7.11242E1,2.1327505E1,2.4519873E0,7.328663E1,3.363698E0,6.19955E0,1.7147499E0,3.6167965E1,5.9326396E0,4.130254E1,9.315789E0,1.0814075E0,1.2414743E0,6.6618546E1,4.5056524E0,3.2656982E0,1.8061806E1,7.170091E1,1.5857229E0,1.7622766E0,1.6014215E0,4.3936634E0,1.8058869E0,2.867643E1,7.491535E0,2.0987773E0,3.8338623E0,5.1565356E0,3.6146004E1,3.1303842E0,6.1854043E0,6.050702E1,6.1115274E0,1.7219688E0,2.7836835E0,2.2127116E0,1.0529866E0,1.6826376E1,1.23543E0],"tree_param":{"num_deleted":"0","num_feature":"421","num_nodes":"51","size_leaf_vector":"1"}},{"base_weights":[1.13918455E-2,-4.8021922E-1,8.533825E-1,-1.3436841E0,-7.01532E-2,1.018984E0,8.421762E-2,2.8616278E-2,-7.0032574E-2,-8.757043E-1,3.149433E-1,1.0854894E0,-6.918453E-1,-6.7276135E-2,3.6790523E-1,-1.140027E0,1.6109373E-1,-5.693731E-1,6.6916835E-1,-2.4499251E-1,1.1561762E0,-6.363348E-2,2.0160114E-2,9.3776757E-1,-7.2337383E-1,-6.5231584E-2,4.2503193E-2,-4.201608E-2,5.1422264E-2,-5.88372E-2,4.647271E-2,4.515521E-2,-2.2156073E-2,-6.425331E-2,5.3244825E-2,-1.4042767E-2,5.9689343E-2,-1.011155E-3,6.3013904E-2,2.5719931E-2,-7.4943654E-2],"categories":[],"categories_nodes":[],"categories_segments":[],"categories_sizes":[],"default_left":[0,0,0,0,0,0,0,0,0,0,0,0,0,0,0,0,0,0,0,0,0,0,0,0,0,0,0,0,0,0,0,0,0,0,0,0,0,0,0,0,0],"id":11,"left_children":[1,3,5,7,9,11,13,-1,-1,15,17,19,21,-1,23,25,27,29,31,33,35,-1,-1,37,39,-1,-1,-1,-1,-1,-1,-1,-1,-1,-1,-1,-1,-1,-1,-1,-1],"loss_changes":[1.1617271E2,6.2652462E1,1.3091705E1,7.023796E0,3.787577E1,1.0426422E1,8.37093E0,0E0,0E0,1.0999493E1,2.6298885E1,8.018112E0,2.9254138E0,0E0,1.1242982E1,1.1451622E1,8.5892515E0,2.3127619E1,1.5891588E1,8.145275E0,4.56559E0,0E0,0E0,3.6081543E0,6.907056E0,0E0,0E0,0E0,0E0,0E0,0E0,0E0,0E0,0E0,0E0,0E0,0E0,0E0,0E0,0E0,0E0],"parents":[2147483647,0,0,1,1,2,2,3,3,4,4,5,5,6,6,9,9,10,10,11,11,12,12,14,14,15,15,16,16,17,17,18,18,19,19,20,20,23,23,24,24],"right_children":[2,4,6,8,10,12,14,-1,-1,16,18,20,22,-1,24,26,28,30,32,34,36,-1,-1,38,40,-1,-1,-1,-1,-1,-1,-1,-1,-1,-1,-1,-1,-1,-1,-1,-1],"split_conditions":[1E0,1.5E0,4.0333332E1,1E1,1.0363636E2,1.115E2,5.882353E-2,2.8616278E-2,-7.0032574E-2,1.3161539E2,1.07833336E2,3.3E1,2.0333334E1,-6.7276135E-2,5.3027384E-2,9.2E1,2.2145834E1,4.642857E2,3.4E1,2.5E2,6.857143E0,-6.363348E-2,2.0160114E-2,5.45E1,7.014286E1,-6.5231584E-2,4.2503193E-2,-4.201608E-2,5.1422264E-2,-5.88372E-2,4.647271E-2,4.515521E-2,-2.2156073E-2,-6.425331E-2,5.3244825E-2,-1.4042767E-2,5.9689343E-2,-1.011155E-3,6.3013904E-2,2.5719931E-2,-7.4943654E-2],"split_indices":[73,4,10,45,11,0,17,0,0,86,86,74,2,0,232,74,2,11,39,8,1,0,0,10,0,0,0,0,0,0,0,0,0,0,0,0,0,0,0,0,0],"split_type":[0,0,0,0,0,0,0,0,0,0,0,0,0,0,0,0,0,0,0,0,0,0,0,0,0,0,0,0,0,0,0,0,0,0,0,0,0,0,0,0,0],"sum_hessian":[2.786665E2,1.762118E2,1.024547E2,5.6005596E1,1.2020621E2,8.4036766E1,1.841793E1,1.3558861E0,5.4649708E1,3.8466785E1,8.1739426E1,8.1244064E1,2.7926989E0,2.4296927E0,1.5988237E1,3.0572918E1,7.893867E0,2.320391E1,5.8535515E1,3.9742424E0,7.726982E1,1.7188164E0,1.0738823E0,1.0595811E1,5.3924265E0,2.855547E1,2.0174482E0,3.678248E0,4.215619E0,1.6665447E1,6.538462E0,4.851909E1,1.0016424E1,2.2258394E0,1.7484031E0,1.8058099E0,7.546401E1,2.90476E0,7.691051E0,2.2068176E0,3.1856089E0],"tree_param":{"num_deleted":"0","num_feature":"421","num_nodes":"41","size_leaf_vector":"1"}},{"base_weights":[1.1519739E-2,-4.238173E-1,8.3513767E-1,-1.1552638E0,1.5366013E-1,8.9418525E-1,-5.7973385E-2,7.4351865E-1,-1.250491E0,-8.939209E-1,3.7367943E-1,9.336081E-1,-5.6127008E-2,5.225339E-3,5.417325E-2,-1.3499942E0,2.4230771E-1,-6.7009084E-2,-3.7069913E-2,4.370854E-2,1.0685718E0,9.8963714E-1,-1.4349379E-1,-6.9717474E-2,7.1903685E-4,6.0339052E-2,-5.1388264E-2,-5.6355383E-2,3.503572E-2,-1.2287868E-2,6.5652944E-2,6.0783096E-2,-7.124435E-3,5.65793E-2,1.9078603E-2,-7.488178E-2,5.323421E-2],"categories":[],"categories_nodes":[],"categories_segments":[],"categories_sizes":[],"default_left":[0,0,0,0,0,0,0,0,0,0,0,0,0,0,0,0,0,0,0,0,0,0,0,0,0,0,0,0,0,0,0,0,0,0,0,0,0],"id":12,"left_children":[1,3,5,7,9,11,-1,13,15,17,19,21,-1,-1,-1,23,25,-1,27,29,31,33,35,-1,-1,-1,-1,-1,-1,-1,-1,-1,-1,-1,-1,-1,-1],"loss_changes":[9.80071E1,7.571838E1,1.21684265E1,1.5217613E1,2.357208E1,8.391251E0,0E0,8.4275484E-1,1.1559303E1,6.7545433E0,1.9220104E1,5.642029E0,0E0,0E0,0E0,4.3194733E0,8.067202E0,0E0,6.517621E0,2.1639555E1,4.984829E0,7.056587E0,1.0396008E1,0E0,0E0,0E0,0E0,0E0,0E0,0E0,0E0,0E0,0E0,0E0,0E0,0E0,0E0],"parents":[2147483647,0,0,1,1,2,2,3,3,4,4,5,5,7,7,8,8,9,9,10,10,11,11,15,15,16,16,18,18,19,19,20,20,21,21,22,22],"right_children":[2,4,6,8,10,12,-1,14,16,18,20,22,-1,-1,-1,24,26,-1,28,30,32,34,36,-1,-1,-1,-1,-1,-1,-1,-1,-1,-1,-1,-1,-1,-1],"split_conditions":[4.9313784E-2,2E0,1.3525E2,9E0,5E0,2.3E1,-5.7973385E-2,9.0125E1,1.1E-1,1.5E1,1.61E2,1.445E2,-5.6127008E-2,5.225339E-3,5.417325E-2,4.4E1,9.52381E-2,-6.7009084E-2,1.73E2,2.33E2,9.878333E1,3.8E1,3.1172823E-2,-6.9717474E-2,7.1903685E-4,6.0339052E-2,-5.1388264E-2,-5.6355383E-2,3.503572E-2,-1.2287868E-2,6.5652944E-2,6.0783096E-2,-7.124435E-3,5.65793E-2,1.9078603E-2,-7.488178E-2,5.323421E-2],"split_indices":[151,25,37,110,102,110,0,0,122,110,85,44,0,0,0,39,17,0,46,100,3,45,350,0,0,0,0,0,0,0,0,0,0,0,0,0,0],"split_type":[0,0,0,0,0,0,0,0,0,0,0,0,0,0,0,0,0,0,0,0,0,0,0,0,0,0,0,0,0,0,0,0,0,0,0,0,0],"sum_hessian":[2.7135468E2,1.7783986E2,9.3514824E1,7.801884E1,9.982102E1,9.136188E1,2.1529477E0,3.4007978E0,7.461804E1,1.6794449E1,8.302657E1,9.013695E1,1.2249241E0,1.6349442E0,1.7658536E0,7.004483E1,4.573211E0,1.0672153E1,6.122296E0,5.701554E1,2.6011034E1,8.575721E1,4.379744E0,6.781812E1,2.2267094E0,2.6276493E0,1.945562E0,2.2582126E0,3.8640835E0,4.7084633E1,9.930908E0,2.3190605E1,2.8204298E0,6.882865E1,1.6928556E1,1.952158E0,2.427586E0],"tree_param":{"num_deleted":"0","num_feature":"421","num_nodes":"37","size_leaf_vector":"1"}},{"base_weights":[-4.8533045E-3,-9.810141E-1,3.2359207E-1,-1.3078854E0,5.6120855E-1,4.6844786E-1,-9.110788E-1,4.091212E-2,-6.825185E-2,8.034985E-1,-4.858601E-2,6.123794E-1,-8.0715805E-1,-6.9862336E-2,-9.638765E-3,1.0308422E0,-2.5109707E-3,-9.4223744E-1,6.928982E-1,6.128876E-1,-1.2445894E0,-9.097505E-1,6.8580574E-1,2.0615064E-2,5.8065392E-2,-1.3725962E-2,1.6279975E-2,-6.1318744E-2,2.7766967E-2,4.0175002E-2,-3.624702E-4,5.7643976E-2,-1.6098663E-2,-7.3047765E-2,1.6697196E-2,1.5546543E-2,-7.054172E-2,5.8092725E-2,-5.3979326E-3],"categories":[],"categories_nodes":[],"categories_segments":[],"categories_sizes":[],"default_left":[0,0,0,0,0,0,0,0,0,0,0,0,0,0,0,0,0,0,0,0,0,0,0,0,0,0,0,0,0,0,0,0,0,0,0,0,0,0,0],"id":13,"left_children":[1,3,5,7,9,11,13,-1,-1,15,-1,17,19,-1,21,23,25,27,29,31,33,35,37,-1,-1,-1,-1,-1,-1,-1,-1,-1,-1,-1,-1,-1,-1,-1,-1],"loss_changes":[8.784953E1,3.550802E1,3.709651E1,8.069557E0,5.5212483E0,3.4306553E1,9.570515E0,0E0,0E0,2.1224537E0,0E0,2.1439404E1,1.2629832E1,0E0,6.050482E0,2.4957085E-1,4.055698E-1,4.340915E0,1.2276398E1,2.9806206E0,5.588852E0,3.0127356E0,2.1888504E0,0E0,0E0,0E0,0E0,0E0,0E0,0E0,0E0,0E0,0E0,0E0,0E0,0E0,0E0,0E0,0E0],"parents":[2147483647,0,0,1,1,2,2,3,3,4,4,5,5,6,6,9,9,11,11,12,12,14,14,15,15,16,16,17,17,18,18,19,19,20,20,21,21,22,22],"right_children":[2,4,6,8,10,12,14,-1,-1,16,-1,18,20,-1,22,24,26,28,30,32,34,36,38,-1,-1,-1,-1,-1,-1,-1,-1,-1,-1,-1,-1,-1,-1,-1,-1],"split_conditions":[3E0,1.4186703E-2,4E1,9.333333E0,1.1E1,1.4325E2,7.6E1,4.091212E-2,-6.825185E-2,4.03E2,-4.858601E-2,4.7E1,5.8E1,-6.9862336E-2,9.77E1,8.1E0,4.4166666E2,1.024E3,3.6E1,1.425E1,5.7E0,3.142857E0,1.37E2,2.0615064E-2,5.8065392E-2,-1.3725962E-2,1.6279975E-2,-6.1318744E-2,2.7766967E-2,4.0175002E-2,-3.624702E-4,5.7643976E-2,-1.6098663E-2,-7.3047765E-2,1.6697196E-2,1.5546543E-2,-7.054172E-2,5.8092725E-2,-5.3979326E-3],"split_indices":[41,332,94,10,22,9,21,0,0,46,0,116,149,0,24,1,11,46,10,23,27,4,28,0,0,0,0,0,0,0,0,0,0,0,0,0,0,0,0],"split_type":[0,0,0,0,0,0,0,0,0,0,0,0,0,0,0,0,0,0,0,0,0,0,0,0,0,0,0,0,0,0,0,0,0,0,0,0,0,0,0],"sum_hessian":[2.720127E2,6.798124E1,2.0403145E2,5.62179E1,1.1763339E1,1.8316277E2,2.0868692E1,1.1230104E0,5.509489E1,1.0568721E1,1.194618E0,1.650585E2,1.8104252E1,1.3199743E1,7.668949E0,8.025966E0,2.5427554E0,7.600959E0,1.5745755E2,4.169049E0,1.3935204E1,3.2082996E0,4.4606495E0,2.122651E0,5.903314E0,1.4795337E0,1.0632217E0,6.541016E0,1.0599427E0,1.3584984E2,2.1607714E1,2.4947996E0,1.674249E0,1.2320894E1,1.6143097E0,1.0441492E0,2.1641505E0,2.4984896E0,1.9621601E0],"tree_param":{"num_deleted":"0","num_feature":"421","num_nodes":"39","size_leaf_vector":"1"}},{"base_weights":[7.0853312E-3,-1.0858417E0,3.409507E-1,-1.2830259E0,3.612032E-1,-3.94459E-2,8.7871975E-1,3.860999E-2,-6.718811E-2,8.213937E-1,-5.0817173E-2,-3.7766892E-1,7.4905825E-1,9.9779093E-1,-1.5466955E-1,1.9057542E-1,5.608616E-2,-8.156149E-1,5.386095E-1,9.220469E-1,-6.117362E-1,1.0477686E0,-5.22176E-2,5.1965564E-2,-8.8456705E-2,4.903925E-4,1.4752983E-2,5.9589505E-2,-4.688534E-2,-1.2496833E-2,4.6730928E-2,5.17504E-2,-5.348261E-2,-6.15963E-2,3.1732164E-2,5.466013E-2,-4.431652E-2],"categories":[],"categories_nodes":[],"categories_segments":[],"categories_sizes":[],"default_left":[0,0,0,0,0,0,0,0,0,0,0,0,0,0,0,0,0,0,0,0,0,0,0,0,0,0,0,0,0,0,0,0,0,0,0,0,0],"id":14,"left_children":[1,3,5,7,9,11,13,-1,-1,15,-1,17,19,21,23,25,-1,27,29,31,33,35,-1,-1,-1,-1,-1,-1,-1,-1,-1,-1,-1,-1,-1,-1,-1],"loss_changes":[9.2460655E1,1.738227E1,3.973747E1,7.57901E0,5.837348E0,3.0854042E1,1.0053688E1,0E0,0E0,1.0116549E0,0E0,3.2897312E1,8.743219E0,8.470627E0,1.9530582E1,5.9262693E-2,0E0,1.4628246E1,8.590054E0,8.132362E0,4.275722E0,7.2120743E0,0E0,0E0,0E0,0E0,0E0,0E0,0E0,0E0,0E0,0E0,0E0,0E0,0E0,0E0,0E0],"parents":[2147483647,0,0,1,1,2,2,3,3,4,4,5,5,6,6,9,9,11,11,12,12,13,13,14,14,15,15,17,17,18,18,19,19,20,20,21,21],"right_children":[2,4,6,8,10,12,14,-1,-1,16,-1,18,20,22,24,26,-1,28,30,32,34,36,-1,-1,-1,-1,-1,-1,-1,-1,-1,-1,-1,-1,-1,-1,-1],"split_conditions":[1.5E0,8.691329E-3,1E0,9.333333E0,1.1E1,1.61E2,2.5E2,3.860999E-2,-6.718811E-2,2.49E2,-5.0817173E-2,2.3555556E2,8.88E1,1.0416666E0,9.88E1,1.00888096E-1,5.608616E-2,8E-1,5E0,1.25E0,6.7E1,1.3525E2,-5.22176E-2,5.1965564E-2,-8.8456705E-2,4.903925E-4,1.4752983E-2,5.9589505E-2,-4.688534E-2,-1.2496833E-2,4.6730928E-2,5.17504E-2,-5.348261E-2,-6.15963E-2,3.1732164E-2,5.466013E-2,-4.431652E-2],"split_indices":[4,211,73,10,22,85,30,0,0,8,0,11,21,16,40,321,0,130,103,20,29,37,0,0,0,0,0,0,0,0,0,0,0,0,0,0,0],"split_type":[0,0,0,0,0,0,0,0,0,0,0,0,0,0,0,0,0,0,0,0,0,0,0,0,0,0,0,0,0,0,0,0,0,0,0,0,0],"sum_hessian":[2.5137834E2,5.8294777E1,1.9308356E2,5.140353E1,6.891248E0,1.1363166E2,7.94519E1,1.1392434E0,5.0264286E1,5.46823E0,1.4230187E0,7.988612E1,3.3745533E1,7.127389E1,8.178012E0,2.2909093E0,3.1773202E0,5.412589E1,2.5760237E1,3.0225578E1,3.5199552E0,7.0046555E1,1.2273334E0,4.9060106E0,3.2720013E0,1.2398028E0,1.0511066E0,2.600914E0,5.1524975E1,8.735229E0,1.702501E1,2.9057875E1,1.1677037E0,2.3581517E0,1.1618035E0,6.886365E1,1.182903E0],"tree_param":{"num_deleted":"0","num_feature":"421","num_nodes":"37","size_leaf_vector":"1"}},{"base_weights":[1.2520115E-2,4.2738783E-1,-7.442034E-1,-2.8107715E-1,6.2194455E-1,-1.0257468E0,5.2118397E-1,-7.180581E-1,9.263548E-1,8.1659967E-1,1.3610636E-2,-1.1571454E0,-1.7213441E-2,7.9542184E-1,-5.713454E-2,6.305657E-2,-9.0249556E-1,1.0640173E0,-1.7337287E-3,8.8309777E-1,-6.414174E-2,-9.394148E-1,4.329569E-1,-1.2245951E0,2.340042E-1,-8.259378E-1,8.647213E-1,1.0556463E0,-6.466311E-2,3.309453E-3,-6.229691E-2,6.2062528E-2,-1.8326165E-3,-6.21455E-2,4.747684E-2,2.5215065E-2,-7.048973E-2,3.3955432E-2,-6.966553E-2,-6.344872E-2,3.5085622E-2,-4.1539975E-2,5.1271528E-2,-6.665681E-2,3.163065E-2,-1.3909038E-3,6.2256034E-2,5.9903033E-2,1.0861792E-2],"categories":[],"categories_nodes":[],"categories_segments":[],"categories_sizes":[],"default_left":[0,0,0,0,0,0,0,0,0,0,0,0,0,0,0,0,0,0,0,0,0,0,0,0,0,0,0,0,0,0,0,0,0,0,0,0,0,0,0,0,0,0,0,0,0,0,0,0,0],"id":15,"left_children":[1,3,5,7,9,11,13,15,17,19,21,23,25,27,-1,-1,29,31,-1,33,-1,35,37,39,41,43,45,47,-1,-1,-1,-1,-1,-1,-1,-1,-1,-1,-1,-1,-1,-1,-1,-1,-1,-1,-1,-1,-1],"loss_changes":[8.234592E1,2.3524004E1,3.3626827E1,2.0285208E1,1.5763226E1,1.0093826E1,8.925486E0,1.1310762E1,1.4019728E0,1.5219719E1,1.371871E1,6.6208572E0,7.7127233E0,9.883583E0,0E0,0E0,8.757189E0,1.8122826E0,0E0,1.5078751E1,0E0,7.8370934E0,1.1652302E1,6.40831E0,4.1901298E0,5.0083265E0,1.7941089E0,1.4694729E0,0E0,0E0,0E0,0E0,0E0,0E0,0E0,0E0,0E0,0E0,0E0,0E0,0E0,0E0,0E0,0E0,0E0,0E0,0E0,0E0,0E0],"parents":[2147483647,0,0,1,1,2,2,3,3,4,4,5,5,6,6,7,7,8,8,9,9,10,10,11,11,12,12,13,13,16,16,17,17,19,19,21,21,22,22,23,23,24,24,25,25,26,26,27,27],"right_children":[2,4,6,8,10,12,14,16,18,20,22,24,26,28,-1,-1,30,32,-1,34,-1,36,38,40,42,44,46,48,-1,-1,-1,-1,-1,-1,-1,-1,-1,-1,-1,-1,-1,-1,-1,-1,-1,-1,-1,-1,-1],"split_conditions":[1E0,9.1875E1,2.9497059E-2,3.724402E-2,1.41E2,5E0,1.1E1,5E0,6.404479E-2,9.89E1,1.7125E1,8.3333336E-2,4.87E2,2.0266913E-2,-5.713454E-2,6.305657E-2,6E-1,3.4E0,-1.7337287E-3,1.3E2,-6.414174E-2,9.65E1,9.83E1,5.3E1,2.025E0,2.55E1,6.8E0,1.1734066E-2,-6.466311E-2,3.309453E-3,-6.229691E-2,6.2062528E-2,-1.8326165E-3,-6.21455E-2,4.747684E-2,2.5215065E-2,-7.048973E-2,3.3955432E-2,-6.966553E-2,-6.344872E-2,3.5085622E-2,-4.1539975E-2,5.1271528E-2,-6.665681E-2,3.163065E-2,-1.3909038E-3,6.2256034E-2,5.9903033E-2,1.0861792E-2],"split_indices":[54,11,255,255,28,103,22,23,345,24,95,14,46,398,0,0,27,42,0,28,0,24,24,39,5,10,22,412,0,0,0,0,0,0,0,0,0,0,0,0,0,0,0,0,0,0,0,0,0],"split_type":[0,0,0,0,0,0,0,0,0,0,0,0,0,0,0,0,0,0,0,0,0,0,0,0,0,0,0,0,0,0,0,0,0,0,0,0,0,0,0,0,0,0,0,0,0,0,0,0,0],"sum_hessian":[2.60285E2,1.6839757E2,9.1887436E1,3.618557E1,1.32212E2,7.531871E1,1.6568724E1,2.6867332E1,9.318238E0,9.99027E1,3.2309296E1,6.650645E1,8.81226E0,1.4672384E1,1.8963393E0,1.7926602E0,2.5074673E1,8.056957E0,1.261281E0,9.739709E1,2.5056176E0,9.493575E0,2.2815722E1,6.3545197E1,2.9612536E0,4.630049E0,4.1822104E0,1.3486695E1,1.1856889E0,6.774469E0,1.8300203E1,6.829523E0,1.2274344E0,2.4148788E0,9.498221E1,2.3152778E0,7.178298E0,2.0659319E1,2.1564026E0,6.244773E1,1.0974653E0,1.2413554E0,1.7198982E0,3.4992137E0,1.1308355E0,1.5267752E0,2.6554353E0,1.1161765E1,2.3249302E0],"tree_param":{"num_deleted":"0","num_feature":"421","num_nodes":"49","size_leaf_vector":"1"}},{"base_weights":[1.2759471E-2,-8.463553E-1,3.8174492E-1,-1.1802644E0,5.303609E-1,1.9709265E-1,1.2311388E0,2.9212732E-2,-1.2300688E0,7.1986145E-1,-4.8132226E-2,-2.64453E-1,5.912933E-1,6.577728E-2,3.022818E-1,-1.278412E0,-2.5717685E-2,6.3898385E-2,1.04389E0,5.3156894E-2,-1.2825078E0,6.6669714E-1,-6.027284E-2,3.999121E-2,-1.5428498E-2,-6.5990075E-2,1.7149644E-3,4.0635567E-2,-4.0016152E-2,4.0809512E-2,-4.141983E-2,5.9456527E-2,1.0458165E-3,3.0245021E-2,-2.463994E-2,-6.962334E-2,1.7356146E-4,-9.468611E-3,4.1656666E-2],"categories":[],"categories_nodes":[],"categories_segments":[],"categories_sizes":[],"default_left":[0,0,0,0,0,0,0,0,0,0,0,0,0,0,0,0,0,0,0,0,0,0,0,0,0,0,0,0,0,0,0,0,0,0,0,0,0,0,0],"id":16,"left_children":[1,3,5,7,9,11,13,-1,15,17,-1,19,21,-1,23,25,27,29,31,33,35,37,-1,-1,-1,-1,-1,-1,-1,-1,-1,-1,-1,-1,-1,-1,-1,-1,-1],"loss_changes":[7.953968E1,3.5283543E1,2.728351E1,6.078148E0,5.051793E0,2.660207E1,2.0444946E0,0E0,3.4391327E0,2.9607005E0,0E0,2.1941729E1,1.1466749E1,0E0,1.4300152E0,3.1591415E0,2.807831E0,4.5524483E0,1.3819399E0,1.6119158E1,2.2851162E0,1.1011791E1,0E0,0E0,0E0,0E0,0E0,0E0,0E0,0E0,0E0,0E0,0E0,0E0,0E0,0E0,0E0,0E0,0E0],"parents":[2147483647,0,0,1,1,2,2,3,3,4,4,5,5,6,6,8,8,9,9,11,11,12,12,14,14,15,15,16,16,17,17,18,18,19,19,20,20,21,21],"right_children":[2,4,6,8,10,12,14,-1,16,18,-1,20,22,-1,24,26,28,30,32,34,36,38,-1,-1,-1,-1,-1,-1,-1,-1,-1,-1,-1,-1,-1,-1,-1,-1,-1],"split_conditions":[2.3333333E0,3.004281E-2,2.3492984E-2,1E1,1.25E0,1.3833333E2,1.001E2,2.9212732E-2,4.5E1,4.5454547E-2,-4.8132226E-2,3.61E1,9.86E1,6.577728E-2,1.2666667E1,2.31E0,4.75E1,1.94E1,4.998922E-2,1.4E1,9.3E1,2.25E1,-6.027284E-2,3.999121E-2,-1.5428498E-2,-6.5990075E-2,1.7149644E-3,4.0635567E-2,-4.0016152E-2,4.0809512E-2,-4.141983E-2,5.9456527E-2,1.0458165E-3,3.0245021E-2,-2.463994E-2,-6.962334E-2,1.7356146E-4,-9.468611E-3,4.1656666E-2],"split_indices":[4,255,400,45,6,11,40,0,39,16,0,136,24,0,10,123,39,39,352,93,21,39,0,0,0,0,0,0,0,0,0,0,0,0,0,0,0,0,0],"split_type":[0,0,0,0,0,0,0,0,0,0,0,0,0,0,0,0,0,0,0,0,0,0,0,0,0,0,0,0,0,0,0,0,0,0,0,0,0,0,0],"sum_hessian":[2.4889394E2,7.439203E1,1.745019E2,5.9985767E1,1.4406264E1,1.4435269E2,3.0149221E1,1.3520764E0,5.863369E1,1.3243207E1,1.1630574E0,6.664787E1,7.770482E1,2.7256107E1,2.8931139E0,5.6311813E1,2.3218787E0,4.774637E0,8.46857E0,5.1521976E1,1.5125896E1,7.517875E1,2.5260675E0,1.423944E0,1.4691699E0,5.458535E1,1.7264605E0,1.09138E0,1.2304986E0,2.636826E0,2.1378112E0,7.273467E0,1.1951026E0,2.557146E1,2.5950518E1,1.3858133E1,1.2677631E0,1.2214631E1,6.296412E1],"tree_param":{"num_deleted":"0","num_feature":"421","num_nodes":"39","size_leaf_vector":"1"}},{"base_weights":[1.4427592E-2,4.0291932E-1,-6.42716E-1,-1.849877E-1,6.6544676E-1,-8.567368E-1,1.0432223E0,-5.8475133E-2,5.9687205E-2,-2.3944715E-1,7.540308E-1,-9.583585E-1,5.999814E-1,1.828737E-3,1.1719065E0,4.692121E-1,-4.9485037E-1,-9.933954E-1,4.634942E-1,8.938437E-1,1.9664992E-1,-1.1144611E0,2.3025176E-1,1.4977936E-1,4.723242E-2,6.221773E-2,1.5199768E-2,3.5642926E-2,-1.9932825E-2,5.1843107E-2,-4.034287E-2,-6.451411E-2,1.0505912E-3,-2.4615511E-2,4.6501003E-2,-2.0174174E-2,4.8459176E-2,-6.2453795E-2,2.7125424E-2,-5.950758E-2,2.7586982E-2,-3.757693E-2,5.24301E-2,2.1962805E-2,-6.8949773E-3],"categories":[],"categories_nodes":[],"categories_segments":[],"categories_sizes":[],"default_left":[0,0,0,0,0,0,0,0,0,0,0,0,0,0,0,0,0,0,0,0,0,0,0,0,0,0,0,0,0,0,0,0,0,0,0,0,0,0,0,0,0,0,0,0,0],"id":17,"left_children":[1,3,5,7,9,11,13,-1,15,17,19,21,23,-1,25,27,29,31,33,35,37,39,41,43,-1,-1,-1,-1,-1,-1,-1,-1,-1,-1,-1,-1,-1,-1,-1,-1,-1,-1,-1,-1,-1],"loss_changes":[6.2832653E1,2.399255E1,3.3891388E1,1.1758476E1,8.767979E0,1.266909E1,1.3499889E0,0E0,9.2743435E0,5.925211E0,7.447117E0,1.4498169E1,7.8062844E-1,0E0,2.1915722E-1,5.2355666E0,9.152288E0,1.6212535E0,3.141327E0,8.006996E0,1.11271E1,9.234581E0,8.612846E0,3.7412924E-1,0E0,0E0,0E0,0E0,0E0,0E0,0E0,0E0,0E0,0E0,0E0,0E0,0E0,0E0,0E0,0E0,0E0,0E0,0E0,0E0,0E0],"parents":[2147483647,0,0,1,1,2,2,3,3,4,4,5,5,6,6,8,8,9,9,10,10,11,11,12,12,14,14,15,15,16,16,17,17,18,18,19,19,20,20,21,21,22,22,23,23],"right_children":[2,4,6,8,10,12,14,-1,16,18,20,22,24,-1,26,28,30,32,34,36,38,40,42,44,-1,-1,-1,-1,-1,-1,-1,-1,-1,-1,-1,-1,-1,-1,-1,-1,-1,-1,-1,-1,-1],"split_conditions":[1E0,4E0,1.24735035E-1,5.145E1,2E0,1.8755533E-2,1E0,-5.8475133E-2,1.0476191E0,1.9041666E1,3.4E1,8.3333336E-2,1E0,1.828737E-3,3.3E1,2.8E1,2.1E1,2.3333334E1,9.141727E-3,1.07E1,1.61875E1,7.6E1,3.6E2,7.590909E0,4.723242E-2,6.221773E-2,1.5199768E-2,3.5642926E-2,-1.9932825E-2,5.1843107E-2,-4.034287E-2,-6.451411E-2,1.0505912E-3,-2.4615511E-2,4.6501003E-2,-2.0174174E-2,4.8459176E-2,-6.2453795E-2,2.7125424E-2,-5.950758E-2,2.7586982E-2,-3.757693E-2,5.24301E-2,2.1962805E-2,-6.8949773E-3],"split_indices":[54,103,402,89,75,328,65,0,20,2,10,14,59,0,39,139,39,10,332,137,2,90,46,1,0,0,0,0,0,0,0,0,0,0,0,0,0,0,0,0,0,0,0,0,0],"split_type":[0,0,0,0,0,0,0,0,0,0,0,0,0,0,0,0,0,0,0,0,0,0,0,0,0,0,0,0,0,0,0,0,0,0,0,0,0,0,0,0,0,0,0,0,0],"sum_hessian":[2.4410358E2,1.536533E2,9.045027E1,4.7523643E1,1.0612967E2,8.069794E1,9.752335E0,8.707374E0,3.8816273E1,9.311263E0,9.6818405E1,7.57553E1,4.942635E0,1.2509375E0,8.501397E0,2.2415981E1,1.640029E1,4.293268E0,5.017995E0,7.6920166E1,1.9898233E1,6.7016304E1,8.738997E0,2.7652469E0,2.177388E0,7.446104E0,1.055293E0,1.764181E1,4.7741714E0,2.3822231E0,1.4018067E1,3.1108565E0,1.1824116E0,1.6277792E0,3.3902156E0,3.9827635E0,7.293741E1,3.3371341E0,1.65611E1,6.437753E1,2.638772E0,4.0098934E0,4.7291045E0,1.1156888E0,1.6495582E0],"tree_param":{"num_deleted":"0","num_feature":"421","num_nodes":"45","size_leaf_vector":"1"}},{"base_weights":[9.233053E-3,-9.9415684E-1,2.7955234E-1,-1.1965925E0,4.4591844E-1,-2.8474458E-2,8.29129E-1,2.8629238E-2,-6.321478E-2,7.821412E-1,-1.7080072E-2,-6.790868E-1,2.5566122E-1,1.0483245E0,5.3920005E-2,-5.399231E-3,5.3644013E-2,-1.0265552E0,2.8025702E-1,-4.2906782E-1,4.9646077E-1,1.1460103E0,-6.917093E-2,-8.1936634E-1,8.842931E-1,-6.551572E-2,1.49317905E-2,5.266867E-2,-2.3922103E-2,-5.4588914E-2,4.50519E-2,-1.1592336E-3,4.4832196E-2,6.4512074E-2,3.720469E-2,3.8275905E-2,-5.657812E-2,-7.4337974E-2,1.1591061E-2,-8.371296E-3,5.5599164E-2],"categories":[],"categories_nodes":[],"categories_segments":[],"categories_sizes":[],"default_left":[0,0,0,0,0,0,0,0,0,0,0,0,0,0,0,0,0,0,0,0,0,0,0,0,0,0,0,0,0,0,0,0,0,0,0,0,0,0,0,0,0],"id":18,"left_children":[1,3,5,7,9,11,13,-1,-1,15,-1,17,19,21,23,-1,-1,25,27,29,31,33,35,37,39,-1,-1,-1,-1,-1,-1,-1,-1,-1,-1,-1,-1,-1,-1,-1,-1],"loss_changes":[6.537584E1,1.5446632E1,3.2162125E1,6.1286316E0,2.1294832E0,2.2842829E1,1.1535866E1,0E0,0E0,1.470114E0,0E0,1.2804234E1,1.4405922E1,5.879059E0,1.2393914E1,0E0,0E0,1.0837301E1,6.820881E0,2.119773E1,1.3360361E1,1.8755112E0,5.4898634E0,6.211425E0,2.2766523E0,0E0,0E0,0E0,0E0,0E0,0E0,0E0,0E0,0E0,0E0,0E0,0E0,0E0,0E0,0E0,0E0],"parents":[2147483647,0,0,1,1,2,2,3,3,4,4,5,5,6,6,9,9,11,11,12,12,13,13,14,14,17,17,18,18,19,19,20,20,21,21,22,22,23,23,24,24],"right_children":[2,4,6,8,10,12,14,-1,-1,16,-1,18,20,22,24,-1,-1,26,28,30,32,34,36,38,40,-1,-1,-1,-1,-1,-1,-1,-1,-1,-1,-1,-1,-1,-1,-1,-1],"split_conditions":[1.4E0,8.391255E-3,1.7045917E-2,1E1,9.666667E0,1.0805556E2,5.9591727E-3,2.8629238E-2,-6.321478E-2,8.1E0,-1.7080072E-2,1.66E2,1.07833336E2,3.8E1,1.9041666E1,-5.399231E-3,5.3644013E-2,7.131281E0,6.6697914E1,4.642857E2,1.5E1,9.79E1,9.788E1,2.03E2,3.3333333E0,-6.551572E-2,1.49317905E-2,5.266867E-2,-2.3922103E-2,-5.4588914E-2,4.50519E-2,-1.1592336E-3,4.4832196E-2,6.4512074E-2,3.720469E-2,3.8275905E-2,-5.657812E-2,-7.4337974E-2,1.1591061E-2,-8.371296E-3,5.5599164E-2],"split_indices":[4,292,397,45,22,11,392,0,0,1,0,85,86,45,2,0,0,47,89,11,111,24,3,8,4,0,0,0,0,0,0,0,0,0,0,0,0,0,0,0,0],"split_type":[0,0,0,0,0,0,0,0,0,0,0,0,0,0,0,0,0,0,0,0,0,0,0,0,0,0,0,0,0,0,0,0,0,0,0,0,0,0,0,0,0],"sum_hessian":[2.3900505E2,5.0155746E1,1.888493E2,4.4122406E1,6.0333405E0,1.21627625E2,6.722167E1,1.3513918E0,4.2771015E1,4.232957E0,1.8003836E0,3.6548668E1,8.507896E1,5.212942E1,1.5092255E1,1.1969533E0,3.0360034E0,2.677931E1,9.769359E0,2.1932013E1,6.3146942E1,4.7915386E1,4.2140355E0,7.3625093E0,7.729745E0,2.206568E1,4.7136307E0,4.6463356E0,5.1230226E0,1.47581215E1,7.173891E0,2.7882738E1,3.5264202E1,3.3634964E1,1.4280421E1,2.516408E0,1.6976272E0,4.249906E0,3.112603E0,1.4227281E0,6.307017E0],"tree_param":{"num_deleted":"0","num_feature":"421","num_nodes":"41","size_leaf_vector":"1"}},{"base_weights":[3.536192E-2,-3.728294E-1,7.0413023E-1,-9.296543E-1,1.6454014E-1,7.678289E-1,-6.300676E-2,6.4796937E-1,-1.0819654E0,-2.0122679E-1,9.2161584E-1,8.2662827E-1,-7.6608694E-1,6.1182555E-2,9.624469E-3,-1.2358676E0,1.7435747E-1,-9.949299E-1,2.041088E-1,1.0788193E0,-6.369101E-2,9.8047274E-1,2.482234E-1,-5.859355E-2,3.2314607E-3,4.1008037E-2,-4.8068225E-2,-6.3801356E-2,1.4683044E-3,5.138869E-2,-5.6857497E-2,-6.259966E-2,4.9319025E-2,-8.302139E-3,4.6683572E-2,2.1530172E-2,6.5398656E-2,5.4550033E-2,1.9466024E-2,2.3106132E-2,-3.7553366E-2],"categories":[],"categories_nodes":[],"categories_segments":[],"categories_sizes":[],"default_left":[0,0,0,0,0,0,0,0,0,0,0,0,0,0,0,0,0,0,0,0,0,0,0,0,0,0,0,0,0,0,0,0,0,0,0,0,0,0,0,0,0],"id":19,"left_children":[1,3,5,7,9,11,-1,13,15,17,19,21,23,-1,25,27,29,31,33,35,-1,37,39,-1,-1,-1,-1,-1,-1,-1,-1,-1,-1,-1,-1,-1,-1,-1,-1,-1,-1],"loss_changes":[6.771921E1,4.6263493E1,1.272961E1,1.892257E1,2.2136543E1,8.901642E0,0E0,2.671576E0,1.365905E1,1.7662271E1,1.034819E1,7.655819E0,1.3915379E0,0E0,4.3068256E0,3.191063E0,1.0642517E1,1.066548E1,1.0080153E1,3.1214504E0,0E0,4.134659E0,4.6198E0,0E0,0E0,0E0,0E0,0E0,0E0,0E0,0E0,0E0,0E0,0E0,0E0,0E0,0E0,0E0,0E0,0E0,0E0],"parents":[2147483647,0,0,1,1,2,2,3,3,4,4,5,5,7,7,8,8,9,9,10,10,11,11,12,12,14,14,15,15,16,16,17,17,18,18,19,19,21,21,22,22],"right_children":[2,4,6,8,10,12,-1,14,16,18,20,22,24,-1,26,28,30,32,34,36,-1,38,40,-1,-1,-1,-1,-1,-1,-1,-1,-1,-1,-1,-1,-1,-1,-1,-1,-1,-1],"split_conditions":[1E0,3E0,9.666667E0,1.2E1,1.61E2,1.115E2,-6.300676E-2,2.1E1,3E-2,1.1117647E2,9.882E1,3.2049525E-1,1.88E2,6.1182555E-2,1.6208334E1,9.1E-1,1.85E1,3E-2,1.87E2,9.87E1,-6.369101E-2,7.154008E-2,3.45E1,-5.859355E-2,3.2314607E-3,4.1008037E-2,-4.8068225E-2,-6.3801356E-2,1.4683044E-3,5.138869E-2,-5.6857497E-2,-6.259966E-2,4.9319025E-2,-8.302139E-3,4.6683572E-2,2.1530172E-2,6.5398656E-2,5.4550033E-2,1.9466024E-2,2.3106132E-2,-3.7553366E-2],"split_indices":[73,25,22,111,85,0,0,30,120,11,3,319,8,0,2,123,10,120,100,40,0,293,10,0,0,0,0,0,0,0,0,0,0,0,0,0,0,0,0,0,0],"split_type":[0,0,0,0,0,0,0,0,0,0,0,0,0,0,0,0,0,0,0,0,0,0,0,0,0,0,0,0,0,0,0,0,0,0,0,0,0,0,0,0,0],"sum_hessian":[2.4610728E2,1.5310202E2,9.300527E1,7.4831375E1,7.8270645E1,9.067393E1,2.3313415E0,6.30197E0,6.852941E1,5.326895E1,2.5001692E1,8.777053E1,2.9033954E0,2.8315067E0,3.4704633E0,6.1065094E1,7.4643154E0,1.7515871E1,3.575308E1,2.38057E1,1.1959915E0,6.878099E1,1.8989542E1,1.6746805E0,1.2287148E0,1.9761773E0,1.4942858E0,5.9178204E1,1.8868897E0,4.6529303E0,2.8113852E0,1.5830108E1,1.6857634E0,2.4231415E1,1.1521666E1,6.969608E0,1.6836092E1,5.723432E1,1.1546671E1,1.6084242E1,2.9052997E0],"tree_param":{"num_deleted":"0","num_feature":"421","num_nodes":"41","size_leaf_vector":"1"}}]},"name":"gbtree"},"learner_model_param":{"base_score":"[5E-1]","boost_from_average":"1","num_class":"0","num_feature":"421","num_target":"1"},"objective":{"name":"binary:logistic","reg_loss_param":{"scale_pos_weight":"3.65071774"}}},"version":[3,1,3]}