{"learner":{"attributes":{"best_iteration":"299","best_ntree_limit":"300"},"feature_names":[],"feature_types":[],"gradient_booster":{"model":{"gbtree_model_param":{"num_parallel_tree":"1","num_trees":"300","size_leaf_vector":"0"},"tree_info":[0,0,0,0,0,0,0,0,0,0,0,0,0,0,0,0,0,0,0,0,0,0,0,0,0,0,0,0,0,0,0,0,0,0,0,0,0,0,0,0,0,0,0,0,0,0,0,0,0,0,0,0,0,0,0,0,0,0,0,0,0,0,0,0,0,0,0,0,0,0,0,0,0,0,0,0,0,0,0,0,0,0,0,0,0,0,0,0,0,0,0,0,0,0,0,0,0,0,0,0,0,0,0,0,0,0,0,0,0,0,0,0,0,0,0,0,0,0,0,0,0,0,0,0,0,0,0,0,0,0,0,0,0,0,0,0,0,0,0,0,0,0,0,0,0,0,0,0,0,0,0,0,0,0,0,0,0,0,0,0,0,0,0,0,0,0,0,0,0,0,0,0,0,0,0,0,0,0,0,0,0,0,0,0,0,0,0,0,0,0,0,0,0,0,0,0,0,0,0,0,0,0,0,0,0,0,0,0,0,0,0,0,0,0,0,0,0,0,0,0,0,0,0,0,0,0,0,0,0,0,0,0,0,0,0,0,0,0,0,0,0,0,0,0,0,0,0,0,0,0,0,0,0,0,0,0,0,0,0,0,0,0,0,0,0,0,0,0,0,0,0,0,0,0,0,0,0,0,0,0,0,0,0,0,0,0,0,0,0,0,0,0,0,0,0,0,0,0,0,0],"trees":[{"base_weights":[2.5327636E-3,-7.716776E-1,1.216037E0,-1.7640516E0,-1.1166855E-1,-1.5196534E-1,1.3726944E0,-9.488336E-1,-1.8314126E0,-5.6250584E-1,4.502275E-1,9.509379E-1,-5.443746E-1,1.3988885E0,-2.7675843E-1,-7.17051E-1,-1.2819846E0,-1.8860719E0,-1.3356471E0,9.1986257E-1,-6.6076696E-1,5.2561355E-1,-9.0968126E-1,1.0590007E0,-1.8119408E-1,-2.5793302E-1,-1.2503316E0,-6.628572E-1,1.4073089E0,3.4558274E-2,-1.2056757E0,-3.1170791E-2,-7.5175546E-2,-1.939599E-2,-6.732047E-2,-7.490342E-2,-9.563064E-2,4.944567E-3,-7.2161786E-2,-2.9250259E-2,5.045229E-2,-4.797068E-2,-1.3757176E-2,3.1154389E-2,1.8554252E-3,-8.71795E-3,-6.0884E-2,5.9079755E-2,3.0509977E-2,1.4090906E-2,-6.1289426E-2,-7.857986E-3,-5.7616647E-2,-4.0623922E-2,-7.3747285E-2,-7.6011606E-2,3.6376785E-2,7.1059026E-2,1.8303534E-2,2.2687865E-2,-2.5503917E-2,-1.2446154E-2,-8.365792E-2],"categories":[],"categories_nodes":[],"categories_segments":[],"categories_sizes":[],"default_left":[0,0,0,0,0,0,0,0,0,0,0,0,0,0,0,0,0,0,0,0,0,0,0,0,0,0,0,0,0,0,0,0,0,0,0,0,0,0,0,0,0,0,0,0,0,0,0,0,0,0,0,0,0,0,0,0,0,0,0,0,0,0,0],"id":0,"left_children":[1,3,5,7,9,11,13,15,17,19,21,23,25,27,29,31,33,35,37,39,41,43,45,47,49,51,53,55,57,59,61,-1,-1,-1,-1,-1,-1,-1,-1,-1,-1,-1,-1,-1,-1,-1,-1,-1,-1,-1,-1,-1,-1,-1,-1,-1,-1,-1,-1,-1,-1,-1,-1],"loss_changes":[7.7203164E4,3.2858266E4,6.8594727E3,1.0986484E3,7.6329473E3,1.4242006E3,1.2411797E3,1.1733728E2,4.990078E2,2.435683E3,1.3756135E3,1.0584943E2,4.9043884E2,4.9171094E2,1.3010728E2,6.5736145E1,3.5596436E1,1.6876953E2,2.8433228E2,1.4012488E2,1.8054033E3,6.051697E2,1.594295E2,4.266394E1,3.715444E1,1.5553809E2,6.7668335E1,1.3898914E2,4.0613672E2,7.736351E1,5.0090836E1,0E0,0E0,0E0,0E0,0E0,0E0,0E0,0E0,0E0,0E0,0E0,0E0,0E0,0E0,0E0,0E0,0E0,0E0,0E0,0E0,0E0,0E0,0E0,0E0,0E0,0E0,0E0,0E0,0E0,0E0,0E0,0E0],"parents":[2147483647,0,0,1,1,2,2,3,3,4,4,5,5,6,6,7,7,8,8,9,9,10,10,11,11,12,12,13,13,14,14,15,15,16,16,17,17,18,18,19,19,20,20,21,21,22,22,23,23,24,24,25,25,26,26,27,27,28,28,29,29,30,30],"right_children":[2,4,6,8,10,12,14,16,18,20,22,24,26,28,30,32,34,36,38,40,42,44,46,48,50,52,54,56,58,60,62,-1,-1,-1,-1,-1,-1,-1,-1,-1,-1,-1,-1,-1,-1,-1,-1,-1,-1,-1,-1,-1,-1,-1,-1,-1,-1,-1,-1,-1,-1,-1,-1],"split_conditions":[1E0,1.8E0,1.5E0,1E0,5E0,1E0,2.5238094E0,3.9E2,1.1666666E0,1E0,1.7391304E0,8.636364E-1,8.636364E-1,1E0,3.4947982E0,3E0,1.07E2,1E0,1E0,9.729032E1,3E0,2.2520834E1,7.830374E-1,3.2691356E-2,2.931715E-2,1.3E1,1.8229166E1,1.9502336E-2,1.1511833E1,1.5E0,3.5E0,-3.1170791E-2,-7.5175546E-2,-1.939599E-2,-6.732047E-2,-7.490342E-2,-9.563064E-2,4.944567E-3,-7.2161786E-2,-2.9250259E-2,5.045229E-2,-4.797068E-2,-1.3757176E-2,3.1154389E-2,1.8554252E-3,-8.71795E-3,-6.0884E-2,5.9079755E-2,3.0509977E-2,1.4090906E-2,-6.1289426E-2,-7.857986E-3,-5.7616647E-2,-4.0623922E-2,-7.3747285E-2,-7.6011606E-2,3.6376785E-2,7.1059026E-2,1.8303534E-2,2.2687865E-2,-2.5503917E-2,-1.2446154E-2,-8.365792E-2],"split_indices":[72,4,40,54,102,54,16,45,4,102,16,16,16,53,12,74,99,102,102,85,102,2,12,160,266,1,2,403,12,35,50,0,0,0,0,0,0,0,0,0,0,0,0,0,0,0,0,0,0,0,0,0,0,0,0,0,0,0,0,0,0,0,0],"split_type":[0,0,0,0,0,0,0,0,0,0,0,0,0,0,0,0,0,0,0,0,0,0,0,0,0,0,0,0,0,0,0,0,0,0,0,0,0,0,0,0,0,0,0,0,0,0,0,0,0,0,0,0,0,0,0,0,0,0,0,0,0,0,0],"sum_hessian":[8.217206E4,5.016645E4,3.2005611E4,2.0037248E4,3.0129201E4,3.288551E3,2.871706E4,1.530453E3,1.8506795E4,1.6716621E4,1.3412582E4,8.626286E2,2.4259226E3,2.8268299E4,4.4876224E2,9.043934E2,6.2605963E2,1.6666473E4,1.8403219E3,1.0386825E3,1.56779375E4,1.2708693E4,7.038882E2,7.875235E2,7.51051E1,1.7266863E3,6.992362E2,1.1466524E2,2.8153633E4,3.3683755E2,1.11924706E2,8.09775E2,9.461837E1,4.255255E1,5.835071E2,1.0707344E3,1.5595739E4,1.2839818E2,1.7119237E3,5.7800655E1,9.808819E2,8.834534E3,6.8434033E3,1.0594446E4,2.1142468E3,2.0825708E2,4.9563113E2,6.172759E2,1.702476E2,5.254497E1,2.2560131E1,1.5528951E3,1.7379118E2,2.3864629E2,4.6058994E2,7.087026E1,4.379497E1,2.7783137E4,3.704971E2,1.9043178E2,1.4640576E2,3.7240524E1,7.468418E1],"tree_param":{"num_deleted":"0","num_feature":"428","num_nodes":"63","size_leaf_vector":"0"}},{"base_weights":[-9.144726E-4,-7.3761064E-1,1.154076E0,-1.6792352E0,-1.0807602E-1,-1.4548142E-1,1.3038414E0,-9.133605E-1,-1.7433207E0,-5.314913E-1,4.209343E-1,9.326677E-1,-5.4047424E-1,1.3237069E0,-4.3272546E-1,-7.137488E-1,-1.1337248E0,-1.8000282E0,-1.2447395E0,8.774736E-1,-6.243622E-1,4.6818385E-1,-1.3389816E0,9.9499387E-1,-6.340611E-1,-2.2371677E-1,-1.1396271E0,-6.111989E-1,1.3321109E0,6.414138E-2,-1.0260884E0,-2.2204963E-2,-4.9186446E-2,-5.115361E-2,-8.44207E-2,-7.279261E-2,-9.116026E-2,-6.68909E-2,1.5003273E-3,-2.9330758E-2,4.815021E-2,-4.585999E-2,-1.2609434E-2,2.7268395E-2,4.0214E-3,-7.311663E-2,-3.0984232E-2,5.055363E-2,-6.193163E-2,-6.895667E-2,4.79448E-2,3.0242428E-3,-2.7207498E-2,-2.5035186E-2,-6.545066E-2,-6.792667E-2,3.207182E-2,6.966844E-2,5.6844175E-2,1.0864859E-2,-7.448828E-2,-5.9124496E-2,1.298096E-2],"categories":[],"categories_nodes":[],"categories_segments":[],"categories_sizes":[],"default_left":[0,0,0,0,0,0,0,0,0,0,0,0,0,0,0,0,0,0,0,0,0,0,0,0,0,0,0,0,0,0,0,0,0,0,0,0,0,0,0,0,0,0,0,0,0,0,0,0,0,0,0,0,0,0,0,0,0,0,0,0,0,0,0],"id":1,"left_children":[1,3,5,7,9,11,13,15,17,19,21,23,25,27,29,31,33,35,37,39,41,43,45,47,49,51,53,55,57,59,61,-1,-1,-1,-1,-1,-1,-1,-1,-1,-1,-1,-1,-1,-1,-1,-1,-1,-1,-1,-1,-1,-1,-1,-1,-1,-1,-1,-1,-1,-1,-1,-1],"loss_changes":[7.0010945E4,2.9779893E4,6.236746E3,9.863789E2,6.7444478E3,1.4109954E3,9.9177734E2,6.765161E1,5.2290234E2,2.1889443E3,1.1137534E3,8.738519E1,4.59911E2,4.6275E2,9.609558E1,5.9211273E1,4.3571716E1,1.3035938E2,2.2548315E2,1.3012372E2,1.709831E3,3.901311E2,3.0169983E1,3.195288E1,4.2389946E1,1.4458997E2,9.006885E1,1.1651936E2,3.366797E2,4.2737392E1,3.016925E1,0E0,0E0,0E0,0E0,0E0,0E0,0E0,0E0,0E0,0E0,0E0,0E0,0E0,0E0,0E0,0E0,0E0,0E0,0E0,0E0,0E0,0E0,0E0,0E0,0E0,0E0,0E0,0E0,0E0,0E0,0E0,0E0],"parents":[2147483647,0,0,1,1,2,2,3,3,4,4,5,5,6,6,7,7,8,8,9,9,10,10,11,11,12,12,13,13,14,14,15,15,16,16,17,17,18,18,19,19,20,20,21,21,22,22,23,23,24,24,25,25,26,26,27,27,28,28,29,29,30,30],"right_children":[2,4,6,8,10,12,14,16,18,20,22,24,26,28,30,32,34,36,38,40,42,44,46,48,50,52,54,56,58,60,62,-1,-1,-1,-1,-1,-1,-1,-1,-1,-1,-1,-1,-1,-1,-1,-1,-1,-1,-1,-1,-1,-1,-1,-1,-1,-1,-1,-1,-1,-1,-1,-1],"split_conditions":[1E0,1.8333334E0,1.5E0,1E0,5E0,1E0,1.5E0,1.44E2,1.1666666E0,1E0,1.5E0,1E0,1E0,1E0,3.5E0,1.655E2,1.77E2,1E0,1E0,9.729032E1,3E0,9.9565216E1,1.4E2,7.25E2,4.84584E-2,9.333333E0,1.8894513E-1,1.9502336E-2,3.4609812E-3,2E1,6.1875015E-2,-2.2204963E-2,-4.9186446E-2,-5.115361E-2,-8.44207E-2,-7.279261E-2,-9.116026E-2,-6.68909E-2,1.5003273E-3,-2.9330758E-2,4.815021E-2,-4.585999E-2,-1.2609434E-2,2.7268395E-2,4.0214E-3,-7.311663E-2,-3.0984232E-2,5.055363E-2,-6.193163E-2,-6.895667E-2,4.79448E-2,3.0242428E-3,-2.7207498E-2,-2.5035186E-2,-6.545066E-2,-6.792667E-2,3.207182E-2,6.966844E-2,5.6844175E-2,1.0864859E-2,-7.448828E-2,-5.9124496E-2,1.298096E-2],"split_indices":[72,4,40,54,102,54,35,11,4,102,35,66,66,53,50,99,84,102,104,85,102,0,30,11,203,39,321,403,221,110,355,0,0,0,0,0,0,0,0,0,0,0,0,0,0,0,0,0,0,0,0,0,0,0,0,0,0,0,0,0,0,0,0],"split_type":[0,0,0,0,0,0,0,0,0,0,0,0,0,0,0,0,0,0,0,0,0,0,0,0,0,0,0,0,0,0,0,0,0,0,0,0,0,0,0,0,0,0,0,0,0,0,0,0,0,0,0,0,0,0,0,0,0,0,0,0,0,0,0],"sum_hessian":[8.227892E4,5.0236535E4,3.204238E4,2.0128188E4,3.0108348E4,3.311092E3,2.873129E4,1.5553793E3,1.8572809E4,1.6723223E4,1.3385126E4,8.874365E2,2.4236555E3,2.8406568E4,3.2472076E2,8.183425E2,7.3703674E2,1.6673766E4,1.8990431E3,1.0336125E3,1.5689609E4,1.3035878E4,3.4924823E2,8.5383496E2,3.360157E1,1.5863595E3,8.372961E2,1.2253734E2,2.8284031E4,1.772163E2,1.4750446E2,4.107452E2,4.0759732E2,6.1683203E2,1.202047E2,1.056008E3,1.5617758E4,1.7697697E3,1.2927333E2,5.6726498E1,9.7688605E2,8.779872E3,6.9097373E3,1.087147E4,2.164408E3,2.972418E2,5.2006443E1,8.4827594E2,5.558974E0,2.2985033E1,1.0616538E1,8.411394E2,7.452201E2,1.7628937E2,6.610067E2,7.669551E1,4.584183E1,2.1524115E4,6.7599165E3,1.6209964E2,1.5116663E1,1.3157869E2,1.59257765E1],"tree_param":{"num_deleted":"0","num_feature":"428","num_nodes":"63","size_leaf_vector":"0"}},{"base_weights":[9.892065E-4,-7.0183414E-1,1.1019776E0,-1.5550476E0,-6.9991566E-2,-1.3422754E-1,1.2459848E0,-1.6690441E0,-1.0093068E0,-4.7822645E-1,4.091917E-1,8.710983E-1,-5.0091445E-1,1.2649503E0,-3.7843886E-1,-9.11501E-1,-1.7184546E0,-1.0766203E0,1.5287256E-1,8.512204E-1,-5.653235E-1,4.536828E-1,-1.2793809E0,9.359723E-1,-6.286311E-1,-1.9716087E-1,-1.0857986E0,-3.4970698E-1,1.2742035E0,5.4842955E-1,-6.535728E-1,4.9655817E-2,-4.749567E-2,-6.681135E-2,-8.723861E-2,-4.6038356E-2,-7.222355E-2,2.2945914E-2,-2.8187374E-2,-2.6640275E-2,4.682741E-2,-4.2691182E-2,-1.1362481E-2,2.7428288E-2,-1.6346865E-3,8.09763E-2,-6.5601125E-2,4.867924E-2,-2.3045853E-2,-6.900972E-2,5.538745E-2,-4.7871466E-3,-5.360449E-2,-3.232033E-2,-6.709605E-2,1.1324034E-2,-8.817532E-2,6.444154E-2,2.2857882E-2,3.946959E-2,-8.868178E-2,-4.158202E-3,-4.8267767E-2],"categories":[],"categories_nodes":[],"categories_segments":[],"categories_sizes":[],"default_left":[0,0,0,0,0,0,0,0,0,0,0,0,0,0,0,0,0,0,0,0,0,0,0,0,0,0,0,0,0,0,0,0,0,0,0,0,0,0,0,0,0,0,0,0,0,0,0,0,0,0,0,0,0,0,0,0,0,0,0,0,0,0,0],"id":2,"left_children":[1,3,5,7,9,11,13,15,17,19,21,23,25,27,29,31,33,35,37,39,41,43,45,47,49,51,53,55,57,59,61,-1,-1,-1,-1,-1,-1,-1,-1,-1,-1,-1,-1,-1,-1,-1,-1,-1,-1,-1,-1,-1,-1,-1,-1,-1,-1,-1,-1,-1,-1,-1,-1],"loss_changes":[6.354272E4,2.7020492E4,5.696121E3,1.3250078E3,5.6335986E3,1.2314128E3,8.8335547E2,6.5866797E2,2.8862622E2,1.8010913E3,9.9587476E2,8.745361E1,4.3459662E2,4.2367188E2,8.489258E1,8.011603E1,1.6423047E2,1.9850073E2,4.472634E1,1.1346155E2,1.4233203E3,5.9574805E2,3.4332214E1,4.54339E1,5.06198E1,1.4294177E2,9.325421E1,1.3252565E2,3.3602734E2,4.4159645E1,4.5459938E1,0E0,0E0,0E0,0E0,0E0,0E0,0E0,0E0,0E0,0E0,0E0,0E0,0E0,0E0,0E0,0E0,0E0,0E0,0E0,0E0,0E0,0E0,0E0,0E0,0E0,0E0,0E0,0E0,0E0,0E0,0E0,0E0],"parents":[2147483647,0,0,1,1,2,2,3,3,4,4,5,5,6,6,7,7,8,8,9,9,10,10,11,11,12,12,13,13,14,14,15,15,16,16,17,17,18,18,19,19,20,20,21,21,22,22,23,23,24,24,25,25,26,26,27,27,28,28,29,29,30,30],"right_children":[2,4,6,8,10,12,14,16,18,20,22,24,26,28,30,32,34,36,38,40,42,44,46,48,50,52,54,56,58,60,62,-1,-1,-1,-1,-1,-1,-1,-1,-1,-1,-1,-1,-1,-1,-1,-1,-1,-1,-1,-1,-1,-1,-1,-1,-1,-1,-1,-1,-1,-1,-1,-1],"split_conditions":[1E0,2.1666667E0,1.1666666E0,1.1666666E0,5E0,1E0,1.5E0,1E0,1E0,1E0,1.5E0,1E0,1E0,1E0,1E0,1E0,1E0,9.166667E0,2.5E1,9.752E1,3E0,2.2625E1,3.9E1,1.1675E2,4.84584E-2,1.3E1,1.8229166E1,6.423155E-2,2.1214945E1,3.15E2,1.1E0,4.9655817E-2,-4.749567E-2,-6.681135E-2,-8.723861E-2,-4.6038356E-2,-7.222355E-2,2.2945914E-2,-2.8187374E-2,-2.6640275E-2,4.682741E-2,-4.2691182E-2,-1.1362481E-2,2.7428288E-2,-1.6346865E-3,8.09763E-2,-6.5601125E-2,4.867924E-2,-2.3045853E-2,-6.900972E-2,5.538745E-2,-4.7871466E-3,-5.360449E-2,-3.232033E-2,-6.709605E-2,1.1324034E-2,-8.817532E-2,6.444154E-2,2.2857882E-2,3.946959E-2,-8.868178E-2,-4.158202E-3,-4.8267767E-2],"split_indices":[72,4,4,4,102,54,35,54,104,102,35,66,66,58,66,102,102,1,10,85,102,2,21,0,203,1,2,348,46,138,27,0,0,0,0,0,0,0,0,0,0,0,0,0,0,0,0,0,0,0,0,0,0,0,0,0,0,0,0,0,0,0,0],"split_type":[0,0,0,0,0,0,0,0,0,0,0,0,0,0,0,0,0,0,0,0,0,0,0,0,0,0,0,0,0,0,0,0,0,0,0,0,0,0,0,0,0,0,0,0,0,0,0,0,0,0,0,0,0,0,0,0,0,0,0,0,0,0,0],"sum_hessian":[8.211572E4,5.0121004E4,3.1994715E4,2.1324219E4,2.8796785E4,3.338239E3,2.8656477E4,1.7637887E4,3.686332E3,1.5549533E4,1.3247251E4,8.918169E2,2.446422E3,2.8325986E4,3.304896E2,1.081172E3,1.6556715E4,3.4845784E3,2.0175368E2,9.555328E2,1.4594001E4,1.2907881E4,3.3937012E2,8.5519934E2,3.6617558E1,1.6110679E3,8.353543E2,1.6119498E2,2.8164791E4,7.54205E1,2.550691E2,2.0882687E1,1.0602893E3,1.0698853E3,1.5486829E4,2.450035E3,1.0345436E3,1.4162831E2,6.0125362E1,5.5184788E1,9.0034796E2,7.8735063E3,6.7204946E3,1.0800732E4,2.1071487E3,3.2374146E0,3.361327E2,8.3307117E2,2.2128176E1,2.5699211E1,1.09183445E1,1.4447125E3,1.6635535E2,3.089158E2,5.2643854E2,1.15118675E2,4.6076294E1,2.7668867E4,4.9592474E2,6.892786E1,6.4926405E0,9.059377E1,1.6447534E2],"tree_param":{"num_deleted":"0","num_feature":"428","num_nodes":"63","size_leaf_vector":"0"}},{"base_weights":[-7.441604E-4,-6.69651E-1,1.0501721E0,-1.516927E0,-1.0981837E-1,-1.4923963E-1,1.1889981E0,-7.732299E-1,-1.6249348E0,-5.01297E-1,3.7125456E-1,8.309546E-1,-5.090288E-1,1.2152147E0,-2.4450049E-1,-1.0111188E0,-5.0331014E-1,-1.6517938E0,-1.191727E0,7.1963274E-1,-5.9374994E-1,4.423029E-1,-8.005976E-1,8.998936E-1,-7.5449055E-1,-2.4753323E-1,-1.1620611E0,-4.185988E-1,1.2243903E0,2.8200649E-2,-1.0966517E0,-6.1801292E-2,-4.202309E-2,-5.177295E-2,-1.7189087E-2,-6.534966E-2,-8.377901E-2,-4.2334925E-2,-6.803626E-2,4.3666523E-2,-2.8185856E-3,-4.8389964E-2,-1.6075486E-2,5.9232465E-3,2.7495837E-2,-8.930433E-3,-5.3987246E-2,4.907733E-2,1.9490775E-2,3.778436E-3,-8.8260375E-2,-7.2779222E-3,-5.63137E-2,-4.328246E-2,-7.76232E-2,-6.5090865E-2,2.4145922E-2,6.187808E-2,1.8657597E-2,1.4699394E-2,-3.2510124E-2,-1.6933164E-2,-7.333967E-2],"categories":[],"categories_nodes":[],"categories_segments":[],"categories_sizes":[],"default_left":[0,0,0,0,0,0,0,0,0,0,0,0,0,0,0,0,0,0,0,0,0,0,0,0,0,0,0,0,0,0,0,0,0,0,0,0,0,0,0,0,0,0,0,0,0,0,0,0,0,0,0,0,0,0,0,0,0,0,0,0,0,0,0],"id":3,"left_children":[1,3,5,7,9,11,13,15,17,19,21,23,25,27,29,31,33,35,37,39,41,43,45,47,49,51,53,55,57,59,61,-1,-1,-1,-1,-1,-1,-1,-1,-1,-1,-1,-1,-1,-1,-1,-1,-1,-1,-1,-1,-1,-1,-1,-1,-1,-1,-1,-1,-1,-1,-1,-1],"loss_changes":[5.7316656E4,2.3632598E4,5.2805938E3,1.5909922E3,5.65038E3,1.16092E3,1.0684688E3,1.6102539E2,1.9942188E2,1.8676099E3,1.1210986E3,9.729187E1,4.1086908E2,4.1895312E2,1.18849846E2,5.0246826E1,9.9859314E1,1.3144922E2,5.7975586E1,1.3898212E2,1.5656152E3,4.4225244E2,1.3347107E2,3.491754E1,3.149172E1,1.5401344E2,7.829297E1,1.2534112E2,3.107461E2,7.021029E1,3.428824E1,0E0,0E0,0E0,0E0,0E0,0E0,0E0,0E0,0E0,0E0,0E0,0E0,0E0,0E0,0E0,0E0,0E0,0E0,0E0,0E0,0E0,0E0,0E0,0E0,0E0,0E0,0E0,0E0,0E0,0E0,0E0,0E0],"parents":[2147483647,0,0,1,1,2,2,3,3,4,4,5,5,6,6,7,7,8,8,9,9,10,10,11,11,12,12,13,13,14,14,15,15,16,16,17,17,18,18,19,19,20,20,21,21,22,22,23,23,24,24,25,25,26,26,27,27,28,28,29,29,30,30],"right_children":[2,4,6,8,10,12,14,16,18,20,22,24,26,28,30,32,34,36,38,40,42,44,46,48,50,52,54,56,58,60,62,-1,-1,-1,-1,-1,-1,-1,-1,-1,-1,-1,-1,-1,-1,-1,-1,-1,-1,-1,-1,-1,-1,-1,-1,-1,-1,-1,-1,-1,-1,-1,-1],"split_conditions":[1E0,4E0,1.5E0,1E0,5E0,1E0,2.375E0,5E0,1.5E0,1E0,1.6521739E0,1E0,8.636364E-1,1E0,3.4947982E0,2E0,2.66E1,1E0,8.15E0,3E1,1E0,1.53E2,7.830374E-1,4E0,2E0,1.3E1,1.3571431E1,2.9880354E-2,9.969999E0,7.3167803E-3,3.5E0,-6.1801292E-2,-4.202309E-2,-5.177295E-2,-1.7189087E-2,-6.534966E-2,-8.377901E-2,-4.2334925E-2,-6.803626E-2,4.3666523E-2,-2.8185856E-3,-4.8389964E-2,-1.6075486E-2,5.9232465E-3,2.7495837E-2,-8.930433E-3,-5.3987246E-2,4.907733E-2,1.9490775E-2,3.778436E-3,-8.8260375E-2,-7.2779222E-3,-5.63137E-2,-4.328246E-2,-7.76232E-2,-6.5090865E-2,2.4145922E-2,6.187808E-2,1.8657597E-2,1.4699394E-2,-3.2510124E-2,-1.6933164E-2,-7.333967E-2],"split_indices":[72,40,40,54,102,54,16,101,40,102,16,66,16,58,12,79,134,102,39,44,79,150,12,52,78,1,46,182,12,260,50,0,0,0,0,0,0,0,0,0,0,0,0,0,0,0,0,0,0,0,0,0,0,0,0,0,0,0,0,0,0,0,0],"split_type":[0,0,0,0,0,0,0,0,0,0,0,0,0,0,0,0,0,0,0,0,0,0,0,0,0,0,0,0,0,0,0,0,0,0,0,0,0,0,0,0,0,0,0,0,0,0,0,0,0,0,0,0,0,0,0,0,0,0,0,0,0,0,0],"sum_hessian":[8.153358E4,4.9822184E4,3.1711393E4,1.9821588E4,3.0000596E4,3.2896663E3,2.8421727E4,2.5146826E3,1.7306904E4,1.6540518E4,1.3460078E4,8.829326E2,2.4067336E3,2.7911418E4,5.1030725E2,1.3351907E3,1.1794918E3,1.6293865E4,1.0130396E3,1.163859E3,1.5376658E4,1.2691242E4,7.6883594E2,8.465548E2,3.637784E1,1.7195488E3,6.8718475E2,1.5562735E2,2.7755791E4,3.8732452E2,1.22982735E2,5.7334375E2,7.618469E2,2.7077155E2,9.087203E2,1.0551143E3,1.5238751E4,3.3503607E2,6.7800354E2,9.71346E2,1.9251305E2,6.476121E3,8.900537E3,3.1660068E3,9.525235E3,2.3867224E2,5.301637E2,7.289419E2,1.17612885E2,2.0482038E1,1.5895802E1,1.5417947E3,1.7775421E2,3.92442E2,2.9474274E2,7.838719E1,7.724015E1,2.733242E4,4.2337073E2,2.7870078E2,1.0862375E2,4.097917E1,8.200356E1],"tree_param":{"num_deleted":"0","num_feature":"428","num_nodes":"63","size_leaf_vector":"0"}},{"base_weights":[-2.7428492E-4,-6.385113E-1,1.0012107E0,-1.1608214E0,-2.398185E-3,1.0738363E0,-9.871673E-2,-9.4283944E-1,-1.5629561E0,1.294027E-1,-1.263034E0,1.1094137E0,1.7714567E-2,-6.6738933E-1,6.936774E-1,2.0084669E-1,-1.0416354E0,-1.0052859E0,-1.6145798E0,-2.741531E-1,5.10511E-1,-1.5797302E0,-8.522209E-1,8.82261E-1,1.207415E0,7.1798617E-1,-5.018131E-1,-3.354688E-1,-1.133791E0,9.7878414E-1,-2.3756175E-1,-5.322442E-3,3.5181683E-2,-6.888611E-2,-3.691504E-2,-7.236152E-2,-9.2112105E-3,-8.147224E-2,-5.2301463E-2,-3.655326E-2,2.0963498E-3,-3.170158E-3,3.6803875E-2,1.9623762E-2,-7.93264E-2,-6.5404005E-2,-2.3666486E-2,2.2884617E-2,5.006178E-2,6.580215E-4,6.0712483E-2,1.5793423E-3,4.651697E-2,-7.744332E-3,-5.398215E-2,-9.27528E-3,-6.413712E-2,-5.8631618E-2,8.308507E-2,5.6816783E-2,4.028685E-3,3.6358275E-3,-7.1926564E-2],"categories":[],"categories_nodes":[],"categories_segments":[],"categories_sizes":[],"default_left":[0,0,0,0,0,0,0,0,0,0,0,0,0,0,0,0,0,0,0,0,0,0,0,0,0,0,0,0,0,0,0,0,0,0,0,0,0,0,0,0,0,0,0,0,0,0,0,0,0,0,0,0,0,0,0,0,0,0,0,0,0,0,0],"id":4,"left_children":[1,3,5,7,9,11,13,15,17,19,21,23,25,27,29,31,33,35,37,39,41,43,45,47,49,51,53,55,57,59,61,-1,-1,-1,-1,-1,-1,-1,-1,-1,-1,-1,-1,-1,-1,-1,-1,-1,-1,-1,-1,-1,-1,-1,-1,-1,-1,-1,-1,-1,-1,-1,-1],"loss_changes":[5.1868727E4,1.6467064E4,2.5232656E3,2.384207E3,3.7133088E3,1.1132812E3,8.824357E2,1.9946748E3,2.7375195E2,3.1119973E3,2.7387598E2,6.3703125E2,3.520233E2,1.7610223E2,2.1748444E2,2.1705954E2,1.6554199E3,2.947746E2,7.227344E1,1.419385E3,1.3472202E3,1.6621826E1,1.5881018E2,4.3612256E2,1.634043E2,6.0038345E1,1.1119231E2,9.457655E1,5.336847E1,8.859033E1,7.187524E1,0E0,0E0,0E0,0E0,0E0,0E0,0E0,0E0,0E0,0E0,0E0,0E0,0E0,0E0,0E0,0E0,0E0,0E0,0E0,0E0,0E0,0E0,0E0,0E0,0E0,0E0,0E0,0E0,0E0,0E0,0E0,0E0],"parents":[2147483647,0,0,1,1,2,2,3,3,4,4,5,5,6,6,7,7,8,8,9,9,10,10,11,11,12,12,13,13,14,14,15,15,16,16,17,17,18,18,19,19,20,20,21,21,22,22,23,23,24,24,25,25,26,26,27,27,28,28,29,29,30,30],"right_children":[2,4,6,8,10,12,14,16,18,20,22,24,26,28,30,32,34,36,38,40,42,44,46,48,50,52,54,56,58,60,62,-1,-1,-1,-1,-1,-1,-1,-1,-1,-1,-1,-1,-1,-1,-1,-1,-1,-1,-1,-1,-1,-1,-1,-1,-1,-1,-1,-1,-1,-1,-1,-1],"split_conditions":[1E0,4E0,9.0375E0,9.0375E0,9.0375E0,5E-1,4.1666668E-2,1E0,1E0,4E0,4.1666668E-2,6E0,1E0,1E0,3.7E1,9E0,9E0,4.1666668E-2,8.3333336E-2,1E0,5E0,1E0,5E0,9E0,1E0,5E0,8.333333E-1,1.5833334E0,1.13484E-1,5.394901E-3,1.9356913E1,-5.322442E-3,3.5181683E-2,-6.888611E-2,-3.691504E-2,-7.236152E-2,-9.2112105E-3,-8.147224E-2,-5.2301463E-2,-3.655326E-2,2.0963498E-3,-3.170158E-3,3.6803875E-2,1.9623762E-2,-7.93264E-2,-6.5404005E-2,-2.3666486E-2,2.2884617E-2,5.006178E-2,6.580215E-4,6.0712483E-2,1.5793423E-3,4.651697E-2,-7.744332E-3,-5.398215E-2,-9.27528E-3,-6.413712E-2,-5.8631618E-2,8.308507E-2,5.6816783E-2,4.028685E-3,3.6358275E-3,-7.1926564E-2],"split_indices":[72,102,1,1,1,35,14,102,102,103,14,101,66,66,44,1,1,14,14,79,102,71,102,1,70,101,17,17,335,251,46,0,0,0,0,0,0,0,0,0,0,0,0,0,0,0,0,0,0,0,0,0,0,0,0,0,0,0,0,0,0,0,0],"split_type":[0,0,0,0,0,0,0,0,0,0,0,0,0,0,0,0,0,0,0,0,0,0,0,0,0,0,0,0,0,0,0,0,0,0,0,0,0,0,0,0,0,0,0,0,0,0,0,0,0,0,0,0,0,0,0,0,0,0,0,0,0,0,0],"sum_hessian":[8.114625E4,4.9561516E4,3.158473E4,2.7214756E4,2.2346762E4,2.9628455E4,1.9562739E3,1.7650453E4,9.564302E3,2.0232344E4,2.114417E3,2.8662846E4,9.6561035E2,1.1390073E3,8.172666E2,1.4033933E3,1.6247061E4,8.120911E2,8.752211E3,9.826907E3,1.04054375E4,1.1923712E3,9.2204565E2,8.641981E3,2.0020863E4,4.1110275E2,5.5450757E2,6.6644366E2,4.725637E2,6.256634E2,1.9160316E2,8.715214E2,5.3187195E2,7.705749E3,8.541312E3,5.274327E2,2.8465848E2,8.527394E3,2.2481712E2,4.0177314E3,5.809176E3,2.9360063E3,7.469431E3,3.9008372E0,1.1884703E3,4.1740112E2,5.0464456E2,1.8926791E3,6.7493027E3,1.13942635E2,1.9906922E4,9.740494E1,3.136978E2,3.4727393E2,2.0723366E2,5.7639087E2,9.00528E1,4.666603E2,5.903395E0,5.3207007E2,9.359335E1,1.5301118E2,3.8591984E1],"tree_param":{"num_deleted":"0","num_feature":"428","num_nodes":"63","size_leaf_vector":"0"}},{"base_weights":[2.0215937E-3,-5.917407E-1,9.56628E-1,-1.384198E0,-2.744579E-2,-1.5280376E-1,1.0868407E0,-1.4921213E0,-8.807434E-1,-3.5266438E-1,4.418994E-1,8.0773145E-2,-1.0753789E0,1.1076075E0,2.3877284E-2,-1.5310097E0,-1.1394038E0,-9.5527714E-1,2.939769E-1,8.394153E-1,-4.1268831E-1,-9.210537E-2,7.3854756E-1,3.000727E-1,-5.897574E-1,-1.1716794E0,2.1340274E-3,-3.891111E-1,1.1161222E0,5.504137E-1,-5.3444195E-1,-5.8600694E-2,-7.7878796E-2,-4.3784615E-2,-7.613676E-2,-4.0184725E-2,-6.520369E-2,2.9538756E-2,-1.3788854E-2,4.5861706E-2,-2.752248E-2,-3.9918162E-2,-8.777286E-3,-2.2374673E-2,1.4379071E-2,4.0443603E-2,-3.913741E-3,-2.6922685E-3,3.760324E-2,-3.8821507E-2,-8.194627E-3,-6.306269E-2,-1.727533E-2,4.054678E-2,-5.2056618E-2,8.697729E-3,-7.544999E-2,5.8804173E-2,4.646894E-2,3.8196113E-2,-1.7412066E-2,-8.590623E-3,-5.5808682E-2],"categories":[],"categories_nodes":[],"categories_segments":[],"categories_sizes":[],"default_left":[0,0,0,0,0,0,0,0,0,0,0,0,0,0,0,0,0,0,0,0,0,0,0,0,0,0,0,0,0,0,0,0,0,0,0,0,0,0,0,0,0,0,0,0,0,0,0,0,0,0,0,0,0,0,0,0,0,0,0,0,0,0,0],"id":5,"left_children":[1,3,5,7,9,11,13,15,17,19,21,23,25,27,29,31,33,35,37,39,41,43,45,47,49,51,53,55,57,59,61,-1,-1,-1,-1,-1,-1,-1,-1,-1,-1,-1,-1,-1,-1,-1,-1,-1,-1,-1,-1,-1,-1,-1,-1,-1,-1,-1,-1,-1,-1,-1,-1],"loss_changes":[4.572182E4,2.2239129E4,4.468842E3,1.1225586E3,4.434147E3,7.004607E2,6.1108203E2,2.318711E2,3.2018896E2,1.228165E3,1.8836165E3,3.8167923E2,6.81438E1,3.4648047E2,1.5654561E2,1.4444922E2,1.700354E2,1.8061768E2,3.7155067E1,8.951099E1,1.4940933E3,5.732298E2,4.3915527E2,3.128882E2,5.0729996E1,4.4174927E1,4.7146202E1,9.758628E1,3.0123828E2,5.284513E1,5.4334846E1,0E0,0E0,0E0,0E0,0E0,0E0,0E0,0E0,0E0,0E0,0E0,0E0,0E0,0E0,0E0,0E0,0E0,0E0,0E0,0E0,0E0,0E0,0E0,0E0,0E0,0E0,0E0,0E0,0E0,0E0,0E0,0E0],"parents":[2147483647,0,0,1,1,2,2,3,3,4,4,5,5,6,6,7,7,8,8,9,9,10,10,11,11,12,12,13,13,14,14,15,15,16,16,17,17,18,18,19,19,20,20,21,21,22,22,23,23,24,24,25,25,26,26,27,27,28,28,29,29,30,30],"right_children":[2,4,6,8,10,12,14,16,18,20,22,24,26,28,30,32,34,36,38,40,42,44,46,48,50,52,54,56,58,60,62,-1,-1,-1,-1,-1,-1,-1,-1,-1,-1,-1,-1,-1,-1,-1,-1,-1,-1,-1,-1,-1,-1,-1,-1,-1,-1,-1,-1,-1,-1,-1,-1],"split_conditions":[7.350059E-2,2.1666667E0,1.5E0,1.1666666E0,4E0,1.5E0,3.5E0,9.0909094E-1,1E0,1E0,5E0,9.0375E0,6.581781E-2,1E0,1.3162404E0,1E0,1E0,9.0375E0,2.2666666E1,1.85E1,1E0,1E0,1.5E0,9E0,4.1565783E-2,4.2510454E-2,5.1321983E-3,3.004962E-2,3.4609812E-3,1.125E0,8E-1,-5.8600694E-2,-7.7878796E-2,-4.3784615E-2,-7.613676E-2,-4.0184725E-2,-6.520369E-2,2.9538756E-2,-1.3788854E-2,4.5861706E-2,-2.752248E-2,-3.9918162E-2,-8.777286E-3,-2.2374673E-2,1.4379071E-2,4.0443603E-2,-3.913741E-3,-2.6922685E-3,3.760324E-2,-3.8821507E-2,-8.194627E-3,-6.306269E-2,-1.727533E-2,4.054678E-2,-5.2056618E-2,8.697729E-3,-7.544999E-2,5.8804173E-2,4.646894E-2,3.8196113E-2,-1.7412066E-2,-8.590623E-3,-5.5808682E-2],"split_indices":[381,4,40,4,103,50,50,20,104,102,102,1,305,58,12,102,69,1,10,136,79,79,50,1,184,252,410,273,221,17,17,0,0,0,0,0,0,0,0,0,0,0,0,0,0,0,0,0,0,0,0,0,0,0,0,0,0,0,0,0,0,0,0],"split_type":[0,0,0,0,0,0,0,0,0,0,0,0,0,0,0,0,0,0,0,0,0,0,0,0,0,0,0,0,0,0,0,0,0,0,0,0,0,0,0,0,0,0,0,0,0,0,0,0,0,0,0,0,0,0,0,0,0,0,0,0,0,0,0],"sum_hessian":[8.066326E4,4.9731066E4,3.0932193E4,2.0683344E4,2.9047725E4,3.2491113E3,2.7683082E4,1.7030602E4,3.652742E3,1.7158504E4,1.1889221E4,2.5934229E3,6.556885E2,2.715257E4,5.305119E2,1.533637E4,1.6942306E3,3.4349856E3,2.1775644E2,8.219296E2,1.6336575E4,4.246202E3,7.643018E3,1.9546874E3,6.387354E2,6.018151E2,5.3873383E1,1.5334236E2,2.6999229E4,2.7303436E2,2.574775E2,1.0598232E3,1.4276547E4,1.0056686E3,6.885621E2,2.3967097E3,1.0382759E3,1.4314957E2,7.4606865E1,7.786717E2,4.3257935E1,6.219377E3,1.0117198E4,2.1931902E3,2.0530117E3,7.0371626E3,6.0585583E2,1.096774E3,8.5791327E2,4.4350653E2,1.9522891E2,5.424731E2,5.9342033E1,3.047222E1,2.3401165E1,1.026007E2,5.0741653E1,2.0433092E4,6.566136E3,2.2073953E2,5.229484E1,1.5940552E2,9.807201E1],"tree_param":{"num_deleted":"0","num_feature":"428","num_nodes":"63","size_leaf_vector":"0"}},{"base_weights":[-1.2868657E-3,-5.869852E-1,9.1955185E-1,-1.3448434E0,-4.7021892E-2,-1.3129257E-1,1.0426279E0,-1.4524829E0,-8.644243E-1,-3.5407308E-1,3.9857763E-1,7.258231E-1,-4.3334004E-1,1.0747867E0,2.0786839E-2,-7.845541E-1,-1.4956285E0,-6.510353E-1,-1.1082579E0,-2.8588498E-1,-1.3466955E0,5.400521E-1,-2.6041698E-1,8.200408E-1,-2.3287608E-1,-2.5588068E-1,-1.1100765E0,-3.4222695E-1,1.0830317E0,3.3667016E-1,-6.290259E-1,-4.413123E-2,-1.2846487E-2,-7.0577346E-2,-7.6688945E-2,-2.9044418E-2,-6.4014904E-2,-4.1813657E-2,-6.669497E-2,-6.428511E-3,-3.070852E-2,-3.9271258E-2,-7.4695684E-2,1.8524014E-3,3.2192457E-2,-2.0619202E-3,-4.6277974E-2,4.6535276E-2,2.4113936E-2,1.5175479E-2,-4.878066E-2,-6.1568017E-3,-3.8629107E-2,-5.8576297E-2,2.6192168E-2,1.1128536E-2,-7.603925E-2,5.711698E-2,4.4817355E-2,2.7299196E-2,-1.7130163E-2,-1.3630861E-2,-6.2280327E-2],"categories":[],"categories_nodes":[],"categories_segments":[],"categories_sizes":[],"default_left":[0,0,0,0,0,0,0,0,0,0,0,0,0,0,0,0,0,0,0,0,0,0,0,0,0,0,0,0,0,0,0,0,0,0,0,0,0,0,0,0,0,0,0,0,0,0,0,0,0,0,0,0,0,0,0,0,0,0,0,0,0,0,0],"id":6,"left_children":[1,3,5,7,9,11,13,15,17,19,21,23,25,27,29,31,33,35,37,39,41,43,45,47,49,51,53,55,57,59,61,-1,-1,-1,-1,-1,-1,-1,-1,-1,-1,-1,-1,-1,-1,-1,-1,-1,-1,-1,-1,-1,-1,-1,-1,-1,-1,-1,-1,-1,-1,-1,-1],"loss_changes":[4.3086336E4,1.998189E4,4.0170098E3,1.0493203E3,3.9016272E3,8.435406E2,9.135879E2,4.7708203E2,1.9289355E2,1.1423147E3,1.0847404E3,7.6885864E1,2.8902078E2,3.1527734E2,1.7454233E2,5.1987183E1,4.7835938E1,8.6958496E1,1.0537842E2,8.1582996E2,8.8473755E1,5.0003125E2,2.9980786E2,2.8456848E1,3.0875671E1,1.3089894E2,5.083264E1,1.0463486E2,2.9568164E2,8.153442E1,6.0786682E1,0E0,0E0,0E0,0E0,0E0,0E0,0E0,0E0,0E0,0E0,0E0,0E0,0E0,0E0,0E0,0E0,0E0,0E0,0E0,0E0,0E0,0E0,0E0,0E0,0E0,0E0,0E0,0E0,0E0,0E0,0E0,0E0],"parents":[2147483647,0,0,1,1,2,2,3,3,4,4,5,5,6,6,7,7,8,8,9,9,10,10,11,11,12,12,13,13,14,14,15,15,16,16,17,17,18,18,19,19,20,20,21,21,22,22,23,23,24,24,25,25,26,26,27,27,28,28,29,29,30,30],"right_children":[2,4,6,8,10,12,14,16,18,20,22,24,26,28,30,32,34,36,38,40,42,44,46,48,50,52,54,56,58,60,62,-1,-1,-1,-1,-1,-1,-1,-1,-1,-1,-1,-1,-1,-1,-1,-1,-1,-1,-1,-1,-1,-1,-1,-1,-1,-1,-1,-1,-1,-1,-1,-1],"split_conditions":[1E0,2.1666667E0,1.5E0,2E0,4E0,1E0,1.875E0,1E0,2.5E1,2E0,2E0,8.5E-1,1.6521739E0,1E0,3E0,4E0,9.15E0,9.9E0,1E0,3E1,7.250059E-1,4E0,1.9583334E0,9.524009E-3,1.776028E-2,9.95E0,8.521866E-2,5.809478E-2,3.4609812E-3,1.13E2,2.7279575E0,-4.413123E-2,-1.2846487E-2,-7.0577346E-2,-7.6688945E-2,-2.9044418E-2,-6.4014904E-2,-4.1813657E-2,-6.669497E-2,-6.428511E-3,-3.070852E-2,-3.9271258E-2,-7.4695684E-2,1.8524014E-3,3.2192457E-2,-2.0619202E-3,-4.6277974E-2,4.6535276E-2,2.4113936E-2,1.5175479E-2,-4.878066E-2,-6.1568017E-3,-3.8629107E-2,-5.8576297E-2,2.6192168E-2,1.1128536E-2,-7.603925E-2,5.711698E-2,4.4817355E-2,2.7299196E-2,-1.7130163E-2,-1.3630861E-2,-6.2280327E-2],"split_indices":[72,4,40,40,103,54,16,54,44,16,75,16,16,58,16,103,39,22,69,44,12,25,16,355,343,22,305,348,221,38,12,0,0,0,0,0,0,0,0,0,0,0,0,0,0,0,0,0,0,0,0,0,0,0,0,0,0,0,0,0,0,0,0],"split_type":[0,0,0,0,0,0,0,0,0,0,0,0,0,0,0,0,0,0,0,0,0,0,0,0,0,0,0,0,0,0,0,0,0,0,0,0,0,0,0,0,0,0,0,0,0,0,0,0,0,0,0,0,0,0,0,0,0,0,0,0,0,0,0],"sum_hessian":[7.9886086E4,4.8828895E4,3.1057193E4,2.0314816E4,2.8514078E4,3.2560874E3,2.7801105E4,1.6594695E4,3.72012E3,1.6881604E4,1.1632475E4,8.4808527E2,2.4080022E3,2.695281E4,8.4829517E2,1.0080743E3,1.5586622E4,1.9858711E3,1.734249E3,1.5797673E4,1.0839316E3,9.576706E3,2.055769E3,7.7232806E2,7.575717E1,1.908831E3,4.9917108E2,1.5568425E2,2.6797127E4,5.711384E2,2.7715674E2,8.495028E2,1.5857144E2,4.876673E3,1.0709949E4,1.7884292E3,1.974419E2,7.885042E2,9.457448E2,1.0680809E4,5.1168643E3,2.2654861E2,8.5738306E2,1.6383859E3,7.93832E3,1.5470464E3,5.0872263E2,5.804074E2,1.9192065E2,4.433264E1,3.1424534E1,1.5196575E3,3.8917358E2,4.8135114E2,1.781995E1,1.0579534E2,4.988891E1,2.0332547E4,6.464579E3,4.3675226E2,1.3438618E2,1.7654735E2,1.00609375E2],"tree_param":{"num_deleted":"0","num_feature":"428","num_nodes":"63","size_leaf_vector":"0"}},{"base_weights":[1.0375594E-3,-5.5753523E-1,8.8229245E-1,-1.3485551E0,-7.5546876E-2,-1.4819819E-1,1.0042251E0,-1.3990374E0,-9.498392E-1,-4.021087E-1,3.367404E-1,1.21021785E-1,-9.0045154E-1,1.0207118E0,-3.2101315E-1,-1.4360875E0,-1.0574689E0,1.7290929E-1,-1.0115119E0,7.2759145E-1,-4.779044E-1,-6.251035E-2,6.523686E-1,-1.2854956E-1,5.815295E-1,-4.6783093E-1,-1.1542134E0,1.0744846E0,8.155107E-1,-6.105378E-1,1.1939004E-1,-5.455291E-2,-7.3102206E-2,-3.9213363E-2,-7.265125E-2,2.6987916E-2,-3.3463925E-2,-4.4005793E-2,-6.909754E-2,4.1026752E-2,-1.0224866E-2,-4.019721E-2,-1.1297932E-2,-2.0833287E-2,1.5668828E-2,3.4406897E-2,-5.3401392E-2,8.2626445E-3,-2.441627E-2,3.748038E-2,5.5020675E-3,-2.9115051E-2,5.0438564E-2,-4.944024E-2,-7.612458E-2,-2.5856888E-2,5.4112118E-2,4.2973254E-2,1.4351792E-2,-5.8112253E-2,-1.6445331E-2,2.00801E-2,-3.06967E-2],"categories":[],"categories_nodes":[],"categories_segments":[],"categories_sizes":[],"default_left":[0,0,0,0,0,0,0,0,0,0,0,0,0,0,0,0,0,0,0,0,0,0,0,0,0,0,0,0,0,0,0,0,0,0,0,0,0,0,0,0,0,0,0,0,0,0,0,0,0,0,0,0,0,0,0,0,0,0,0,0,0,0,0],"id":7,"left_children":[1,3,5,7,9,11,13,15,17,19,21,23,25,27,29,31,33,35,37,39,41,43,45,47,49,51,53,55,57,59,61,-1,-1,-1,-1,-1,-1,-1,-1,-1,-1,-1,-1,-1,-1,-1,-1,-1,-1,-1,-1,-1,-1,-1,-1,-1,-1,-1,-1,-1,-1,-1,-1],"loss_changes":[3.901487E4,1.8495305E4,3.8636582E3,3.683672E2,4.0587393E3,6.59152E2,6.0106055E2,2.0477344E2,1.4331946E2,1.4407219E3,1.6790778E3,2.7560596E2,9.36308E1,2.987832E2,4.3248272E1,1.3008008E2,1.7165234E2,3.3882122E1,9.4174805E1,9.182892E1,1.2947864E3,7.833807E2,4.586626E2,1.6451236E2,6.6706085E1,5.447577E1,3.1388E1,2.662168E2,1.3083398E2,3.1387024E1,2.8215326E1,0E0,0E0,0E0,0E0,0E0,0E0,0E0,0E0,0E0,0E0,0E0,0E0,0E0,0E0,0E0,0E0,0E0,0E0,0E0,0E0,0E0,0E0,0E0,0E0,0E0,0E0,0E0,0E0,0E0,0E0,0E0,0E0],"parents":[2147483647,0,0,1,1,2,2,3,3,4,4,5,5,6,6,7,7,8,8,9,9,10,10,11,11,12,12,13,13,14,14,15,15,16,16,17,17,18,18,19,19,20,20,21,21,22,22,23,23,24,24,25,25,26,26,27,27,28,28,29,29,30,30],"right_children":[2,4,6,8,10,12,14,16,18,20,22,24,26,28,30,32,34,36,38,40,42,44,46,48,50,52,54,56,58,60,62,-1,-1,-1,-1,-1,-1,-1,-1,-1,-1,-1,-1,-1,-1,-1,-1,-1,-1,-1,-1,-1,-1,-1,-1,-1,-1,-1,-1,-1,-1,-1,-1],"split_conditions":[1E0,1.75E0,1.5E0,2E0,5E0,1E0,1.5E0,9.0909094E-1,1E0,1E0,4E0,6.666667E-1,1.8229166E1,3.04965E-3,4E0,1E0,1E0,2.6E1,9.8E0,1.55E1,2E0,1E-1,1.5E0,1.5304385E-2,4E0,5.5689465E-2,2.6E0,1E0,1E0,3.75E1,6.25E-1,-5.455291E-2,-7.3102206E-2,-3.9213363E-2,-7.265125E-2,2.6987916E-2,-3.3463925E-2,-4.4005793E-2,-6.909754E-2,4.1026752E-2,-1.0224866E-2,-4.019721E-2,-1.1297932E-2,-2.0833287E-2,1.5668828E-2,3.4406897E-2,-5.3401392E-2,8.2626445E-3,-2.441627E-2,3.748038E-2,5.5020675E-3,-2.9115051E-2,5.0438564E-2,-4.944024E-2,-7.612458E-2,-2.5856888E-2,5.4112118E-2,4.2973254E-2,1.4351792E-2,-5.8112253E-2,-1.6445331E-2,2.00801E-2,-3.06967E-2],"split_indices":[72,4,40,40,102,66,35,20,102,102,103,20,2,337,103,102,69,44,1,92,102,20,35,228,52,406,26,53,66,86,17,0,0,0,0,0,0,0,0,0,0,0,0,0,0,0,0,0,0,0,0,0,0,0,0,0,0,0,0,0,0,0,0],"split_type":[0,0,0,0,0,0,0,0,0,0,0,0,0,0,0,0,0,0,0,0,0,0,0,0,0,0,0,0,0,0,0,0,0,0,0,0,0,0,0,0,0,0,0,0,0,0,0,0,0,0,0,0,0,0,0,0,0,0,0,0,0,0,0],"sum_hessian":[7.925705E4,4.8509965E4,3.0747086E4,1.8366236E4,3.0143729E4,3.2531855E3,2.74939E4,1.6299955E4,2.0662812E3,1.6820602E4,1.3323127E4,2.3963926E3,8.567931E2,2.7156291E4,3.376103E2,1.4702017E4,1.5979382E3,1.07497314E2,1.958784E3,1.057057E3,1.5763544E4,5.8826846E3,7.440442E3,1.5546003E3,8.417921E2,3.1781552E2,5.389776E2,2.1514264E4,5.6420273E3,2.0346465E2,1.3414565E2,1.0316608E3,1.3670356E4,9.4691095E2,6.510272E2,7.513035E1,3.2366966E1,1.4484049E3,5.1037915E2,9.6131854E2,9.5738525E1,6.870426E3,8.893118E3,3.0288425E3,2.8538418E3,7.289484E3,1.5095811E2,8.560599E2,6.985405E2,6.201342E2,2.2165787E2,2.955123E2,2.2303242E1,3.74472E2,1.6450562E2,1.04035515E2,2.1410229E4,5.208222E3,4.3380505E2,6.7705246E1,1.357594E2,9.719394E1,3.6951702E1],"tree_param":{"num_deleted":"0","num_feature":"428","num_nodes":"63","size_leaf_vector":"0"}},{"base_weights":[5.5796215E-3,-5.286322E-1,8.5464776E-1,-1.3118492E0,-6.881824E-2,-8.8084035E-2,9.7175515E-1,-1.3600798E0,-9.422061E-1,-3.78979E-1,3.2616323E-1,2.0398496E-1,-7.325822E-1,1.0014851E0,7.672234E-3,-9.2587125E-1,-1.3932612E0,-7.400262E-1,-1.4366572E0,6.8319046E-1,-4.4926593E-1,-5.001794E-2,6.263238E-1,-1.2247208E-1,6.5170956E-1,-4.621209E-1,-1.0632983E0,-5.328468E-1,1.0085025E0,2.1663472E-1,-6.9373E-1,-5.1970996E-2,7.2046416E-3,-7.086719E-2,-5.383526E-2,-4.5436803E-2,-1.4982796E-2,-7.209246E-2,2.1876846E-2,3.9879825E-2,-1.0411537E-2,-3.926756E-2,-1.1373478E-2,-2.4912067E-2,1.4398386E-2,3.4032058E-2,-2.7776835E-2,-1.9210078E-3,-5.9185434E-2,3.807224E-2,-8.667274E-3,-9.384753E-3,-4.334503E-2,-5.4522026E-2,7.9446614E-2,-5.9274055E-2,2.4470365E-2,5.3064715E-2,4.0550273E-2,1.9381588E-2,-1.5609577E-2,-7.125038E-3,-7.095475E-2],"categories":[],"categories_nodes":[],"categories_segments":[],"categories_sizes":[],"default_left":[0,0,0,0,0,0,0,0,0,0,0,0,0,0,0,0,0,0,0,0,0,0,0,0,0,0,0,0,0,0,0,0,0,0,0,0,0,0,0,0,0,0,0,0,0,0,0,0,0,0,0,0,0,0,0,0,0,0,0,0,0,0,0],"id":8,"left_children":[1,3,5,7,9,11,13,15,17,19,21,23,25,27,29,31,33,35,37,39,41,43,45,47,49,51,53,55,57,59,61,-1,-1,-1,-1,-1,-1,-1,-1,-1,-1,-1,-1,-1,-1,-1,-1,-1,-1,-1,-1,-1,-1,-1,-1,-1,-1,-1,-1,-1,-1,-1,-1],"loss_changes":[3.5726395E4,1.741116E4,3.3583086E3,3.175547E2,3.7321475E3,6.3300793E2,7.755117E2,2.2660547E2,2.0561157E2,1.2742817E3,1.5131017E3,3.383518E2,9.330731E1,2.8314844E2,1.1893235E2,1.3694116E2,1.1048242E2,1.08900696E2,6.4589844E0,1.0821985E2,1.1929446E3,9.0120874E2,4.7884058E2,1.1941659E2,8.850333E1,6.4115234E1,3.5639526E1,8.074256E1,2.7156445E2,5.6653545E1,7.427309E1,0E0,0E0,0E0,0E0,0E0,0E0,0E0,0E0,0E0,0E0,0E0,0E0,0E0,0E0,0E0,0E0,0E0,0E0,0E0,0E0,0E0,0E0,0E0,0E0,0E0,0E0,0E0,0E0,0E0,0E0,0E0,0E0],"parents":[2147483647,0,0,1,1,2,2,3,3,4,4,5,5,6,6,7,7,8,8,9,9,10,10,11,11,12,12,13,13,14,14,15,15,16,16,17,17,18,18,19,19,20,20,21,21,22,22,23,23,24,24,25,25,26,26,27,27,28,28,29,29,30,30],"right_children":[2,4,6,8,10,12,14,16,18,20,22,24,26,28,30,32,34,36,38,40,42,44,46,48,50,52,54,56,58,60,62,-1,-1,-1,-1,-1,-1,-1,-1,-1,-1,-1,-1,-1,-1,-1,-1,-1,-1,-1,-1,-1,-1,-1,-1,-1,-1,-1,-1,-1,-1,-1,-1],"split_conditions":[1E0,1.6666666E0,1.2608696E0,1E0,5E0,9.0375E0,1.875E0,1E0,9.0375E0,1E0,4E0,9E0,7.3913044E-1,1E0,3.4947982E0,1.2E0,1.2608696E0,3E0,3.5E2,1.32E2,1E0,1E0,1.8095238E0,2.5238094E0,7.619048E-1,1E0,9.93665E-2,1.9502336E-2,3.04965E-3,1.13E2,2.9166667E0,-5.1970996E-2,7.2046416E-3,-7.086719E-2,-5.383526E-2,-4.5436803E-2,-1.4982796E-2,-7.209246E-2,2.1876846E-2,3.9879825E-2,-1.0411537E-2,-3.926756E-2,-1.1373478E-2,-2.4912067E-2,1.4398386E-2,3.4032058E-2,-2.7776835E-2,-1.9210078E-3,-5.9185434E-2,3.807224E-2,-8.667274E-3,-9.384753E-3,-4.334503E-2,-5.4522026E-2,7.9446614E-2,-5.9274055E-2,2.4470365E-2,5.3064715E-2,4.0550273E-2,1.9381588E-2,-1.5609577E-2,-7.125038E-3,-7.095475E-2],"split_indices":[72,4,4,20,102,1,16,102,1,102,103,1,16,53,12,4,4,103,149,41,79,79,16,16,16,69,214,403,337,38,16,0,0,0,0,0,0,0,0,0,0,0,0,0,0,0,0,0,0,0,0,0,0,0,0,0,0,0,0,0,0,0,0],"split_type":[0,0,0,0,0,0,0,0,0,0,0,0,0,0,0,0,0,0,0,0,0,0,0,0,0,0,0,0,0,0,0,0,0,0,0,0,0,0,0,0,0,0,0,0,0,0,0,0,0,0,0,0,0,0,0,0,0,0,0,0,0,0,0],"sum_hessian":[7.8762984E4,4.8345566E4,3.0417412E4,1.7882996E4,3.0462572E4,3.3610134E3,2.7056398E4,1.5816587E4,2.0664092E3,1.7063463E4,1.339911E4,2.3133499E3,1.0476636E3,2.6246969E4,8.094298E2,1.1249194E3,1.4691667E4,1.4684572E3,5.979521E2,1.0585176E3,1.6004944E4,5.9468975E3,7.452213E3,1.3382762E3,9.750736E2,5.7765314E2,4.700104E2,1.1915502E2,2.6127814E4,6.241681E2,1.8526169E2,1.01701807E3,1.0790133E2,1.3649763E4,1.0419044E3,1.0609385E3,4.0751874E2,5.965303E2,1.4218249E0,9.3821173E2,1.203059E2,6.362057E3,9.642887E3,2.5563247E3,3.3905725E3,7.1251704E3,3.270427E2,1.2410212E3,9.7255005E1,8.606776E2,1.14396E2,3.451308E2,2.3252235E2,4.6583206E2,4.178344E0,7.2627815E1,4.6527203E1,2.0613393E4,5.5144224E3,4.7185864E2,1.5230946E2,1.0594613E2,7.931557E1],"tree_param":{"num_deleted":"0","num_feature":"428","num_nodes":"63","size_leaf_vector":"0"}},{"base_weights":[9.4571296E-4,-5.0202256E-1,8.122981E-1,-1.242667E0,-5.597033E-2,-1.1119029E-1,9.254974E-1,-6.109338E-1,-1.3404963E0,-3.6909926E-1,3.2132435E-1,6.380441E-1,-3.7482804E-1,9.552361E-1,-3.970728E-3,-3.563726E-1,-7.979248E-1,-1.3661724E0,-9.459714E-1,6.4207876E-1,-4.4832835E-1,3.816622E-1,-7.03866E-1,7.226501E-1,-4.9627024E-1,-2.063653E-1,-1.0233959E0,1.0630937E0,8.637781E-1,2.55189E-1,-5.1317024E-1,-7.7251154E-3,-4.0104337E-2,-5.1098276E-2,-2.7335191E-2,-5.1887482E-2,-6.95039E-2,-2.9300839E-2,-5.6513418E-2,3.9634507E-2,-1.5377104E-3,-3.9774504E-2,-1.0166791E-2,2.3960076E-2,1.7727133E-3,-2.0475522E-2,-6.0406245E-2,3.7802212E-2,-3.1643257E-2,-1.988137E-3,-8.089174E-2,-2.7011449E-2,1.1727804E-3,-5.4048806E-2,1.7905463E-2,-3.7308022E-2,5.375744E-2,4.4004675E-2,-1.2296767E-2,2.9647077E-2,-8.857535E-3,-1.00599E-2,-5.4377504E-2],"categories":[],"categories_nodes":[],"categories_segments":[],"categories_sizes":[],"default_left":[0,0,0,0,0,0,0,0,0,0,0,0,0,0,0,0,0,0,0,0,0,0,0,0,0,0,0,0,0,0,0,0,0,0,0,0,0,0,0,0,0,0,0,0,0,0,0,0,0,0,0,0,0,0,0,0,0,0,0,0,0,0,0],"id":9,"left_children":[1,3,5,7,9,11,13,15,17,19,21,23,25,27,29,31,33,35,37,39,41,43,45,47,49,51,53,55,57,59,61,-1,-1,-1,-1,-1,-1,-1,-1,-1,-1,-1,-1,-1,-1,-1,-1,-1,-1,-1,-1,-1,-1,-1,-1,-1,-1,-1,-1,-1,-1,-1,-1],"loss_changes":[3.1803586E4,1.58938E4,3.1178477E3,1.1167695E3,3.5476255E3,6.436753E2,7.343633E2,1.1522778E2,1.573164E2,1.3149343E3,8.427073E2,8.176474E1,2.631283E2,2.5302734E2,1.0895877E2,9.2504684E1,7.8138E1,1.1396289E2,6.302295E1,1.20891235E2,1.2941443E3,4.343396E2,1.1191922E2,3.62287E1,3.0384563E1,1.4691095E2,3.9898987E1,2.5835352E2,2.5253809E2,8.000787E1,4.9683525E1,0E0,0E0,0E0,0E0,0E0,0E0,0E0,0E0,0E0,0E0,0E0,0E0,0E0,0E0,0E0,0E0,0E0,0E0,0E0,0E0,0E0,0E0,0E0,0E0,0E0,0E0,0E0,0E0,0E0,0E0,0E0,0E0],"parents":[2147483647,0,0,1,1,2,2,3,3,4,4,5,5,6,6,7,7,8,8,9,9,10,10,11,11,12,12,13,13,14,14,15,15,16,16,17,17,18,18,19,19,20,20,21,21,22,22,23,23,24,24,25,25,26,26,27,27,28,28,29,29,30,30],"right_children":[2,4,6,8,10,12,14,16,18,20,22,24,26,28,30,32,34,36,38,40,42,44,46,48,50,52,54,56,58,60,62,-1,-1,-1,-1,-1,-1,-1,-1,-1,-1,-1,-1,-1,-1,-1,-1,-1,-1,-1,-1,-1,-1,-1,-1,-1,-1,-1,-1,-1,-1,-1,-1],"split_conditions":[7.350059E-2,4E0,1.5E0,1E0,5E0,1E0,1.875E0,3.1E2,1.5E0,1E0,1.6521739E0,9.5454544E-1,1.6521739E0,5.004523E-3,3E0,3.1E1,5E0,1E0,1E0,1.19E2,1E0,2.1660715E1,2.875E0,5.583333E2,2.1939358E-2,4E0,8.521866E-2,1E0,2.1214945E1,3.2E1,2.7279575E0,-7.7251154E-3,-4.0104337E-2,-5.1098276E-2,-2.7335191E-2,-5.1887482E-2,-6.95039E-2,-2.9300839E-2,-5.6513418E-2,3.9634507E-2,-1.5377104E-3,-3.9774504E-2,-1.0166791E-2,2.3960076E-2,1.7727133E-3,-2.0475522E-2,-6.0406245E-2,3.7802212E-2,-3.1643257E-2,-1.988137E-3,-8.089174E-2,-2.7011449E-2,1.1727804E-3,-5.4048806E-2,1.7905463E-2,-3.7308022E-2,5.375744E-2,4.4004675E-2,-1.2296767E-2,2.9647077E-2,-8.857535E-3,-1.00599E-2,-5.4377504E-2],"split_indices":[381,40,40,54,102,54,16,45,40,102,16,16,16,189,16,29,101,102,69,98,79,94,16,11,206,101,305,58,46,44,12,0,0,0,0,0,0,0,0,0,0,0,0,0,0,0,0,0,0,0,0,0,0,0,0,0,0,0,0,0,0,0,0],"split_type":[0,0,0,0,0,0,0,0,0,0,0,0,0,0,0,0,0,0,0,0,0,0,0,0,0,0,0,0,0,0,0,0,0,0,0,0,0,0,0,0,0,0,0,0,0,0,0,0,0,0,0,0,0,0,0,0,0,0,0,0,0,0,0],"sum_hessian":[7.793182E4,4.8108867E4,2.9822955E4,1.8082357E4,3.0026512E4,3.2564675E3,2.6566486E4,2.425692E3,1.5656665E4,1.640855E4,1.361796E4,8.472475E2,2.40922E3,2.5742809E4,8.236779E2,1.0284762E3,1.3972157E3,1.4697661E4,9.590042E2,1.1917306E3,1.521682E4,1.2861614E4,7.563461E2,7.887773E2,5.84702E1,1.9135117E3,4.957084E2,1.1807475E4,1.3935335E4,5.4619037E2,2.7748755E2,7.087981E2,3.1967813E2,7.369396E2,6.602762E2,1.0002574E3,1.3697403E4,3.261577E2,6.328465E2,9.736127E2,2.1811795E2,6.2947397E3,8.922081E3,1.0034225E4,2.8273892E3,4.787141E2,2.7763202E2,7.70244E2,1.8533281E1,4.229175E1,1.617845E1,7.7961084E2,1.1339009E3,4.7608307E2,1.962532E1,7.7749954E1,1.1729725E4,1.3733626E4,2.0170909E2,3.0642975E2,2.397606E2,1.8069437E2,9.679319E1],"tree_param":{"num_deleted":"0","num_feature":"428","num_nodes":"63","size_leaf_vector":"0"}},{"base_weights":[4.2145293E-5,-4.9409455E-1,7.857706E-1,-1.2286441E0,-6.016749E-2,1.384188E-2,9.135839E-1,-5.393555E-1,-1.2907625E0,-5.0070035E-1,1.68701E-1,6.108215E-1,-2.335245E-1,9.4091606E-1,1.4951977E-2,-7.0229334E-1,-2.5006643E-1,-1.3288001E0,-8.6643666E-1,6.418394E-1,-6.277872E-1,2.3835869E-1,-8.856174E-1,6.783968E-1,-3.5736224E-1,-1.2709549E-1,-1.1397138E0,-4.3887633E-1,9.4874835E-1,2.9334298E-1,-4.8651347E-1,-4.5339093E-2,-2.379747E-2,3.0419234E-2,-1.74449E-2,-5.1545806E-2,-6.748635E-2,-4.765936E-2,1.5487336E-3,-2.8046018E-2,3.582364E-2,-4.7020625E-2,-8.666123E-3,1.3507768E-2,-3.900383E-2,-1.570815E-2,-5.590085E-2,3.8690012E-2,1.2805036E-2,8.6975E-4,-6.408038E-2,-1.659495E-2,1.585598E-2,-5.909087E-2,5.811842E-2,4.0129344E-3,-7.3662035E-2,5.021292E-2,3.8711306E-2,1.902602E-2,-6.601059E-2,-1.16896015E-2,-5.8493502E-2],"categories":[],"categories_nodes":[],"categories_segments":[],"categories_sizes":[],"default_left":[0,0,0,0,0,0,0,0,0,0,0,0,0,0,0,0,0,0,0,0,0,0,0,0,0,0,0,0,0,0,0,0,0,0,0,0,0,0,0,0,0,0,0,0,0,0,0,0,0,0,0,0,0,0,0,0,0,0,0,0,0,0,0],"id":10,"left_children":[1,3,5,7,9,11,13,15,17,19,21,23,25,27,29,31,33,35,37,39,41,43,45,47,49,51,53,55,57,59,61,-1,-1,-1,-1,-1,-1,-1,-1,-1,-1,-1,-1,-1,-1,-1,-1,-1,-1,-1,-1,-1,-1,-1,-1,-1,-1,-1,-1,-1,-1,-1,-1],"loss_changes":[2.9894363E4,1.5066544E4,2.9329453E3,7.509199E2,2.996201E3,6.238994E2,6.264082E2,6.830795E1,2.5874023E2,1.4756895E3,1.4365063E3,8.1222595E1,2.8795184E2,2.679004E2,1.05380936E2,4.2560364E1,4.475689E1,9.07168E1,1.0338025E2,9.174002E1,1.2989536E3,5.942991E2,1.6064185E2,4.642926E1,2.8219597E1,2.4340744E2,3.179242E1,7.55039E1,2.376582E2,6.877551E1,4.626516E1,0E0,0E0,0E0,0E0,0E0,0E0,0E0,0E0,0E0,0E0,0E0,0E0,0E0,0E0,0E0,0E0,0E0,0E0,0E0,0E0,0E0,0E0,0E0,0E0,0E0,0E0,0E0,0E0,0E0,0E0,0E0,0E0],"parents":[2147483647,0,0,1,1,2,2,3,3,4,4,5,5,6,6,7,7,8,8,9,9,10,10,11,11,12,12,13,13,14,14,15,15,16,16,17,17,18,18,19,19,20,20,21,21,22,22,23,23,24,24,25,25,26,26,27,27,28,28,29,29,30,30],"right_children":[2,4,6,8,10,12,14,16,18,20,22,24,26,28,30,32,34,36,38,40,42,44,46,48,50,52,54,56,58,60,62,-1,-1,-1,-1,-1,-1,-1,-1,-1,-1,-1,-1,-1,-1,-1,-1,-1,-1,-1,-1,-1,-1,-1,-1,-1,-1,-1,-1,-1,-1,-1,-1],"split_conditions":[1E0,1.8E0,1.8E0,1E0,4E0,1E0,1.875E0,5E0,1.4E0,1E0,1.6521739E0,9.583333E-1,3.0177092E1,1E0,2.9166667E0,3E0,3.69E1,1E0,1E0,9.752E1,2E0,1.6078857E1,7.830374E-1,8.75E1,9.807415E-3,4.1666668E-2,9.467968E-2,2.7761322E-1,4.301941E-3,2.4133432E-3,3.4947982E0,-4.5339093E-2,-2.379747E-2,3.0419234E-2,-1.74449E-2,-5.1545806E-2,-6.748635E-2,-4.765936E-2,1.5487336E-3,-2.8046018E-2,3.582364E-2,-4.7020625E-2,-8.666123E-3,1.3507768E-2,-3.900383E-2,-1.570815E-2,-5.590085E-2,3.8690012E-2,1.2805036E-2,8.6975E-4,-6.408038E-2,-1.659495E-2,1.585598E-2,-5.909087E-2,5.811842E-2,4.0129344E-3,-7.3662035E-2,5.021292E-2,3.8711306E-2,1.902602E-2,-6.601059E-2,-1.16896015E-2,-5.8493502E-2],"split_indices":[72,4,4,54,102,54,16,101,4,102,16,16,46,58,16,79,96,102,104,85,79,46,12,30,308,14,335,168,221,219,12,0,0,0,0,0,0,0,0,0,0,0,0,0,0,0,0,0,0,0,0,0,0,0,0,0,0,0,0,0,0,0,0],"split_type":[0,0,0,0,0,0,0,0,0,0,0,0,0,0,0,0,0,0,0,0,0,0,0,0,0,0,0,0,0,0,0,0,0,0,0,0,0,0,0,0,0,0,0,0,0,0,0,0,0,0,0,0,0,0,0,0,0,0,0,0,0,0,0],"sum_hessian":[7.699427E4,4.7268168E4,2.9726104E4,1.755289E4,2.9715277E4,4.2229146E3,2.550319E4,1.4518888E3,1.6101002E4,1.0159255E4,1.9556023E4,1.2367485E3,2.986166E3,2.4750352E4,7.528367E2,9.278585E2,5.240302E2,1.4774454E4,1.3265476E3,1.0165134E3,9.142741E3,1.8344777E4,1.2112461E3,1.15634E3,8.040861E1,2.673332E3,3.1283398E2,1.393896E2,2.4610963E4,4.84358E2,2.684787E2,4.858843E2,4.4197424E2,5.356949E1,4.7046072E2,9.731035E2,1.3801351E4,1.2095603E3,1.1698732E2,5.9010445E1,9.57503E2,5.4160103E3,3.726731E3,1.7790086E4,5.546911E2,3.5085922E2,8.603869E2,9.425668E2,2.1377315E2,5.790914E1,2.2499462E1,1.8299117E3,8.4342035E2,3.0769308E2,5.1408844E0,9.3423744E1,4.596585E1,1.8668387E4,5.942576E3,4.602554E2,2.410259E1,1.9697485E2,7.1503845E1],"tree_param":{"num_deleted":"0","num_feature":"428","num_nodes":"63","size_leaf_vector":"0"}},{"base_weights":[-5.272759E-4,-4.757854E-1,7.5626045E-1,-1.2139518E0,-7.597803E-2,7.028862E-3,8.8116604E-1,-5.1724297E-1,-1.2745433E0,-3.52743E-1,2.7770087E-1,5.741269E-1,-2.2133306E-1,8.999358E-1,-3.1673127E-1,-3.0575284E-1,-8.22743E-1,-9.2917866E-1,-1.2996895E0,-2.8089577E-1,-1.2932999E0,3.3195147E-1,-6.7108446E-1,6.5644115E-1,-1.7923789E-1,-9.753849E-2,-1.0453467E0,9.505561E-1,7.122338E-1,4.956724E-2,-7.929385E-1,2.9893085E-2,-1.8923981E-2,7.41061E-2,-4.269864E-2,-1.9641412E-2,-5.792855E-2,-6.7097954E-2,-5.781225E-2,3.2428052E-2,-1.7204983E-2,-5.2936085E-2,-7.462649E-2,2.098892E-2,-2.39123E-3,-5.3025833E-3,-4.460488E-2,3.8077563E-2,1.3147637E-2,-3.1459983E-2,2.374999E-2,1.5073237E-2,-1.5281826E-2,-5.589462E-2,1.0035676E-2,-1.8598085E-2,4.792222E-2,3.852069E-2,1.6634064E-2,1.5832108E-2,-4.77508E-2,-4.674179E-2,4.3867692E-2],"categories":[],"categories_nodes":[],"categories_segments":[],"categories_sizes":[],"default_left":[0,0,0,0,0,0,0,0,0,0,0,0,0,0,0,0,0,0,0,0,0,0,0,0,0,0,0,0,0,0,0,0,0,0,0,0,0,0,0,0,0,0,0,0,0,0,0,0,0,0,0,0,0,0,0,0,0,0,0,0,0,0,0],"id":11,"left_children":[1,3,5,7,9,11,13,15,17,19,21,23,25,27,29,31,33,35,37,39,41,43,45,47,49,51,53,55,57,59,61,-1,-1,-1,-1,-1,-1,-1,-1,-1,-1,-1,-1,-1,-1,-1,-1,-1,-1,-1,-1,-1,-1,-1,-1,-1,-1,-1,-1,-1,-1,-1,-1],"loss_changes":[2.7331492E4,1.3775553E4,2.743213E3,6.916289E2,2.964005E3,5.426912E2,5.6518945E2,8.463214E1,1.2981445E2,1.147561E3,6.844487E2,7.472052E1,3.0465244E2,2.3436719E2,6.777916E1,5.134958E1,3.9908295E1,1.2595264E2,8.369922E1,9.273898E2,5.474695E1,4.1944788E2,8.973236E1,4.4664307E1,3.541377E1,2.158451E2,3.5488403E1,2.0357812E2,1.1585791E2,5.9446777E1,4.0850914E1,0E0,0E0,0E0,0E0,0E0,0E0,0E0,0E0,0E0,0E0,0E0,0E0,0E0,0E0,0E0,0E0,0E0,0E0,0E0,0E0,0E0,0E0,0E0,0E0,0E0,0E0,0E0,0E0,0E0,0E0,0E0,0E0],"parents":[2147483647,0,0,1,1,2,2,3,3,4,4,5,5,6,6,7,7,8,8,9,9,10,10,11,11,12,12,13,13,14,14,15,15,16,16,17,17,18,18,19,19,20,20,21,21,22,22,23,23,24,24,25,25,26,26,27,27,28,28,29,29,30,30],"right_children":[2,4,6,8,10,12,14,16,18,20,22,24,26,28,30,32,34,36,38,40,42,44,46,48,50,52,54,56,58,60,62,-1,-1,-1,-1,-1,-1,-1,-1,-1,-1,-1,-1,-1,-1,-1,-1,-1,-1,-1,-1,-1,-1,-1,-1,-1,-1,-1,-1,-1,-1,-1,-1],"split_conditions":[1E0,1.6E0,1.8333334E0,1E0,5E0,1E0,2.5238094E0,4E2,1E0,2E0,1.7391304E0,8.5E-1,2.75E0,6.25E-1,2.7078677E-3,1E0,1E0,1.7461538E1,1E-1,1E0,1.5E0,2.2173914E1,7.250059E-1,3.315631E-2,1.4E2,1.2991188E-2,5.317713E-2,1E0,1.23E2,3.4947982E0,4.413923E-2,2.9893085E-2,-1.8923981E-2,7.41061E-2,-4.269864E-2,-1.9641412E-2,-5.792855E-2,-6.7097954E-2,-5.781225E-2,3.2428052E-2,-1.7204983E-2,-5.2936085E-2,-7.462649E-2,2.098892E-2,-2.39123E-3,-5.3025833E-3,-4.460488E-2,3.8077563E-2,1.3147637E-2,-3.1459983E-2,2.374999E-2,1.5073237E-2,-1.5281826E-2,-5.589462E-2,1.0035676E-2,-1.8598085E-2,4.792222E-2,3.852069E-2,1.6634064E-2,1.5832108E-2,-4.77508E-2,-4.674179E-2,4.3867692E-2],"split_indices":[72,4,4,54,102,54,16,45,102,16,16,16,16,20,406,60,102,94,20,102,35,2,12,160,28,189,178,53,38,12,349,0,0,0,0,0,0,0,0,0,0,0,0,0,0,0,0,0,0,0,0,0,0,0,0,0,0,0,0,0,0,0,0],"split_type":[0,0,0,0,0,0,0,0,0,0,0,0,0,0,0,0,0,0,0,0,0,0,0,0,0,0,0,0,0,0,0,0,0,0,0,0,0,0,0,0,0,0,0,0,0,0,0,0,0,0,0,0,0,0,0,0,0,0,0,0,0,0,0],"sum_hessian":[7.598857E4,4.6676426E4,2.9312143E4,1.6398238E4,3.027819E4,4.188569E3,2.5123574E4,1.3127809E3,1.5085456E4,1.698606E4,1.3292128E4,1.2020264E3,2.9865422E3,2.4736234E4,3.8734094E2,7.7693146E2,5.358495E2,1.026416E3,1.405904E4,1.5781818E4,1.2042422E3,1.257382E4,7.1830817E2,1.0837429E3,1.1828347E2,2.597438E3,3.891042E2,1.9478988E4,5.2572446E3,2.1944206E2,1.678989E2,5.733505E1,7.1959644E2,6.542353E0,5.293071E2,3.0829434E2,7.181217E2,1.0852675E4,3.2063652E3,1.0042578E3,1.4777561E4,5.559577E2,6.4828455E2,1.0212073E4,2.3617473E3,2.023833E2,5.1592487E2,8.545397E2,2.2920316E2,7.010558E1,4.8177887E1,8.901783E2,1.7072598E3,3.6779404E2,2.1310139E1,1.15222E2,1.9363768E4,4.5576E3,6.996448E2,1.738956E2,4.554646E1,1.5515797E2,1.27409115E1],"tree_param":{"num_deleted":"0","num_feature":"428","num_nodes":"63","size_leaf_vector":"0"}},{"base_weights":[-4.0973015E-3,-4.616714E-1,7.245783E-1,-1.1755425E0,-7.2527386E-2,-3.6460403E-2,8.434687E-1,-4.984527E-1,-1.2358418E0,-3.2706034E-1,3.144819E-1,5.5943084E-1,-2.660808E-1,8.7023586E-1,-1.4058641E-2,-2.7958298E-1,-8.000113E-1,-8.2850707E-1,-1.2663304E0,-2.6632908E-1,-1.188701E0,-6.6796795E-2,5.485962E-1,5.95503E-1,-1.0355829E0,-8.910365E-2,-7.797056E-1,9.271566E-1,6.9105405E-1,2.1676242E-1,-5.963592E-1,-2.0445736E-2,1.1885355E-2,-4.5000196E-2,-1.1679E-2,-5.355726E-3,-4.9226068E-2,-6.473278E-2,-4.946766E-2,3.3793207E-2,-1.5598081E-2,-4.5570277E-2,-6.709093E-2,-1.8141277E-2,1.3045161E-2,-2.2229882E-2,2.953726E-2,3.450247E-2,9.629802E-3,-7.4276775E-2,5.213839E-2,-2.2931207E-2,5.613809E-3,1.4910715E-3,-4.502526E-2,-1.774591E-2,4.67305E-2,2.9089073E-2,4.504918E-2,2.2386467E-2,-1.7679414E-2,1.07701495E-2,-4.6357166E-2],"categories":[],"categories_nodes":[],"categories_segments":[],"categories_sizes":[],"default_left":[0,0,0,0,0,0,0,0,0,0,0,0,0,0,0,0,0,0,0,0,0,0,0,0,0,0,0,0,0,0,0,0,0,0,0,0,0,0,0,0,0,0,0,0,0,0,0,0,0,0,0,0,0,0,0,0,0,0,0,0,0,0,0],"id":12,"left_children":[1,3,5,7,9,11,13,15,17,19,21,23,25,27,29,31,33,35,37,39,41,43,45,47,49,51,53,55,57,59,61,-1,-1,-1,-1,-1,-1,-1,-1,-1,-1,-1,-1,-1,-1,-1,-1,-1,-1,-1,-1,-1,-1,-1,-1,-1,-1,-1,-1,-1,-1,-1,-1],"loss_changes":[2.5101186E4,1.2846473E4,2.627499E3,6.654844E2,2.948431E3,5.371393E2,5.765039E2,8.794229E1,1.8499023E2,9.4452014E2,1.0600668E3,6.3442932E1,2.575033E2,2.4776367E2,1.0244275E2,5.1983814E1,3.1578125E1,1.1762579E2,1.0804883E2,7.2545825E2,4.9241577E1,4.3844278E2,3.082732E2,4.0567596E1,2.4473679E1,1.5695837E2,7.102478E1,1.7692773E2,1.342605E2,7.206636E1,5.8294746E1,0E0,0E0,0E0,0E0,0E0,0E0,0E0,0E0,0E0,0E0,0E0,0E0,0E0,0E0,0E0,0E0,0E0,0E0,0E0,0E0,0E0,0E0,0E0,0E0,0E0,0E0,0E0,0E0,0E0,0E0,0E0,0E0],"parents":[2147483647,0,0,1,1,2,2,3,3,4,4,5,5,6,6,7,7,8,8,9,9,10,10,11,11,12,12,13,13,14,14,15,15,16,16,17,17,18,18,19,19,20,20,21,21,22,22,23,23,24,24,25,25,26,26,27,27,28,28,29,29,30,30],"right_children":[2,4,6,8,10,12,14,16,18,20,22,24,26,28,30,32,34,36,38,40,42,44,46,48,50,52,54,56,58,60,62,-1,-1,-1,-1,-1,-1,-1,-1,-1,-1,-1,-1,-1,-1,-1,-1,-1,-1,-1,-1,-1,-1,-1,-1,-1,-1,-1,-1,-1,-1,-1,-1],"split_conditions":[1E0,1.6666666E0,1.6666666E0,1E0,4E0,1E0,1.875E0,3.75E2,1E0,2E0,5E0,2.2916667E0,8.636364E-1,4.301941E-3,8.333333E-1,8.1E1,4E0,1.624E1,1.5E0,1E0,2.6666667E0,1E0,6E0,1.00291664E2,9.99E0,4E0,3.3716872E-2,1E0,4E0,1.6670056E-2,6.976274E-2,-2.0445736E-2,1.1885355E-2,-4.5000196E-2,-1.1679E-2,-5.355726E-3,-4.9226068E-2,-6.473278E-2,-4.946766E-2,3.3793207E-2,-1.5598081E-2,-4.5570277E-2,-6.709093E-2,-1.8141277E-2,1.3045161E-2,-2.2229882E-2,2.953726E-2,3.450247E-2,9.629802E-3,-7.4276775E-2,5.213839E-2,-2.2931207E-2,5.613809E-3,1.4910715E-3,-4.502526E-2,-1.774591E-2,4.67305E-2,2.9089073E-2,4.504918E-2,2.2386467E-2,-1.7679414E-2,1.07701495E-2,-4.6357166E-2],"split_indices":[72,4,4,54,103,54,16,45,102,16,102,16,16,221,17,73,103,94,40,102,16,79,101,0,126,101,265,58,103,424,313,0,0,0,0,0,0,0,0,0,0,0,0,0,0,0,0,0,0,0,0,0,0,0,0,0,0,0,0,0,0,0,0],"split_type":[0,0,0,0,0,0,0,0,0,0,0,0,0,0,0,0,0,0,0,0,0,0,0,0,0,0,0,0,0,0,0,0,0,0,0,0,0,0,0,0,0,0,0,0,0,0,0,0,0,0,0,0,0,0,0,0,0,0,0,0,0,0,0],"sum_hessian":[7.528127E4,4.6243125E4,2.9038146E4,1.6313874E4,2.992925E4,3.9235427E3,2.5114604E4,1.3348068E3,1.4979067E4,1.8054863E4,1.1874387E4,1.0909545E3,2.8325881E3,2.4354385E4,7.6022E2,7.7456116E2,5.6024554E2,1.0450579E3,1.393401E4,1.686731E4,1.1875541E3,4.5176514E3,7.3567354E3,1.0674403E3,2.351412E1,2.1075676E3,7.250206E2,1.8479742E4,5.8746416E3,5.4486566E2,2.153543E2,6.1980774E2,1.5475346E2,4.7568378E2,8.45618E1,1.8612468E2,8.5893317E2,1.263791E4,1.2960991E3,7.7854614E2,1.6088764E4,4.2494034E2,7.626138E2,2.3734666E3,2.144185E3,2.9910513E2,7.05763E3,8.6398456E2,2.034558E2,1.9563871E1,3.9502482E0,7.429745E2,1.3645931E3,9.423911E1,6.307815E2,1.0654144E2,1.8373201E4,3.8660532E3,2.0085884E3,3.879699E2,1.5689574E2,6.244925E1,1.5290504E2],"tree_param":{"num_deleted":"0","num_feature":"428","num_nodes":"63","size_leaf_vector":"0"}},{"base_weights":[-4.1450714E-3,-9.147565E-1,3.3559856E-1,-1.1410065E0,-1.369473E-2,-6.361555E-2,8.154177E-1,-1.1933185E0,-7.705834E-1,2.0910005E-1,-5.237188E-1,-4.6805587E-1,1.4724697E-1,8.418084E-1,6.825385E-2,-7.7702755E-1,-1.2269206E0,-5.9239686E-1,-1.2174437E0,-1.2091857E-2,5.240371E-1,-3.408219E-1,-1.1130108E0,5.4097563E-1,-5.799646E-1,2.0948943E-1,-8.363003E-1,8.9837927E-1,6.655868E-1,2.51718E-1,-5.7149804E-1,-1.1837193E-2,-5.1206984E-2,-6.280868E-2,-4.7048174E-2,-3.7393536E-2,-1.2748006E-2,-6.1410844E-2,9.0416476E-2,-2.170751E-2,7.729396E-3,3.0410612E-2,-1.1578532E-2,-4.9713464E-3,-3.5051364E-2,-6.225207E-2,-1.7464293E-2,-4.335341E-2,3.1042E-2,-4.434969E-2,-7.0376866E-3,1.4933437E-2,-7.059501E-3,-2.0084543E-2,-5.326998E-2,4.9641244E-2,3.903286E-2,3.4165334E-2,-1.8137185E-2,2.4070889E-2,-1.7453639E-2,-5.9955504E-2,-9.712874E-3],"categories":[],"categories_nodes":[],"categories_segments":[],"categories_sizes":[],"default_left":[0,0,0,0,0,0,0,0,0,0,0,0,0,0,0,0,0,0,0,0,0,0,0,0,0,0,0,0,0,0,0,0,0,0,0,0,0,0,0,0,0,0,0,0,0,0,0,0,0,0,0,0,0,0,0,0,0,0,0,0,0,0,0],"id":13,"left_children":[1,3,5,7,9,11,13,15,17,19,21,23,25,27,29,31,33,35,37,39,41,43,45,47,49,51,53,55,57,59,61,-1,-1,-1,-1,-1,-1,-1,-1,-1,-1,-1,-1,-1,-1,-1,-1,-1,-1,-1,-1,-1,-1,-1,-1,-1,-1,-1,-1,-1,-1,-1,-1],"loss_changes":[2.2991143E4,4.1165703E3,1.0367201E4,3.1183203E2,4.6072955E2,2.5195767E3,4.8461133E2,1.9685547E2,1.5853503E2,1.9658856E2,1.3248029E2,1.1435903E3,1.1890236E3,2.3607812E2,9.869535E1,1.4113214E2,1.08259766E2,7.492844E1,2.077655E1,1.1675267E2,7.419333E1,8.185339E1,2.8961456E1,1.1426318E2,1.2289563E3,5.712429E2,1.1467462E2,1.9900879E2,1.0544629E2,9.031351E1,4.414392E1,0E0,0E0,0E0,0E0,0E0,0E0,0E0,0E0,0E0,0E0,0E0,0E0,0E0,0E0,0E0,0E0,0E0,0E0,0E0,0E0,0E0,0E0,0E0,0E0,0E0,0E0,0E0,0E0,0E0,0E0,0E0,0E0],"parents":[2147483647,0,0,1,1,2,2,3,3,4,4,5,5,6,6,7,7,8,8,9,9,10,10,11,11,12,12,13,13,14,14,15,15,16,16,17,17,18,18,19,19,20,20,21,21,22,22,23,23,24,24,25,25,26,26,27,27,28,28,29,29,30,30],"right_children":[2,4,6,8,10,12,14,16,18,20,22,24,26,28,30,32,34,36,38,40,42,44,46,48,50,52,54,56,58,60,62,-1,-1,-1,-1,-1,-1,-1,-1,-1,-1,-1,-1,-1,-1,-1,-1,-1,-1,-1,-1,-1,-1,-1,-1,-1,-1,-1,-1,-1,-1,-1,-1],"split_conditions":[1.75E0,1E0,1E0,1E0,7.95E0,4E0,1.7391304E0,1E0,7.95E0,7.85E0,1.125E0,1E0,1.7391304E0,4.301941E-3,1.4285715E0,1.7461538E1,1.1666666E0,5E0,1.27E2,4E0,8.333333E-1,1E0,3.7E1,9.729032E1,2E0,2.225E1,2.464641E0,2.4E1,8.9279995E0,1.5331748E-2,6E0,-1.1837193E-2,-5.1206984E-2,-6.280868E-2,-4.7048174E-2,-3.7393536E-2,-1.2748006E-2,-6.1410844E-2,9.0416476E-2,-2.170751E-2,7.729396E-3,3.0410612E-2,-1.1578532E-2,-4.9713464E-3,-3.5051364E-2,-6.225207E-2,-1.7464293E-2,-4.335341E-2,3.1042E-2,-4.434969E-2,-7.0376866E-3,1.4933437E-2,-7.059501E-3,-2.0084543E-2,-5.326998E-2,4.9641244E-2,3.903286E-2,3.4165334E-2,-1.8137185E-2,2.4070889E-2,-1.7453639E-2,-5.9955504E-2,-9.712874E-3],"split_indices":[4,72,72,20,22,102,16,102,22,22,17,102,16,221,17,94,4,101,80,101,16,59,30,85,79,2,46,44,46,424,101,0,0,0,0,0,0,0,0,0,0,0,0,0,0,0,0,0,0,0,0,0,0,0,0,0,0,0,0,0,0,0,0],"split_type":[0,0,0,0,0,0,0,0,0,0,0,0,0,0,0,0,0,0,0,0,0,0,0,0,0,0,0,0,0,0,0,0,0,0,0,0,0,0,0,0,0,0,0,0,0,0,0,0,0,0,0,0,0,0,0,0,0,0,0,0,0,0,0],"sum_hessian":[7.431295E4,2.0191686E4,5.4121266E4,1.6139028E4,4.0526584E3,2.9542494E4,2.457877E4,1.4139935E4,1.9990936E3,2.8209622E3,1.2316963E3,1.012371E4,1.9418783E4,2.3740115E4,8.3865405E2,1.057902E3,1.3082032E4,1.4308607E3,5.6823303E2,1.6576765E3,1.1632856E3,9.4116724E2,2.9052905E2,1.01031476E3,9.1133955E3,1.8263773E4,1.1550114E3,1.7967926E4,5.772189E3,6.522207E2,1.8643335E2,3.3262085E2,7.252812E2,1.1864881E4,1.2171519E3,9.78706E2,4.521547E2,5.6680896E2,1.4240264E0,4.6885648E2,1.1888201E3,1.04686E3,1.1642568E2,5.642835E2,3.7688376E2,2.4716898E2,4.3360096E1,5.3700188E1,9.566146E2,5.363227E3,3.7501687E3,1.4560996E4,3.7027761E3,3.996376E2,7.553737E2,9.965448E3,8.0024785E3,5.6747393E3,9.744983E1,4.7197113E2,1.8024959E2,6.917269E1,1.1726066E2],"tree_param":{"num_deleted":"0","num_feature":"428","num_nodes":"63","size_leaf_vector":"0"}},{"base_weights":[3.555593E-3,-9.0052205E-1,3.2744604E-1,-1.1176994E0,-3.478966E-2,-4.8971444E-2,7.8657836E-1,-9.2843294E-1,-1.2288713E0,1.5518506E-1,-6.2346673E-1,-2.8868622E-1,3.159914E-1,8.074019E-1,-1.4301318E-1,-1.0509685E0,-5.123751E-1,-1.243169E0,-5.206227E-1,2.6025608E-1,-4.5460874E-1,-4.1134962E-1,-1.1327528E0,-1.21060744E-1,-5.9360635E-1,-3.3760956E-1,4.3730956E-1,8.604779E-1,6.109191E-1,1.10349156E-1,-6.651826E-1,-2.1591863E-2,-5.4868836E-2,-3.0932486E-2,1.1147718E-2,-6.326325E-2,-4.7660038E-2,-3.8175993E-2,2.566563E-2,3.969245E-3,2.6104799E-2,-4.268018E-2,-4.100611E-3,2.1868502E-3,-3.6972098E-2,-5.8132913E-2,6.1727513E-2,3.5108145E-2,-8.63862E-3,-2.2587007E-2,-5.598045E-2,-2.532788E-2,1.175113E-2,2.4794929E-2,-3.2065198E-2,-3.12975E-2,4.3403987E-2,3.1822726E-2,-1.6464217E-2,1.7724235E-2,-1.9724298E-2,-1.8559244E-2,-6.788666E-2],"categories":[],"categories_nodes":[],"categories_segments":[],"categories_sizes":[],"default_left":[0,0,0,0,0,0,0,0,0,0,0,0,0,0,0,0,0,0,0,0,0,0,0,0,0,0,0,0,0,0,0,0,0,0,0,0,0,0,0,0,0,0,0,0,0,0,0,0,0,0,0,0,0,0,0,0,0,0,0,0,0,0,0],"id":14,"left_children":[1,3,5,7,9,11,13,15,17,19,21,23,25,27,29,31,33,35,37,39,41,43,45,47,49,51,53,55,57,59,61,-1,-1,-1,-1,-1,-1,-1,-1,-1,-1,-1,-1,-1,-1,-1,-1,-1,-1,-1,-1,-1,-1,-1,-1,-1,-1,-1,-1,-1,-1,-1,-1],"loss_changes":[2.161205E4,3.6601318E3,9.391178E3,3.2632227E2,4.368269E2,2.6124531E3,4.739834E2,2.9326562E2,9.859961E1,1.893343E2,1.0248276E2,9.211267E2,9.3882605E2,2.4916992E2,7.114436E1,1.2741113E2,1.0275055E2,6.0344727E1,4.9530464E1,1.19293E2,6.4513435E1,1.0071853E2,2.1232483E1,4.9525543E2,4.7655444E2,1.7947212E2,6.313273E2,2.1352832E2,1.22551025E2,4.4824623E1,3.5258583E1,0E0,0E0,0E0,0E0,0E0,0E0,0E0,0E0,0E0,0E0,0E0,0E0,0E0,0E0,0E0,0E0,0E0,0E0,0E0,0E0,0E0,0E0,0E0,0E0,0E0,0E0,0E0,0E0,0E0,0E0,0E0,0E0],"parents":[2147483647,0,0,1,1,2,2,3,3,4,4,5,5,6,6,7,7,8,8,9,9,10,10,11,11,12,12,13,13,14,14,15,15,16,16,17,17,18,18,19,19,20,20,21,21,22,22,23,23,24,24,25,25,26,26,27,27,28,28,29,29,30,30],"right_children":[2,4,6,8,10,12,14,16,18,20,22,24,26,28,30,32,34,36,38,40,42,44,46,48,50,52,54,56,58,60,62,-1,-1,-1,-1,-1,-1,-1,-1,-1,-1,-1,-1,-1,-1,-1,-1,-1,-1,-1,-1,-1,-1,-1,-1,-1,-1,-1,-1,-1,-1,-1,-1],"split_conditions":[1.6666666E0,1E0,1E0,1E0,1E0,4E0,2.1304348E0,7.5E-1,8.3333336E-2,1.0116667E1,3.1666667E0,2.9E1,4E0,3.04965E-3,8.8235295E-1,1E0,4E0,1E0,1E0,6.25E-1,2E0,3.3209978E-3,8.1112824E-2,1E0,1E0,2E0,1.7391304E0,1E0,1.107455E1,3.0856198E-3,1.6434455E-2,-2.1591863E-2,-5.4868836E-2,-3.0932486E-2,1.1147718E-2,-6.326325E-2,-4.7660038E-2,-3.8175993E-2,2.566563E-2,3.969245E-3,2.6104799E-2,-4.268018E-2,-4.100611E-3,2.1868502E-3,-3.6972098E-2,-5.8132913E-2,6.1727513E-2,3.5108145E-2,-8.63862E-3,-2.2587007E-2,-5.598045E-2,-2.532788E-2,1.175113E-2,2.4794929E-2,-3.2065198E-2,-3.12975E-2,4.3403987E-2,3.1822726E-2,-1.6464217E-2,1.7724235E-2,-1.9724298E-2,-1.8559244E-2,-6.788666E-2],"split_indices":[4,72,72,69,66,103,16,20,14,1,16,44,102,337,17,102,103,104,104,20,103,307,250,102,66,79,16,53,46,232,390,0,0,0,0,0,0,0,0,0,0,0,0,0,0,0,0,0,0,0,0,0,0,0,0,0,0,0,0,0,0,0,0],"split_type":[0,0,0,0,0,0,0,0,0,0,0,0,0,0,0,0,0,0,0,0,0,0,0,0,0,0,0,0,0,0,0,0,0,0,0,0,0,0,0,0,0,0,0,0,0,0,0,0,0,0,0,0,0,0,0,0,0,0,0,0,0,0,0],"sum_hessian":[7.380406E4,1.9466186E4,5.433788E4,1.5562014E4,3.9041729E3,2.9859006E4,2.4478875E4,5.7619126E3,9.800101E3,2.9521934E3,9.519797E2,1.8022006E4,1.1836999E4,2.394267E4,5.362033E2,4.449839E3,1.3120735E3,9.605439E3,1.9466197E2,2.518768E3,4.334252E2,6.733414E2,2.7863828E2,1.1629986E4,6.3920205E3,1.8528729E3,9.984126E3,1.88479E4,5.0947705E3,3.615594E2,1.7464392E2,3.1100638E2,4.1388325E3,1.1465283E3,1.655451E2,8.922191E3,6.832479E2,1.5784239E2,3.681957E1,1.4904873E3,1.0282808E3,2.0867485E2,2.2475035E2,2.824418E2,3.9089957E2,2.7566473E2,2.973526E0,6.866284E2,1.0943357E4,5.0357153E3,1.356305E3,1.4308374E3,4.2203546E2,9.470253E3,5.1387286E2,9.54867E1,1.8752414E4,4.9603726E3,1.3439795E2,2.4390573E2,1.1765367E2,1.23677155E2,5.0966774E1],"tree_param":{"num_deleted":"0","num_feature":"428","num_nodes":"63","size_leaf_vector":"0"}},{"base_weights":[-2.159558E-3,-8.8529885E-1,2.9911366E-1,-1.0983546E0,-3.8468022E-2,-6.784456E-2,7.5407106E-1,-4.148365E-1,-1.1603339E0,5.079865E-1,-2.4943249E-1,-2.9441538E-1,2.82385E-1,7.78287E-1,1.0636377E-2,-2.0474103E-1,-7.308059E-1,-7.8655386E-1,-1.1892557E0,5.471707E-1,-1.1990044E0,-7.148687E-2,-6.7817754E-1,-2.2741652E-1,-9.702902E-1,-6.9082364E-2,5.0270855E-1,8.245815E-1,5.521038E-1,1.5184405E-1,-7.026857E-1,3.96282E-2,-1.4594539E-2,-4.3285243E-2,4.2000363E-4,-1.4145124E-2,-5.0353106E-2,-6.0721643E-2,-4.3802496E-2,1.6067008E-2,3.5092E-2,-8.084988E-2,2.8539333E-2,9.259619E-4,-3.686391E-2,-4.2043332E-2,-1.3504215E-2,-5.806141E-3,-2.7869735E-2,-1.8956803E-2,-5.693685E-2,1.6226771E-3,-4.765923E-2,-2.2553837E-2,2.7173603E-2,4.3798607E-2,3.0123694E-2,2.1693287E-2,4.03804E-2,1.764049E-2,-1.8892428E-2,-5.141967E-2,4.521252E-3],"categories":[],"categories_nodes":[],"categories_segments":[],"categories_sizes":[],"default_left":[0,0,0,0,0,0,0,0,0,0,0,0,0,0,0,0,0,0,0,0,0,0,0,0,0,0,0,0,0,0,0,0,0,0,0,0,0,0,0,0,0,0,0,0,0,0,0,0,0,0,0,0,0,0,0,0,0,0,0,0,0,0,0],"id":15,"left_children":[1,3,5,7,9,11,13,15,17,19,21,23,25,27,29,31,33,35,37,39,41,43,45,47,49,51,53,55,57,59,61,-1,-1,-1,-1,-1,-1,-1,-1,-1,-1,-1,-1,-1,-1,-1,-1,-1,-1,-1,-1,-1,-1,-1,-1,-1,-1,-1,-1,-1,-1,-1,-1],"loss_changes":[1.9348688E4,3.3373652E3,9.052694E3,6.2563086E2,4.2890967E2,2.381863E3,4.3582812E2,8.1521286E1,1.4554688E2,6.997122E1,2.0473126E2,8.250897E2,9.130709E2,2.4504395E2,7.7132645E1,6.45773E1,4.896405E1,1.081214E2,9.80957E1,3.5183167E1,1.8357613E1,1.1374974E2,5.2033386E1,6.0894604E2,1.6321948E2,4.0794806E2,2.8203125E2,2.2159277E2,1.20081665E2,6.81721E1,3.278159E1,0E0,0E0,0E0,0E0,0E0,0E0,0E0,0E0,0E0,0E0,0E0,0E0,0E0,0E0,0E0,0E0,0E0,0E0,0E0,0E0,0E0,0E0,0E0,0E0,0E0,0E0,0E0,0E0,0E0,0E0,0E0,0E0],"parents":[2147483647,0,0,1,1,2,2,3,3,4,4,5,5,6,6,7,7,8,8,9,9,10,10,11,11,12,12,13,13,14,14,15,15,16,16,17,17,18,18,19,19,20,20,21,21,22,22,23,23,24,24,25,25,26,26,27,27,28,28,29,29,30,30],"right_children":[2,4,6,8,10,12,14,16,18,20,22,24,26,28,30,32,34,36,38,40,42,44,46,48,50,52,54,56,58,60,62,-1,-1,-1,-1,-1,-1,-1,-1,-1,-1,-1,-1,-1,-1,-1,-1,-1,-1,-1,-1,-1,-1,-1,-1,-1,-1,-1,-1,-1,-1,-1,-1],"split_conditions":[1.5714285E0,1E0,1E0,1E0,1E0,4E0,1.875E0,4E2,1E0,4.6678516E-1,1.02E1,1.1818181E0,5E0,2.7738528E-3,3.3125E0,1E0,4E0,1.7395834E1,1.1666666E0,4E0,2.3118682E-2,7.571706E0,4.025613E-2,2.225E1,6.1682904E-1,9.0375E0,6E0,1.5E0,4E0,4.090909E-1,3.250555E-2,3.96282E-2,-1.4594539E-2,-4.3285243E-2,4.2000363E-4,-1.4145124E-2,-5.0353106E-2,-6.0721643E-2,-4.3802496E-2,1.6067008E-2,3.5092E-2,-8.084988E-2,2.8539333E-2,9.259619E-4,-3.686391E-2,-4.2043332E-2,-1.3504215E-2,-5.806141E-3,-2.7869735E-2,-1.8956803E-2,-5.693685E-2,1.6226771E-3,-4.765923E-2,-2.2553837E-2,2.7173603E-2,4.3798607E-2,3.0123694E-2,2.1693287E-2,4.03804E-2,1.764049E-2,-1.8892428E-2,-5.141967E-2,4.521252E-3],"split_indices":[4,72,72,54,54,103,16,45,102,31,1,16,102,160,16,60,103,94,4,101,382,46,184,2,12,1,101,51,103,20,211,0,0,0,0,0,0,0,0,0,0,0,0,0,0,0,0,0,0,0,0,0,0,0,0,0,0,0,0,0,0,0,0],"split_type":[0,0,0,0,0,0,0,0,0,0,0,0,0,0,0,0,0,0,0,0,0,0,0,0,0,0,0,0,0,0,0,0,0,0,0,0,0,0,0,0,0,0,0,0,0,0,0,0,0,0,0,0,0,0,0,0,0,0,0,0,0,0,0],"sum_hessian":[7.2719336E4,1.849677E4,5.4222566E4,1.4778357E4,3.7184114E3,3.001445E4,2.4208117E4,1.2292852E3,1.3549072E4,1.0352998E3,2.6831116E3,1.822468E4,1.1789768E4,2.3444414E4,7.637034E2,7.393332E2,4.89952E2,9.751124E2,1.257396E4,1.0127318E3,2.256797E1,1.8969651E3,7.861465E2,1.6582234E4,1.6424458E3,4.54312E3,7.246648E3,1.9458963E4,3.9854507E3,6.381615E2,1.2554193E2,5.8764355E1,6.8056885E2,4.141939E2,7.575808E1,2.976191E2,6.7749335E2,1.1635742E4,9.382178E2,4.129161E2,5.998157E2,1.8326025E1,4.2419457E0,1.6719165E3,2.2504865E2,5.6131433E2,2.2483212E2,1.24010205E4,4.1812144E3,3.649446E2,1.2775011E3,4.0759727E3,4.6714725E2,2.9660538E2,6.9500425E3,1.5800217E4,3.6587468E3,2.7264473E3,1.2590032E3,4.6287888E2,1.7528262E2,8.878417E1,3.6757755E1],"tree_param":{"num_deleted":"0","num_feature":"428","num_nodes":"63","size_leaf_vector":"0"}},{"base_weights":[6.4119574E-4,-8.5126764E-1,2.9681984E-1,-1.068278E0,-3.5304684E-2,-5.155093E-2,7.331277E-1,-4.2208272E-1,-1.130122E0,4.630139E-1,-2.2706917E-1,-4.225517E-1,1.4244562E-1,7.560084E-1,5.2475892E-2,1.2243923E0,-4.5268E-1,-1.1693445E0,-7.5180674E-1,5.305658E-1,-4.2637882E-1,-1.17790364E-1,-8.6937714E-1,4.916312E-1,-5.2544767E-1,2.0632944E-1,-6.514612E-1,8.5027736E-1,6.472963E-1,2.5009814E-1,-5.324641E-1,7.815041E-2,-9.466229E-3,-1.3584124E-2,-3.49813E-2,-4.1659754E-2,-5.9786E-2,-4.1348994E-2,8.238116E-3,3.555054E-2,1.4668454E-2,-2.0209698E-3,-8.017409E-2,-1.4285961E-2,1.3806663E-2,-1.2928516E-2,-5.362699E-2,-3.3397976E-2,2.8249089E-2,-4.0897544E-2,-5.6539294E-3,1.1701511E-2,-4.1914485E-2,-1.0339612E-2,-4.776429E-2,4.311527E-2,-3.6615487E-3,-3.8646262E-2,3.2973822E-2,2.1083456E-2,-1.905292E-2,-7.921479E-3,-5.230077E-2],"categories":[],"categories_nodes":[],"categories_segments":[],"categories_sizes":[],"default_left":[0,0,0,0,0,0,0,0,0,0,0,0,0,0,0,0,0,0,0,0,0,0,0,0,0,0,0,0,0,0,0,0,0,0,0,0,0,0,0,0,0,0,0,0,0,0,0,0,0,0,0,0,0,0,0,0,0,0,0,0,0,0,0],"id":16,"left_children":[1,3,5,7,9,11,13,15,17,19,21,23,25,27,29,31,33,35,37,39,41,43,45,47,49,51,53,55,57,59,61,-1,-1,-1,-1,-1,-1,-1,-1,-1,-1,-1,-1,-1,-1,-1,-1,-1,-1,-1,-1,-1,-1,-1,-1,-1,-1,-1,-1,-1,-1,-1,-1],"loss_changes":[1.8137672E4,3.283668E3,8.1075483E3,5.849258E2,3.7249268E2,2.1347585E3,3.687666E2,6.509184E1,1.9749023E2,6.5306564E1,1.9746187E2,9.582411E2,9.8794385E2,2.3424512E2,8.928731E1,1.1613724E1,5.605774E1,1.0637891E2,8.6855835E1,4.2900696E1,3.492675E1,1.5927757E2,5.0488007E1,8.805641E1,1.1040984E3,5.2183435E2,1.9580151E2,1.3632812E2,1.8464453E2,6.266067E1,3.730731E1,0E0,0E0,0E0,0E0,0E0,0E0,0E0,0E0,0E0,0E0,0E0,0E0,0E0,0E0,0E0,0E0,0E0,0E0,0E0,0E0,0E0,0E0,0E0,0E0,0E0,0E0,0E0,0E0,0E0,0E0,0E0,0E0],"parents":[2147483647,0,0,1,1,2,2,3,3,4,4,5,5,6,6,7,7,8,8,9,9,10,10,11,11,12,12,13,13,14,14,15,15,16,16,17,17,18,18,19,19,20,20,21,21,22,22,23,23,24,24,25,25,26,26,27,27,28,28,29,29,30,30],"right_children":[2,4,6,8,10,12,14,16,18,20,22,24,26,28,30,32,34,36,38,40,42,44,46,48,50,52,54,56,58,60,62,-1,-1,-1,-1,-1,-1,-1,-1,-1,-1,-1,-1,-1,-1,-1,-1,-1,-1,-1,-1,-1,-1,-1,-1,-1,-1,-1,-1,-1,-1,-1,-1],"split_conditions":[1.6666666E0,1E0,1E0,1E0,1E0,4E0,1.875E0,1E0,1.1666666E0,2.1666667E0,1.2205414E1,1E0,1.1818181E0,3.822948E-3,1.13E2,2.4791666E1,3.75E2,1E0,1E0,7.34078E-3,9.85E1,4.1666668E-2,1.2E1,9.752E1,2E0,1.770096E1,2.464641E0,1.1891304E2,1E0,1.4285715E0,2.4601931E-3,7.815041E-2,-9.466229E-3,-1.3584124E-2,-3.49813E-2,-4.1659754E-2,-5.9786E-2,-4.1348994E-2,8.238116E-3,3.555054E-2,1.4668454E-2,-2.0209698E-3,-8.017409E-2,-1.4285961E-2,1.3806663E-2,-1.2928516E-2,-5.362699E-2,-3.3397976E-2,2.8249089E-2,-4.0897544E-2,-5.6539294E-3,1.1701511E-2,-4.1914485E-2,-1.0339612E-2,-4.776429E-2,4.311527E-2,-3.6615487E-3,-3.8646262E-2,3.2973822E-2,2.1083456E-2,-1.905292E-2,-7.921479E-3,-5.230077E-2],"split_indices":[4,72,72,54,54,102,16,102,4,17,46,102,16,336,38,2,45,102,104,175,87,14,110,85,79,46,46,0,58,17,270,0,0,0,0,0,0,0,0,0,0,0,0,0,0,0,0,0,0,0,0,0,0,0,0,0,0,0,0,0,0,0,0],"split_type":[0,0,0,0,0,0,0,0,0,0,0,0,0,0,0,0,0,0,0,0,0,0,0,0,0,0,0,0,0,0,0,0,0,0,0,0,0,0,0,0,0,0,0,0,0,0,0,0,0,0,0,0,0,0,0,0,0,0,0,0,0,0,0],"sum_hessian":[7.188241E4,1.8543428E4,5.3338977E4,1.4647521E4,3.8959058E3,2.9658766E4,2.368021E4,1.2800775E3,1.3367444E4,1.082225E3,2.813681E3,1.0183181E4,1.9475586E4,2.290996E4,7.7024854E2,2.2642462E1,1.257435E3,1.2109839E4,1.2576047E3,1.00620435E3,7.602065E1,2.40559E3,4.080907E2,1.0298313E3,9.15335E3,1.802583E4,1.4497561E3,1.2266403E4,1.0643558E4,5.7616376E2,1.9408475E2,1.8181902E1,4.46056E0,7.268183E2,5.306167E2,8.8342114E2,1.1226418E4,1.1623698E3,9.52349E1,5.703324E2,4.3587195E2,5.8028175E1,1.7992477E1,1.6867898E3,7.188004E2,1.0242462E2,3.0566608E2,6.0784794E1,9.690466E2,5.3543784E3,3.7989707E3,1.7560932E4,4.6489758E2,5.8915967E2,8.6059644E2,1.2108763E4,1.5764067E2,8.997407E1,1.0553584E4,4.5327838E2,1.2288538E2,1.13053246E2,8.103151E1],"tree_param":{"num_deleted":"0","num_feature":"428","num_nodes":"63","size_leaf_vector":"0"}},{"base_weights":[1.4347726E-3,-3.7738326E-1,6.089343E-1,-1.0947478E0,-8.574323E-2,-8.126139E-2,6.9732815E-1,-9.254925E-1,-1.1917939E0,-4.831104E-1,9.3114644E-2,1.0587005E-1,-6.356011E-1,7.2075915E-1,4.8367837E-3,-1.0353897E0,-4.7664103E-1,-1.2136135E0,-9.251027E-1,4.7756314E-1,-5.529835E-1,-1.4076182E-1,3.3295253E-1,-7.097027E-2,4.380723E-1,-2.2596607E-1,-8.462355E-1,8.1274253E-1,6.068542E-1,2.0607252E-1,-4.7991258E-1,-2.0021155E-2,-5.4347258E-2,-2.9285604E-2,1.1478285E-2,-5.134506E-2,-6.1228376E-2,-1.5777197E-2,-5.2579727E-2,2.8508503E-2,-4.1760907E-2,-4.048961E-2,-9.5898565E-3,-2.3888035E-2,5.1038563E-3,2.1961536E-2,-9.248265E-3,1.969258E-3,-3.3639617E-2,1.4865897E-2,4.0393386E-2,1.4933596E-2,-2.8158119E-2,-4.7678497E-2,-9.537323E-3,4.325406E-2,2.8205117E-2,3.1638827E-2,-1.6603468E-2,2.2471605E-2,-1.4044546E-2,-5.2323002E-2,-1.1393765E-2],"categories":[],"categories_nodes":[],"categories_segments":[],"categories_sizes":[],"default_left":[0,0,0,0,0,0,0,0,0,0,0,0,0,0,0,0,0,0,0,0,0,0,0,0,0,0,0,0,0,0,0,0,0,0,0,0,0,0,0,0,0,0,0,0,0,0,0,0,0,0,0,0,0,0,0,0,0,0,0,0,0,0,0],"id":17,"left_children":[1,3,5,7,9,11,13,15,17,19,21,23,25,27,29,31,33,35,37,39,41,43,45,47,49,51,53,55,57,59,61,-1,-1,-1,-1,-1,-1,-1,-1,-1,-1,-1,-1,-1,-1,-1,-1,-1,-1,-1,-1,-1,-1,-1,-1,-1,-1,-1,-1,-1,-1,-1,-1],"loss_changes":[1.6336967E4,9.14759E3,1.6634814E3,2.0648242E2,2.2095046E3,3.2126395E2,3.921709E2,2.269065E2,4.5598633E1,6.4799585E2,1.2026079E3,1.3607358E2,6.724707E1,2.444541E2,7.73623E1,1.2076807E2,7.0118546E1,1.39140625E1,4.681122E1,8.008174E1,8.342573E2,8.883883E2,5.827074E2,1.0045298E2,4.1640778E1,4.7363434E1,3.6108734E1,1.6779102E2,2.5452295E2,6.653743E1,3.298188E1,0E0,0E0,0E0,0E0,0E0,0E0,0E0,0E0,0E0,0E0,0E0,0E0,0E0,0E0,0E0,0E0,0E0,0E0,0E0,0E0,0E0,0E0,0E0,0E0,0E0,0E0,0E0,0E0,0E0,0E0,0E0,0E0],"parents":[2147483647,0,0,1,1,2,2,3,3,4,4,5,5,6,6,7,7,8,8,9,9,10,10,11,11,12,12,13,13,14,14,15,15,16,16,17,17,18,18,19,19,20,20,21,21,22,22,23,23,24,24,25,25,26,26,27,27,28,28,29,29,30,30],"right_children":[2,4,6,8,10,12,14,16,18,20,22,24,26,28,30,32,34,36,38,40,42,44,46,48,50,52,54,56,58,60,62,-1,-1,-1,-1,-1,-1,-1,-1,-1,-1,-1,-1,-1,-1,-1,-1,-1,-1,-1,-1,-1,-1,-1,-1,-1,-1,-1,-1,-1,-1,-1,-1],"split_conditions":[1E0,2E0,1.5E0,1E0,6E0,1E0,1.875E0,7.5E-1,1E0,1E0,4E0,6E-1,1.7708334E1,2.4E1,9.3958336E1,1E0,4E0,2.75E0,1.624E1,1.85E1,2E0,1E0,2E0,9.95E0,3E0,1.0855952E-2,8.249987E-2,4.5241523E-3,1.107455E1,6.2315976E-3,1.8645834E1,-2.0021155E-2,-5.4347258E-2,-2.9285604E-2,1.1478285E-2,-5.134506E-2,-6.1228376E-2,-1.5777197E-2,-5.2579727E-2,2.8508503E-2,-4.1760907E-2,-4.048961E-2,-9.5898565E-3,-2.3888035E-2,5.1038563E-3,2.1961536E-2,-9.248265E-3,1.969258E-3,-3.3639617E-2,1.4865897E-2,4.0393386E-2,1.4933596E-2,-2.8158119E-2,-4.7678497E-2,-9.537323E-3,4.325406E-2,2.8205117E-2,3.1638827E-2,-1.6603468E-2,2.2471605E-2,-1.4044546E-2,-5.2323002E-2,-1.1393765E-2],"split_indices":[72,40,40,69,101,66,16,20,104,102,103,20,2,44,0,102,103,22,94,136,79,79,75,22,103,233,235,160,46,161,2,0,0,0,0,0,0,0,0,0,0,0,0,0,0,0,0,0,0,0,0,0,0,0,0,0,0,0,0,0,0,0,0],"split_type":[0,0,0,0,0,0,0,0,0,0,0,0,0,0,0,0,0,0,0,0,0,0,0,0,0,0,0,0,0,0,0,0,0,0,0,0,0,0,0,0,0,0,0,0,0,0,0,0,0,0,0,0,0,0,0,0,0,0,0,0,0,0,0],"sum_hessian":[7.0987625E4,4.372342E4,2.7264203E4,1.2636906E4,3.1086514E4,3.0953372E3,2.4168867E4,4.6090054E3,8.0279004E3,9.648598E3,2.1437916E4,2.314745E3,7.805919E2,2.3377818E4,7.910479E2,3.7014363E3,9.075693E2,7.4174814E3,6.104192E2,6.5379846E2,8.994799E3,1.0854059E4,1.0583857E4,1.5111207E3,8.0362445E2,2.6578143E2,5.148105E2,1.2930072E4,1.0447747E4,5.5939795E2,2.3165E2,2.786237E2,3.4228125E3,7.862989E2,1.21270355E2,4.1630185E2,7.0011797E3,1.0550233E2,5.0491684E2,6.1124536E2,4.255311E1,5.256272E3,3.7385269E3,4.5453286E3,6.30873E3,8.781933E3,1.8019248E3,1.2777548E3,2.3336589E2,5.833785E2,2.2024597E2,1.0403282E2,1.6174863E2,4.4198245E2,7.282805E1,1.0679552E4,2.25052E3,1.0167367E4,2.8038004E2,3.7304575E2,1.8635219E2,7.035315E1,1.6129684E2],"tree_param":{"num_deleted":"0","num_feature":"428","num_nodes":"63","size_leaf_vector":"0"}},{"base_weights":[-3.7397568E-3,-8.229464E-1,2.643247E-1,-1.0368484E0,-2.9332688E-2,-5.5797204E-2,6.759438E-1,-3.9100343E-1,-1.1006033E0,4.3239042E-1,-2.0823458E-1,-2.6128462E-1,2.5822487E-1,6.906235E-1,-4.1735235E-1,-1.0370157E-1,-6.037133E-1,-1.1296141E0,-7.3447055E-1,3.401335E-1,9.2711395E-1,-6.2736265E-2,-6.445151E-1,-1.0119108E-1,-5.5450314E-1,3.6953422E-1,-2.7149215E-1,7.890417E-1,5.724122E-1,-8.617064E-2,-1.2207798E0,-1.8446626E-4,-5.3583015E-2,-3.596695E-2,4.967176E-4,-5.0352395E-2,-5.938549E-2,-2.2043755E-2,-5.496937E-2,2.8647289E-2,7.1131447E-3,-1.6202303E-2,4.9661096E-2,1.5141994E-2,-9.996757E-3,-2.0815725E-2,-5.0735515E-2,2.8585527E-2,-7.5778323E-3,-2.3022946E-2,-5.182972E-2,2.0933015E-2,-3.2945696E-2,-3.4440532E-3,-3.9090473E-2,4.2868927E-2,2.8915802E-2,1.2067719E-2,3.186007E-2,1.2007381E-3,-1.2303171E-1,-8.757549E-2,-2.3420969E-2],"categories":[],"categories_nodes":[],"categories_segments":[],"categories_sizes":[],"default_left":[0,0,0,0,0,0,0,0,0,0,0,0,0,0,0,0,0,0,0,0,0,0,0,0,0,0,0,0,0,0,0,0,0,0,0,0,0,0,0,0,0,0,0,0,0,0,0,0,0,0,0,0,0,0,0,0,0,0,0,0,0,0,0],"id":18,"left_children":[1,3,5,7,9,11,13,15,17,19,21,23,25,27,29,31,33,35,37,39,41,43,45,47,49,51,53,55,57,59,61,-1,-1,-1,-1,-1,-1,-1,-1,-1,-1,-1,-1,-1,-1,-1,-1,-1,-1,-1,-1,-1,-1,-1,-1,-1,-1,-1,-1,-1,-1,-1,-1],"loss_changes":[1.5408853E4,2.9366943E3,6.9663706E3,5.6066406E2,3.0356317E2,1.9191356E3,3.714873E2,7.485277E1,1.3090234E2,4.652652E1,1.6808597E2,8.438396E2,6.9373505E2,2.650713E2,8.1597244E1,5.059793E1,4.9970154E1,8.061719E1,9.737421E1,3.9838486E1,1.3615707E1,9.973655E1,5.5526154E1,3.9422504E2,2.8735962E2,4.914513E2,2.1121579E2,1.7880762E2,2.22323E2,5.7227455E1,3.493759E1,0E0,0E0,0E0,0E0,0E0,0E0,0E0,0E0,0E0,0E0,0E0,0E0,0E0,0E0,0E0,0E0,0E0,0E0,0E0,0E0,0E0,0E0,0E0,0E0,0E0,0E0,0E0,0E0,0E0,0E0,0E0,0E0],"parents":[2147483647,0,0,1,1,2,2,3,3,4,4,5,5,6,6,7,7,8,8,9,9,10,10,11,11,12,12,13,13,14,14,15,15,16,16,17,17,18,18,19,19,20,20,21,21,22,22,23,23,24,24,25,25,26,26,27,27,28,28,29,29,30,30],"right_children":[2,4,6,8,10,12,14,16,18,20,22,24,26,28,30,32,34,36,38,40,42,44,46,48,50,52,54,56,58,60,62,-1,-1,-1,-1,-1,-1,-1,-1,-1,-1,-1,-1,-1,-1,-1,-1,-1,-1,-1,-1,-1,-1,-1,-1,-1,-1,-1,-1,-1,-1,-1,-1],"split_conditions":[1.6E0,1E0,1E0,1E0,1E0,4E0,3.5833E1,3.1E2,1E0,4E0,8.636364E-1,2.9E1,1E0,2.4E1,1.9E1,1E0,4E0,9.05E0,1.988889E1,6.9E1,6.414286E1,7.0785945E-3,1.3571431E1,5.3E0,1.5E0,1.9583334E0,3.1E1,6.536379E-3,3.2380953E0,7.4688375E-2,4.8935946E-2,-1.8446626E-4,-5.3583015E-2,-3.596695E-2,4.967176E-4,-5.0352395E-2,-5.938549E-2,-2.2043755E-2,-5.496937E-2,2.8647289E-2,7.1131447E-3,-1.6202303E-2,4.9661096E-2,1.5141994E-2,-9.996757E-3,-2.0815725E-2,-5.0735515E-2,2.8585527E-2,-7.5778323E-3,-2.3022946E-2,-5.182972E-2,2.0933015E-2,-3.2945696E-2,-3.4440532E-3,-3.9090473E-2,4.2868927E-2,2.8915802E-2,1.2067719E-2,3.186007E-2,1.2007381E-3,-1.2303171E-1,-8.757549E-2,-2.3420969E-2],"split_indices":[4,72,72,54,54,103,46,45,104,103,16,44,54,44,137,69,103,39,94,80,91,183,46,115,50,16,44,221,4,409,331,0,0,0,0,0,0,0,0,0,0,0,0,0,0,0,0,0,0,0,0,0,0,0,0,0,0,0,0,0,0,0,0],"split_type":[0,0,0,0,0,0,0,0,0,0,0,0,0,0,0,0,0,0,0,0,0,0,0,0,0,0,0,0,0,0,0,0,0,0,0,0,0,0,0,0,0,0,0,0,0,0,0,0,0,0,0,0,0,0,0,0,0,0,0,0,0,0,0],"sum_hessian":[7.016577E4,1.7298717E4,5.2867055E4,1.3625847E4,3.6728694E3,2.9739275E4,2.3127781E4,1.2248715E3,1.2400976E4,1.0252953E3,2.647574E3,1.7976268E4,1.1763007E4,2.2821723E4,3.0605917E2,5.21705E2,7.0316644E2,1.1488584E4,9.1239185E2,8.655698E2,1.5972548E2,1.9862943E3,6.612797E2,1.1628565E4,6.347702E3,9.7207E3,2.0423068E3,1.2450358E4,1.0371364E4,2.1750745E2,8.855172E1,4.7375873E2,4.7946285E1,5.9153503E2,1.11631424E2,3.7002969E3,7.7882866E3,5.0682874E2,4.0556314E2,3.9680182E2,4.6876797E2,7.8201137E0,1.5190536E2,5.4169696E2,1.4445973E3,4.104124E2,2.5086731E2,8.090481E2,1.0819518E4,5.3131846E3,1.0345173E3,9.2781045E3,4.4259592E2,1.4627046E3,5.796022E2,9.399197E3,3.051161E3,1.698279E3,8.673085E3,2.0880774E2,8.699698E0,5.1145E1,3.740672E1],"tree_param":{"num_deleted":"0","num_feature":"428","num_nodes":"63","size_leaf_vector":"0"}},{"base_weights":[-3.9473665E-4,-7.642086E-1,2.667491E-1,-9.85887E-1,4.968664E-4,-4.098117E-2,6.6210407E-1,-3.489656E-1,-1.0529056E0,1.73934E-1,-4.398314E-1,-2.3922946E-1,2.5889876E-1,6.7905366E-1,-2.849358E-1,-4.5479414E-1,2.3630415E-1,-1.1060923E0,-6.6784286E-1,-1.3367955E-1,3.258044E-1,-2.754326E-1,-8.858989E-1,-7.4604504E-2,-4.883401E-1,-4.6092415E-1,3.431396E-1,7.3375404E-1,4.7284004E-1,3.7813064E-2,-6.9899976E-1,-1.3465612E-2,-3.667924E-2,3.4422126E-2,-1.5131134E-2,-3.9030805E-2,-5.661114E-2,-3.7120596E-2,8.35949E-3,1.0382917E-2,-2.1721814E-2,1.8427094E-2,-3.4317948E-2,1.12132095E-2,-2.3659308E-2,-2.919854E-2,-6.592384E-2,3.287792E-2,-6.0545118E-3,-1.8623168E-2,-4.673247E-2,1.7633034E-2,-3.0734142E-2,1.9910332E-2,-2.618431E-2,3.7396695E-2,4.0610693E-3,2.4563193E-2,-4.6017025E-2,1.6271325E-2,-2.7047476E-2,-4.012088E-2,5.0743528E-2],"categories":[],"categories_nodes":[],"categories_segments":[],"categories_sizes":[],"default_left":[0,0,0,0,0,0,0,0,0,0,0,0,0,0,0,0,0,0,0,0,0,0,0,0,0,0,0,0,0,0,0,0,0,0,0,0,0,0,0,0,0,0,0,0,0,0,0,0,0,0,0,0,0,0,0,0,0,0,0,0,0,0,0],"id":19,"left_children":[1,3,5,7,9,11,13,15,17,19,21,23,25,27,29,31,33,35,37,39,41,43,45,47,49,51,53,55,57,59,61,-1,-1,-1,-1,-1,-1,-1,-1,-1,-1,-1,-1,-1,-1,-1,-1,-1,-1,-1,-1,-1,-1,-1,-1,-1,-1,-1,-1,-1,-1,-1,-1],"loss_changes":[1.4147954E4,3.045669E3,6.249812E3,5.941914E2,3.085151E2,1.7174081E3,3.6110254E2,8.2335846E1,2.5735742E2,1.3544093E2,8.346974E1,7.1315845E2,6.973233E2,2.4881543E2,5.2951744E1,5.795793E1,4.9905365E1,9.327539E1,9.5515015E1,9.850392E1,8.4197296E1,8.26761E1,3.932271E1,3.565028E2,3.5751245E2,1.5095241E2,4.915354E2,1.6145703E2,1.1938904E2,3.738079E1,3.1571098E1,0E0,0E0,0E0,0E0,0E0,0E0,0E0,0E0,0E0,0E0,0E0,0E0,0E0,0E0,0E0,0E0,0E0,0E0,0E0,0E0,0E0,0E0,0E0,0E0,0E0,0E0,0E0,0E0,0E0,0E0,0E0,0E0],"parents":[2147483647,0,0,1,1,2,2,3,3,4,4,5,5,6,6,7,7,8,8,9,9,10,10,11,11,12,12,13,13,14,14,15,15,16,16,17,17,18,18,19,19,20,20,21,21,22,22,23,23,24,24,25,25,26,26,27,27,28,28,29,29,30,30],"right_children":[2,4,6,8,10,12,14,16,18,20,22,24,26,28,30,32,34,36,38,40,42,44,46,48,50,52,54,56,58,60,62,-1,-1,-1,-1,-1,-1,-1,-1,-1,-1,-1,-1,-1,-1,-1,-1,-1,-1,-1,-1,-1,-1,-1,-1,-1,-1,-1,-1,-1,-1,-1,-1],"split_conditions":[1.8E0,1E0,1E0,1E0,9.0375E0,4E0,2.5238094E0,4E0,1.1666666E0,4E0,3E0,2.6E1,2E0,6.666667E-1,1.03333336E2,3.9E2,4.4E0,1E0,1E0,1E0,2.4545455E0,4.703685E-3,1.2894145E-2,1E0,1E0,1E0,1.5E0,8.190193E0,1.1511833E1,9.170368E-3,3.4011867E-2,-1.3465612E-2,-3.667924E-2,3.4422126E-2,-1.5131134E-2,-3.9030805E-2,-5.661114E-2,-3.7120596E-2,8.35949E-3,1.0382917E-2,-2.1721814E-2,1.8427094E-2,-3.4317948E-2,1.12132095E-2,-2.3659308E-2,-2.919854E-2,-6.592384E-2,3.287792E-2,-6.0545118E-3,-1.8623168E-2,-4.673247E-2,1.7633034E-2,-3.0734142E-2,1.9910332E-2,-2.618431E-2,3.7396695E-2,4.0610693E-3,2.4563193E-2,-4.6017025E-2,1.6271325E-2,-2.7047476E-2,-4.012088E-2,5.0743528E-2],"split_indices":[4,72,72,54,1,103,16,103,4,101,51,44,102,20,38,45,119,102,104,54,16,227,215,102,66,102,16,12,12,411,221,0,0,0,0,0,0,0,0,0,0,0,0,0,0,0,0,0,0,0,0,0,0,0,0,0,0,0,0,0,0,0,0],"split_type":[0,0,0,0,0,0,0,0,0,0,0,0,0,0,0,0,0,0,0,0,0,0,0,0,0,0,0,0,0,0,0,0,0,0,0,0,0,0,0,0,0,0,0,0,0,0,0,0,0,0,0,0,0,0,0,0,0,0,0,0,0,0,0],"sum_hessian":[6.9334336E4,1.796557E4,5.1368766E4,1.3927792E4,4.037779E3,2.8885902E4,2.2482863E4,1.3265859E3,1.2601206E4,2.897222E3,1.140557E3,1.7389826E4,1.1496076E4,2.2087832E4,3.950329E2,1.1236333E3,2.0295264E2,1.1070256E4,1.5309503E3,9.576405E2,1.9395815E3,8.345865E2,3.0597055E2,1.0471215E4,6.918611E3,1.2039619E3,1.0292114E4,1.7455117E4,4.6327134E3,2.2250581E2,1.7252708E2,6.759102E2,4.477231E2,1.1021183E2,9.274081E1,8.250054E2,1.024525E4,1.4055449E3,1.2540531E2,4.4870322E2,5.0893732E2,1.8616128E3,7.7968666E1,2.3659882E2,5.979877E2,1.8158144E2,1.2438912E2,6.2435223E2,9.846863E3,5.494016E3,1.424595E3,1.9116345E2,1.01279846E3,9.677848E3,6.142664E2,1.7083734E4,3.7138412E2,4.572887E3,5.982582E1,1.4893231E2,7.357351E1,1.6321051E2,9.316584E0],"tree_param":{"num_deleted":"0","num_feature":"428","num_nodes":"63","size_leaf_vector":"0"}},{"base_weights":[3.8053008E-4,-7.794511E-1,2.4796711E-1,-9.8908514E-1,-4.1434556E-2,-4.0129203E-2,6.2729704E-1,-3.5684863E-1,-1.0544171E0,1.4199306E-1,-5.0077826E-1,-2.55275E-1,2.3232172E-1,6.4954436E-1,-5.016739E-2,-1.5452877E-1,-5.8473486E-1,-1.0853435E0,-7.02026E-1,4.1335353E-1,-3.171048E-2,-3.3489504E-1,-1.0085032E0,-1.9681141E-1,-1.0790856E0,-6.154166E-2,3.3481756E-1,6.966434E-1,4.29708E-1,1.5893939E-1,-5.2463186E-1,9.082424E-3,-2.2154693E-2,6.4262524E-2,-3.1108512E-2,-3.711638E-2,-5.568843E-2,-2.301114E-2,-4.886083E-2,2.2563118E-2,-3.53775E-2,-1.9780463E-2,6.3974145E-3,-2.5725951E-2,-7.0363824E-4,-5.2428633E-2,7.497838E-2,-6.9695236E-3,-4.0997896E-2,-4.2696193E-2,-6.364768E-2,4.2213895E-4,-3.1911906E-2,2.0551825E-2,1.659954E-3,-2.5901262E-2,3.5264675E-2,7.506849E-3,2.5320113E-2,1.2806579E-2,-4.92091E-2,-7.238389E-2,-1.5841654E-2],"categories":[],"categories_nodes":[],"categories_segments":[],"categories_sizes":[],"default_left":[0,0,0,0,0,0,0,0,0,0,0,0,0,0,0,0,0,0,0,0,0,0,0,0,0,0,0,0,0,0,0,0,0,0,0,0,0,0,0,0,0,0,0,0,0,0,0,0,0,0,0,0,0,0,0,0,0,0,0,0,0,0,0],"id":20,"left_children":[1,3,5,7,9,11,13,15,17,19,21,23,25,27,29,31,33,35,37,39,41,43,45,47,49,51,53,55,57,59,61,-1,-1,-1,-1,-1,-1,-1,-1,-1,-1,-1,-1,-1,-1,-1,-1,-1,-1,-1,-1,-1,-1,-1,-1,-1,-1,-1,-1,-1,-1,-1,-1],"loss_changes":[1.3254236E4,2.559337E3,5.6942573E3,5.317666E2,3.0849393E2,1.7359769E3,3.3901758E2,5.5610565E1,1.26487305E2,1.233548E2,8.7660736E1,7.967921E2,3.936151E2,2.2517383E2,7.112445E1,6.229343E1,4.0547455E1,1.0381543E2,6.24234E1,4.3718292E1,9.2798676E1,4.5462143E1,2.7380249E1,5.528113E2,4.6769653E1,1.3642348E2,2.227179E2,1.8878125E2,8.23645E1,5.5555412E1,4.1599377E1,0E0,0E0,0E0,0E0,0E0,0E0,0E0,0E0,0E0,0E0,0E0,0E0,0E0,0E0,0E0,0E0,0E0,0E0,0E0,0E0,0E0,0E0,0E0,0E0,0E0,0E0,0E0,0E0,0E0,0E0,0E0,0E0],"parents":[2147483647,0,0,1,1,2,2,3,3,4,4,5,5,6,6,7,7,8,8,9,9,10,10,11,11,12,12,13,13,14,14,15,15,16,16,17,17,18,18,19,19,20,20,21,21,22,22,23,23,24,24,25,25,26,26,27,27,28,28,29,29,30,30],"right_children":[2,4,6,8,10,12,14,16,18,20,22,24,26,28,30,32,34,36,38,40,42,44,46,48,50,52,54,56,58,60,62,-1,-1,-1,-1,-1,-1,-1,-1,-1,-1,-1,-1,-1,-1,-1,-1,-1,-1,-1,-1,-1,-1,-1,-1,-1,-1,-1,-1,-1,-1,-1,-1],"split_conditions":[1.6E0,1E0,1E0,1E0,9.0375E0,5E0,5E-1,1.44E2,1.1666666E0,1E0,1.9E0,2E0,1.53E2,2.5908658E-3,1E0,1.61E2,1E0,1E0,8.666667E0,1.17625E2,4E0,4.1422777E-2,9.464293E-2,9.166667E0,1.5E0,1E0,1.55E0,1E0,5E0,1.29E2,5E0,9.082424E-3,-2.2154693E-2,6.4262524E-2,-3.1108512E-2,-3.711638E-2,-5.568843E-2,-2.301114E-2,-4.886083E-2,2.2563118E-2,-3.53775E-2,-1.9780463E-2,6.3974145E-3,-2.5725951E-2,-7.0363824E-4,-5.2428633E-2,7.497838E-2,-6.9695236E-3,-4.0997896E-2,-4.2696193E-2,-6.364768E-2,4.2213895E-4,-3.1911906E-2,2.0551825E-2,1.659954E-3,-2.5901262E-2,3.5264675E-2,7.506849E-3,2.5320113E-2,1.2806579E-2,-4.92091E-2,-7.238389E-2,-1.5841654E-2],"split_indices":[4,72,72,54,1,102,35,11,4,54,26,16,150,338,17,99,102,102,1,82,101,225,252,1,35,69,6,58,101,38,30,0,0,0,0,0,0,0,0,0,0,0,0,0,0,0,0,0,0,0,0,0,0,0,0,0,0,0,0,0,0,0,0],"split_type":[0,0,0,0,0,0,0,0,0,0,0,0,0,0,0,0,0,0,0,0,0,0,0,0,0,0,0,0,0,0,0,0,0,0,0,0,0,0,0,0,0,0,0,0,0,0,0,0,0,0,0,0,0,0,0,0,0,0,0,0,0,0,0],"sum_hessian":[6.864582E4,1.6541709E4,5.2104113E4,1.2882178E4,3.6595305E3,2.9613742E4,2.2490371E4,1.207108E3,1.167507E4,2.6157043E3,1.0438263E3,1.6547094E4,1.3066648E4,2.177533E4,7.1504065E2,6.4031104E2,5.6679694E2,1.0731204E4,9.438654E2,1.0203418E3,1.5953624E3,7.8802386E2,2.5580247E2,1.5451763E4,1.0953307E3,3.3790508E3,9.687598E3,1.7931424E4,3.8439065E3,4.9676883E2,2.1827179E2,2.959273E2,3.4438373E2,1.0469861E1,5.563271E2,8.232987E2,9.907905E3,5.0383258E2,4.4003287E2,9.875407E2,3.2801098E1,4.8605478E2,1.1093077E3,5.0479324E2,2.8323062E2,2.5235275E2,3.4497132E0,1.4149185E4,1.3025782E3,5.092655E2,5.860651E2,3.0142454E3,3.6480548E2,7.7330854E3,1.9545122E3,1.2637643E2,1.7805047E4,8.2812555E2,3.015781E3,4.5855667E2,3.8212154E1,3.9012196E1,1.792596E2],"tree_param":{"num_deleted":"0","num_feature":"428","num_nodes":"63","size_leaf_vector":"0"}},{"base_weights":[9.159673E-4,-7.773098E-1,2.2938894E-1,-9.855828E-1,-4.2555228E-2,-3.964176E-2,6.012977E-1,-3.3000043E-1,-1.051331E0,4.4816023E-1,-2.2503749E-1,-3.679558E-1,1.24194115E-1,6.234749E-1,-8.852126E-2,-6.868597E-2,-5.288429E-1,-1.0838672E0,-6.604358E-1,5.136621E-1,-3.4302303E-1,-1.23811744E-1,-8.1284887E-1,4.9142566E-1,-4.746443E-1,-9.148351E-2,3.3529273E-1,7.341783E-1,5.168632E-1,3.0430758E-1,-3.5475782E-1,5.9950193E-3,-3.667263E-2,6.919541E-2,-2.8539067E-2,-4.840883E-2,-5.6910194E-2,2.794246E-3,-4.2140532E-2,3.191962E-2,9.337924E-3,2.2274269E-2,-4.1523404E-2,-1.2389804E-2,1.1652175E-2,-4.4884127E-2,3.3702016E-2,2.8022764E-2,-3.9395686E-2,-3.767374E-2,-4.9790386E-3,-2.2875397E-2,6.84819E-3,1.9404666E-2,-2.3497853E-2,3.8572017E-2,2.1560157E-2,2.6969586E-2,-1.6619807E-2,2.1339884E-2,-4.8868846E-2,-3.1138534E-2,5.774125E-3],"categories":[],"categories_nodes":[],"categories_segments":[],"categories_sizes":[],"default_left":[0,0,0,0,0,0,0,0,0,0,0,0,0,0,0,0,0,0,0,0,0,0,0,0,0,0,0,0,0,0,0,0,0,0,0,0,0,0,0,0,0,0,0,0,0,0,0,0,0,0,0,0,0,0,0,0,0,0,0,0,0,0,0],"id":21,"left_children":[1,3,5,7,9,11,13,15,17,19,21,23,25,27,29,31,33,35,37,39,41,43,45,47,49,51,53,55,57,59,61,-1,-1,-1,-1,-1,-1,-1,-1,-1,-1,-1,-1,-1,-1,-1,-1,-1,-1,-1,-1,-1,-1,-1,-1,-1,-1,-1,-1,-1,-1,-1,-1],"loss_changes":[1.2062543E4,2.3561426E3,5.247406E3,5.167373E2,3.046983E2,1.636997E3,3.368252E2,5.685566E1,1.3794434E2,4.7977783E1,1.4747292E2,9.2912085E2,9.2437915E2,2.5133984E2,7.191154E1,5.954655E1,5.065564E1,6.2157227E1,1.0982239E2,3.463144E1,2.770707E1,9.372245E1,4.654187E1,9.929245E1,9.424801E2,8.3983307E2,4.3642578E2,1.1776465E2,2.0811523E2,4.404245E1,5.1703457E1,0E0,0E0,0E0,0E0,0E0,0E0,0E0,0E0,0E0,0E0,0E0,0E0,0E0,0E0,0E0,0E0,0E0,0E0,0E0,0E0,0E0,0E0,0E0,0E0,0E0,0E0,0E0,0E0,0E0,0E0,0E0,0E0],"parents":[2147483647,0,0,1,1,2,2,3,3,4,4,5,5,6,6,7,7,8,8,9,9,10,10,11,11,12,12,13,13,14,14,15,15,16,16,17,17,18,18,19,19,20,20,21,21,22,22,23,23,24,24,25,25,26,26,27,27,28,28,29,29,30,30],"right_children":[2,4,6,8,10,12,14,16,18,20,22,24,26,28,30,32,34,36,38,40,42,44,46,48,50,52,54,56,58,60,62,-1,-1,-1,-1,-1,-1,-1,-1,-1,-1,-1,-1,-1,-1,-1,-1,-1,-1,-1,-1,-1,-1,-1,-1,-1,-1,-1,-1,-1,-1,-1,-1],"split_conditions":[1.5E0,7.350059E-2,7.350059E-2,1E0,1E0,3E0,1E0,3.1E2,1E0,1.5E0,1.2205414E1,1E0,4E0,5.137219E-3,1E0,1.7375E2,1E0,9.1E0,1.64E1,1.9875E2,2.85E1,4.1666668E-2,8.306882E-2,1.29E2,2E0,1E0,7.571706E0,1.23E2,1.107455E1,3.5E0,4E0,5.9950193E-3,-3.667263E-2,6.919541E-2,-2.8539067E-2,-4.840883E-2,-5.6910194E-2,2.794246E-3,-4.2140532E-2,3.191962E-2,9.337924E-3,2.2274269E-2,-4.1523404E-2,-1.2389804E-2,1.1652175E-2,-4.4884127E-2,3.3702016E-2,2.8022764E-2,-3.9395686E-2,-3.767374E-2,-4.9790386E-3,-2.2875397E-2,6.84819E-3,1.9404666E-2,-2.3497853E-2,3.8572017E-2,2.1560157E-2,2.6969586E-2,-1.6619807E-2,2.1339884E-2,-4.8868846E-2,-3.1138534E-2,5.774125E-3],"split_indices":[4,381,381,54,54,102,35,45,104,36,46,102,103,312,66,100,71,39,94,11,106,14,216,38,79,79,46,38,46,51,103,0,0,0,0,0,0,0,0,0,0,0,0,0,0,0,0,0,0,0,0,0,0,0,0,0,0,0,0,0,0,0,0],"split_type":[0,0,0,0,0,0,0,0,0,0,0,0,0,0,0,0,0,0,0,0,0,0,0,0,0,0,0,0,0,0,0,0,0,0,0,0,0,0,0,0,0,0,0,0,0,0,0,0,0,0,0,0,0,0,0,0,0,0,0,0,0,0,0],"sum_hessian":[6.783997E4,1.5395917E4,5.2444047E4,1.1995374E4,3.4005422E3,3.0431475E4,2.2012574E4,1.09391E3,1.0901464E4,9.2138306E2,2.4791592E3,1.0130171E4,2.0301303E4,2.132702E4,6.8555457E2,4.7328058E2,6.206295E2,1.0062168E4,8.3929596E2,8.512583E2,7.0124725E1,2.1159814E3,3.6317795E2,1.118333E3,9.011838E3,1.0042021E4,1.025928E4,1.0459848E4,1.0867173E4,2.7687936E2,4.086752E2,3.6932663E2,1.0395393E2,1.2629246E1,6.080003E2,3.221644E3,6.8405244E3,1.7046144E2,6.6883453E2,6.1547186E2,2.3578647E2,2.6822226E1,4.33025E1,1.570603E3,5.4537836E2,3.4395032E2,1.9227636E1,1.0616132E3,5.6719788E1,5.1684727E3,3.8433655E3,3.8586255E3,6.1833965E3,9.628456E3,6.3082446E2,9.312931E3,1.1469166E3,1.0586701E4,2.8047125E2,2.5333522E2,2.354415E1,2.6010458E2,1.4857063E2],"tree_param":{"num_deleted":"0","num_feature":"428","num_nodes":"63","size_leaf_vector":"0"}},{"base_weights":[3.2778897E-3,-7.364001E-1,2.2990808E-1,-9.498419E-1,-2.528963E-2,-4.0311262E-2,5.907883E-1,-2.935934E-1,-1.0213937E0,1.3922748E-1,-4.4148216E-1,-2.1443364E-1,2.265474E-1,6.147337E-1,-1.6539069E-2,-1.0590415E-1,-5.704045E-1,-1.0791711E0,-8.1615025E-1,1.956066E-1,-6.0233104E-1,-2.7716732E-1,-8.5600257E-1,-1.6066149E-1,-9.050617E-1,3.2801715E-1,-2.565925E-1,7.1911335E-1,5.120072E-1,1.8793036E-1,-4.4334906E-1,4.2998664E-2,-9.710685E-3,-1.738341E-2,-4.1846942E-2,-5.4971904E-2,-4.1227724E-2,-4.591075E-2,-2.2514096E-2,2.0559734E-2,1.0907332E-3,3.040032E-3,-4.6207618E-2,-1.7834516E-2,3.6362167E-2,-4.4688504E-2,7.5274765E-2,-2.7588524E-3,-2.4111656E-2,-2.1411693E-2,-5.2665908E-2,-6.333897E-2,1.7770711E-2,1.6717411E-3,-3.18387E-2,3.815378E-2,2.5179392E-2,1.7482415E-2,3.1434935E-2,1.7215678E-2,-2.3264159E-2,-1.1495813E-2,-5.3271163E-2],"categories":[],"categories_nodes":[],"categories_segments":[],"categories_sizes":[],"default_left":[0,0,0,0,0,0,0,0,0,0,0,0,0,0,0,0,0,0,0,0,0,0,0,0,0,0,0,0,0,0,0,0,0,0,0,0,0,0,0,0,0,0,0,0,0,0,0,0,0,0,0,0,0,0,0,0,0,0,0,0,0,0,0],"id":22,"left_children":[1,3,5,7,9,11,13,15,17,19,21,23,25,27,29,31,33,35,37,39,41,43,45,47,49,51,53,55,57,59,61,-1,-1,-1,-1,-1,-1,-1,-1,-1,-1,-1,-1,-1,-1,-1,-1,-1,-1,-1,-1,-1,-1,-1,-1,-1,-1,-1,-1,-1,-1,-1,-1],"loss_changes":[1.1251715E4,2.3893096E3,5.010334E3,5.6823047E2,2.489681E2,1.3652606E3,3.1993652E2,6.185627E1,1.2857812E2,1.09075226E2,6.992557E1,6.601521E2,5.6884076E2,2.2657031E2,7.299189E1,6.084932E1,2.8283371E1,4.3038086E1,8.929138E1,9.076455E1,3.940528E1,5.929975E1,2.7383102E1,5.595687E2,9.03291E1,4.1939172E2,2.2211609E2,9.905957E1,2.0193823E2,5.793168E1,3.572196E1,0E0,0E0,0E0,0E0,0E0,0E0,0E0,0E0,0E0,0E0,0E0,0E0,0E0,0E0,0E0,0E0,0E0,0E0,0E0,0E0,0E0,0E0,0E0,0E0,0E0,0E0,0E0,0E0,0E0,0E0,0E0,0E0],"parents":[2147483647,0,0,1,1,2,2,3,3,4,4,5,5,6,6,7,7,8,8,9,9,10,10,11,11,12,12,13,13,14,14,15,15,16,16,17,17,18,18,19,19,20,20,21,21,22,22,23,23,24,24,25,25,26,26,27,27,28,28,29,29,30,30],"right_children":[2,4,6,8,10,12,14,16,18,20,22,24,26,28,30,32,34,36,38,40,42,44,46,48,50,52,54,56,58,60,62,-1,-1,-1,-1,-1,-1,-1,-1,-1,-1,-1,-1,-1,-1,-1,-1,-1,-1,-1,-1,-1,-1,-1,-1,-1,-1,-1,-1,-1,-1,-1,-1],"split_conditions":[1.5714285E0,1E0,1E0,1E0,9.0375E0,4E0,1.7391304E0,3.75E2,4.1666668E-2,3.271348E0,3E0,1.6521739E0,1E0,5.6756716E-3,2.9166667E0,1E0,5E-1,1E0,1.5E0,3.933909E-3,2.86E1,8.585398E-2,1.7314309E-1,2.225E1,7.250059E-1,4.4653126E1,2.2E1,3.7E1,3.5E0,2.4676225E-3,3.4947982E0,4.2998664E-2,-9.710685E-3,-1.738341E-2,-4.1846942E-2,-5.4971904E-2,-4.1227724E-2,-4.591075E-2,-2.2514096E-2,2.0559734E-2,1.0907332E-3,3.040032E-3,-4.6207618E-2,-1.7834516E-2,3.6362167E-2,-4.4688504E-2,7.5274765E-2,-2.7588524E-3,-2.4111656E-2,-2.1411693E-2,-5.2665908E-2,-6.333897E-2,1.7770711E-2,1.6717411E-3,-3.18387E-2,3.815378E-2,2.5179392E-2,1.7482415E-2,3.1434935E-2,1.7215678E-2,-2.3264159E-2,-1.1495813E-2,-5.3271163E-2],"split_indices":[4,72,72,54,1,103,16,45,14,12,51,16,54,312,16,60,37,104,40,228,134,347,395,2,12,3,29,29,25,181,12,0,0,0,0,0,0,0,0,0,0,0,0,0,0,0,0,0,0,0,0,0,0,0,0,0,0,0,0,0,0,0,0],"split_type":[0,0,0,0,0,0,0,0,0,0,0,0,0,0,0,0,0,0,0,0,0,0,0,0,0,0,0,0,0,0,0,0,0,0,0,0,0,0,0,0,0,0,0,0,0,0,0,0,0,0,0,0,0,0,0,0,0,0,0,0,0,0,0],"sum_hessian":[6.711895E4,1.5741015E4,5.1377938E4,1.2106792E4,3.6342234E3,2.9379838E4,2.1998102E4,1.1907485E3,1.0916043E4,2.6051118E3,1.0291116E3,1.777926E4,1.1600577E4,2.116366E4,8.3444073E2,7.104303E2,4.8031824E2,8.51481E3,2.4012332E3,2.4217292E3,1.8338269E2,7.381711E2,2.9094046E2,1.649611E4,1.2831506E3,9.58735E3,2.0132275E3,1.0494386E4,1.0669274E4,5.645464E2,2.6989435E2,5.8780956E1,6.5164935E2,2.629127E2,2.1740553E2,7.8839443E3,6.3086566E2,1.8762999E3,5.249331E2,1.0802805E3,1.3414487E3,6.0183056E1,1.2319964E2,6.846126E2,5.3558495E1,2.8697244E2,3.9680364E0,1.2422391E4,4.0737185E3,3.0525778E2,9.778928E2,1.6115585E2,9.426193E3,1.1425374E3,8.7069025E2,8.714326E3,1.78006E3,4.463279E3,6.2059956E3,4.5587912E2,1.08667274E2,2.0196873E2,6.7925606E1],"tree_param":{"num_deleted":"0","num_feature":"428","num_nodes":"63","size_leaf_vector":"0"}},{"base_weights":[1.3068537E-3,-7.4200183E-1,2.0680769E-1,-9.4738156E-1,-5.240708E-2,-4.866359E-2,5.566269E-1,-3.0612543E-1,-1.0149151E0,1.2787345E-1,-4.4539213E-1,-3.9155108E-1,9.7925626E-2,5.785135E-1,-5.943356E-2,-5.765283E-1,-1.21705085E-1,-1.0476497E0,-6.2913924E-1,-7.773136E-2,3.5676715E-1,-1.8365715E-1,-7.662776E-1,-4.6014774E-1,4.829657E-1,1.4760508E-1,-5.722044E-1,6.347692E-1,3.8395682E-1,2.0026848E-1,-1.070704E0,-3.1387154E-2,7.504747E-2,5.011291E-3,-2.479818E-2,-4.6491127E-2,-5.521704E-2,1.0905274E-2,-3.9273717E-2,-9.33458E-3,2.2270866E-2,3.973138E-3,3.1606354E-2,2.6782025E-2,-1.9965867E-2,-4.1330244E-2,3.3892065E-2,-3.5460796E-2,-5.4419744E-3,2.982351E-2,-2.2347799E-2,-1.6817686E-3,1.6664943E-2,-5.3908583E-2,-1.5381897E-2,-2.2154754E-2,3.223294E-2,2.2408796E-2,-1.2010091E-3,-1.4051208E-2,2.591431E-2,-2.4659585E-2,-8.507597E-2],"categories":[],"categories_nodes":[],"categories_segments":[],"categories_sizes":[],"default_left":[0,0,0,0,0,0,0,0,0,0,0,0,0,0,0,0,0,0,0,0,0,0,0,0,0,0,0,0,0,0,0,0,0,0,0,0,0,0,0,0,0,0,0,0,0,0,0,0,0,0,0,0,0,0,0,0,0,0,0,0,0,0,0],"id":23,"left_children":[1,3,5,7,9,11,13,15,17,19,21,23,25,27,29,31,33,35,37,39,41,43,45,47,49,51,53,55,57,59,61,-1,-1,-1,-1,-1,-1,-1,-1,-1,-1,-1,-1,-1,-1,-1,-1,-1,-1,-1,-1,-1,-1,-1,-1,-1,-1,-1,-1,-1,-1,-1,-1],"loss_changes":[1.013481E4,2.0352065E3,4.6452734E3,4.7920215E2,2.3376762E2,1.5100133E3,2.958379E2,5.2611557E1,1.2583789E2,1.0648865E2,8.700615E1,5.3994006E2,7.007134E2,2.316333E2,1.9812178E2,4.64899E1,5.232225E1,6.064258E1,1.0428198E2,6.805999E1,8.170169E1,8.906878E1,4.1142822E1,7.2994006E2,6.938884E1,6.594339E2,1.9412814E2,1.7544824E2,1.2457446E2,9.204674E1,5.5312958E1,0E0,0E0,0E0,0E0,0E0,0E0,0E0,0E0,0E0,0E0,0E0,0E0,0E0,0E0,0E0,0E0,0E0,0E0,0E0,0E0,0E0,0E0,0E0,0E0,0E0,0E0,0E0,0E0,0E0,0E0,0E0,0E0],"parents":[2147483647,0,0,1,1,2,2,3,3,4,4,5,5,6,6,7,7,8,8,9,9,10,10,11,11,12,12,13,13,14,14,15,15,16,16,17,17,18,18,19,19,20,20,21,21,22,22,23,23,24,24,25,25,26,26,27,27,28,28,29,29,30,30],"right_children":[2,4,6,8,10,12,14,16,18,20,22,24,26,28,30,32,34,36,38,40,42,44,46,48,50,52,54,56,58,60,62,-1,-1,-1,-1,-1,-1,-1,-1,-1,-1,-1,-1,-1,-1,-1,-1,-1,-1,-1,-1,-1,-1,-1,-1,-1,-1,-1,-1,-1,-1,-1,-1],"split_conditions":[1.4E0,1E0,1E0,1E0,1E0,6E0,1.2205414E1,2.2E1,1E0,2.5E-1,1.7E1,1E0,7.571706E0,6.25E-1,8E-1,1E0,2.5E1,1E0,1.5833333E1,1E0,2E0,8.281223E-3,1.5203847E2,2E0,1.32E2,4E0,1.04E2,1E0,1.23E2,4.167106E-2,1.3929834E-2,-3.1387154E-2,7.504747E-2,5.011291E-3,-2.479818E-2,-4.6491127E-2,-5.521704E-2,1.0905274E-2,-3.9273717E-2,-9.33458E-3,2.2270866E-2,3.973138E-3,3.1606354E-2,2.6782025E-2,-1.9965867E-2,-4.1330244E-2,3.3892065E-2,-3.5460796E-2,-5.4419744E-3,2.982351E-2,-2.2347799E-2,-1.6817686E-3,1.6664943E-2,-5.3908583E-2,-1.5381897E-2,-2.2154754E-2,3.223294E-2,2.2408796E-2,-1.2010091E-3,-1.4051208E-2,2.591431E-2,-2.4659585E-2,-8.507597E-2],"split_indices":[4,72,72,54,69,101,46,112,104,20,111,104,46,20,17,104,29,69,94,104,103,383,85,79,41,103,117,58,38,345,334,0,0,0,0,0,0,0,0,0,0,0,0,0,0,0,0,0,0,0,0,0,0,0,0,0,0,0,0,0,0,0,0],"split_type":[0,0,0,0,0,0,0,0,0,0,0,0,0,0,0,0,0,0,0,0,0,0,0,0,0,0,0,0,0,0,0,0,0,0,0,0,0,0,0,0,0,0,0,0,0,0,0,0,0,0,0,0,0,0,0,0,0,0,0,0,0,0,0],"sum_hessian":[6.634676E4,1.4369352E4,5.1977406E4,1.1071568E4,3.2977827E3,3.0040117E4,2.193729E4,1.0554279E3,1.0016141E4,2.2611587E3,1.0366241E3,8.995959E3,2.1044158E4,2.1184727E4,7.5256244E2,4.270896E2,6.2833826E2,9.231128E3,7.850132E2,1.1915256E3,1.0696329E3,5.717997E2,4.6482443E2,8.342084E3,6.53875E2,1.9592469E4,1.4516893E3,1.6431365E4,4.75336E3,5.9942694E2,1.531355E2,4.1749518E2,9.594417E0,3.9489966E2,2.3343863E2,3.0043225E3,6.226805E3,1.2222579E2,6.6278735E2,9.866678E2,2.0485783E2,5.335768E2,5.3605615E2,1.3155078E2,4.4024887E2,4.4659576E2,1.8228693E1,4.880746E3,3.4613376E3,5.830657E2,7.0809326E1,9.915541E3,9.676927E3,4.973887E2,9.5430066E2,1.4899142E2,1.6282374E4,4.106814E3,6.465463E2,2.3853735E2,3.6088962E2,8.087561E1,7.225989E1],"tree_param":{"num_deleted":"0","num_feature":"428","num_nodes":"63","size_leaf_vector":"0"}},{"base_weights":[-1.0128464E-4,-6.204998E-1,2.3501787E-1,-8.345803E-1,9.071349E-3,-9.62898E-3,5.644612E-1,-2.8969333E-1,-9.158618E-1,1.0282332E-1,-5.773259E-1,-1.9723146E-1,2.0704761E-1,5.859909E-1,-8.495927E-2,-1.0883894E-1,-5.565552E-1,-1.0083058E0,-5.321879E-1,3.0541855E-1,-7.141761E-2,-4.1660446E-1,-1.0462949E0,-1.3435699E-1,-8.914061E-1,-4.978418E-3,3.558248E-1,6.323773E-1,3.5892376E-1,2.5426608E-1,-8.065224E-1,-1.8416779E-3,-4.4125967E-2,-2.3905527E-2,-5.706335E-2,-3.155877E-2,-5.2098878E-2,-9.20274E-3,-3.6928773E-2,1.8048903E-2,-3.9181817E-2,-2.577014E-4,-3.5155457E-2,-1.0706244E-2,-4.860848E-2,-5.8090985E-2,3.761998E-2,3.469041E-3,-1.4272274E-2,-1.8693259E-2,-5.202607E-2,-4.8229393E-2,1.7214137E-3,2.2226691E-2,1.1334992E-3,3.3599336E-2,1.6386699E-2,2.5269115E-2,9.549181E-3,-2.9422317E-3,3.985373E-2,-2.277738E-2,-7.283949E-2],"categories":[],"categories_nodes":[],"categories_segments":[],"categories_sizes":[],"default_left":[0,0,0,0,0,0,0,0,0,0,0,0,0,0,0,0,0,0,0,0,0,0,0,0,0,0,0,0,0,0,0,0,0,0,0,0,0,0,0,0,0,0,0,0,0,0,0,0,0,0,0,0,0,0,0,0,0,0,0,0,0,0,0],"id":24,"left_children":[1,3,5,7,9,11,13,15,17,19,21,23,25,27,29,31,33,35,37,39,41,43,45,47,49,51,53,55,57,59,61,-1,-1,-1,-1,-1,-1,-1,-1,-1,-1,-1,-1,-1,-1,-1,-1,-1,-1,-1,-1,-1,-1,-1,-1,-1,-1,-1,-1,-1,-1,-1,-1],"loss_changes":[9.567337E3,2.4294868E3,3.8334956E3,5.9549414E2,2.5157872E2,1.1095753E3,2.8344873E2,8.42832E1,4.146211E2,1.3929248E2,4.710829E1,6.384073E2,3.9956897E2,2.0641504E2,1.596195E2,5.8066093E1,3.1822617E1,1.1910547E2,1.6330804E2,1.1067328E2,8.8814735E1,5.2824806E1,3.4191513E1,4.129931E2,9.336499E1,1.9758305E2,2.199773E2,1.9634033E2,8.181613E1,7.54692E1,4.692375E1,0E0,0E0,0E0,0E0,0E0,0E0,0E0,0E0,0E0,0E0,0E0,0E0,0E0,0E0,0E0,0E0,0E0,0E0,0E0,0E0,0E0,0E0,0E0,0E0,0E0,0E0,0E0,0E0,0E0,0E0,0E0,0E0],"parents":[2147483647,0,0,1,1,2,2,3,3,4,4,5,5,6,6,7,7,8,8,9,9,10,10,11,11,12,12,13,13,14,14,15,15,16,16,17,17,18,18,19,19,20,20,21,21,22,22,23,23,24,24,25,25,26,26,27,27,28,28,29,29,30,30],"right_children":[2,4,6,8,10,12,14,16,18,20,22,24,26,28,30,32,34,36,38,40,42,44,46,48,50,52,54,56,58,60,62,-1,-1,-1,-1,-1,-1,-1,-1,-1,-1,-1,-1,-1,-1,-1,-1,-1,-1,-1,-1,-1,-1,-1,-1,-1,-1,-1,-1,-1,-1,-1,-1],"split_conditions":[2.1666667E0,1E0,1E0,1E0,1.125E0,5E0,1.2205414E1,3.75E2,1.1666666E0,5.7783956E-3,1.4418284E-2,1.1818181E0,1.04E2,1.060197E-2,1.7E0,1E0,9.971667E1,1E0,1.9E1,1.33E2,1.3E1,2.5238094E0,4.6376612E-2,1.9086956E1,6.1682904E-1,9.623333E1,3.89E1,1.23E2,2.4248818E-3,2.4765793E-2,3.896487E-3,-1.8416779E-3,-4.4125967E-2,-2.3905527E-2,-5.706335E-2,-3.155877E-2,-5.2098878E-2,-9.20274E-3,-3.6928773E-2,1.8048903E-2,-3.9181817E-2,-2.577014E-4,